<CCTP>
	<NAME>Transit Test Route Red</NAME>
	<START>19c8ce62-c2ad-4d39-aaef-b17d727308c9</START>
	<END>265f596b-4b99-445a-8f54-8f78bcf5549b</END>
	<RISK-BOUND>1.0</RISK-BOUND>
	<RISK-BOUND-RELAX-COST>0.0</RISK-BOUND-RELAX-COST>
	<EVENT-UNIT>millisecond</EVENT-UNIT>
	<DURATION-UNIT>minute</DURATION-UNIT>
	<CONSTRAINT>
		<START>92758d11-6c17-4ac3-aa2a-abb9951a9adc</START>
		<END>626d3af3-0cda-44c8-acf0-cf575119e333</END>
		<ID>3b01e3f4-08bf-431d-a62f-e70dba1d1322</ID>
		<NAME>From 70065 to 70067 (Harvard - Inbound)</NAME>
		<LOWERBOUND>0.8166666666666667</LOWERBOUND>
		<UPPERBOUND>2.4833333333333334</UPPERBOUND>
		<LB-RELAX-COST-RATIO>0.0</LB-RELAX-COST-RATIO>
		<UB-RELAX-COST-RATIO>0.0</UB-RELAX-COST-RATIO>
		<COST>0.0</COST>
		<TYPE>Uncontrollable;Activity</TYPE>
		<MEAN>0.0</MEAN>
		<DISTRIBUTION>Normal</DISTRIBUTION>
		<VARIANCE>0.0</VARIANCE>
		<HISTORICAL-DURATIONS>
			<DURATION>0.8166666666666667</DURATION>
			<DURATION>1.4666666666666666</DURATION>
			<DURATION>1.4666666666666666</DURATION>
			<DURATION>1.5</DURATION>
			<DURATION>1.5</DURATION>
			<DURATION>1.5</DURATION>
			<DURATION>1.5</DURATION>
			<DURATION>1.5166666666666666</DURATION>
			<DURATION>1.5166666666666666</DURATION>
			<DURATION>1.5166666666666666</DURATION>
			<DURATION>1.5333333333333334</DURATION>
			<DURATION>1.5333333333333334</DURATION>
			<DURATION>1.5333333333333334</DURATION>
			<DURATION>1.5333333333333334</DURATION>
			<DURATION>1.5333333333333334</DURATION>
			<DURATION>1.5333333333333334</DURATION>
			<DURATION>1.55</DURATION>
			<DURATION>1.55</DURATION>
			<DURATION>1.55</DURATION>
			<DURATION>1.55</DURATION>
			<DURATION>1.55</DURATION>
			<DURATION>1.5666666666666667</DURATION>
			<DURATION>1.5666666666666667</DURATION>
			<DURATION>1.5666666666666667</DURATION>
			<DURATION>1.5666666666666667</DURATION>
			<DURATION>1.5666666666666667</DURATION>
			<DURATION>1.5666666666666667</DURATION>
			<DURATION>1.5666666666666667</DURATION>
			<DURATION>1.5666666666666667</DURATION>
			<DURATION>1.5833333333333333</DURATION>
			<DURATION>1.5833333333333333</DURATION>
			<DURATION>1.5833333333333333</DURATION>
			<DURATION>1.5833333333333333</DURATION>
			<DURATION>1.5833333333333333</DURATION>
			<DURATION>1.5833333333333333</DURATION>
			<DURATION>1.6</DURATION>
			<DURATION>1.6</DURATION>
			<DURATION>1.6</DURATION>
			<DURATION>1.6</DURATION>
			<DURATION>1.6</DURATION>
			<DURATION>1.6</DURATION>
			<DURATION>1.6</DURATION>
			<DURATION>1.6</DURATION>
			<DURATION>1.6</DURATION>
			<DURATION>1.6</DURATION>
			<DURATION>1.6</DURATION>
			<DURATION>1.6166666666666667</DURATION>
			<DURATION>1.6166666666666667</DURATION>
			<DURATION>1.6166666666666667</DURATION>
			<DURATION>1.6333333333333333</DURATION>
			<DURATION>1.6333333333333333</DURATION>
			<DURATION>1.6333333333333333</DURATION>
			<DURATION>1.6333333333333333</DURATION>
			<DURATION>1.6333333333333333</DURATION>
			<DURATION>1.6333333333333333</DURATION>
			<DURATION>1.6333333333333333</DURATION>
			<DURATION>1.65</DURATION>
			<DURATION>1.6666666666666667</DURATION>
			<DURATION>1.6666666666666667</DURATION>
			<DURATION>1.7333333333333334</DURATION>
			<DURATION>1.7333333333333334</DURATION>
			<DURATION>1.75</DURATION>
			<DURATION>1.75</DURATION>
			<DURATION>1.75</DURATION>
			<DURATION>1.75</DURATION>
			<DURATION>1.7666666666666666</DURATION>
			<DURATION>1.7666666666666666</DURATION>
			<DURATION>1.7666666666666666</DURATION>
			<DURATION>1.7666666666666666</DURATION>
			<DURATION>1.7666666666666666</DURATION>
			<DURATION>1.7666666666666666</DURATION>
			<DURATION>1.7666666666666666</DURATION>
			<DURATION>1.7833333333333334</DURATION>
			<DURATION>1.7833333333333334</DURATION>
			<DURATION>1.7833333333333334</DURATION>
			<DURATION>1.7833333333333334</DURATION>
			<DURATION>1.7833333333333334</DURATION>
			<DURATION>1.7833333333333334</DURATION>
			<DURATION>1.8</DURATION>
			<DURATION>1.8</DURATION>
			<DURATION>1.8</DURATION>
			<DURATION>1.8</DURATION>
			<DURATION>1.8</DURATION>
			<DURATION>1.8</DURATION>
			<DURATION>1.8</DURATION>
			<DURATION>1.8</DURATION>
			<DURATION>1.8</DURATION>
			<DURATION>1.8166666666666667</DURATION>
			<DURATION>1.8166666666666667</DURATION>
			<DURATION>1.8166666666666667</DURATION>
			<DURATION>1.8166666666666667</DURATION>
			<DURATION>1.8166666666666667</DURATION>
			<DURATION>1.8166666666666667</DURATION>
			<DURATION>1.8166666666666667</DURATION>
			<DURATION>1.8166666666666667</DURATION>
			<DURATION>1.8166666666666667</DURATION>
			<DURATION>1.8166666666666667</DURATION>
			<DURATION>1.8166666666666667</DURATION>
			<DURATION>1.8166666666666667</DURATION>
			<DURATION>1.8166666666666667</DURATION>
			<DURATION>1.8166666666666667</DURATION>
			<DURATION>1.8166666666666667</DURATION>
			<DURATION>1.8166666666666667</DURATION>
			<DURATION>1.8166666666666667</DURATION>
			<DURATION>1.8166666666666667</DURATION>
			<DURATION>1.8166666666666667</DURATION>
			<DURATION>1.8166666666666667</DURATION>
			<DURATION>1.8166666666666667</DURATION>
			<DURATION>1.8166666666666667</DURATION>
			<DURATION>1.8166666666666667</DURATION>
			<DURATION>1.8166666666666667</DURATION>
			<DURATION>1.8166666666666667</DURATION>
			<DURATION>1.8166666666666667</DURATION>
			<DURATION>1.8166666666666667</DURATION>
			<DURATION>1.8333333333333333</DURATION>
			<DURATION>1.8333333333333333</DURATION>
			<DURATION>1.8333333333333333</DURATION>
			<DURATION>1.8333333333333333</DURATION>
			<DURATION>1.8333333333333333</DURATION>
			<DURATION>1.8333333333333333</DURATION>
			<DURATION>1.8333333333333333</DURATION>
			<DURATION>1.8333333333333333</DURATION>
			<DURATION>1.8333333333333333</DURATION>
			<DURATION>1.8333333333333333</DURATION>
			<DURATION>1.8333333333333333</DURATION>
			<DURATION>1.8333333333333333</DURATION>
			<DURATION>1.8333333333333333</DURATION>
			<DURATION>1.8333333333333333</DURATION>
			<DURATION>1.8333333333333333</DURATION>
			<DURATION>1.8333333333333333</DURATION>
			<DURATION>1.8333333333333333</DURATION>
			<DURATION>1.8333333333333333</DURATION>
			<DURATION>1.8333333333333333</DURATION>
			<DURATION>1.8333333333333333</DURATION>
			<DURATION>1.8333333333333333</DURATION>
			<DURATION>1.8333333333333333</DURATION>
			<DURATION>1.8333333333333333</DURATION>
			<DURATION>1.8333333333333333</DURATION>
			<DURATION>1.8333333333333333</DURATION>
			<DURATION>1.8333333333333333</DURATION>
			<DURATION>1.8333333333333333</DURATION>
			<DURATION>1.8333333333333333</DURATION>
			<DURATION>1.8333333333333333</DURATION>
			<DURATION>1.8333333333333333</DURATION>
			<DURATION>1.8333333333333333</DURATION>
			<DURATION>1.8333333333333333</DURATION>
			<DURATION>1.8333333333333333</DURATION>
			<DURATION>1.8333333333333333</DURATION>
			<DURATION>1.8333333333333333</DURATION>
			<DURATION>1.85</DURATION>
			<DURATION>1.85</DURATION>
			<DURATION>1.85</DURATION>
			<DURATION>1.85</DURATION>
			<DURATION>1.85</DURATION>
			<DURATION>1.85</DURATION>
			<DURATION>1.85</DURATION>
			<DURATION>1.85</DURATION>
			<DURATION>1.85</DURATION>
			<DURATION>1.85</DURATION>
			<DURATION>1.85</DURATION>
			<DURATION>1.85</DURATION>
			<DURATION>1.85</DURATION>
			<DURATION>1.85</DURATION>
			<DURATION>1.85</DURATION>
			<DURATION>1.85</DURATION>
			<DURATION>1.85</DURATION>
			<DURATION>1.85</DURATION>
			<DURATION>1.85</DURATION>
			<DURATION>1.85</DURATION>
			<DURATION>1.85</DURATION>
			<DURATION>1.85</DURATION>
			<DURATION>1.85</DURATION>
			<DURATION>1.85</DURATION>
			<DURATION>1.85</DURATION>
			<DURATION>1.85</DURATION>
			<DURATION>1.85</DURATION>
			<DURATION>1.85</DURATION>
			<DURATION>1.85</DURATION>
			<DURATION>1.85</DURATION>
			<DURATION>1.85</DURATION>
			<DURATION>1.85</DURATION>
			<DURATION>1.85</DURATION>
			<DURATION>1.85</DURATION>
			<DURATION>1.85</DURATION>
			<DURATION>1.85</DURATION>
			<DURATION>1.85</DURATION>
			<DURATION>1.85</DURATION>
			<DURATION>1.85</DURATION>
			<DURATION>1.85</DURATION>
			<DURATION>1.85</DURATION>
			<DURATION>1.85</DURATION>
			<DURATION>1.85</DURATION>
			<DURATION>1.85</DURATION>
			<DURATION>1.85</DURATION>
			<DURATION>1.85</DURATION>
			<DURATION>1.85</DURATION>
			<DURATION>1.85</DURATION>
			<DURATION>1.85</DURATION>
			<DURATION>1.85</DURATION>
			<DURATION>1.85</DURATION>
			<DURATION>1.85</DURATION>
			<DURATION>1.85</DURATION>
			<DURATION>1.85</DURATION>
			<DURATION>1.85</DURATION>
			<DURATION>1.85</DURATION>
			<DURATION>1.85</DURATION>
			<DURATION>1.85</DURATION>
			<DURATION>1.85</DURATION>
			<DURATION>1.85</DURATION>
			<DURATION>1.85</DURATION>
			<DURATION>1.85</DURATION>
			<DURATION>1.85</DURATION>
			<DURATION>1.85</DURATION>
			<DURATION>1.85</DURATION>
			<DURATION>1.85</DURATION>
			<DURATION>1.85</DURATION>
			<DURATION>1.85</DURATION>
			<DURATION>1.85</DURATION>
			<DURATION>1.85</DURATION>
			<DURATION>1.85</DURATION>
			<DURATION>1.85</DURATION>
			<DURATION>1.85</DURATION>
			<DURATION>1.85</DURATION>
			<DURATION>1.85</DURATION>
			<DURATION>1.85</DURATION>
			<DURATION>1.85</DURATION>
			<DURATION>1.85</DURATION>
			<DURATION>1.85</DURATION>
			<DURATION>1.85</DURATION>
			<DURATION>1.8666666666666667</DURATION>
			<DURATION>1.8666666666666667</DURATION>
			<DURATION>1.8666666666666667</DURATION>
			<DURATION>1.8666666666666667</DURATION>
			<DURATION>1.8666666666666667</DURATION>
			<DURATION>1.8666666666666667</DURATION>
			<DURATION>1.8666666666666667</DURATION>
			<DURATION>1.8666666666666667</DURATION>
			<DURATION>1.8666666666666667</DURATION>
			<DURATION>1.8666666666666667</DURATION>
			<DURATION>1.8666666666666667</DURATION>
			<DURATION>1.8666666666666667</DURATION>
			<DURATION>1.8666666666666667</DURATION>
			<DURATION>1.8666666666666667</DURATION>
			<DURATION>1.8666666666666667</DURATION>
			<DURATION>1.8666666666666667</DURATION>
			<DURATION>1.8666666666666667</DURATION>
			<DURATION>1.8666666666666667</DURATION>
			<DURATION>1.8666666666666667</DURATION>
			<DURATION>1.8666666666666667</DURATION>
			<DURATION>1.8666666666666667</DURATION>
			<DURATION>1.8666666666666667</DURATION>
			<DURATION>1.8666666666666667</DURATION>
			<DURATION>1.8666666666666667</DURATION>
			<DURATION>1.8666666666666667</DURATION>
			<DURATION>1.8666666666666667</DURATION>
			<DURATION>1.8666666666666667</DURATION>
			<DURATION>1.8666666666666667</DURATION>
			<DURATION>1.8666666666666667</DURATION>
			<DURATION>1.8666666666666667</DURATION>
			<DURATION>1.8666666666666667</DURATION>
			<DURATION>1.8666666666666667</DURATION>
			<DURATION>1.8666666666666667</DURATION>
			<DURATION>1.8666666666666667</DURATION>
			<DURATION>1.8666666666666667</DURATION>
			<DURATION>1.8666666666666667</DURATION>
			<DURATION>1.8666666666666667</DURATION>
			<DURATION>1.8666666666666667</DURATION>
			<DURATION>1.8666666666666667</DURATION>
			<DURATION>1.8666666666666667</DURATION>
			<DURATION>1.8666666666666667</DURATION>
			<DURATION>1.8666666666666667</DURATION>
			<DURATION>1.8666666666666667</DURATION>
			<DURATION>1.8666666666666667</DURATION>
			<DURATION>1.8666666666666667</DURATION>
			<DURATION>1.8666666666666667</DURATION>
			<DURATION>1.8666666666666667</DURATION>
			<DURATION>1.8666666666666667</DURATION>
			<DURATION>1.8666666666666667</DURATION>
			<DURATION>1.8666666666666667</DURATION>
			<DURATION>1.8666666666666667</DURATION>
			<DURATION>1.8666666666666667</DURATION>
			<DURATION>1.8666666666666667</DURATION>
			<DURATION>1.8666666666666667</DURATION>
			<DURATION>1.8666666666666667</DURATION>
			<DURATION>1.8666666666666667</DURATION>
			<DURATION>1.8666666666666667</DURATION>
			<DURATION>1.8666666666666667</DURATION>
			<DURATION>1.8666666666666667</DURATION>
			<DURATION>1.8666666666666667</DURATION>
			<DURATION>1.8666666666666667</DURATION>
			<DURATION>1.8666666666666667</DURATION>
			<DURATION>1.8666666666666667</DURATION>
			<DURATION>1.8666666666666667</DURATION>
			<DURATION>1.8666666666666667</DURATION>
			<DURATION>1.8666666666666667</DURATION>
			<DURATION>1.8666666666666667</DURATION>
			<DURATION>1.8666666666666667</DURATION>
			<DURATION>1.8666666666666667</DURATION>
			<DURATION>1.8666666666666667</DURATION>
			<DURATION>1.8666666666666667</DURATION>
			<DURATION>1.8666666666666667</DURATION>
			<DURATION>1.8666666666666667</DURATION>
			<DURATION>1.8666666666666667</DURATION>
			<DURATION>1.8666666666666667</DURATION>
			<DURATION>1.8666666666666667</DURATION>
			<DURATION>1.8666666666666667</DURATION>
			<DURATION>1.8666666666666667</DURATION>
			<DURATION>1.8666666666666667</DURATION>
			<DURATION>1.8666666666666667</DURATION>
			<DURATION>1.8666666666666667</DURATION>
			<DURATION>1.8666666666666667</DURATION>
			<DURATION>1.8666666666666667</DURATION>
			<DURATION>1.8666666666666667</DURATION>
			<DURATION>1.8833333333333333</DURATION>
			<DURATION>1.8833333333333333</DURATION>
			<DURATION>1.8833333333333333</DURATION>
			<DURATION>1.8833333333333333</DURATION>
			<DURATION>1.8833333333333333</DURATION>
			<DURATION>1.8833333333333333</DURATION>
			<DURATION>1.8833333333333333</DURATION>
			<DURATION>1.8833333333333333</DURATION>
			<DURATION>1.8833333333333333</DURATION>
			<DURATION>1.8833333333333333</DURATION>
			<DURATION>1.8833333333333333</DURATION>
			<DURATION>1.8833333333333333</DURATION>
			<DURATION>1.8833333333333333</DURATION>
			<DURATION>1.8833333333333333</DURATION>
			<DURATION>1.8833333333333333</DURATION>
			<DURATION>1.8833333333333333</DURATION>
			<DURATION>1.8833333333333333</DURATION>
			<DURATION>1.8833333333333333</DURATION>
			<DURATION>1.8833333333333333</DURATION>
			<DURATION>1.8833333333333333</DURATION>
			<DURATION>1.8833333333333333</DURATION>
			<DURATION>1.8833333333333333</DURATION>
			<DURATION>1.8833333333333333</DURATION>
			<DURATION>1.8833333333333333</DURATION>
			<DURATION>1.8833333333333333</DURATION>
			<DURATION>1.8833333333333333</DURATION>
			<DURATION>1.8833333333333333</DURATION>
			<DURATION>1.8833333333333333</DURATION>
			<DURATION>1.8833333333333333</DURATION>
			<DURATION>1.8833333333333333</DURATION>
			<DURATION>1.8833333333333333</DURATION>
			<DURATION>1.8833333333333333</DURATION>
			<DURATION>1.8833333333333333</DURATION>
			<DURATION>1.8833333333333333</DURATION>
			<DURATION>1.8833333333333333</DURATION>
			<DURATION>1.8833333333333333</DURATION>
			<DURATION>1.8833333333333333</DURATION>
			<DURATION>1.8833333333333333</DURATION>
			<DURATION>1.8833333333333333</DURATION>
			<DURATION>1.8833333333333333</DURATION>
			<DURATION>1.8833333333333333</DURATION>
			<DURATION>1.8833333333333333</DURATION>
			<DURATION>1.8833333333333333</DURATION>
			<DURATION>1.8833333333333333</DURATION>
			<DURATION>1.8833333333333333</DURATION>
			<DURATION>1.8833333333333333</DURATION>
			<DURATION>1.8833333333333333</DURATION>
			<DURATION>1.8833333333333333</DURATION>
			<DURATION>1.8833333333333333</DURATION>
			<DURATION>1.8833333333333333</DURATION>
			<DURATION>1.8833333333333333</DURATION>
			<DURATION>1.8833333333333333</DURATION>
			<DURATION>1.8833333333333333</DURATION>
			<DURATION>1.8833333333333333</DURATION>
			<DURATION>1.8833333333333333</DURATION>
			<DURATION>1.8833333333333333</DURATION>
			<DURATION>1.8833333333333333</DURATION>
			<DURATION>1.8833333333333333</DURATION>
			<DURATION>1.8833333333333333</DURATION>
			<DURATION>1.8833333333333333</DURATION>
			<DURATION>1.9</DURATION>
			<DURATION>1.9</DURATION>
			<DURATION>1.9</DURATION>
			<DURATION>1.9</DURATION>
			<DURATION>1.9</DURATION>
			<DURATION>1.9</DURATION>
			<DURATION>1.9</DURATION>
			<DURATION>1.9</DURATION>
			<DURATION>1.9</DURATION>
			<DURATION>1.9</DURATION>
			<DURATION>1.9</DURATION>
			<DURATION>1.9</DURATION>
			<DURATION>1.9</DURATION>
			<DURATION>1.9</DURATION>
			<DURATION>1.9</DURATION>
			<DURATION>1.9</DURATION>
			<DURATION>1.9</DURATION>
			<DURATION>1.9</DURATION>
			<DURATION>1.9</DURATION>
			<DURATION>1.9</DURATION>
			<DURATION>1.9</DURATION>
			<DURATION>1.9</DURATION>
			<DURATION>1.9</DURATION>
			<DURATION>1.9</DURATION>
			<DURATION>1.9</DURATION>
			<DURATION>1.9</DURATION>
			<DURATION>1.9</DURATION>
			<DURATION>1.9</DURATION>
			<DURATION>1.9</DURATION>
			<DURATION>1.9</DURATION>
			<DURATION>1.9</DURATION>
			<DURATION>1.9</DURATION>
			<DURATION>1.9</DURATION>
			<DURATION>1.9</DURATION>
			<DURATION>1.9</DURATION>
			<DURATION>1.9</DURATION>
			<DURATION>1.9</DURATION>
			<DURATION>1.9</DURATION>
			<DURATION>1.9</DURATION>
			<DURATION>1.9</DURATION>
			<DURATION>1.9</DURATION>
			<DURATION>1.9</DURATION>
			<DURATION>1.9</DURATION>
			<DURATION>1.9</DURATION>
			<DURATION>1.9</DURATION>
			<DURATION>1.9</DURATION>
			<DURATION>1.9</DURATION>
			<DURATION>1.9</DURATION>
			<DURATION>1.9</DURATION>
			<DURATION>1.9</DURATION>
			<DURATION>1.9</DURATION>
			<DURATION>1.9</DURATION>
			<DURATION>1.9</DURATION>
			<DURATION>1.9</DURATION>
			<DURATION>1.9166666666666667</DURATION>
			<DURATION>1.9166666666666667</DURATION>
			<DURATION>1.9166666666666667</DURATION>
			<DURATION>1.9166666666666667</DURATION>
			<DURATION>1.9166666666666667</DURATION>
			<DURATION>1.9166666666666667</DURATION>
			<DURATION>1.9166666666666667</DURATION>
			<DURATION>1.9166666666666667</DURATION>
			<DURATION>1.9166666666666667</DURATION>
			<DURATION>1.9166666666666667</DURATION>
			<DURATION>1.9166666666666667</DURATION>
			<DURATION>1.9166666666666667</DURATION>
			<DURATION>1.9166666666666667</DURATION>
			<DURATION>1.9166666666666667</DURATION>
			<DURATION>1.9166666666666667</DURATION>
			<DURATION>1.9166666666666667</DURATION>
			<DURATION>1.9166666666666667</DURATION>
			<DURATION>1.9166666666666667</DURATION>
			<DURATION>1.9166666666666667</DURATION>
			<DURATION>1.9166666666666667</DURATION>
			<DURATION>1.9166666666666667</DURATION>
			<DURATION>1.9166666666666667</DURATION>
			<DURATION>1.9166666666666667</DURATION>
			<DURATION>1.9166666666666667</DURATION>
			<DURATION>1.9166666666666667</DURATION>
			<DURATION>1.9166666666666667</DURATION>
			<DURATION>1.9166666666666667</DURATION>
			<DURATION>1.9166666666666667</DURATION>
			<DURATION>1.9166666666666667</DURATION>
			<DURATION>1.9166666666666667</DURATION>
			<DURATION>1.9166666666666667</DURATION>
			<DURATION>1.9166666666666667</DURATION>
			<DURATION>1.9166666666666667</DURATION>
			<DURATION>1.9166666666666667</DURATION>
			<DURATION>1.9166666666666667</DURATION>
			<DURATION>1.9166666666666667</DURATION>
			<DURATION>1.9166666666666667</DURATION>
			<DURATION>1.9166666666666667</DURATION>
			<DURATION>1.9166666666666667</DURATION>
			<DURATION>1.9166666666666667</DURATION>
			<DURATION>1.9166666666666667</DURATION>
			<DURATION>1.9166666666666667</DURATION>
			<DURATION>1.9166666666666667</DURATION>
			<DURATION>1.9166666666666667</DURATION>
			<DURATION>1.9166666666666667</DURATION>
			<DURATION>1.9166666666666667</DURATION>
			<DURATION>1.9166666666666667</DURATION>
			<DURATION>1.9166666666666667</DURATION>
			<DURATION>1.9166666666666667</DURATION>
			<DURATION>1.9166666666666667</DURATION>
			<DURATION>1.9333333333333333</DURATION>
			<DURATION>1.9333333333333333</DURATION>
			<DURATION>1.9333333333333333</DURATION>
			<DURATION>1.9333333333333333</DURATION>
			<DURATION>1.9333333333333333</DURATION>
			<DURATION>1.9333333333333333</DURATION>
			<DURATION>1.9333333333333333</DURATION>
			<DURATION>1.9333333333333333</DURATION>
			<DURATION>1.9333333333333333</DURATION>
			<DURATION>1.9333333333333333</DURATION>
			<DURATION>1.9333333333333333</DURATION>
			<DURATION>1.9333333333333333</DURATION>
			<DURATION>1.9333333333333333</DURATION>
			<DURATION>1.9333333333333333</DURATION>
			<DURATION>1.9333333333333333</DURATION>
			<DURATION>1.9333333333333333</DURATION>
			<DURATION>1.9333333333333333</DURATION>
			<DURATION>1.9333333333333333</DURATION>
			<DURATION>1.9333333333333333</DURATION>
			<DURATION>1.9333333333333333</DURATION>
			<DURATION>1.9333333333333333</DURATION>
			<DURATION>1.9333333333333333</DURATION>
			<DURATION>1.9333333333333333</DURATION>
			<DURATION>1.9333333333333333</DURATION>
			<DURATION>1.9333333333333333</DURATION>
			<DURATION>1.9333333333333333</DURATION>
			<DURATION>1.9333333333333333</DURATION>
			<DURATION>1.95</DURATION>
			<DURATION>1.95</DURATION>
			<DURATION>1.95</DURATION>
			<DURATION>1.95</DURATION>
			<DURATION>1.95</DURATION>
			<DURATION>1.95</DURATION>
			<DURATION>1.95</DURATION>
			<DURATION>1.95</DURATION>
			<DURATION>1.95</DURATION>
			<DURATION>1.95</DURATION>
			<DURATION>1.95</DURATION>
			<DURATION>1.95</DURATION>
			<DURATION>1.95</DURATION>
			<DURATION>1.95</DURATION>
			<DURATION>1.95</DURATION>
			<DURATION>1.95</DURATION>
			<DURATION>1.95</DURATION>
			<DURATION>1.95</DURATION>
			<DURATION>1.95</DURATION>
			<DURATION>1.9666666666666666</DURATION>
			<DURATION>1.9666666666666666</DURATION>
			<DURATION>1.9666666666666666</DURATION>
			<DURATION>1.9666666666666666</DURATION>
			<DURATION>1.9666666666666666</DURATION>
			<DURATION>1.9666666666666666</DURATION>
			<DURATION>1.9666666666666666</DURATION>
			<DURATION>1.9666666666666666</DURATION>
			<DURATION>1.9666666666666666</DURATION>
			<DURATION>1.9666666666666666</DURATION>
			<DURATION>1.9666666666666666</DURATION>
			<DURATION>1.9666666666666666</DURATION>
			<DURATION>1.9666666666666666</DURATION>
			<DURATION>1.9666666666666666</DURATION>
			<DURATION>1.9666666666666666</DURATION>
			<DURATION>1.9666666666666666</DURATION>
			<DURATION>1.9666666666666666</DURATION>
			<DURATION>1.9666666666666666</DURATION>
			<DURATION>1.9666666666666666</DURATION>
			<DURATION>1.9666666666666666</DURATION>
			<DURATION>1.9833333333333334</DURATION>
			<DURATION>1.9833333333333334</DURATION>
			<DURATION>1.9833333333333334</DURATION>
			<DURATION>1.9833333333333334</DURATION>
			<DURATION>1.9833333333333334</DURATION>
			<DURATION>1.9833333333333334</DURATION>
			<DURATION>1.9833333333333334</DURATION>
			<DURATION>1.9833333333333334</DURATION>
			<DURATION>1.9833333333333334</DURATION>
			<DURATION>1.9833333333333334</DURATION>
			<DURATION>1.9833333333333334</DURATION>
			<DURATION>1.9833333333333334</DURATION>
			<DURATION>1.9833333333333334</DURATION>
			<DURATION>1.9833333333333334</DURATION>
			<DURATION>1.9833333333333334</DURATION>
			<DURATION>1.9833333333333334</DURATION>
			<DURATION>1.9833333333333334</DURATION>
			<DURATION>2.0</DURATION>
			<DURATION>2.0</DURATION>
			<DURATION>2.0</DURATION>
			<DURATION>2.0</DURATION>
			<DURATION>2.0</DURATION>
			<DURATION>2.0</DURATION>
			<DURATION>2.0</DURATION>
			<DURATION>2.0</DURATION>
			<DURATION>2.0</DURATION>
			<DURATION>2.0</DURATION>
			<DURATION>2.0</DURATION>
			<DURATION>2.0</DURATION>
			<DURATION>2.0166666666666666</DURATION>
			<DURATION>2.0166666666666666</DURATION>
			<DURATION>2.0166666666666666</DURATION>
			<DURATION>2.0166666666666666</DURATION>
			<DURATION>2.0166666666666666</DURATION>
			<DURATION>2.0166666666666666</DURATION>
			<DURATION>2.0166666666666666</DURATION>
			<DURATION>2.0166666666666666</DURATION>
			<DURATION>2.033333333333333</DURATION>
			<DURATION>2.033333333333333</DURATION>
			<DURATION>2.033333333333333</DURATION>
			<DURATION>2.033333333333333</DURATION>
			<DURATION>2.05</DURATION>
			<DURATION>2.05</DURATION>
			<DURATION>2.05</DURATION>
			<DURATION>2.05</DURATION>
			<DURATION>2.05</DURATION>
			<DURATION>2.066666666666667</DURATION>
			<DURATION>2.066666666666667</DURATION>
			<DURATION>2.066666666666667</DURATION>
			<DURATION>2.066666666666667</DURATION>
			<DURATION>2.066666666666667</DURATION>
			<DURATION>2.0833333333333335</DURATION>
			<DURATION>2.0833333333333335</DURATION>
			<DURATION>2.0833333333333335</DURATION>
			<DURATION>2.0833333333333335</DURATION>
			<DURATION>2.1</DURATION>
			<DURATION>2.1</DURATION>
			<DURATION>2.1</DURATION>
			<DURATION>2.1166666666666667</DURATION>
			<DURATION>2.1166666666666667</DURATION>
			<DURATION>2.1166666666666667</DURATION>
			<DURATION>2.1166666666666667</DURATION>
			<DURATION>2.1166666666666667</DURATION>
			<DURATION>2.1333333333333333</DURATION>
			<DURATION>2.1333333333333333</DURATION>
			<DURATION>2.15</DURATION>
			<DURATION>2.1666666666666665</DURATION>
			<DURATION>2.1666666666666665</DURATION>
			<DURATION>2.1666666666666665</DURATION>
			<DURATION>2.1666666666666665</DURATION>
			<DURATION>2.1666666666666665</DURATION>
			<DURATION>2.2333333333333334</DURATION>
			<DURATION>2.25</DURATION>
			<DURATION>2.3</DURATION>
			<DURATION>2.3666666666666667</DURATION>
			<DURATION>2.4833333333333334</DURATION>
			<DURATION>2.816666666666667</DURATION>
			<DURATION>2.8333333333333335</DURATION>
			<DURATION>2.9166666666666665</DURATION>
			<DURATION>2.95</DURATION>
			<DURATION>3.033333333333333</DURATION>
			<DURATION>3.033333333333333</DURATION>
			<DURATION>3.0833333333333335</DURATION>
			<DURATION>3.2333333333333334</DURATION>
			<DURATION>3.283333333333333</DURATION>
			<DURATION>3.35</DURATION>
			<DURATION>3.7666666666666666</DURATION>
			<DURATION>3.85</DURATION>
		</HISTORICAL-DURATIONS>
	</CONSTRAINT>
	<CONSTRAINT>
		<START>19c8ce62-c2ad-4d39-aaef-b17d727308c9</START>
		<END>893b10ea-3367-458e-9312-7d87b080a510</END>
		<ID>9f73f38e-9890-423a-b7d4-0cae0ed486d5</ID>
		<NAME>Trip 30453702 Arrive at stop 70061 on 05:16</NAME>
		<LOWERBOUND>315.9</LOWERBOUND>
		<UPPERBOUND>316.1</UPPERBOUND>
		<LBRELAXABLE>T</LBRELAXABLE>
		<UBRELAXABLE>T</UBRELAXABLE>
		<LB-RELAX-COST-RATIO>10.0</LB-RELAX-COST-RATIO>
		<UB-RELAX-COST-RATIO>10.0</UB-RELAX-COST-RATIO>
		<COST>0.0</COST>
		<TYPE>Controllable;Constraint</TYPE>
		<MEAN>0.0</MEAN>
	</CONSTRAINT>
	<CONSTRAINT>
		<START>7e57437c-e431-4732-b303-991523ee1d79</START>
		<END>a0c11768-95be-4aac-b387-1eb1588b570d</END>
		<ID>6360542e-bbdc-4caf-b257-e0294d15f160</ID>
		<NAME>30453702 Wait for departure at 70079</NAME>
		<LOWERBOUND>0.0</LOWERBOUND>
		<UPPERBOUND>0.1</UPPERBOUND>
		<UBRELAXABLE>T</UBRELAXABLE>
		<LB-RELAX-COST-RATIO>0.0</LB-RELAX-COST-RATIO>
		<UB-RELAX-COST-RATIO>0.1</UB-RELAX-COST-RATIO>
		<COST>0.0</COST>
		<TYPE>Controllable;Constraint</TYPE>
		<MEAN>0.0</MEAN>
	</CONSTRAINT>
	<CONSTRAINT>
		<START>d6fd125d-7100-4b1e-8fd8-74bde542b04a</START>
		<END>9eafbb71-cb6b-4ae5-9a3a-5933a57dc302</END>
		<ID>432ce6d3-8ce9-4804-90db-2812aa5b6516</ID>
		<NAME>30453832 Wait for departure at 70061</NAME>
		<LOWERBOUND>0.0</LOWERBOUND>
		<UPPERBOUND>0.1</UPPERBOUND>
		<UBRELAXABLE>T</UBRELAXABLE>
		<LB-RELAX-COST-RATIO>0.0</LB-RELAX-COST-RATIO>
		<UB-RELAX-COST-RATIO>0.1</UB-RELAX-COST-RATIO>
		<COST>0.0</COST>
		<TYPE>Controllable;Constraint</TYPE>
		<MEAN>0.0</MEAN>
	</CONSTRAINT>
	<CONSTRAINT>
		<START>845fb1c7-3db4-487c-9fbe-d6a573ace822</START>
		<END>316bbc05-3766-4db6-bf13-fba97a879784</END>
		<ID>8daa63cc-f820-4694-bb40-3567f96e18db</ID>
		<NAME>From 70071 to 70073 (Charles/MGH - Inbound)</NAME>
		<LOWERBOUND>0.9833333333333333</LOWERBOUND>
		<UPPERBOUND>2.35</UPPERBOUND>
		<LB-RELAX-COST-RATIO>0.0</LB-RELAX-COST-RATIO>
		<UB-RELAX-COST-RATIO>0.0</UB-RELAX-COST-RATIO>
		<COST>0.0</COST>
		<TYPE>Uncontrollable;Activity</TYPE>
		<MEAN>0.0</MEAN>
		<DISTRIBUTION>Normal</DISTRIBUTION>
		<VARIANCE>0.0</VARIANCE>
		<HISTORICAL-DURATIONS>
			<DURATION>0.9833333333333333</DURATION>
			<DURATION>1.0333333333333334</DURATION>
			<DURATION>1.2333333333333334</DURATION>
			<DURATION>1.25</DURATION>
			<DURATION>1.2666666666666666</DURATION>
			<DURATION>1.2833333333333334</DURATION>
			<DURATION>1.3666666666666667</DURATION>
			<DURATION>1.4166666666666667</DURATION>
			<DURATION>1.4166666666666667</DURATION>
			<DURATION>1.4333333333333333</DURATION>
			<DURATION>1.4333333333333333</DURATION>
			<DURATION>1.4333333333333333</DURATION>
			<DURATION>1.4333333333333333</DURATION>
			<DURATION>1.4333333333333333</DURATION>
			<DURATION>1.4333333333333333</DURATION>
			<DURATION>1.4333333333333333</DURATION>
			<DURATION>1.45</DURATION>
			<DURATION>1.45</DURATION>
			<DURATION>1.45</DURATION>
			<DURATION>1.45</DURATION>
			<DURATION>1.45</DURATION>
			<DURATION>1.45</DURATION>
			<DURATION>1.45</DURATION>
			<DURATION>1.45</DURATION>
			<DURATION>1.45</DURATION>
			<DURATION>1.45</DURATION>
			<DURATION>1.45</DURATION>
			<DURATION>1.45</DURATION>
			<DURATION>1.4666666666666666</DURATION>
			<DURATION>1.4666666666666666</DURATION>
			<DURATION>1.4666666666666666</DURATION>
			<DURATION>1.4666666666666666</DURATION>
			<DURATION>1.4666666666666666</DURATION>
			<DURATION>1.4666666666666666</DURATION>
			<DURATION>1.4666666666666666</DURATION>
			<DURATION>1.4666666666666666</DURATION>
			<DURATION>1.4666666666666666</DURATION>
			<DURATION>1.4666666666666666</DURATION>
			<DURATION>1.4666666666666666</DURATION>
			<DURATION>1.4666666666666666</DURATION>
			<DURATION>1.4666666666666666</DURATION>
			<DURATION>1.4666666666666666</DURATION>
			<DURATION>1.4666666666666666</DURATION>
			<DURATION>1.4666666666666666</DURATION>
			<DURATION>1.4666666666666666</DURATION>
			<DURATION>1.4666666666666666</DURATION>
			<DURATION>1.4666666666666666</DURATION>
			<DURATION>1.4666666666666666</DURATION>
			<DURATION>1.4666666666666666</DURATION>
			<DURATION>1.4666666666666666</DURATION>
			<DURATION>1.4666666666666666</DURATION>
			<DURATION>1.4666666666666666</DURATION>
			<DURATION>1.4666666666666666</DURATION>
			<DURATION>1.4666666666666666</DURATION>
			<DURATION>1.4666666666666666</DURATION>
			<DURATION>1.4666666666666666</DURATION>
			<DURATION>1.4666666666666666</DURATION>
			<DURATION>1.4833333333333334</DURATION>
			<DURATION>1.4833333333333334</DURATION>
			<DURATION>1.4833333333333334</DURATION>
			<DURATION>1.4833333333333334</DURATION>
			<DURATION>1.4833333333333334</DURATION>
			<DURATION>1.4833333333333334</DURATION>
			<DURATION>1.4833333333333334</DURATION>
			<DURATION>1.4833333333333334</DURATION>
			<DURATION>1.4833333333333334</DURATION>
			<DURATION>1.4833333333333334</DURATION>
			<DURATION>1.4833333333333334</DURATION>
			<DURATION>1.4833333333333334</DURATION>
			<DURATION>1.4833333333333334</DURATION>
			<DURATION>1.4833333333333334</DURATION>
			<DURATION>1.4833333333333334</DURATION>
			<DURATION>1.4833333333333334</DURATION>
			<DURATION>1.4833333333333334</DURATION>
			<DURATION>1.4833333333333334</DURATION>
			<DURATION>1.4833333333333334</DURATION>
			<DURATION>1.4833333333333334</DURATION>
			<DURATION>1.4833333333333334</DURATION>
			<DURATION>1.4833333333333334</DURATION>
			<DURATION>1.4833333333333334</DURATION>
			<DURATION>1.4833333333333334</DURATION>
			<DURATION>1.4833333333333334</DURATION>
			<DURATION>1.4833333333333334</DURATION>
			<DURATION>1.4833333333333334</DURATION>
			<DURATION>1.4833333333333334</DURATION>
			<DURATION>1.4833333333333334</DURATION>
			<DURATION>1.4833333333333334</DURATION>
			<DURATION>1.4833333333333334</DURATION>
			<DURATION>1.4833333333333334</DURATION>
			<DURATION>1.4833333333333334</DURATION>
			<DURATION>1.4833333333333334</DURATION>
			<DURATION>1.4833333333333334</DURATION>
			<DURATION>1.4833333333333334</DURATION>
			<DURATION>1.4833333333333334</DURATION>
			<DURATION>1.4833333333333334</DURATION>
			<DURATION>1.5</DURATION>
			<DURATION>1.5</DURATION>
			<DURATION>1.5</DURATION>
			<DURATION>1.5</DURATION>
			<DURATION>1.5</DURATION>
			<DURATION>1.5</DURATION>
			<DURATION>1.5</DURATION>
			<DURATION>1.5</DURATION>
			<DURATION>1.5</DURATION>
			<DURATION>1.5</DURATION>
			<DURATION>1.5</DURATION>
			<DURATION>1.5</DURATION>
			<DURATION>1.5</DURATION>
			<DURATION>1.5</DURATION>
			<DURATION>1.5</DURATION>
			<DURATION>1.5</DURATION>
			<DURATION>1.5</DURATION>
			<DURATION>1.5</DURATION>
			<DURATION>1.5</DURATION>
			<DURATION>1.5</DURATION>
			<DURATION>1.5</DURATION>
			<DURATION>1.5</DURATION>
			<DURATION>1.5</DURATION>
			<DURATION>1.5</DURATION>
			<DURATION>1.5</DURATION>
			<DURATION>1.5</DURATION>
			<DURATION>1.5</DURATION>
			<DURATION>1.5</DURATION>
			<DURATION>1.5</DURATION>
			<DURATION>1.5</DURATION>
			<DURATION>1.5</DURATION>
			<DURATION>1.5</DURATION>
			<DURATION>1.5</DURATION>
			<DURATION>1.5166666666666666</DURATION>
			<DURATION>1.5166666666666666</DURATION>
			<DURATION>1.5166666666666666</DURATION>
			<DURATION>1.5166666666666666</DURATION>
			<DURATION>1.5166666666666666</DURATION>
			<DURATION>1.5166666666666666</DURATION>
			<DURATION>1.5166666666666666</DURATION>
			<DURATION>1.5166666666666666</DURATION>
			<DURATION>1.5166666666666666</DURATION>
			<DURATION>1.5166666666666666</DURATION>
			<DURATION>1.5166666666666666</DURATION>
			<DURATION>1.5166666666666666</DURATION>
			<DURATION>1.5166666666666666</DURATION>
			<DURATION>1.5166666666666666</DURATION>
			<DURATION>1.5166666666666666</DURATION>
			<DURATION>1.5166666666666666</DURATION>
			<DURATION>1.5166666666666666</DURATION>
			<DURATION>1.5166666666666666</DURATION>
			<DURATION>1.5166666666666666</DURATION>
			<DURATION>1.5166666666666666</DURATION>
			<DURATION>1.5166666666666666</DURATION>
			<DURATION>1.5166666666666666</DURATION>
			<DURATION>1.5166666666666666</DURATION>
			<DURATION>1.5166666666666666</DURATION>
			<DURATION>1.5166666666666666</DURATION>
			<DURATION>1.5166666666666666</DURATION>
			<DURATION>1.5166666666666666</DURATION>
			<DURATION>1.5166666666666666</DURATION>
			<DURATION>1.5166666666666666</DURATION>
			<DURATION>1.5166666666666666</DURATION>
			<DURATION>1.5166666666666666</DURATION>
			<DURATION>1.5166666666666666</DURATION>
			<DURATION>1.5166666666666666</DURATION>
			<DURATION>1.5166666666666666</DURATION>
			<DURATION>1.5166666666666666</DURATION>
			<DURATION>1.5166666666666666</DURATION>
			<DURATION>1.5166666666666666</DURATION>
			<DURATION>1.5166666666666666</DURATION>
			<DURATION>1.5166666666666666</DURATION>
			<DURATION>1.5166666666666666</DURATION>
			<DURATION>1.5166666666666666</DURATION>
			<DURATION>1.5166666666666666</DURATION>
			<DURATION>1.5166666666666666</DURATION>
			<DURATION>1.5166666666666666</DURATION>
			<DURATION>1.5166666666666666</DURATION>
			<DURATION>1.5166666666666666</DURATION>
			<DURATION>1.5166666666666666</DURATION>
			<DURATION>1.5166666666666666</DURATION>
			<DURATION>1.5166666666666666</DURATION>
			<DURATION>1.5166666666666666</DURATION>
			<DURATION>1.5166666666666666</DURATION>
			<DURATION>1.5166666666666666</DURATION>
			<DURATION>1.5166666666666666</DURATION>
			<DURATION>1.5166666666666666</DURATION>
			<DURATION>1.5166666666666666</DURATION>
			<DURATION>1.5166666666666666</DURATION>
			<DURATION>1.5166666666666666</DURATION>
			<DURATION>1.5166666666666666</DURATION>
			<DURATION>1.5166666666666666</DURATION>
			<DURATION>1.5166666666666666</DURATION>
			<DURATION>1.5166666666666666</DURATION>
			<DURATION>1.5166666666666666</DURATION>
			<DURATION>1.5166666666666666</DURATION>
			<DURATION>1.5166666666666666</DURATION>
			<DURATION>1.5333333333333334</DURATION>
			<DURATION>1.5333333333333334</DURATION>
			<DURATION>1.5333333333333334</DURATION>
			<DURATION>1.5333333333333334</DURATION>
			<DURATION>1.5333333333333334</DURATION>
			<DURATION>1.5333333333333334</DURATION>
			<DURATION>1.5333333333333334</DURATION>
			<DURATION>1.5333333333333334</DURATION>
			<DURATION>1.5333333333333334</DURATION>
			<DURATION>1.5333333333333334</DURATION>
			<DURATION>1.5333333333333334</DURATION>
			<DURATION>1.5333333333333334</DURATION>
			<DURATION>1.5333333333333334</DURATION>
			<DURATION>1.5333333333333334</DURATION>
			<DURATION>1.5333333333333334</DURATION>
			<DURATION>1.5333333333333334</DURATION>
			<DURATION>1.5333333333333334</DURATION>
			<DURATION>1.5333333333333334</DURATION>
			<DURATION>1.5333333333333334</DURATION>
			<DURATION>1.5333333333333334</DURATION>
			<DURATION>1.5333333333333334</DURATION>
			<DURATION>1.5333333333333334</DURATION>
			<DURATION>1.5333333333333334</DURATION>
			<DURATION>1.5333333333333334</DURATION>
			<DURATION>1.5333333333333334</DURATION>
			<DURATION>1.5333333333333334</DURATION>
			<DURATION>1.5333333333333334</DURATION>
			<DURATION>1.5333333333333334</DURATION>
			<DURATION>1.5333333333333334</DURATION>
			<DURATION>1.5333333333333334</DURATION>
			<DURATION>1.5333333333333334</DURATION>
			<DURATION>1.5333333333333334</DURATION>
			<DURATION>1.5333333333333334</DURATION>
			<DURATION>1.5333333333333334</DURATION>
			<DURATION>1.5333333333333334</DURATION>
			<DURATION>1.5333333333333334</DURATION>
			<DURATION>1.5333333333333334</DURATION>
			<DURATION>1.5333333333333334</DURATION>
			<DURATION>1.5333333333333334</DURATION>
			<DURATION>1.5333333333333334</DURATION>
			<DURATION>1.5333333333333334</DURATION>
			<DURATION>1.5333333333333334</DURATION>
			<DURATION>1.5333333333333334</DURATION>
			<DURATION>1.5333333333333334</DURATION>
			<DURATION>1.5333333333333334</DURATION>
			<DURATION>1.5333333333333334</DURATION>
			<DURATION>1.5333333333333334</DURATION>
			<DURATION>1.5333333333333334</DURATION>
			<DURATION>1.5333333333333334</DURATION>
			<DURATION>1.5333333333333334</DURATION>
			<DURATION>1.5333333333333334</DURATION>
			<DURATION>1.5333333333333334</DURATION>
			<DURATION>1.5333333333333334</DURATION>
			<DURATION>1.5333333333333334</DURATION>
			<DURATION>1.5333333333333334</DURATION>
			<DURATION>1.5333333333333334</DURATION>
			<DURATION>1.5333333333333334</DURATION>
			<DURATION>1.5333333333333334</DURATION>
			<DURATION>1.5333333333333334</DURATION>
			<DURATION>1.5333333333333334</DURATION>
			<DURATION>1.5333333333333334</DURATION>
			<DURATION>1.5333333333333334</DURATION>
			<DURATION>1.5333333333333334</DURATION>
			<DURATION>1.5333333333333334</DURATION>
			<DURATION>1.5333333333333334</DURATION>
			<DURATION>1.5333333333333334</DURATION>
			<DURATION>1.5333333333333334</DURATION>
			<DURATION>1.5333333333333334</DURATION>
			<DURATION>1.5333333333333334</DURATION>
			<DURATION>1.5333333333333334</DURATION>
			<DURATION>1.5333333333333334</DURATION>
			<DURATION>1.5333333333333334</DURATION>
			<DURATION>1.5333333333333334</DURATION>
			<DURATION>1.5333333333333334</DURATION>
			<DURATION>1.5333333333333334</DURATION>
			<DURATION>1.5333333333333334</DURATION>
			<DURATION>1.5333333333333334</DURATION>
			<DURATION>1.5333333333333334</DURATION>
			<DURATION>1.5333333333333334</DURATION>
			<DURATION>1.5333333333333334</DURATION>
			<DURATION>1.5333333333333334</DURATION>
			<DURATION>1.5333333333333334</DURATION>
			<DURATION>1.5333333333333334</DURATION>
			<DURATION>1.5333333333333334</DURATION>
			<DURATION>1.5333333333333334</DURATION>
			<DURATION>1.5333333333333334</DURATION>
			<DURATION>1.5333333333333334</DURATION>
			<DURATION>1.5333333333333334</DURATION>
			<DURATION>1.5333333333333334</DURATION>
			<DURATION>1.5333333333333334</DURATION>
			<DURATION>1.5333333333333334</DURATION>
			<DURATION>1.5333333333333334</DURATION>
			<DURATION>1.55</DURATION>
			<DURATION>1.55</DURATION>
			<DURATION>1.55</DURATION>
			<DURATION>1.55</DURATION>
			<DURATION>1.55</DURATION>
			<DURATION>1.55</DURATION>
			<DURATION>1.55</DURATION>
			<DURATION>1.55</DURATION>
			<DURATION>1.55</DURATION>
			<DURATION>1.55</DURATION>
			<DURATION>1.55</DURATION>
			<DURATION>1.55</DURATION>
			<DURATION>1.55</DURATION>
			<DURATION>1.55</DURATION>
			<DURATION>1.55</DURATION>
			<DURATION>1.55</DURATION>
			<DURATION>1.55</DURATION>
			<DURATION>1.55</DURATION>
			<DURATION>1.55</DURATION>
			<DURATION>1.55</DURATION>
			<DURATION>1.55</DURATION>
			<DURATION>1.55</DURATION>
			<DURATION>1.55</DURATION>
			<DURATION>1.55</DURATION>
			<DURATION>1.55</DURATION>
			<DURATION>1.55</DURATION>
			<DURATION>1.55</DURATION>
			<DURATION>1.55</DURATION>
			<DURATION>1.55</DURATION>
			<DURATION>1.55</DURATION>
			<DURATION>1.55</DURATION>
			<DURATION>1.55</DURATION>
			<DURATION>1.55</DURATION>
			<DURATION>1.55</DURATION>
			<DURATION>1.55</DURATION>
			<DURATION>1.55</DURATION>
			<DURATION>1.55</DURATION>
			<DURATION>1.55</DURATION>
			<DURATION>1.55</DURATION>
			<DURATION>1.55</DURATION>
			<DURATION>1.55</DURATION>
			<DURATION>1.55</DURATION>
			<DURATION>1.55</DURATION>
			<DURATION>1.55</DURATION>
			<DURATION>1.55</DURATION>
			<DURATION>1.55</DURATION>
			<DURATION>1.55</DURATION>
			<DURATION>1.55</DURATION>
			<DURATION>1.55</DURATION>
			<DURATION>1.55</DURATION>
			<DURATION>1.55</DURATION>
			<DURATION>1.55</DURATION>
			<DURATION>1.55</DURATION>
			<DURATION>1.55</DURATION>
			<DURATION>1.55</DURATION>
			<DURATION>1.55</DURATION>
			<DURATION>1.55</DURATION>
			<DURATION>1.55</DURATION>
			<DURATION>1.55</DURATION>
			<DURATION>1.55</DURATION>
			<DURATION>1.55</DURATION>
			<DURATION>1.55</DURATION>
			<DURATION>1.55</DURATION>
			<DURATION>1.55</DURATION>
			<DURATION>1.55</DURATION>
			<DURATION>1.55</DURATION>
			<DURATION>1.55</DURATION>
			<DURATION>1.55</DURATION>
			<DURATION>1.55</DURATION>
			<DURATION>1.55</DURATION>
			<DURATION>1.55</DURATION>
			<DURATION>1.55</DURATION>
			<DURATION>1.55</DURATION>
			<DURATION>1.55</DURATION>
			<DURATION>1.55</DURATION>
			<DURATION>1.55</DURATION>
			<DURATION>1.55</DURATION>
			<DURATION>1.55</DURATION>
			<DURATION>1.55</DURATION>
			<DURATION>1.55</DURATION>
			<DURATION>1.55</DURATION>
			<DURATION>1.55</DURATION>
			<DURATION>1.55</DURATION>
			<DURATION>1.55</DURATION>
			<DURATION>1.55</DURATION>
			<DURATION>1.5666666666666667</DURATION>
			<DURATION>1.5666666666666667</DURATION>
			<DURATION>1.5666666666666667</DURATION>
			<DURATION>1.5666666666666667</DURATION>
			<DURATION>1.5666666666666667</DURATION>
			<DURATION>1.5666666666666667</DURATION>
			<DURATION>1.5666666666666667</DURATION>
			<DURATION>1.5666666666666667</DURATION>
			<DURATION>1.5666666666666667</DURATION>
			<DURATION>1.5666666666666667</DURATION>
			<DURATION>1.5666666666666667</DURATION>
			<DURATION>1.5666666666666667</DURATION>
			<DURATION>1.5666666666666667</DURATION>
			<DURATION>1.5666666666666667</DURATION>
			<DURATION>1.5666666666666667</DURATION>
			<DURATION>1.5666666666666667</DURATION>
			<DURATION>1.5666666666666667</DURATION>
			<DURATION>1.5666666666666667</DURATION>
			<DURATION>1.5666666666666667</DURATION>
			<DURATION>1.5666666666666667</DURATION>
			<DURATION>1.5666666666666667</DURATION>
			<DURATION>1.5666666666666667</DURATION>
			<DURATION>1.5666666666666667</DURATION>
			<DURATION>1.5666666666666667</DURATION>
			<DURATION>1.5666666666666667</DURATION>
			<DURATION>1.5666666666666667</DURATION>
			<DURATION>1.5666666666666667</DURATION>
			<DURATION>1.5666666666666667</DURATION>
			<DURATION>1.5666666666666667</DURATION>
			<DURATION>1.5666666666666667</DURATION>
			<DURATION>1.5666666666666667</DURATION>
			<DURATION>1.5666666666666667</DURATION>
			<DURATION>1.5666666666666667</DURATION>
			<DURATION>1.5666666666666667</DURATION>
			<DURATION>1.5666666666666667</DURATION>
			<DURATION>1.5666666666666667</DURATION>
			<DURATION>1.5666666666666667</DURATION>
			<DURATION>1.5666666666666667</DURATION>
			<DURATION>1.5666666666666667</DURATION>
			<DURATION>1.5666666666666667</DURATION>
			<DURATION>1.5666666666666667</DURATION>
			<DURATION>1.5666666666666667</DURATION>
			<DURATION>1.5666666666666667</DURATION>
			<DURATION>1.5666666666666667</DURATION>
			<DURATION>1.5833333333333333</DURATION>
			<DURATION>1.5833333333333333</DURATION>
			<DURATION>1.5833333333333333</DURATION>
			<DURATION>1.5833333333333333</DURATION>
			<DURATION>1.5833333333333333</DURATION>
			<DURATION>1.5833333333333333</DURATION>
			<DURATION>1.5833333333333333</DURATION>
			<DURATION>1.5833333333333333</DURATION>
			<DURATION>1.5833333333333333</DURATION>
			<DURATION>1.5833333333333333</DURATION>
			<DURATION>1.5833333333333333</DURATION>
			<DURATION>1.5833333333333333</DURATION>
			<DURATION>1.5833333333333333</DURATION>
			<DURATION>1.5833333333333333</DURATION>
			<DURATION>1.5833333333333333</DURATION>
			<DURATION>1.5833333333333333</DURATION>
			<DURATION>1.5833333333333333</DURATION>
			<DURATION>1.5833333333333333</DURATION>
			<DURATION>1.6</DURATION>
			<DURATION>1.6</DURATION>
			<DURATION>1.6</DURATION>
			<DURATION>1.6</DURATION>
			<DURATION>1.6</DURATION>
			<DURATION>1.6</DURATION>
			<DURATION>1.6</DURATION>
			<DURATION>1.6</DURATION>
			<DURATION>1.6</DURATION>
			<DURATION>1.6</DURATION>
			<DURATION>1.6</DURATION>
			<DURATION>1.6</DURATION>
			<DURATION>1.6</DURATION>
			<DURATION>1.6</DURATION>
			<DURATION>1.6</DURATION>
			<DURATION>1.6</DURATION>
			<DURATION>1.6</DURATION>
			<DURATION>1.6</DURATION>
			<DURATION>1.6</DURATION>
			<DURATION>1.6</DURATION>
			<DURATION>1.6</DURATION>
			<DURATION>1.6</DURATION>
			<DURATION>1.6</DURATION>
			<DURATION>1.6166666666666667</DURATION>
			<DURATION>1.6166666666666667</DURATION>
			<DURATION>1.6166666666666667</DURATION>
			<DURATION>1.6166666666666667</DURATION>
			<DURATION>1.6166666666666667</DURATION>
			<DURATION>1.6333333333333333</DURATION>
			<DURATION>1.6333333333333333</DURATION>
			<DURATION>1.6333333333333333</DURATION>
			<DURATION>1.6333333333333333</DURATION>
			<DURATION>1.6333333333333333</DURATION>
			<DURATION>1.6333333333333333</DURATION>
			<DURATION>1.6333333333333333</DURATION>
			<DURATION>1.6333333333333333</DURATION>
			<DURATION>1.6333333333333333</DURATION>
			<DURATION>1.6333333333333333</DURATION>
			<DURATION>1.6333333333333333</DURATION>
			<DURATION>1.6333333333333333</DURATION>
			<DURATION>1.65</DURATION>
			<DURATION>1.65</DURATION>
			<DURATION>1.6666666666666667</DURATION>
			<DURATION>1.6666666666666667</DURATION>
			<DURATION>1.6666666666666667</DURATION>
			<DURATION>1.6666666666666667</DURATION>
			<DURATION>1.6666666666666667</DURATION>
			<DURATION>1.6666666666666667</DURATION>
			<DURATION>1.6833333333333333</DURATION>
			<DURATION>1.6833333333333333</DURATION>
			<DURATION>1.6833333333333333</DURATION>
			<DURATION>1.7</DURATION>
			<DURATION>1.7</DURATION>
			<DURATION>1.7</DURATION>
			<DURATION>1.7</DURATION>
			<DURATION>1.7166666666666666</DURATION>
			<DURATION>1.7166666666666666</DURATION>
			<DURATION>1.7333333333333334</DURATION>
			<DURATION>1.75</DURATION>
			<DURATION>1.75</DURATION>
			<DURATION>1.75</DURATION>
			<DURATION>1.7666666666666666</DURATION>
			<DURATION>1.8</DURATION>
			<DURATION>1.8</DURATION>
			<DURATION>1.8166666666666667</DURATION>
			<DURATION>1.8166666666666667</DURATION>
			<DURATION>1.8166666666666667</DURATION>
			<DURATION>1.8333333333333333</DURATION>
			<DURATION>1.8333333333333333</DURATION>
			<DURATION>1.8333333333333333</DURATION>
			<DURATION>1.85</DURATION>
			<DURATION>1.85</DURATION>
			<DURATION>1.8666666666666667</DURATION>
			<DURATION>1.8833333333333333</DURATION>
			<DURATION>1.8833333333333333</DURATION>
			<DURATION>1.8833333333333333</DURATION>
			<DURATION>1.9166666666666667</DURATION>
			<DURATION>1.9166666666666667</DURATION>
			<DURATION>1.9833333333333334</DURATION>
			<DURATION>1.9833333333333334</DURATION>
			<DURATION>2.0</DURATION>
			<DURATION>2.0166666666666666</DURATION>
			<DURATION>2.0833333333333335</DURATION>
			<DURATION>2.2</DURATION>
			<DURATION>2.2</DURATION>
			<DURATION>2.2666666666666666</DURATION>
			<DURATION>2.3</DURATION>
			<DURATION>2.3</DURATION>
			<DURATION>2.35</DURATION>
			<DURATION>2.3666666666666667</DURATION>
			<DURATION>2.3666666666666667</DURATION>
			<DURATION>2.4</DURATION>
			<DURATION>2.4</DURATION>
			<DURATION>2.4833333333333334</DURATION>
			<DURATION>2.566666666666667</DURATION>
			<DURATION>2.6666666666666665</DURATION>
			<DURATION>3.05</DURATION>
			<DURATION>3.15</DURATION>
			<DURATION>3.2</DURATION>
		</HISTORICAL-DURATIONS>
	</CONSTRAINT>
	<CONSTRAINT>
		<START>20c1b635-b2b1-4ca6-a4b5-bbf0c4517fe5</START>
		<END>1364c5e9-c1a7-4bdd-80c7-7d8affa3d239</END>
		<ID>c66d892a-dde4-4782-b385-e2dc0a36f994</ID>
		<NAME>30453702 Wait for departure at 70069</NAME>
		<LOWERBOUND>0.0</LOWERBOUND>
		<UPPERBOUND>0.1</UPPERBOUND>
		<UBRELAXABLE>T</UBRELAXABLE>
		<LB-RELAX-COST-RATIO>0.0</LB-RELAX-COST-RATIO>
		<UB-RELAX-COST-RATIO>0.1</UB-RELAX-COST-RATIO>
		<COST>0.0</COST>
		<TYPE>Controllable;Constraint</TYPE>
		<MEAN>0.0</MEAN>
	</CONSTRAINT>
	<CONSTRAINT>
		<START>e26a2b8b-18c5-43a7-95b3-471f759a8e93</START>
		<END>3528b745-4d5b-4fc0-a4da-fb0ddb1bcc38</END>
		<ID>c91d9bf3-2b46-42ab-9896-8c3d288dafbc</ID>
		<NAME>Headway 8.0</NAME>
		<LOWERBOUND>7.0</LOWERBOUND>
		<UPPERBOUND>9.0</UPPERBOUND>
		<LBRELAXABLE>T</LBRELAXABLE>
		<UBRELAXABLE>T</UBRELAXABLE>
		<LB-RELAX-COST-RATIO>100.0</LB-RELAX-COST-RATIO>
		<UB-RELAX-COST-RATIO>100.0</UB-RELAX-COST-RATIO>
		<COST>0.0</COST>
		<TYPE>Controllable;Constraint</TYPE>
		<MEAN>0.0</MEAN>
	</CONSTRAINT>
	<CONSTRAINT>
		<START>4d0ef640-c9b8-4480-a6d6-0d2c103baecf</START>
		<END>3e53b317-72bd-4c25-9b78-20fec5e8127b</END>
		<ID>1161579b-296c-4d2b-9daa-e0220df9c4c2</ID>
		<NAME>Dwell at 70063 (Davis - Inbound)</NAME>
		<LOWERBOUND>0.4166666666666667</LOWERBOUND>
		<UPPERBOUND>1.9</UPPERBOUND>
		<LB-RELAX-COST-RATIO>0.0</LB-RELAX-COST-RATIO>
		<UB-RELAX-COST-RATIO>0.0</UB-RELAX-COST-RATIO>
		<COST>0.0</COST>
		<TYPE>Uncontrollable;Activity</TYPE>
		<MEAN>0.0</MEAN>
		<DISTRIBUTION>Normal</DISTRIBUTION>
		<VARIANCE>0.0</VARIANCE>
		<HISTORICAL-DURATIONS>
			<DURATION>0.4166666666666667</DURATION>
			<DURATION>0.6</DURATION>
			<DURATION>0.6166666666666667</DURATION>
			<DURATION>0.6166666666666667</DURATION>
			<DURATION>0.6333333333333333</DURATION>
			<DURATION>0.6333333333333333</DURATION>
			<DURATION>0.65</DURATION>
			<DURATION>0.65</DURATION>
			<DURATION>0.65</DURATION>
			<DURATION>0.65</DURATION>
			<DURATION>0.65</DURATION>
			<DURATION>0.6666666666666666</DURATION>
			<DURATION>0.6666666666666666</DURATION>
			<DURATION>0.6666666666666666</DURATION>
			<DURATION>0.6833333333333333</DURATION>
			<DURATION>0.6833333333333333</DURATION>
			<DURATION>0.6833333333333333</DURATION>
			<DURATION>0.6833333333333333</DURATION>
			<DURATION>0.6833333333333333</DURATION>
			<DURATION>0.6833333333333333</DURATION>
			<DURATION>0.6833333333333333</DURATION>
			<DURATION>0.6833333333333333</DURATION>
			<DURATION>0.6833333333333333</DURATION>
			<DURATION>0.6833333333333333</DURATION>
			<DURATION>0.6833333333333333</DURATION>
			<DURATION>0.7</DURATION>
			<DURATION>0.7</DURATION>
			<DURATION>0.7</DURATION>
			<DURATION>0.7</DURATION>
			<DURATION>0.7</DURATION>
			<DURATION>0.7</DURATION>
			<DURATION>0.7</DURATION>
			<DURATION>0.7</DURATION>
			<DURATION>0.7</DURATION>
			<DURATION>0.7</DURATION>
			<DURATION>0.7</DURATION>
			<DURATION>0.7</DURATION>
			<DURATION>0.7166666666666667</DURATION>
			<DURATION>0.7166666666666667</DURATION>
			<DURATION>0.7166666666666667</DURATION>
			<DURATION>0.7166666666666667</DURATION>
			<DURATION>0.7166666666666667</DURATION>
			<DURATION>0.7166666666666667</DURATION>
			<DURATION>0.7166666666666667</DURATION>
			<DURATION>0.7166666666666667</DURATION>
			<DURATION>0.7166666666666667</DURATION>
			<DURATION>0.7166666666666667</DURATION>
			<DURATION>0.7166666666666667</DURATION>
			<DURATION>0.7166666666666667</DURATION>
			<DURATION>0.7166666666666667</DURATION>
			<DURATION>0.7166666666666667</DURATION>
			<DURATION>0.7166666666666667</DURATION>
			<DURATION>0.7166666666666667</DURATION>
			<DURATION>0.7166666666666667</DURATION>
			<DURATION>0.7166666666666667</DURATION>
			<DURATION>0.7166666666666667</DURATION>
			<DURATION>0.7166666666666667</DURATION>
			<DURATION>0.7166666666666667</DURATION>
			<DURATION>0.7166666666666667</DURATION>
			<DURATION>0.7166666666666667</DURATION>
			<DURATION>0.7166666666666667</DURATION>
			<DURATION>0.7166666666666667</DURATION>
			<DURATION>0.7166666666666667</DURATION>
			<DURATION>0.7166666666666667</DURATION>
			<DURATION>0.7166666666666667</DURATION>
			<DURATION>0.7166666666666667</DURATION>
			<DURATION>0.7166666666666667</DURATION>
			<DURATION>0.7166666666666667</DURATION>
			<DURATION>0.7166666666666667</DURATION>
			<DURATION>0.7166666666666667</DURATION>
			<DURATION>0.7166666666666667</DURATION>
			<DURATION>0.7166666666666667</DURATION>
			<DURATION>0.7166666666666667</DURATION>
			<DURATION>0.7166666666666667</DURATION>
			<DURATION>0.7333333333333333</DURATION>
			<DURATION>0.7333333333333333</DURATION>
			<DURATION>0.7333333333333333</DURATION>
			<DURATION>0.7333333333333333</DURATION>
			<DURATION>0.7333333333333333</DURATION>
			<DURATION>0.7333333333333333</DURATION>
			<DURATION>0.7333333333333333</DURATION>
			<DURATION>0.7333333333333333</DURATION>
			<DURATION>0.7333333333333333</DURATION>
			<DURATION>0.7333333333333333</DURATION>
			<DURATION>0.7333333333333333</DURATION>
			<DURATION>0.7333333333333333</DURATION>
			<DURATION>0.7333333333333333</DURATION>
			<DURATION>0.7333333333333333</DURATION>
			<DURATION>0.7333333333333333</DURATION>
			<DURATION>0.7333333333333333</DURATION>
			<DURATION>0.7333333333333333</DURATION>
			<DURATION>0.7333333333333333</DURATION>
			<DURATION>0.7333333333333333</DURATION>
			<DURATION>0.7333333333333333</DURATION>
			<DURATION>0.7333333333333333</DURATION>
			<DURATION>0.7333333333333333</DURATION>
			<DURATION>0.7333333333333333</DURATION>
			<DURATION>0.7333333333333333</DURATION>
			<DURATION>0.7333333333333333</DURATION>
			<DURATION>0.7333333333333333</DURATION>
			<DURATION>0.7333333333333333</DURATION>
			<DURATION>0.7333333333333333</DURATION>
			<DURATION>0.7333333333333333</DURATION>
			<DURATION>0.75</DURATION>
			<DURATION>0.75</DURATION>
			<DURATION>0.75</DURATION>
			<DURATION>0.75</DURATION>
			<DURATION>0.75</DURATION>
			<DURATION>0.75</DURATION>
			<DURATION>0.75</DURATION>
			<DURATION>0.75</DURATION>
			<DURATION>0.75</DURATION>
			<DURATION>0.75</DURATION>
			<DURATION>0.75</DURATION>
			<DURATION>0.75</DURATION>
			<DURATION>0.75</DURATION>
			<DURATION>0.75</DURATION>
			<DURATION>0.75</DURATION>
			<DURATION>0.75</DURATION>
			<DURATION>0.75</DURATION>
			<DURATION>0.75</DURATION>
			<DURATION>0.75</DURATION>
			<DURATION>0.75</DURATION>
			<DURATION>0.75</DURATION>
			<DURATION>0.75</DURATION>
			<DURATION>0.75</DURATION>
			<DURATION>0.75</DURATION>
			<DURATION>0.75</DURATION>
			<DURATION>0.75</DURATION>
			<DURATION>0.75</DURATION>
			<DURATION>0.75</DURATION>
			<DURATION>0.75</DURATION>
			<DURATION>0.75</DURATION>
			<DURATION>0.75</DURATION>
			<DURATION>0.75</DURATION>
			<DURATION>0.75</DURATION>
			<DURATION>0.75</DURATION>
			<DURATION>0.75</DURATION>
			<DURATION>0.7666666666666667</DURATION>
			<DURATION>0.7666666666666667</DURATION>
			<DURATION>0.7666666666666667</DURATION>
			<DURATION>0.7666666666666667</DURATION>
			<DURATION>0.7666666666666667</DURATION>
			<DURATION>0.7666666666666667</DURATION>
			<DURATION>0.7666666666666667</DURATION>
			<DURATION>0.7666666666666667</DURATION>
			<DURATION>0.7666666666666667</DURATION>
			<DURATION>0.7666666666666667</DURATION>
			<DURATION>0.7666666666666667</DURATION>
			<DURATION>0.7666666666666667</DURATION>
			<DURATION>0.7666666666666667</DURATION>
			<DURATION>0.7666666666666667</DURATION>
			<DURATION>0.7666666666666667</DURATION>
			<DURATION>0.7666666666666667</DURATION>
			<DURATION>0.7666666666666667</DURATION>
			<DURATION>0.7666666666666667</DURATION>
			<DURATION>0.7666666666666667</DURATION>
			<DURATION>0.7666666666666667</DURATION>
			<DURATION>0.7666666666666667</DURATION>
			<DURATION>0.7666666666666667</DURATION>
			<DURATION>0.7666666666666667</DURATION>
			<DURATION>0.7666666666666667</DURATION>
			<DURATION>0.7666666666666667</DURATION>
			<DURATION>0.7666666666666667</DURATION>
			<DURATION>0.7666666666666667</DURATION>
			<DURATION>0.7666666666666667</DURATION>
			<DURATION>0.7666666666666667</DURATION>
			<DURATION>0.7666666666666667</DURATION>
			<DURATION>0.7666666666666667</DURATION>
			<DURATION>0.7666666666666667</DURATION>
			<DURATION>0.7666666666666667</DURATION>
			<DURATION>0.7666666666666667</DURATION>
			<DURATION>0.7666666666666667</DURATION>
			<DURATION>0.7666666666666667</DURATION>
			<DURATION>0.7666666666666667</DURATION>
			<DURATION>0.7666666666666667</DURATION>
			<DURATION>0.7833333333333333</DURATION>
			<DURATION>0.7833333333333333</DURATION>
			<DURATION>0.7833333333333333</DURATION>
			<DURATION>0.7833333333333333</DURATION>
			<DURATION>0.7833333333333333</DURATION>
			<DURATION>0.7833333333333333</DURATION>
			<DURATION>0.7833333333333333</DURATION>
			<DURATION>0.7833333333333333</DURATION>
			<DURATION>0.7833333333333333</DURATION>
			<DURATION>0.7833333333333333</DURATION>
			<DURATION>0.7833333333333333</DURATION>
			<DURATION>0.7833333333333333</DURATION>
			<DURATION>0.7833333333333333</DURATION>
			<DURATION>0.7833333333333333</DURATION>
			<DURATION>0.7833333333333333</DURATION>
			<DURATION>0.7833333333333333</DURATION>
			<DURATION>0.7833333333333333</DURATION>
			<DURATION>0.7833333333333333</DURATION>
			<DURATION>0.7833333333333333</DURATION>
			<DURATION>0.7833333333333333</DURATION>
			<DURATION>0.7833333333333333</DURATION>
			<DURATION>0.7833333333333333</DURATION>
			<DURATION>0.7833333333333333</DURATION>
			<DURATION>0.7833333333333333</DURATION>
			<DURATION>0.7833333333333333</DURATION>
			<DURATION>0.7833333333333333</DURATION>
			<DURATION>0.7833333333333333</DURATION>
			<DURATION>0.7833333333333333</DURATION>
			<DURATION>0.7833333333333333</DURATION>
			<DURATION>0.7833333333333333</DURATION>
			<DURATION>0.7833333333333333</DURATION>
			<DURATION>0.7833333333333333</DURATION>
			<DURATION>0.7833333333333333</DURATION>
			<DURATION>0.7833333333333333</DURATION>
			<DURATION>0.7833333333333333</DURATION>
			<DURATION>0.8</DURATION>
			<DURATION>0.8</DURATION>
			<DURATION>0.8</DURATION>
			<DURATION>0.8</DURATION>
			<DURATION>0.8</DURATION>
			<DURATION>0.8</DURATION>
			<DURATION>0.8</DURATION>
			<DURATION>0.8</DURATION>
			<DURATION>0.8</DURATION>
			<DURATION>0.8</DURATION>
			<DURATION>0.8</DURATION>
			<DURATION>0.8</DURATION>
			<DURATION>0.8</DURATION>
			<DURATION>0.8</DURATION>
			<DURATION>0.8</DURATION>
			<DURATION>0.8</DURATION>
			<DURATION>0.8</DURATION>
			<DURATION>0.8</DURATION>
			<DURATION>0.8</DURATION>
			<DURATION>0.8</DURATION>
			<DURATION>0.8</DURATION>
			<DURATION>0.8</DURATION>
			<DURATION>0.8</DURATION>
			<DURATION>0.8</DURATION>
			<DURATION>0.8</DURATION>
			<DURATION>0.8</DURATION>
			<DURATION>0.8</DURATION>
			<DURATION>0.8</DURATION>
			<DURATION>0.8</DURATION>
			<DURATION>0.8</DURATION>
			<DURATION>0.8</DURATION>
			<DURATION>0.8</DURATION>
			<DURATION>0.8</DURATION>
			<DURATION>0.8</DURATION>
			<DURATION>0.8</DURATION>
			<DURATION>0.8166666666666667</DURATION>
			<DURATION>0.8166666666666667</DURATION>
			<DURATION>0.8166666666666667</DURATION>
			<DURATION>0.8166666666666667</DURATION>
			<DURATION>0.8166666666666667</DURATION>
			<DURATION>0.8166666666666667</DURATION>
			<DURATION>0.8166666666666667</DURATION>
			<DURATION>0.8166666666666667</DURATION>
			<DURATION>0.8166666666666667</DURATION>
			<DURATION>0.8166666666666667</DURATION>
			<DURATION>0.8166666666666667</DURATION>
			<DURATION>0.8166666666666667</DURATION>
			<DURATION>0.8166666666666667</DURATION>
			<DURATION>0.8166666666666667</DURATION>
			<DURATION>0.8166666666666667</DURATION>
			<DURATION>0.8166666666666667</DURATION>
			<DURATION>0.8166666666666667</DURATION>
			<DURATION>0.8166666666666667</DURATION>
			<DURATION>0.8166666666666667</DURATION>
			<DURATION>0.8166666666666667</DURATION>
			<DURATION>0.8166666666666667</DURATION>
			<DURATION>0.8166666666666667</DURATION>
			<DURATION>0.8166666666666667</DURATION>
			<DURATION>0.8166666666666667</DURATION>
			<DURATION>0.8166666666666667</DURATION>
			<DURATION>0.8166666666666667</DURATION>
			<DURATION>0.8166666666666667</DURATION>
			<DURATION>0.8166666666666667</DURATION>
			<DURATION>0.8166666666666667</DURATION>
			<DURATION>0.8166666666666667</DURATION>
			<DURATION>0.8166666666666667</DURATION>
			<DURATION>0.8166666666666667</DURATION>
			<DURATION>0.8166666666666667</DURATION>
			<DURATION>0.8166666666666667</DURATION>
			<DURATION>0.8166666666666667</DURATION>
			<DURATION>0.8166666666666667</DURATION>
			<DURATION>0.8166666666666667</DURATION>
			<DURATION>0.8166666666666667</DURATION>
			<DURATION>0.8333333333333334</DURATION>
			<DURATION>0.8333333333333334</DURATION>
			<DURATION>0.8333333333333334</DURATION>
			<DURATION>0.8333333333333334</DURATION>
			<DURATION>0.8333333333333334</DURATION>
			<DURATION>0.8333333333333334</DURATION>
			<DURATION>0.8333333333333334</DURATION>
			<DURATION>0.8333333333333334</DURATION>
			<DURATION>0.8333333333333334</DURATION>
			<DURATION>0.8333333333333334</DURATION>
			<DURATION>0.8333333333333334</DURATION>
			<DURATION>0.8333333333333334</DURATION>
			<DURATION>0.8333333333333334</DURATION>
			<DURATION>0.8333333333333334</DURATION>
			<DURATION>0.8333333333333334</DURATION>
			<DURATION>0.8333333333333334</DURATION>
			<DURATION>0.8333333333333334</DURATION>
			<DURATION>0.8333333333333334</DURATION>
			<DURATION>0.8333333333333334</DURATION>
			<DURATION>0.8333333333333334</DURATION>
			<DURATION>0.8333333333333334</DURATION>
			<DURATION>0.8333333333333334</DURATION>
			<DURATION>0.8333333333333334</DURATION>
			<DURATION>0.8333333333333334</DURATION>
			<DURATION>0.8333333333333334</DURATION>
			<DURATION>0.8333333333333334</DURATION>
			<DURATION>0.85</DURATION>
			<DURATION>0.85</DURATION>
			<DURATION>0.85</DURATION>
			<DURATION>0.85</DURATION>
			<DURATION>0.85</DURATION>
			<DURATION>0.85</DURATION>
			<DURATION>0.85</DURATION>
			<DURATION>0.85</DURATION>
			<DURATION>0.85</DURATION>
			<DURATION>0.85</DURATION>
			<DURATION>0.85</DURATION>
			<DURATION>0.85</DURATION>
			<DURATION>0.85</DURATION>
			<DURATION>0.85</DURATION>
			<DURATION>0.85</DURATION>
			<DURATION>0.85</DURATION>
			<DURATION>0.85</DURATION>
			<DURATION>0.85</DURATION>
			<DURATION>0.85</DURATION>
			<DURATION>0.85</DURATION>
			<DURATION>0.85</DURATION>
			<DURATION>0.85</DURATION>
			<DURATION>0.85</DURATION>
			<DURATION>0.85</DURATION>
			<DURATION>0.85</DURATION>
			<DURATION>0.8666666666666667</DURATION>
			<DURATION>0.8666666666666667</DURATION>
			<DURATION>0.8666666666666667</DURATION>
			<DURATION>0.8666666666666667</DURATION>
			<DURATION>0.8666666666666667</DURATION>
			<DURATION>0.8666666666666667</DURATION>
			<DURATION>0.8666666666666667</DURATION>
			<DURATION>0.8666666666666667</DURATION>
			<DURATION>0.8666666666666667</DURATION>
			<DURATION>0.8666666666666667</DURATION>
			<DURATION>0.8666666666666667</DURATION>
			<DURATION>0.8666666666666667</DURATION>
			<DURATION>0.8666666666666667</DURATION>
			<DURATION>0.8666666666666667</DURATION>
			<DURATION>0.8666666666666667</DURATION>
			<DURATION>0.8666666666666667</DURATION>
			<DURATION>0.8666666666666667</DURATION>
			<DURATION>0.8666666666666667</DURATION>
			<DURATION>0.8666666666666667</DURATION>
			<DURATION>0.8666666666666667</DURATION>
			<DURATION>0.8666666666666667</DURATION>
			<DURATION>0.8666666666666667</DURATION>
			<DURATION>0.8666666666666667</DURATION>
			<DURATION>0.8666666666666667</DURATION>
			<DURATION>0.8666666666666667</DURATION>
			<DURATION>0.8666666666666667</DURATION>
			<DURATION>0.8666666666666667</DURATION>
			<DURATION>0.8666666666666667</DURATION>
			<DURATION>0.8833333333333333</DURATION>
			<DURATION>0.8833333333333333</DURATION>
			<DURATION>0.8833333333333333</DURATION>
			<DURATION>0.8833333333333333</DURATION>
			<DURATION>0.8833333333333333</DURATION>
			<DURATION>0.8833333333333333</DURATION>
			<DURATION>0.8833333333333333</DURATION>
			<DURATION>0.8833333333333333</DURATION>
			<DURATION>0.8833333333333333</DURATION>
			<DURATION>0.8833333333333333</DURATION>
			<DURATION>0.8833333333333333</DURATION>
			<DURATION>0.8833333333333333</DURATION>
			<DURATION>0.8833333333333333</DURATION>
			<DURATION>0.8833333333333333</DURATION>
			<DURATION>0.8833333333333333</DURATION>
			<DURATION>0.8833333333333333</DURATION>
			<DURATION>0.8833333333333333</DURATION>
			<DURATION>0.8833333333333333</DURATION>
			<DURATION>0.8833333333333333</DURATION>
			<DURATION>0.8833333333333333</DURATION>
			<DURATION>0.8833333333333333</DURATION>
			<DURATION>0.8833333333333333</DURATION>
			<DURATION>0.9</DURATION>
			<DURATION>0.9</DURATION>
			<DURATION>0.9</DURATION>
			<DURATION>0.9</DURATION>
			<DURATION>0.9</DURATION>
			<DURATION>0.9</DURATION>
			<DURATION>0.9</DURATION>
			<DURATION>0.9</DURATION>
			<DURATION>0.9</DURATION>
			<DURATION>0.9</DURATION>
			<DURATION>0.9</DURATION>
			<DURATION>0.9166666666666666</DURATION>
			<DURATION>0.9166666666666666</DURATION>
			<DURATION>0.9166666666666666</DURATION>
			<DURATION>0.9166666666666666</DURATION>
			<DURATION>0.9166666666666666</DURATION>
			<DURATION>0.9166666666666666</DURATION>
			<DURATION>0.9166666666666666</DURATION>
			<DURATION>0.9166666666666666</DURATION>
			<DURATION>0.9166666666666666</DURATION>
			<DURATION>0.9166666666666666</DURATION>
			<DURATION>0.9166666666666666</DURATION>
			<DURATION>0.9166666666666666</DURATION>
			<DURATION>0.9166666666666666</DURATION>
			<DURATION>0.9166666666666666</DURATION>
			<DURATION>0.9166666666666666</DURATION>
			<DURATION>0.9166666666666666</DURATION>
			<DURATION>0.9166666666666666</DURATION>
			<DURATION>0.9166666666666666</DURATION>
			<DURATION>0.9166666666666666</DURATION>
			<DURATION>0.9166666666666666</DURATION>
			<DURATION>0.9166666666666666</DURATION>
			<DURATION>0.9166666666666666</DURATION>
			<DURATION>0.9166666666666666</DURATION>
			<DURATION>0.9166666666666666</DURATION>
			<DURATION>0.9166666666666666</DURATION>
			<DURATION>0.9166666666666666</DURATION>
			<DURATION>0.9333333333333333</DURATION>
			<DURATION>0.9333333333333333</DURATION>
			<DURATION>0.9333333333333333</DURATION>
			<DURATION>0.9333333333333333</DURATION>
			<DURATION>0.9333333333333333</DURATION>
			<DURATION>0.9333333333333333</DURATION>
			<DURATION>0.9333333333333333</DURATION>
			<DURATION>0.9333333333333333</DURATION>
			<DURATION>0.9333333333333333</DURATION>
			<DURATION>0.9333333333333333</DURATION>
			<DURATION>0.9333333333333333</DURATION>
			<DURATION>0.9333333333333333</DURATION>
			<DURATION>0.9333333333333333</DURATION>
			<DURATION>0.9333333333333333</DURATION>
			<DURATION>0.9333333333333333</DURATION>
			<DURATION>0.95</DURATION>
			<DURATION>0.95</DURATION>
			<DURATION>0.95</DURATION>
			<DURATION>0.95</DURATION>
			<DURATION>0.95</DURATION>
			<DURATION>0.95</DURATION>
			<DURATION>0.95</DURATION>
			<DURATION>0.95</DURATION>
			<DURATION>0.95</DURATION>
			<DURATION>0.95</DURATION>
			<DURATION>0.95</DURATION>
			<DURATION>0.95</DURATION>
			<DURATION>0.95</DURATION>
			<DURATION>0.95</DURATION>
			<DURATION>0.95</DURATION>
			<DURATION>0.9666666666666667</DURATION>
			<DURATION>0.9666666666666667</DURATION>
			<DURATION>0.9666666666666667</DURATION>
			<DURATION>0.9666666666666667</DURATION>
			<DURATION>0.9666666666666667</DURATION>
			<DURATION>0.9666666666666667</DURATION>
			<DURATION>0.9666666666666667</DURATION>
			<DURATION>0.9666666666666667</DURATION>
			<DURATION>0.9666666666666667</DURATION>
			<DURATION>0.9666666666666667</DURATION>
			<DURATION>0.9666666666666667</DURATION>
			<DURATION>0.9666666666666667</DURATION>
			<DURATION>0.9666666666666667</DURATION>
			<DURATION>0.9666666666666667</DURATION>
			<DURATION>0.9666666666666667</DURATION>
			<DURATION>0.9666666666666667</DURATION>
			<DURATION>0.9833333333333333</DURATION>
			<DURATION>0.9833333333333333</DURATION>
			<DURATION>0.9833333333333333</DURATION>
			<DURATION>0.9833333333333333</DURATION>
			<DURATION>0.9833333333333333</DURATION>
			<DURATION>0.9833333333333333</DURATION>
			<DURATION>0.9833333333333333</DURATION>
			<DURATION>0.9833333333333333</DURATION>
			<DURATION>0.9833333333333333</DURATION>
			<DURATION>0.9833333333333333</DURATION>
			<DURATION>0.9833333333333333</DURATION>
			<DURATION>0.9833333333333333</DURATION>
			<DURATION>0.9833333333333333</DURATION>
			<DURATION>0.9833333333333333</DURATION>
			<DURATION>0.9833333333333333</DURATION>
			<DURATION>0.9833333333333333</DURATION>
			<DURATION>0.9833333333333333</DURATION>
			<DURATION>0.9833333333333333</DURATION>
			<DURATION>0.9833333333333333</DURATION>
			<DURATION>0.9833333333333333</DURATION>
			<DURATION>1.0</DURATION>
			<DURATION>1.0</DURATION>
			<DURATION>1.0</DURATION>
			<DURATION>1.0</DURATION>
			<DURATION>1.0</DURATION>
			<DURATION>1.0</DURATION>
			<DURATION>1.0</DURATION>
			<DURATION>1.0</DURATION>
			<DURATION>1.0</DURATION>
			<DURATION>1.0</DURATION>
			<DURATION>1.0</DURATION>
			<DURATION>1.0</DURATION>
			<DURATION>1.0</DURATION>
			<DURATION>1.0</DURATION>
			<DURATION>1.0</DURATION>
			<DURATION>1.0</DURATION>
			<DURATION>1.0</DURATION>
			<DURATION>1.0</DURATION>
			<DURATION>1.0</DURATION>
			<DURATION>1.0</DURATION>
			<DURATION>1.0166666666666666</DURATION>
			<DURATION>1.0166666666666666</DURATION>
			<DURATION>1.0166666666666666</DURATION>
			<DURATION>1.0166666666666666</DURATION>
			<DURATION>1.0166666666666666</DURATION>
			<DURATION>1.0166666666666666</DURATION>
			<DURATION>1.0166666666666666</DURATION>
			<DURATION>1.0166666666666666</DURATION>
			<DURATION>1.0166666666666666</DURATION>
			<DURATION>1.0166666666666666</DURATION>
			<DURATION>1.0166666666666666</DURATION>
			<DURATION>1.0166666666666666</DURATION>
			<DURATION>1.0166666666666666</DURATION>
			<DURATION>1.0166666666666666</DURATION>
			<DURATION>1.0166666666666666</DURATION>
			<DURATION>1.0166666666666666</DURATION>
			<DURATION>1.0166666666666666</DURATION>
			<DURATION>1.0166666666666666</DURATION>
			<DURATION>1.0166666666666666</DURATION>
			<DURATION>1.0166666666666666</DURATION>
			<DURATION>1.0333333333333334</DURATION>
			<DURATION>1.0333333333333334</DURATION>
			<DURATION>1.0333333333333334</DURATION>
			<DURATION>1.0333333333333334</DURATION>
			<DURATION>1.0333333333333334</DURATION>
			<DURATION>1.0333333333333334</DURATION>
			<DURATION>1.0333333333333334</DURATION>
			<DURATION>1.0333333333333334</DURATION>
			<DURATION>1.0333333333333334</DURATION>
			<DURATION>1.0333333333333334</DURATION>
			<DURATION>1.0333333333333334</DURATION>
			<DURATION>1.0333333333333334</DURATION>
			<DURATION>1.0333333333333334</DURATION>
			<DURATION>1.0333333333333334</DURATION>
			<DURATION>1.0333333333333334</DURATION>
			<DURATION>1.0333333333333334</DURATION>
			<DURATION>1.0333333333333334</DURATION>
			<DURATION>1.0333333333333334</DURATION>
			<DURATION>1.0333333333333334</DURATION>
			<DURATION>1.0333333333333334</DURATION>
			<DURATION>1.0333333333333334</DURATION>
			<DURATION>1.0333333333333334</DURATION>
			<DURATION>1.0333333333333334</DURATION>
			<DURATION>1.0333333333333334</DURATION>
			<DURATION>1.05</DURATION>
			<DURATION>1.05</DURATION>
			<DURATION>1.05</DURATION>
			<DURATION>1.05</DURATION>
			<DURATION>1.05</DURATION>
			<DURATION>1.05</DURATION>
			<DURATION>1.05</DURATION>
			<DURATION>1.05</DURATION>
			<DURATION>1.05</DURATION>
			<DURATION>1.05</DURATION>
			<DURATION>1.05</DURATION>
			<DURATION>1.05</DURATION>
			<DURATION>1.05</DURATION>
			<DURATION>1.05</DURATION>
			<DURATION>1.05</DURATION>
			<DURATION>1.05</DURATION>
			<DURATION>1.05</DURATION>
			<DURATION>1.05</DURATION>
			<DURATION>1.05</DURATION>
			<DURATION>1.05</DURATION>
			<DURATION>1.0666666666666667</DURATION>
			<DURATION>1.0666666666666667</DURATION>
			<DURATION>1.0666666666666667</DURATION>
			<DURATION>1.0666666666666667</DURATION>
			<DURATION>1.0666666666666667</DURATION>
			<DURATION>1.0666666666666667</DURATION>
			<DURATION>1.0666666666666667</DURATION>
			<DURATION>1.0666666666666667</DURATION>
			<DURATION>1.0666666666666667</DURATION>
			<DURATION>1.0666666666666667</DURATION>
			<DURATION>1.0666666666666667</DURATION>
			<DURATION>1.0666666666666667</DURATION>
			<DURATION>1.0666666666666667</DURATION>
			<DURATION>1.0666666666666667</DURATION>
			<DURATION>1.0666666666666667</DURATION>
			<DURATION>1.0666666666666667</DURATION>
			<DURATION>1.0833333333333333</DURATION>
			<DURATION>1.0833333333333333</DURATION>
			<DURATION>1.0833333333333333</DURATION>
			<DURATION>1.0833333333333333</DURATION>
			<DURATION>1.0833333333333333</DURATION>
			<DURATION>1.0833333333333333</DURATION>
			<DURATION>1.0833333333333333</DURATION>
			<DURATION>1.0833333333333333</DURATION>
			<DURATION>1.0833333333333333</DURATION>
			<DURATION>1.0833333333333333</DURATION>
			<DURATION>1.0833333333333333</DURATION>
			<DURATION>1.0833333333333333</DURATION>
			<DURATION>1.0833333333333333</DURATION>
			<DURATION>1.0833333333333333</DURATION>
			<DURATION>1.1</DURATION>
			<DURATION>1.1</DURATION>
			<DURATION>1.1</DURATION>
			<DURATION>1.1</DURATION>
			<DURATION>1.1</DURATION>
			<DURATION>1.1</DURATION>
			<DURATION>1.1</DURATION>
			<DURATION>1.1</DURATION>
			<DURATION>1.1</DURATION>
			<DURATION>1.1166666666666667</DURATION>
			<DURATION>1.1166666666666667</DURATION>
			<DURATION>1.1166666666666667</DURATION>
			<DURATION>1.1166666666666667</DURATION>
			<DURATION>1.1166666666666667</DURATION>
			<DURATION>1.1166666666666667</DURATION>
			<DURATION>1.1166666666666667</DURATION>
			<DURATION>1.1166666666666667</DURATION>
			<DURATION>1.1166666666666667</DURATION>
			<DURATION>1.1166666666666667</DURATION>
			<DURATION>1.1333333333333333</DURATION>
			<DURATION>1.1333333333333333</DURATION>
			<DURATION>1.1333333333333333</DURATION>
			<DURATION>1.1333333333333333</DURATION>
			<DURATION>1.1333333333333333</DURATION>
			<DURATION>1.1333333333333333</DURATION>
			<DURATION>1.1333333333333333</DURATION>
			<DURATION>1.1333333333333333</DURATION>
			<DURATION>1.1333333333333333</DURATION>
			<DURATION>1.15</DURATION>
			<DURATION>1.15</DURATION>
			<DURATION>1.15</DURATION>
			<DURATION>1.15</DURATION>
			<DURATION>1.15</DURATION>
			<DURATION>1.15</DURATION>
			<DURATION>1.15</DURATION>
			<DURATION>1.15</DURATION>
			<DURATION>1.1666666666666667</DURATION>
			<DURATION>1.1666666666666667</DURATION>
			<DURATION>1.1666666666666667</DURATION>
			<DURATION>1.1666666666666667</DURATION>
			<DURATION>1.1666666666666667</DURATION>
			<DURATION>1.1666666666666667</DURATION>
			<DURATION>1.1666666666666667</DURATION>
			<DURATION>1.1666666666666667</DURATION>
			<DURATION>1.1666666666666667</DURATION>
			<DURATION>1.1833333333333333</DURATION>
			<DURATION>1.1833333333333333</DURATION>
			<DURATION>1.1833333333333333</DURATION>
			<DURATION>1.1833333333333333</DURATION>
			<DURATION>1.1833333333333333</DURATION>
			<DURATION>1.2</DURATION>
			<DURATION>1.2</DURATION>
			<DURATION>1.2166666666666666</DURATION>
			<DURATION>1.2166666666666666</DURATION>
			<DURATION>1.2166666666666666</DURATION>
			<DURATION>1.2166666666666666</DURATION>
			<DURATION>1.2166666666666666</DURATION>
			<DURATION>1.2166666666666666</DURATION>
			<DURATION>1.2166666666666666</DURATION>
			<DURATION>1.2166666666666666</DURATION>
			<DURATION>1.2166666666666666</DURATION>
			<DURATION>1.2166666666666666</DURATION>
			<DURATION>1.2333333333333334</DURATION>
			<DURATION>1.2333333333333334</DURATION>
			<DURATION>1.2333333333333334</DURATION>
			<DURATION>1.2333333333333334</DURATION>
			<DURATION>1.25</DURATION>
			<DURATION>1.25</DURATION>
			<DURATION>1.25</DURATION>
			<DURATION>1.25</DURATION>
			<DURATION>1.2666666666666666</DURATION>
			<DURATION>1.2666666666666666</DURATION>
			<DURATION>1.2833333333333334</DURATION>
			<DURATION>1.2833333333333334</DURATION>
			<DURATION>1.2833333333333334</DURATION>
			<DURATION>1.2833333333333334</DURATION>
			<DURATION>1.2833333333333334</DURATION>
			<DURATION>1.2833333333333334</DURATION>
			<DURATION>1.3</DURATION>
			<DURATION>1.3</DURATION>
			<DURATION>1.3166666666666667</DURATION>
			<DURATION>1.3166666666666667</DURATION>
			<DURATION>1.3166666666666667</DURATION>
			<DURATION>1.3333333333333333</DURATION>
			<DURATION>1.3333333333333333</DURATION>
			<DURATION>1.3333333333333333</DURATION>
			<DURATION>1.35</DURATION>
			<DURATION>1.3666666666666667</DURATION>
			<DURATION>1.3833333333333333</DURATION>
			<DURATION>1.4333333333333333</DURATION>
			<DURATION>1.4333333333333333</DURATION>
			<DURATION>1.45</DURATION>
			<DURATION>1.4666666666666666</DURATION>
			<DURATION>1.4833333333333334</DURATION>
			<DURATION>1.5</DURATION>
			<DURATION>1.5</DURATION>
			<DURATION>1.5166666666666666</DURATION>
			<DURATION>1.5333333333333334</DURATION>
			<DURATION>1.55</DURATION>
			<DURATION>1.55</DURATION>
			<DURATION>1.6166666666666667</DURATION>
			<DURATION>1.6333333333333333</DURATION>
			<DURATION>1.6833333333333333</DURATION>
			<DURATION>1.7166666666666666</DURATION>
			<DURATION>1.8833333333333333</DURATION>
			<DURATION>1.9</DURATION>
			<DURATION>1.95</DURATION>
			<DURATION>1.95</DURATION>
			<DURATION>1.9666666666666666</DURATION>
			<DURATION>2.0</DURATION>
			<DURATION>2.033333333333333</DURATION>
			<DURATION>2.1166666666666667</DURATION>
			<DURATION>2.316666666666667</DURATION>
			<DURATION>2.4166666666666665</DURATION>
			<DURATION>2.5</DURATION>
			<DURATION>2.5833333333333335</DURATION>
			<DURATION>2.6</DURATION>
			<DURATION>3.15</DURATION>
			<DURATION>3.2</DURATION>
			<DURATION>10.5</DURATION>
		</HISTORICAL-DURATIONS>
	</CONSTRAINT>
	<CONSTRAINT>
		<START>af74c3c6-3747-4878-b3c2-1b6ce8160fc3</START>
		<END>cdbdc5f1-dc24-40b2-8152-17549dcae863</END>
		<ID>850ad1cd-640d-48de-90e3-d725972b9889</ID>
		<NAME>From 70073 to 70075 (Park Street - to Ashmont/Braintree)</NAME>
		<LOWERBOUND>0.5833333333333334</LOWERBOUND>
		<UPPERBOUND>1.9166666666666667</UPPERBOUND>
		<LB-RELAX-COST-RATIO>0.0</LB-RELAX-COST-RATIO>
		<UB-RELAX-COST-RATIO>0.0</UB-RELAX-COST-RATIO>
		<COST>0.0</COST>
		<TYPE>Uncontrollable;Activity</TYPE>
		<MEAN>0.0</MEAN>
		<DISTRIBUTION>Normal</DISTRIBUTION>
		<VARIANCE>0.0</VARIANCE>
		<HISTORICAL-DURATIONS>
			<DURATION>0.5833333333333334</DURATION>
			<DURATION>0.6333333333333333</DURATION>
			<DURATION>0.65</DURATION>
			<DURATION>0.9166666666666666</DURATION>
			<DURATION>0.9166666666666666</DURATION>
			<DURATION>0.9333333333333333</DURATION>
			<DURATION>0.9333333333333333</DURATION>
			<DURATION>0.9333333333333333</DURATION>
			<DURATION>0.9333333333333333</DURATION>
			<DURATION>0.9333333333333333</DURATION>
			<DURATION>0.9333333333333333</DURATION>
			<DURATION>0.95</DURATION>
			<DURATION>0.95</DURATION>
			<DURATION>0.95</DURATION>
			<DURATION>0.95</DURATION>
			<DURATION>0.95</DURATION>
			<DURATION>0.95</DURATION>
			<DURATION>0.95</DURATION>
			<DURATION>0.95</DURATION>
			<DURATION>0.95</DURATION>
			<DURATION>0.95</DURATION>
			<DURATION>0.95</DURATION>
			<DURATION>0.95</DURATION>
			<DURATION>0.9666666666666667</DURATION>
			<DURATION>0.9666666666666667</DURATION>
			<DURATION>0.9666666666666667</DURATION>
			<DURATION>0.9666666666666667</DURATION>
			<DURATION>0.9666666666666667</DURATION>
			<DURATION>0.9666666666666667</DURATION>
			<DURATION>0.9666666666666667</DURATION>
			<DURATION>0.9666666666666667</DURATION>
			<DURATION>0.9666666666666667</DURATION>
			<DURATION>0.9666666666666667</DURATION>
			<DURATION>0.9666666666666667</DURATION>
			<DURATION>0.9666666666666667</DURATION>
			<DURATION>0.9666666666666667</DURATION>
			<DURATION>0.9666666666666667</DURATION>
			<DURATION>0.9666666666666667</DURATION>
			<DURATION>0.9666666666666667</DURATION>
			<DURATION>0.9666666666666667</DURATION>
			<DURATION>0.9666666666666667</DURATION>
			<DURATION>0.9666666666666667</DURATION>
			<DURATION>0.9666666666666667</DURATION>
			<DURATION>0.9666666666666667</DURATION>
			<DURATION>0.9666666666666667</DURATION>
			<DURATION>0.9666666666666667</DURATION>
			<DURATION>0.9666666666666667</DURATION>
			<DURATION>0.9666666666666667</DURATION>
			<DURATION>0.9833333333333333</DURATION>
			<DURATION>0.9833333333333333</DURATION>
			<DURATION>0.9833333333333333</DURATION>
			<DURATION>0.9833333333333333</DURATION>
			<DURATION>0.9833333333333333</DURATION>
			<DURATION>0.9833333333333333</DURATION>
			<DURATION>0.9833333333333333</DURATION>
			<DURATION>0.9833333333333333</DURATION>
			<DURATION>0.9833333333333333</DURATION>
			<DURATION>0.9833333333333333</DURATION>
			<DURATION>0.9833333333333333</DURATION>
			<DURATION>0.9833333333333333</DURATION>
			<DURATION>0.9833333333333333</DURATION>
			<DURATION>0.9833333333333333</DURATION>
			<DURATION>0.9833333333333333</DURATION>
			<DURATION>0.9833333333333333</DURATION>
			<DURATION>0.9833333333333333</DURATION>
			<DURATION>0.9833333333333333</DURATION>
			<DURATION>0.9833333333333333</DURATION>
			<DURATION>0.9833333333333333</DURATION>
			<DURATION>0.9833333333333333</DURATION>
			<DURATION>0.9833333333333333</DURATION>
			<DURATION>0.9833333333333333</DURATION>
			<DURATION>0.9833333333333333</DURATION>
			<DURATION>0.9833333333333333</DURATION>
			<DURATION>0.9833333333333333</DURATION>
			<DURATION>0.9833333333333333</DURATION>
			<DURATION>0.9833333333333333</DURATION>
			<DURATION>0.9833333333333333</DURATION>
			<DURATION>0.9833333333333333</DURATION>
			<DURATION>0.9833333333333333</DURATION>
			<DURATION>0.9833333333333333</DURATION>
			<DURATION>0.9833333333333333</DURATION>
			<DURATION>0.9833333333333333</DURATION>
			<DURATION>0.9833333333333333</DURATION>
			<DURATION>0.9833333333333333</DURATION>
			<DURATION>1.0</DURATION>
			<DURATION>1.0</DURATION>
			<DURATION>1.0</DURATION>
			<DURATION>1.0</DURATION>
			<DURATION>1.0</DURATION>
			<DURATION>1.0</DURATION>
			<DURATION>1.0</DURATION>
			<DURATION>1.0</DURATION>
			<DURATION>1.0</DURATION>
			<DURATION>1.0</DURATION>
			<DURATION>1.0</DURATION>
			<DURATION>1.0</DURATION>
			<DURATION>1.0</DURATION>
			<DURATION>1.0</DURATION>
			<DURATION>1.0</DURATION>
			<DURATION>1.0</DURATION>
			<DURATION>1.0</DURATION>
			<DURATION>1.0</DURATION>
			<DURATION>1.0</DURATION>
			<DURATION>1.0</DURATION>
			<DURATION>1.0</DURATION>
			<DURATION>1.0</DURATION>
			<DURATION>1.0</DURATION>
			<DURATION>1.0</DURATION>
			<DURATION>1.0</DURATION>
			<DURATION>1.0</DURATION>
			<DURATION>1.0</DURATION>
			<DURATION>1.0</DURATION>
			<DURATION>1.0</DURATION>
			<DURATION>1.0</DURATION>
			<DURATION>1.0</DURATION>
			<DURATION>1.0</DURATION>
			<DURATION>1.0</DURATION>
			<DURATION>1.0</DURATION>
			<DURATION>1.0</DURATION>
			<DURATION>1.0</DURATION>
			<DURATION>1.0</DURATION>
			<DURATION>1.0</DURATION>
			<DURATION>1.0</DURATION>
			<DURATION>1.0</DURATION>
			<DURATION>1.0</DURATION>
			<DURATION>1.0</DURATION>
			<DURATION>1.0</DURATION>
			<DURATION>1.0</DURATION>
			<DURATION>1.0</DURATION>
			<DURATION>1.0</DURATION>
			<DURATION>1.0</DURATION>
			<DURATION>1.0</DURATION>
			<DURATION>1.0</DURATION>
			<DURATION>1.0</DURATION>
			<DURATION>1.0</DURATION>
			<DURATION>1.0</DURATION>
			<DURATION>1.0</DURATION>
			<DURATION>1.0</DURATION>
			<DURATION>1.0</DURATION>
			<DURATION>1.0166666666666666</DURATION>
			<DURATION>1.0166666666666666</DURATION>
			<DURATION>1.0166666666666666</DURATION>
			<DURATION>1.0166666666666666</DURATION>
			<DURATION>1.0166666666666666</DURATION>
			<DURATION>1.0166666666666666</DURATION>
			<DURATION>1.0166666666666666</DURATION>
			<DURATION>1.0166666666666666</DURATION>
			<DURATION>1.0166666666666666</DURATION>
			<DURATION>1.0166666666666666</DURATION>
			<DURATION>1.0166666666666666</DURATION>
			<DURATION>1.0166666666666666</DURATION>
			<DURATION>1.0166666666666666</DURATION>
			<DURATION>1.0166666666666666</DURATION>
			<DURATION>1.0166666666666666</DURATION>
			<DURATION>1.0166666666666666</DURATION>
			<DURATION>1.0166666666666666</DURATION>
			<DURATION>1.0166666666666666</DURATION>
			<DURATION>1.0166666666666666</DURATION>
			<DURATION>1.0166666666666666</DURATION>
			<DURATION>1.0166666666666666</DURATION>
			<DURATION>1.0166666666666666</DURATION>
			<DURATION>1.0166666666666666</DURATION>
			<DURATION>1.0166666666666666</DURATION>
			<DURATION>1.0166666666666666</DURATION>
			<DURATION>1.0166666666666666</DURATION>
			<DURATION>1.0166666666666666</DURATION>
			<DURATION>1.0166666666666666</DURATION>
			<DURATION>1.0166666666666666</DURATION>
			<DURATION>1.0166666666666666</DURATION>
			<DURATION>1.0166666666666666</DURATION>
			<DURATION>1.0166666666666666</DURATION>
			<DURATION>1.0166666666666666</DURATION>
			<DURATION>1.0166666666666666</DURATION>
			<DURATION>1.0166666666666666</DURATION>
			<DURATION>1.0166666666666666</DURATION>
			<DURATION>1.0166666666666666</DURATION>
			<DURATION>1.0166666666666666</DURATION>
			<DURATION>1.0166666666666666</DURATION>
			<DURATION>1.0166666666666666</DURATION>
			<DURATION>1.0166666666666666</DURATION>
			<DURATION>1.0166666666666666</DURATION>
			<DURATION>1.0166666666666666</DURATION>
			<DURATION>1.0166666666666666</DURATION>
			<DURATION>1.0333333333333334</DURATION>
			<DURATION>1.0333333333333334</DURATION>
			<DURATION>1.0333333333333334</DURATION>
			<DURATION>1.0333333333333334</DURATION>
			<DURATION>1.0333333333333334</DURATION>
			<DURATION>1.0333333333333334</DURATION>
			<DURATION>1.0333333333333334</DURATION>
			<DURATION>1.0333333333333334</DURATION>
			<DURATION>1.0333333333333334</DURATION>
			<DURATION>1.0333333333333334</DURATION>
			<DURATION>1.0333333333333334</DURATION>
			<DURATION>1.0333333333333334</DURATION>
			<DURATION>1.0333333333333334</DURATION>
			<DURATION>1.0333333333333334</DURATION>
			<DURATION>1.0333333333333334</DURATION>
			<DURATION>1.0333333333333334</DURATION>
			<DURATION>1.0333333333333334</DURATION>
			<DURATION>1.0333333333333334</DURATION>
			<DURATION>1.0333333333333334</DURATION>
			<DURATION>1.0333333333333334</DURATION>
			<DURATION>1.0333333333333334</DURATION>
			<DURATION>1.0333333333333334</DURATION>
			<DURATION>1.0333333333333334</DURATION>
			<DURATION>1.0333333333333334</DURATION>
			<DURATION>1.0333333333333334</DURATION>
			<DURATION>1.0333333333333334</DURATION>
			<DURATION>1.0333333333333334</DURATION>
			<DURATION>1.0333333333333334</DURATION>
			<DURATION>1.0333333333333334</DURATION>
			<DURATION>1.0333333333333334</DURATION>
			<DURATION>1.0333333333333334</DURATION>
			<DURATION>1.0333333333333334</DURATION>
			<DURATION>1.0333333333333334</DURATION>
			<DURATION>1.0333333333333334</DURATION>
			<DURATION>1.0333333333333334</DURATION>
			<DURATION>1.0333333333333334</DURATION>
			<DURATION>1.0333333333333334</DURATION>
			<DURATION>1.0333333333333334</DURATION>
			<DURATION>1.0333333333333334</DURATION>
			<DURATION>1.0333333333333334</DURATION>
			<DURATION>1.0333333333333334</DURATION>
			<DURATION>1.0333333333333334</DURATION>
			<DURATION>1.0333333333333334</DURATION>
			<DURATION>1.0333333333333334</DURATION>
			<DURATION>1.0333333333333334</DURATION>
			<DURATION>1.0333333333333334</DURATION>
			<DURATION>1.0333333333333334</DURATION>
			<DURATION>1.0333333333333334</DURATION>
			<DURATION>1.0333333333333334</DURATION>
			<DURATION>1.0333333333333334</DURATION>
			<DURATION>1.0333333333333334</DURATION>
			<DURATION>1.0333333333333334</DURATION>
			<DURATION>1.0333333333333334</DURATION>
			<DURATION>1.0333333333333334</DURATION>
			<DURATION>1.0333333333333334</DURATION>
			<DURATION>1.0333333333333334</DURATION>
			<DURATION>1.0333333333333334</DURATION>
			<DURATION>1.0333333333333334</DURATION>
			<DURATION>1.0333333333333334</DURATION>
			<DURATION>1.0333333333333334</DURATION>
			<DURATION>1.0333333333333334</DURATION>
			<DURATION>1.0333333333333334</DURATION>
			<DURATION>1.05</DURATION>
			<DURATION>1.05</DURATION>
			<DURATION>1.05</DURATION>
			<DURATION>1.05</DURATION>
			<DURATION>1.05</DURATION>
			<DURATION>1.05</DURATION>
			<DURATION>1.05</DURATION>
			<DURATION>1.05</DURATION>
			<DURATION>1.05</DURATION>
			<DURATION>1.05</DURATION>
			<DURATION>1.05</DURATION>
			<DURATION>1.05</DURATION>
			<DURATION>1.05</DURATION>
			<DURATION>1.05</DURATION>
			<DURATION>1.05</DURATION>
			<DURATION>1.05</DURATION>
			<DURATION>1.05</DURATION>
			<DURATION>1.05</DURATION>
			<DURATION>1.05</DURATION>
			<DURATION>1.05</DURATION>
			<DURATION>1.05</DURATION>
			<DURATION>1.05</DURATION>
			<DURATION>1.05</DURATION>
			<DURATION>1.05</DURATION>
			<DURATION>1.05</DURATION>
			<DURATION>1.05</DURATION>
			<DURATION>1.05</DURATION>
			<DURATION>1.05</DURATION>
			<DURATION>1.05</DURATION>
			<DURATION>1.05</DURATION>
			<DURATION>1.05</DURATION>
			<DURATION>1.05</DURATION>
			<DURATION>1.05</DURATION>
			<DURATION>1.05</DURATION>
			<DURATION>1.05</DURATION>
			<DURATION>1.05</DURATION>
			<DURATION>1.05</DURATION>
			<DURATION>1.05</DURATION>
			<DURATION>1.05</DURATION>
			<DURATION>1.05</DURATION>
			<DURATION>1.05</DURATION>
			<DURATION>1.05</DURATION>
			<DURATION>1.05</DURATION>
			<DURATION>1.05</DURATION>
			<DURATION>1.05</DURATION>
			<DURATION>1.05</DURATION>
			<DURATION>1.05</DURATION>
			<DURATION>1.05</DURATION>
			<DURATION>1.05</DURATION>
			<DURATION>1.05</DURATION>
			<DURATION>1.05</DURATION>
			<DURATION>1.05</DURATION>
			<DURATION>1.05</DURATION>
			<DURATION>1.05</DURATION>
			<DURATION>1.05</DURATION>
			<DURATION>1.05</DURATION>
			<DURATION>1.05</DURATION>
			<DURATION>1.05</DURATION>
			<DURATION>1.05</DURATION>
			<DURATION>1.05</DURATION>
			<DURATION>1.05</DURATION>
			<DURATION>1.0666666666666667</DURATION>
			<DURATION>1.0666666666666667</DURATION>
			<DURATION>1.0666666666666667</DURATION>
			<DURATION>1.0666666666666667</DURATION>
			<DURATION>1.0666666666666667</DURATION>
			<DURATION>1.0666666666666667</DURATION>
			<DURATION>1.0666666666666667</DURATION>
			<DURATION>1.0666666666666667</DURATION>
			<DURATION>1.0666666666666667</DURATION>
			<DURATION>1.0666666666666667</DURATION>
			<DURATION>1.0666666666666667</DURATION>
			<DURATION>1.0666666666666667</DURATION>
			<DURATION>1.0666666666666667</DURATION>
			<DURATION>1.0666666666666667</DURATION>
			<DURATION>1.0666666666666667</DURATION>
			<DURATION>1.0666666666666667</DURATION>
			<DURATION>1.0666666666666667</DURATION>
			<DURATION>1.0666666666666667</DURATION>
			<DURATION>1.0666666666666667</DURATION>
			<DURATION>1.0666666666666667</DURATION>
			<DURATION>1.0666666666666667</DURATION>
			<DURATION>1.0666666666666667</DURATION>
			<DURATION>1.0666666666666667</DURATION>
			<DURATION>1.0666666666666667</DURATION>
			<DURATION>1.0666666666666667</DURATION>
			<DURATION>1.0666666666666667</DURATION>
			<DURATION>1.0666666666666667</DURATION>
			<DURATION>1.0666666666666667</DURATION>
			<DURATION>1.0666666666666667</DURATION>
			<DURATION>1.0666666666666667</DURATION>
			<DURATION>1.0666666666666667</DURATION>
			<DURATION>1.0666666666666667</DURATION>
			<DURATION>1.0666666666666667</DURATION>
			<DURATION>1.0666666666666667</DURATION>
			<DURATION>1.0666666666666667</DURATION>
			<DURATION>1.0666666666666667</DURATION>
			<DURATION>1.0666666666666667</DURATION>
			<DURATION>1.0666666666666667</DURATION>
			<DURATION>1.0666666666666667</DURATION>
			<DURATION>1.0666666666666667</DURATION>
			<DURATION>1.0666666666666667</DURATION>
			<DURATION>1.0666666666666667</DURATION>
			<DURATION>1.0666666666666667</DURATION>
			<DURATION>1.0666666666666667</DURATION>
			<DURATION>1.0666666666666667</DURATION>
			<DURATION>1.0666666666666667</DURATION>
			<DURATION>1.0666666666666667</DURATION>
			<DURATION>1.0666666666666667</DURATION>
			<DURATION>1.0666666666666667</DURATION>
			<DURATION>1.0666666666666667</DURATION>
			<DURATION>1.0666666666666667</DURATION>
			<DURATION>1.0666666666666667</DURATION>
			<DURATION>1.0666666666666667</DURATION>
			<DURATION>1.0666666666666667</DURATION>
			<DURATION>1.0666666666666667</DURATION>
			<DURATION>1.0666666666666667</DURATION>
			<DURATION>1.0666666666666667</DURATION>
			<DURATION>1.0666666666666667</DURATION>
			<DURATION>1.0666666666666667</DURATION>
			<DURATION>1.0666666666666667</DURATION>
			<DURATION>1.0666666666666667</DURATION>
			<DURATION>1.0833333333333333</DURATION>
			<DURATION>1.0833333333333333</DURATION>
			<DURATION>1.0833333333333333</DURATION>
			<DURATION>1.0833333333333333</DURATION>
			<DURATION>1.0833333333333333</DURATION>
			<DURATION>1.0833333333333333</DURATION>
			<DURATION>1.0833333333333333</DURATION>
			<DURATION>1.0833333333333333</DURATION>
			<DURATION>1.0833333333333333</DURATION>
			<DURATION>1.0833333333333333</DURATION>
			<DURATION>1.0833333333333333</DURATION>
			<DURATION>1.0833333333333333</DURATION>
			<DURATION>1.0833333333333333</DURATION>
			<DURATION>1.0833333333333333</DURATION>
			<DURATION>1.0833333333333333</DURATION>
			<DURATION>1.0833333333333333</DURATION>
			<DURATION>1.0833333333333333</DURATION>
			<DURATION>1.0833333333333333</DURATION>
			<DURATION>1.0833333333333333</DURATION>
			<DURATION>1.0833333333333333</DURATION>
			<DURATION>1.0833333333333333</DURATION>
			<DURATION>1.0833333333333333</DURATION>
			<DURATION>1.0833333333333333</DURATION>
			<DURATION>1.0833333333333333</DURATION>
			<DURATION>1.0833333333333333</DURATION>
			<DURATION>1.0833333333333333</DURATION>
			<DURATION>1.0833333333333333</DURATION>
			<DURATION>1.0833333333333333</DURATION>
			<DURATION>1.0833333333333333</DURATION>
			<DURATION>1.0833333333333333</DURATION>
			<DURATION>1.0833333333333333</DURATION>
			<DURATION>1.0833333333333333</DURATION>
			<DURATION>1.0833333333333333</DURATION>
			<DURATION>1.0833333333333333</DURATION>
			<DURATION>1.0833333333333333</DURATION>
			<DURATION>1.0833333333333333</DURATION>
			<DURATION>1.0833333333333333</DURATION>
			<DURATION>1.1</DURATION>
			<DURATION>1.1</DURATION>
			<DURATION>1.1</DURATION>
			<DURATION>1.1</DURATION>
			<DURATION>1.1</DURATION>
			<DURATION>1.1</DURATION>
			<DURATION>1.1</DURATION>
			<DURATION>1.1</DURATION>
			<DURATION>1.1</DURATION>
			<DURATION>1.1</DURATION>
			<DURATION>1.1</DURATION>
			<DURATION>1.1</DURATION>
			<DURATION>1.1</DURATION>
			<DURATION>1.1</DURATION>
			<DURATION>1.1</DURATION>
			<DURATION>1.1</DURATION>
			<DURATION>1.1</DURATION>
			<DURATION>1.1</DURATION>
			<DURATION>1.1</DURATION>
			<DURATION>1.1</DURATION>
			<DURATION>1.1</DURATION>
			<DURATION>1.1</DURATION>
			<DURATION>1.1</DURATION>
			<DURATION>1.1</DURATION>
			<DURATION>1.1</DURATION>
			<DURATION>1.1</DURATION>
			<DURATION>1.1</DURATION>
			<DURATION>1.1</DURATION>
			<DURATION>1.1</DURATION>
			<DURATION>1.1</DURATION>
			<DURATION>1.1</DURATION>
			<DURATION>1.1166666666666667</DURATION>
			<DURATION>1.1166666666666667</DURATION>
			<DURATION>1.1166666666666667</DURATION>
			<DURATION>1.1166666666666667</DURATION>
			<DURATION>1.1166666666666667</DURATION>
			<DURATION>1.1166666666666667</DURATION>
			<DURATION>1.1166666666666667</DURATION>
			<DURATION>1.1166666666666667</DURATION>
			<DURATION>1.1166666666666667</DURATION>
			<DURATION>1.1166666666666667</DURATION>
			<DURATION>1.1166666666666667</DURATION>
			<DURATION>1.1166666666666667</DURATION>
			<DURATION>1.1166666666666667</DURATION>
			<DURATION>1.1166666666666667</DURATION>
			<DURATION>1.1166666666666667</DURATION>
			<DURATION>1.1166666666666667</DURATION>
			<DURATION>1.1166666666666667</DURATION>
			<DURATION>1.1166666666666667</DURATION>
			<DURATION>1.1166666666666667</DURATION>
			<DURATION>1.1166666666666667</DURATION>
			<DURATION>1.1166666666666667</DURATION>
			<DURATION>1.1166666666666667</DURATION>
			<DURATION>1.1166666666666667</DURATION>
			<DURATION>1.1166666666666667</DURATION>
			<DURATION>1.1166666666666667</DURATION>
			<DURATION>1.1166666666666667</DURATION>
			<DURATION>1.1166666666666667</DURATION>
			<DURATION>1.1166666666666667</DURATION>
			<DURATION>1.1166666666666667</DURATION>
			<DURATION>1.1166666666666667</DURATION>
			<DURATION>1.1333333333333333</DURATION>
			<DURATION>1.1333333333333333</DURATION>
			<DURATION>1.1333333333333333</DURATION>
			<DURATION>1.1333333333333333</DURATION>
			<DURATION>1.1333333333333333</DURATION>
			<DURATION>1.1333333333333333</DURATION>
			<DURATION>1.1333333333333333</DURATION>
			<DURATION>1.1333333333333333</DURATION>
			<DURATION>1.1333333333333333</DURATION>
			<DURATION>1.1333333333333333</DURATION>
			<DURATION>1.1333333333333333</DURATION>
			<DURATION>1.1333333333333333</DURATION>
			<DURATION>1.1333333333333333</DURATION>
			<DURATION>1.1333333333333333</DURATION>
			<DURATION>1.1333333333333333</DURATION>
			<DURATION>1.1333333333333333</DURATION>
			<DURATION>1.15</DURATION>
			<DURATION>1.15</DURATION>
			<DURATION>1.15</DURATION>
			<DURATION>1.15</DURATION>
			<DURATION>1.15</DURATION>
			<DURATION>1.15</DURATION>
			<DURATION>1.15</DURATION>
			<DURATION>1.15</DURATION>
			<DURATION>1.15</DURATION>
			<DURATION>1.15</DURATION>
			<DURATION>1.15</DURATION>
			<DURATION>1.15</DURATION>
			<DURATION>1.15</DURATION>
			<DURATION>1.15</DURATION>
			<DURATION>1.15</DURATION>
			<DURATION>1.1666666666666667</DURATION>
			<DURATION>1.1666666666666667</DURATION>
			<DURATION>1.1666666666666667</DURATION>
			<DURATION>1.1666666666666667</DURATION>
			<DURATION>1.1666666666666667</DURATION>
			<DURATION>1.1666666666666667</DURATION>
			<DURATION>1.1666666666666667</DURATION>
			<DURATION>1.1666666666666667</DURATION>
			<DURATION>1.1833333333333333</DURATION>
			<DURATION>1.1833333333333333</DURATION>
			<DURATION>1.1833333333333333</DURATION>
			<DURATION>1.1833333333333333</DURATION>
			<DURATION>1.1833333333333333</DURATION>
			<DURATION>1.1833333333333333</DURATION>
			<DURATION>1.1833333333333333</DURATION>
			<DURATION>1.1833333333333333</DURATION>
			<DURATION>1.1833333333333333</DURATION>
			<DURATION>1.1833333333333333</DURATION>
			<DURATION>1.1833333333333333</DURATION>
			<DURATION>1.1833333333333333</DURATION>
			<DURATION>1.2</DURATION>
			<DURATION>1.2</DURATION>
			<DURATION>1.2</DURATION>
			<DURATION>1.2</DURATION>
			<DURATION>1.2</DURATION>
			<DURATION>1.2</DURATION>
			<DURATION>1.2</DURATION>
			<DURATION>1.2</DURATION>
			<DURATION>1.2</DURATION>
			<DURATION>1.2</DURATION>
			<DURATION>1.2</DURATION>
			<DURATION>1.2</DURATION>
			<DURATION>1.2166666666666666</DURATION>
			<DURATION>1.2166666666666666</DURATION>
			<DURATION>1.2166666666666666</DURATION>
			<DURATION>1.2166666666666666</DURATION>
			<DURATION>1.2333333333333334</DURATION>
			<DURATION>1.2333333333333334</DURATION>
			<DURATION>1.2333333333333334</DURATION>
			<DURATION>1.2333333333333334</DURATION>
			<DURATION>1.2333333333333334</DURATION>
			<DURATION>1.25</DURATION>
			<DURATION>1.25</DURATION>
			<DURATION>1.25</DURATION>
			<DURATION>1.25</DURATION>
			<DURATION>1.2666666666666666</DURATION>
			<DURATION>1.2666666666666666</DURATION>
			<DURATION>1.2666666666666666</DURATION>
			<DURATION>1.2833333333333334</DURATION>
			<DURATION>1.2833333333333334</DURATION>
			<DURATION>1.2833333333333334</DURATION>
			<DURATION>1.2833333333333334</DURATION>
			<DURATION>1.3</DURATION>
			<DURATION>1.3</DURATION>
			<DURATION>1.3</DURATION>
			<DURATION>1.3</DURATION>
			<DURATION>1.3</DURATION>
			<DURATION>1.3166666666666667</DURATION>
			<DURATION>1.3166666666666667</DURATION>
			<DURATION>1.3166666666666667</DURATION>
			<DURATION>1.3166666666666667</DURATION>
			<DURATION>1.35</DURATION>
			<DURATION>1.35</DURATION>
			<DURATION>1.3666666666666667</DURATION>
			<DURATION>1.3666666666666667</DURATION>
			<DURATION>1.3666666666666667</DURATION>
			<DURATION>1.3833333333333333</DURATION>
			<DURATION>1.3833333333333333</DURATION>
			<DURATION>1.3833333333333333</DURATION>
			<DURATION>1.3833333333333333</DURATION>
			<DURATION>1.4</DURATION>
			<DURATION>1.4</DURATION>
			<DURATION>1.4166666666666667</DURATION>
			<DURATION>1.4666666666666666</DURATION>
			<DURATION>1.4666666666666666</DURATION>
			<DURATION>1.4666666666666666</DURATION>
			<DURATION>1.4833333333333334</DURATION>
			<DURATION>1.5</DURATION>
			<DURATION>1.5333333333333334</DURATION>
			<DURATION>1.6</DURATION>
			<DURATION>1.6</DURATION>
			<DURATION>1.6166666666666667</DURATION>
			<DURATION>1.6333333333333333</DURATION>
			<DURATION>1.65</DURATION>
			<DURATION>1.6666666666666667</DURATION>
			<DURATION>1.6666666666666667</DURATION>
			<DURATION>1.7</DURATION>
			<DURATION>1.7166666666666666</DURATION>
			<DURATION>1.7333333333333334</DURATION>
			<DURATION>1.7333333333333334</DURATION>
			<DURATION>1.7333333333333334</DURATION>
			<DURATION>1.75</DURATION>
			<DURATION>1.75</DURATION>
			<DURATION>1.75</DURATION>
			<DURATION>1.7833333333333334</DURATION>
			<DURATION>1.7833333333333334</DURATION>
			<DURATION>1.7833333333333334</DURATION>
			<DURATION>1.8</DURATION>
			<DURATION>1.8166666666666667</DURATION>
