<CCTP>
	<NAME>Transit Test Route Red</NAME>
	<START>2c7e1271-accd-4449-bec9-0cb61cc06736</START>
	<END>1e169c7f-e419-415f-9302-974b1a490cc3</END>
	<RISK-BOUND>1.0</RISK-BOUND>
	<RISK-BOUND-RELAX-COST>0.0</RISK-BOUND-RELAX-COST>
	<EVENT-UNIT>millisecond</EVENT-UNIT>
	<DURATION-UNIT>minute</DURATION-UNIT>
	<CONSTRAINT>
		<START>ec496053-0473-4194-8efd-11186c2bcf88</START>
		<END>96752ac2-2115-4125-8069-e3d914412c79</END>
		<ID>0be9ed6b-3f7c-4d3f-9392-13e3b75b2f5b</ID>
		<NAME>Dwell at 70063 (Davis - Inbound)</NAME>
		<LOWERBOUND>0.4166666666666667</LOWERBOUND>
		<UPPERBOUND>1.95</UPPERBOUND>
		<LB-RELAX-COST-RATIO>0.0</LB-RELAX-COST-RATIO>
		<UB-RELAX-COST-RATIO>0.0</UB-RELAX-COST-RATIO>
		<COST>0.0</COST>
		<TYPE>Uncontrollable;Activity</TYPE>
		<MEAN>0.0</MEAN>
		<DISTRIBUTION>Normal</DISTRIBUTION>
		<VARIANCE>0.0</VARIANCE>
		<HISTORICAL-DURATIONS>
			<DURATION>0.4166666666666667</DURATION>
			<DURATION>0.6</DURATION>
			<DURATION>0.6166666666666667</DURATION>
			<DURATION>0.6166666666666667</DURATION>
			<DURATION>0.6333333333333333</DURATION>
			<DURATION>0.6333333333333333</DURATION>
			<DURATION>0.65</DURATION>
			<DURATION>0.65</DURATION>
			<DURATION>0.65</DURATION>
			<DURATION>0.65</DURATION>
			<DURATION>0.6666666666666666</DURATION>
			<DURATION>0.6666666666666666</DURATION>
			<DURATION>0.6666666666666666</DURATION>
			<DURATION>0.6833333333333333</DURATION>
			<DURATION>0.6833333333333333</DURATION>
			<DURATION>0.6833333333333333</DURATION>
			<DURATION>0.6833333333333333</DURATION>
			<DURATION>0.6833333333333333</DURATION>
			<DURATION>0.6833333333333333</DURATION>
			<DURATION>0.6833333333333333</DURATION>
			<DURATION>0.6833333333333333</DURATION>
			<DURATION>0.6833333333333333</DURATION>
			<DURATION>0.7</DURATION>
			<DURATION>0.7</DURATION>
			<DURATION>0.7</DURATION>
			<DURATION>0.7</DURATION>
			<DURATION>0.7</DURATION>
			<DURATION>0.7</DURATION>
			<DURATION>0.7</DURATION>
			<DURATION>0.7</DURATION>
			<DURATION>0.7</DURATION>
			<DURATION>0.7</DURATION>
			<DURATION>0.7</DURATION>
			<DURATION>0.7166666666666667</DURATION>
			<DURATION>0.7166666666666667</DURATION>
			<DURATION>0.7166666666666667</DURATION>
			<DURATION>0.7166666666666667</DURATION>
			<DURATION>0.7166666666666667</DURATION>
			<DURATION>0.7166666666666667</DURATION>
			<DURATION>0.7166666666666667</DURATION>
			<DURATION>0.7166666666666667</DURATION>
			<DURATION>0.7166666666666667</DURATION>
			<DURATION>0.7166666666666667</DURATION>
			<DURATION>0.7166666666666667</DURATION>
			<DURATION>0.7166666666666667</DURATION>
			<DURATION>0.7166666666666667</DURATION>
			<DURATION>0.7166666666666667</DURATION>
			<DURATION>0.7166666666666667</DURATION>
			<DURATION>0.7166666666666667</DURATION>
			<DURATION>0.7166666666666667</DURATION>
			<DURATION>0.7166666666666667</DURATION>
			<DURATION>0.7166666666666667</DURATION>
			<DURATION>0.7166666666666667</DURATION>
			<DURATION>0.7166666666666667</DURATION>
			<DURATION>0.7166666666666667</DURATION>
			<DURATION>0.7166666666666667</DURATION>
			<DURATION>0.7166666666666667</DURATION>
			<DURATION>0.7166666666666667</DURATION>
			<DURATION>0.7166666666666667</DURATION>
			<DURATION>0.7166666666666667</DURATION>
			<DURATION>0.7166666666666667</DURATION>
			<DURATION>0.7166666666666667</DURATION>
			<DURATION>0.7166666666666667</DURATION>
			<DURATION>0.7166666666666667</DURATION>
			<DURATION>0.7333333333333333</DURATION>
			<DURATION>0.7333333333333333</DURATION>
			<DURATION>0.7333333333333333</DURATION>
			<DURATION>0.7333333333333333</DURATION>
			<DURATION>0.7333333333333333</DURATION>
			<DURATION>0.7333333333333333</DURATION>
			<DURATION>0.7333333333333333</DURATION>
			<DURATION>0.7333333333333333</DURATION>
			<DURATION>0.7333333333333333</DURATION>
			<DURATION>0.7333333333333333</DURATION>
			<DURATION>0.7333333333333333</DURATION>
			<DURATION>0.7333333333333333</DURATION>
			<DURATION>0.7333333333333333</DURATION>
			<DURATION>0.7333333333333333</DURATION>
			<DURATION>0.7333333333333333</DURATION>
			<DURATION>0.7333333333333333</DURATION>
			<DURATION>0.7333333333333333</DURATION>
			<DURATION>0.7333333333333333</DURATION>
			<DURATION>0.7333333333333333</DURATION>
			<DURATION>0.7333333333333333</DURATION>
			<DURATION>0.7333333333333333</DURATION>
			<DURATION>0.7333333333333333</DURATION>
			<DURATION>0.7333333333333333</DURATION>
			<DURATION>0.7333333333333333</DURATION>
			<DURATION>0.7333333333333333</DURATION>
			<DURATION>0.75</DURATION>
			<DURATION>0.75</DURATION>
			<DURATION>0.75</DURATION>
			<DURATION>0.75</DURATION>
			<DURATION>0.75</DURATION>
			<DURATION>0.75</DURATION>
			<DURATION>0.75</DURATION>
			<DURATION>0.75</DURATION>
			<DURATION>0.75</DURATION>
			<DURATION>0.75</DURATION>
			<DURATION>0.75</DURATION>
			<DURATION>0.75</DURATION>
			<DURATION>0.75</DURATION>
			<DURATION>0.75</DURATION>
			<DURATION>0.75</DURATION>
			<DURATION>0.75</DURATION>
			<DURATION>0.75</DURATION>
			<DURATION>0.75</DURATION>
			<DURATION>0.75</DURATION>
			<DURATION>0.75</DURATION>
			<DURATION>0.75</DURATION>
			<DURATION>0.75</DURATION>
			<DURATION>0.75</DURATION>
			<DURATION>0.7666666666666667</DURATION>
			<DURATION>0.7666666666666667</DURATION>
			<DURATION>0.7666666666666667</DURATION>
			<DURATION>0.7666666666666667</DURATION>
			<DURATION>0.7666666666666667</DURATION>
			<DURATION>0.7666666666666667</DURATION>
			<DURATION>0.7666666666666667</DURATION>
			<DURATION>0.7666666666666667</DURATION>
			<DURATION>0.7666666666666667</DURATION>
			<DURATION>0.7666666666666667</DURATION>
			<DURATION>0.7666666666666667</DURATION>
			<DURATION>0.7666666666666667</DURATION>
			<DURATION>0.7666666666666667</DURATION>
			<DURATION>0.7666666666666667</DURATION>
			<DURATION>0.7666666666666667</DURATION>
			<DURATION>0.7666666666666667</DURATION>
			<DURATION>0.7666666666666667</DURATION>
			<DURATION>0.7666666666666667</DURATION>
			<DURATION>0.7666666666666667</DURATION>
			<DURATION>0.7666666666666667</DURATION>
			<DURATION>0.7666666666666667</DURATION>
			<DURATION>0.7666666666666667</DURATION>
			<DURATION>0.7666666666666667</DURATION>
			<DURATION>0.7666666666666667</DURATION>
			<DURATION>0.7666666666666667</DURATION>
			<DURATION>0.7666666666666667</DURATION>
			<DURATION>0.7833333333333333</DURATION>
			<DURATION>0.7833333333333333</DURATION>
			<DURATION>0.7833333333333333</DURATION>
			<DURATION>0.7833333333333333</DURATION>
			<DURATION>0.7833333333333333</DURATION>
			<DURATION>0.7833333333333333</DURATION>
			<DURATION>0.7833333333333333</DURATION>
			<DURATION>0.7833333333333333</DURATION>
			<DURATION>0.7833333333333333</DURATION>
			<DURATION>0.7833333333333333</DURATION>
			<DURATION>0.7833333333333333</DURATION>
			<DURATION>0.7833333333333333</DURATION>
			<DURATION>0.7833333333333333</DURATION>
			<DURATION>0.7833333333333333</DURATION>
			<DURATION>0.7833333333333333</DURATION>
			<DURATION>0.7833333333333333</DURATION>
			<DURATION>0.7833333333333333</DURATION>
			<DURATION>0.7833333333333333</DURATION>
			<DURATION>0.7833333333333333</DURATION>
			<DURATION>0.7833333333333333</DURATION>
			<DURATION>0.7833333333333333</DURATION>
			<DURATION>0.7833333333333333</DURATION>
			<DURATION>0.7833333333333333</DURATION>
			<DURATION>0.7833333333333333</DURATION>
			<DURATION>0.7833333333333333</DURATION>
			<DURATION>0.7833333333333333</DURATION>
			<DURATION>0.7833333333333333</DURATION>
			<DURATION>0.7833333333333333</DURATION>
			<DURATION>0.7833333333333333</DURATION>
			<DURATION>0.7833333333333333</DURATION>
			<DURATION>0.7833333333333333</DURATION>
			<DURATION>0.7833333333333333</DURATION>
			<DURATION>0.7833333333333333</DURATION>
			<DURATION>0.8</DURATION>
			<DURATION>0.8</DURATION>
			<DURATION>0.8</DURATION>
			<DURATION>0.8</DURATION>
			<DURATION>0.8</DURATION>
			<DURATION>0.8</DURATION>
			<DURATION>0.8</DURATION>
			<DURATION>0.8</DURATION>
			<DURATION>0.8</DURATION>
			<DURATION>0.8</DURATION>
			<DURATION>0.8</DURATION>
			<DURATION>0.8</DURATION>
			<DURATION>0.8</DURATION>
			<DURATION>0.8</DURATION>
			<DURATION>0.8</DURATION>
			<DURATION>0.8</DURATION>
			<DURATION>0.8</DURATION>
			<DURATION>0.8</DURATION>
			<DURATION>0.8</DURATION>
			<DURATION>0.8</DURATION>
			<DURATION>0.8</DURATION>
			<DURATION>0.8</DURATION>
			<DURATION>0.8</DURATION>
			<DURATION>0.8</DURATION>
			<DURATION>0.8</DURATION>
			<DURATION>0.8</DURATION>
			<DURATION>0.8</DURATION>
			<DURATION>0.8</DURATION>
			<DURATION>0.8</DURATION>
			<DURATION>0.8</DURATION>
			<DURATION>0.8</DURATION>
			<DURATION>0.8</DURATION>
			<DURATION>0.8</DURATION>
			<DURATION>0.8166666666666667</DURATION>
			<DURATION>0.8166666666666667</DURATION>
			<DURATION>0.8166666666666667</DURATION>
			<DURATION>0.8166666666666667</DURATION>
			<DURATION>0.8166666666666667</DURATION>
			<DURATION>0.8166666666666667</DURATION>
			<DURATION>0.8166666666666667</DURATION>
			<DURATION>0.8166666666666667</DURATION>
			<DURATION>0.8166666666666667</DURATION>
			<DURATION>0.8166666666666667</DURATION>
			<DURATION>0.8166666666666667</DURATION>
			<DURATION>0.8166666666666667</DURATION>
			<DURATION>0.8166666666666667</DURATION>
			<DURATION>0.8166666666666667</DURATION>
			<DURATION>0.8166666666666667</DURATION>
			<DURATION>0.8166666666666667</DURATION>
			<DURATION>0.8166666666666667</DURATION>
			<DURATION>0.8166666666666667</DURATION>
			<DURATION>0.8166666666666667</DURATION>
			<DURATION>0.8166666666666667</DURATION>
			<DURATION>0.8166666666666667</DURATION>
			<DURATION>0.8166666666666667</DURATION>
			<DURATION>0.8166666666666667</DURATION>
			<DURATION>0.8166666666666667</DURATION>
			<DURATION>0.8166666666666667</DURATION>
			<DURATION>0.8166666666666667</DURATION>
			<DURATION>0.8166666666666667</DURATION>
			<DURATION>0.8166666666666667</DURATION>
			<DURATION>0.8166666666666667</DURATION>
			<DURATION>0.8166666666666667</DURATION>
			<DURATION>0.8166666666666667</DURATION>
			<DURATION>0.8166666666666667</DURATION>
			<DURATION>0.8166666666666667</DURATION>
			<DURATION>0.8166666666666667</DURATION>
			<DURATION>0.8333333333333334</DURATION>
			<DURATION>0.8333333333333334</DURATION>
			<DURATION>0.8333333333333334</DURATION>
			<DURATION>0.8333333333333334</DURATION>
			<DURATION>0.8333333333333334</DURATION>
			<DURATION>0.8333333333333334</DURATION>
			<DURATION>0.8333333333333334</DURATION>
			<DURATION>0.8333333333333334</DURATION>
			<DURATION>0.8333333333333334</DURATION>
			<DURATION>0.8333333333333334</DURATION>
			<DURATION>0.8333333333333334</DURATION>
			<DURATION>0.8333333333333334</DURATION>
			<DURATION>0.8333333333333334</DURATION>
			<DURATION>0.8333333333333334</DURATION>
			<DURATION>0.8333333333333334</DURATION>
			<DURATION>0.8333333333333334</DURATION>
			<DURATION>0.8333333333333334</DURATION>
			<DURATION>0.8333333333333334</DURATION>
			<DURATION>0.8333333333333334</DURATION>
			<DURATION>0.8333333333333334</DURATION>
			<DURATION>0.8333333333333334</DURATION>
			<DURATION>0.8333333333333334</DURATION>
			<DURATION>0.85</DURATION>
			<DURATION>0.85</DURATION>
			<DURATION>0.85</DURATION>
			<DURATION>0.85</DURATION>
			<DURATION>0.85</DURATION>
			<DURATION>0.85</DURATION>
			<DURATION>0.85</DURATION>
			<DURATION>0.85</DURATION>
			<DURATION>0.85</DURATION>
			<DURATION>0.85</DURATION>
			<DURATION>0.85</DURATION>
			<DURATION>0.85</DURATION>
			<DURATION>0.85</DURATION>
			<DURATION>0.85</DURATION>
			<DURATION>0.85</DURATION>
			<DURATION>0.85</DURATION>
			<DURATION>0.85</DURATION>
			<DURATION>0.85</DURATION>
			<DURATION>0.85</DURATION>
			<DURATION>0.85</DURATION>
			<DURATION>0.85</DURATION>
			<DURATION>0.85</DURATION>
			<DURATION>0.85</DURATION>
			<DURATION>0.85</DURATION>
			<DURATION>0.8666666666666667</DURATION>
			<DURATION>0.8666666666666667</DURATION>
			<DURATION>0.8666666666666667</DURATION>
			<DURATION>0.8666666666666667</DURATION>
			<DURATION>0.8666666666666667</DURATION>
			<DURATION>0.8666666666666667</DURATION>
			<DURATION>0.8666666666666667</DURATION>
			<DURATION>0.8666666666666667</DURATION>
			<DURATION>0.8666666666666667</DURATION>
			<DURATION>0.8666666666666667</DURATION>
			<DURATION>0.8666666666666667</DURATION>
			<DURATION>0.8666666666666667</DURATION>
			<DURATION>0.8666666666666667</DURATION>
			<DURATION>0.8666666666666667</DURATION>
			<DURATION>0.8666666666666667</DURATION>
			<DURATION>0.8666666666666667</DURATION>
			<DURATION>0.8666666666666667</DURATION>
			<DURATION>0.8666666666666667</DURATION>
			<DURATION>0.8666666666666667</DURATION>
			<DURATION>0.8666666666666667</DURATION>
			<DURATION>0.8666666666666667</DURATION>
			<DURATION>0.8666666666666667</DURATION>
			<DURATION>0.8666666666666667</DURATION>
			<DURATION>0.8666666666666667</DURATION>
			<DURATION>0.8833333333333333</DURATION>
			<DURATION>0.8833333333333333</DURATION>
			<DURATION>0.8833333333333333</DURATION>
			<DURATION>0.8833333333333333</DURATION>
			<DURATION>0.8833333333333333</DURATION>
			<DURATION>0.8833333333333333</DURATION>
			<DURATION>0.8833333333333333</DURATION>
			<DURATION>0.8833333333333333</DURATION>
			<DURATION>0.8833333333333333</DURATION>
			<DURATION>0.8833333333333333</DURATION>
			<DURATION>0.8833333333333333</DURATION>
			<DURATION>0.8833333333333333</DURATION>
			<DURATION>0.8833333333333333</DURATION>
			<DURATION>0.8833333333333333</DURATION>
			<DURATION>0.8833333333333333</DURATION>
			<DURATION>0.8833333333333333</DURATION>
			<DURATION>0.9</DURATION>
			<DURATION>0.9</DURATION>
			<DURATION>0.9</DURATION>
			<DURATION>0.9</DURATION>
			<DURATION>0.9</DURATION>
			<DURATION>0.9</DURATION>
			<DURATION>0.9</DURATION>
			<DURATION>0.9</DURATION>
			<DURATION>0.9166666666666666</DURATION>
			<DURATION>0.9166666666666666</DURATION>
			<DURATION>0.9166666666666666</DURATION>
			<DURATION>0.9166666666666666</DURATION>
			<DURATION>0.9166666666666666</DURATION>
			<DURATION>0.9166666666666666</DURATION>
			<DURATION>0.9166666666666666</DURATION>
			<DURATION>0.9166666666666666</DURATION>
			<DURATION>0.9166666666666666</DURATION>
			<DURATION>0.9166666666666666</DURATION>
			<DURATION>0.9166666666666666</DURATION>
			<DURATION>0.9166666666666666</DURATION>
			<DURATION>0.9166666666666666</DURATION>
			<DURATION>0.9166666666666666</DURATION>
			<DURATION>0.9166666666666666</DURATION>
			<DURATION>0.9166666666666666</DURATION>
			<DURATION>0.9166666666666666</DURATION>
			<DURATION>0.9166666666666666</DURATION>
			<DURATION>0.9166666666666666</DURATION>
			<DURATION>0.9166666666666666</DURATION>
			<DURATION>0.9166666666666666</DURATION>
			<DURATION>0.9166666666666666</DURATION>
			<DURATION>0.9166666666666666</DURATION>
			<DURATION>0.9166666666666666</DURATION>
			<DURATION>0.9166666666666666</DURATION>
			<DURATION>0.9166666666666666</DURATION>
			<DURATION>0.9333333333333333</DURATION>
			<DURATION>0.9333333333333333</DURATION>
			<DURATION>0.9333333333333333</DURATION>
			<DURATION>0.9333333333333333</DURATION>
			<DURATION>0.9333333333333333</DURATION>
			<DURATION>0.9333333333333333</DURATION>
			<DURATION>0.9333333333333333</DURATION>
			<DURATION>0.9333333333333333</DURATION>
			<DURATION>0.9333333333333333</DURATION>
			<DURATION>0.9333333333333333</DURATION>
			<DURATION>0.9333333333333333</DURATION>
			<DURATION>0.9333333333333333</DURATION>
			<DURATION>0.9333333333333333</DURATION>
			<DURATION>0.9333333333333333</DURATION>
			<DURATION>0.95</DURATION>
			<DURATION>0.95</DURATION>
			<DURATION>0.95</DURATION>
			<DURATION>0.95</DURATION>
			<DURATION>0.95</DURATION>
			<DURATION>0.95</DURATION>
			<DURATION>0.95</DURATION>
			<DURATION>0.95</DURATION>
			<DURATION>0.95</DURATION>
			<DURATION>0.95</DURATION>
			<DURATION>0.95</DURATION>
			<DURATION>0.95</DURATION>
			<DURATION>0.95</DURATION>
			<DURATION>0.9666666666666667</DURATION>
			<DURATION>0.9666666666666667</DURATION>
			<DURATION>0.9666666666666667</DURATION>
			<DURATION>0.9666666666666667</DURATION>
			<DURATION>0.9666666666666667</DURATION>
			<DURATION>0.9666666666666667</DURATION>
			<DURATION>0.9666666666666667</DURATION>
			<DURATION>0.9666666666666667</DURATION>
			<DURATION>0.9666666666666667</DURATION>
			<DURATION>0.9666666666666667</DURATION>
			<DURATION>0.9666666666666667</DURATION>
			<DURATION>0.9666666666666667</DURATION>
			<DURATION>0.9833333333333333</DURATION>
			<DURATION>0.9833333333333333</DURATION>
			<DURATION>0.9833333333333333</DURATION>
			<DURATION>0.9833333333333333</DURATION>
			<DURATION>0.9833333333333333</DURATION>
			<DURATION>0.9833333333333333</DURATION>
			<DURATION>0.9833333333333333</DURATION>
			<DURATION>0.9833333333333333</DURATION>
			<DURATION>0.9833333333333333</DURATION>
			<DURATION>0.9833333333333333</DURATION>
			<DURATION>0.9833333333333333</DURATION>
			<DURATION>0.9833333333333333</DURATION>
			<DURATION>0.9833333333333333</DURATION>
			<DURATION>0.9833333333333333</DURATION>
			<DURATION>0.9833333333333333</DURATION>
			<DURATION>0.9833333333333333</DURATION>
			<DURATION>0.9833333333333333</DURATION>
			<DURATION>1.0</DURATION>
			<DURATION>1.0</DURATION>
			<DURATION>1.0</DURATION>
			<DURATION>1.0</DURATION>
			<DURATION>1.0</DURATION>
			<DURATION>1.0</DURATION>
			<DURATION>1.0</DURATION>
			<DURATION>1.0</DURATION>
			<DURATION>1.0</DURATION>
			<DURATION>1.0</DURATION>
			<DURATION>1.0</DURATION>
			<DURATION>1.0</DURATION>
			<DURATION>1.0</DURATION>
			<DURATION>1.0</DURATION>
			<DURATION>1.0</DURATION>
			<DURATION>1.0</DURATION>
			<DURATION>1.0</DURATION>
			<DURATION>1.0166666666666666</DURATION>
			<DURATION>1.0166666666666666</DURATION>
			<DURATION>1.0166666666666666</DURATION>
			<DURATION>1.0166666666666666</DURATION>
			<DURATION>1.0166666666666666</DURATION>
			<DURATION>1.0166666666666666</DURATION>
			<DURATION>1.0166666666666666</DURATION>
			<DURATION>1.0166666666666666</DURATION>
			<DURATION>1.0166666666666666</DURATION>
			<DURATION>1.0166666666666666</DURATION>
			<DURATION>1.0166666666666666</DURATION>
			<DURATION>1.0166666666666666</DURATION>
			<DURATION>1.0166666666666666</DURATION>
			<DURATION>1.0166666666666666</DURATION>
			<DURATION>1.0166666666666666</DURATION>
			<DURATION>1.0166666666666666</DURATION>
			<DURATION>1.0166666666666666</DURATION>
			<DURATION>1.0166666666666666</DURATION>
			<DURATION>1.0166666666666666</DURATION>
			<DURATION>1.0333333333333334</DURATION>
			<DURATION>1.0333333333333334</DURATION>
			<DURATION>1.0333333333333334</DURATION>
			<DURATION>1.0333333333333334</DURATION>
			<DURATION>1.0333333333333334</DURATION>
			<DURATION>1.0333333333333334</DURATION>
			<DURATION>1.0333333333333334</DURATION>
			<DURATION>1.0333333333333334</DURATION>
			<DURATION>1.0333333333333334</DURATION>
			<DURATION>1.0333333333333334</DURATION>
			<DURATION>1.0333333333333334</DURATION>
			<DURATION>1.0333333333333334</DURATION>
			<DURATION>1.0333333333333334</DURATION>
			<DURATION>1.0333333333333334</DURATION>
			<DURATION>1.0333333333333334</DURATION>
			<DURATION>1.0333333333333334</DURATION>
			<DURATION>1.0333333333333334</DURATION>
			<DURATION>1.0333333333333334</DURATION>
			<DURATION>1.0333333333333334</DURATION>
			<DURATION>1.0333333333333334</DURATION>
			<DURATION>1.0333333333333334</DURATION>
			<DURATION>1.0333333333333334</DURATION>
			<DURATION>1.05</DURATION>
			<DURATION>1.05</DURATION>
			<DURATION>1.05</DURATION>
			<DURATION>1.05</DURATION>
			<DURATION>1.05</DURATION>
			<DURATION>1.05</DURATION>
			<DURATION>1.05</DURATION>
			<DURATION>1.05</DURATION>
			<DURATION>1.05</DURATION>
			<DURATION>1.05</DURATION>
			<DURATION>1.05</DURATION>
			<DURATION>1.05</DURATION>
			<DURATION>1.05</DURATION>
			<DURATION>1.05</DURATION>
			<DURATION>1.05</DURATION>
			<DURATION>1.05</DURATION>
			<DURATION>1.05</DURATION>
			<DURATION>1.05</DURATION>
			<DURATION>1.05</DURATION>
			<DURATION>1.05</DURATION>
			<DURATION>1.0666666666666667</DURATION>
			<DURATION>1.0666666666666667</DURATION>
			<DURATION>1.0666666666666667</DURATION>
			<DURATION>1.0666666666666667</DURATION>
			<DURATION>1.0666666666666667</DURATION>
			<DURATION>1.0666666666666667</DURATION>
			<DURATION>1.0666666666666667</DURATION>
			<DURATION>1.0666666666666667</DURATION>
			<DURATION>1.0666666666666667</DURATION>
			<DURATION>1.0666666666666667</DURATION>
			<DURATION>1.0666666666666667</DURATION>
			<DURATION>1.0666666666666667</DURATION>
			<DURATION>1.0666666666666667</DURATION>
			<DURATION>1.0666666666666667</DURATION>
			<DURATION>1.0666666666666667</DURATION>
			<DURATION>1.0833333333333333</DURATION>
			<DURATION>1.0833333333333333</DURATION>
			<DURATION>1.0833333333333333</DURATION>
			<DURATION>1.0833333333333333</DURATION>
			<DURATION>1.0833333333333333</DURATION>
			<DURATION>1.0833333333333333</DURATION>
			<DURATION>1.0833333333333333</DURATION>
			<DURATION>1.0833333333333333</DURATION>
			<DURATION>1.0833333333333333</DURATION>
			<DURATION>1.0833333333333333</DURATION>
			<DURATION>1.0833333333333333</DURATION>
			<DURATION>1.0833333333333333</DURATION>
			<DURATION>1.0833333333333333</DURATION>
			<DURATION>1.0833333333333333</DURATION>
			<DURATION>1.1</DURATION>
			<DURATION>1.1</DURATION>
			<DURATION>1.1</DURATION>
			<DURATION>1.1</DURATION>
			<DURATION>1.1</DURATION>
			<DURATION>1.1</DURATION>
			<DURATION>1.1</DURATION>
			<DURATION>1.1</DURATION>
			<DURATION>1.1166666666666667</DURATION>
			<DURATION>1.1166666666666667</DURATION>
			<DURATION>1.1166666666666667</DURATION>
			<DURATION>1.1166666666666667</DURATION>
			<DURATION>1.1166666666666667</DURATION>
			<DURATION>1.1166666666666667</DURATION>
			<DURATION>1.1166666666666667</DURATION>
			<DURATION>1.1166666666666667</DURATION>
			<DURATION>1.1333333333333333</DURATION>
			<DURATION>1.1333333333333333</DURATION>
			<DURATION>1.1333333333333333</DURATION>
			<DURATION>1.1333333333333333</DURATION>
			<DURATION>1.1333333333333333</DURATION>
			<DURATION>1.1333333333333333</DURATION>
			<DURATION>1.1333333333333333</DURATION>
			<DURATION>1.1333333333333333</DURATION>
			<DURATION>1.15</DURATION>
			<DURATION>1.15</DURATION>
			<DURATION>1.15</DURATION>
			<DURATION>1.15</DURATION>
			<DURATION>1.15</DURATION>
			<DURATION>1.1666666666666667</DURATION>
			<DURATION>1.1666666666666667</DURATION>
			<DURATION>1.1666666666666667</DURATION>
			<DURATION>1.1666666666666667</DURATION>
			<DURATION>1.1666666666666667</DURATION>
			<DURATION>1.1666666666666667</DURATION>
			<DURATION>1.1666666666666667</DURATION>
			<DURATION>1.1666666666666667</DURATION>
			<DURATION>1.1666666666666667</DURATION>
			<DURATION>1.1833333333333333</DURATION>
			<DURATION>1.1833333333333333</DURATION>
			<DURATION>1.1833333333333333</DURATION>
			<DURATION>1.1833333333333333</DURATION>
			<DURATION>1.1833333333333333</DURATION>
			<DURATION>1.1833333333333333</DURATION>
			<DURATION>1.2</DURATION>
			<DURATION>1.2166666666666666</DURATION>
			<DURATION>1.2166666666666666</DURATION>
			<DURATION>1.2166666666666666</DURATION>
			<DURATION>1.2166666666666666</DURATION>
			<DURATION>1.2166666666666666</DURATION>
			<DURATION>1.2166666666666666</DURATION>
			<DURATION>1.2166666666666666</DURATION>
			<DURATION>1.2166666666666666</DURATION>
			<DURATION>1.2166666666666666</DURATION>
			<DURATION>1.2333333333333334</DURATION>
			<DURATION>1.2333333333333334</DURATION>
			<DURATION>1.2333333333333334</DURATION>
			<DURATION>1.2333333333333334</DURATION>
			<DURATION>1.2333333333333334</DURATION>
			<DURATION>1.25</DURATION>
			<DURATION>1.25</DURATION>
			<DURATION>1.25</DURATION>
			<DURATION>1.25</DURATION>
			<DURATION>1.2666666666666666</DURATION>
			<DURATION>1.2666666666666666</DURATION>
			<DURATION>1.2666666666666666</DURATION>
			<DURATION>1.2833333333333334</DURATION>
			<DURATION>1.2833333333333334</DURATION>
			<DURATION>1.2833333333333334</DURATION>
			<DURATION>1.2833333333333334</DURATION>
			<DURATION>1.2833333333333334</DURATION>
			<DURATION>1.3</DURATION>
			<DURATION>1.3</DURATION>
			<DURATION>1.3166666666666667</DURATION>
			<DURATION>1.3166666666666667</DURATION>
			<DURATION>1.3333333333333333</DURATION>
			<DURATION>1.3333333333333333</DURATION>
			<DURATION>1.3333333333333333</DURATION>
			<DURATION>1.35</DURATION>
			<DURATION>1.3666666666666667</DURATION>
			<DURATION>1.3833333333333333</DURATION>
			<DURATION>1.4333333333333333</DURATION>
			<DURATION>1.45</DURATION>
			<DURATION>1.4666666666666666</DURATION>
			<DURATION>1.5</DURATION>
			<DURATION>1.5</DURATION>
			<DURATION>1.5333333333333334</DURATION>
			<DURATION>1.55</DURATION>
			<DURATION>1.55</DURATION>
			<DURATION>1.6</DURATION>
			<DURATION>1.6166666666666667</DURATION>
			<DURATION>1.7166666666666666</DURATION>
			<DURATION>1.9</DURATION>
			<DURATION>1.95</DURATION>
			<DURATION>1.95</DURATION>
			<DURATION>1.9666666666666666</DURATION>
			<DURATION>2.033333333333333</DURATION>
			<DURATION>2.1166666666666667</DURATION>
			<DURATION>2.15</DURATION>
			<DURATION>2.316666666666667</DURATION>
			<DURATION>2.5</DURATION>
			<DURATION>2.6</DURATION>
			<DURATION>3.2</DURATION>
			<DURATION>3.2</DURATION>
			<DURATION>3.6166666666666667</DURATION>
			<DURATION>10.5</DURATION>
		</HISTORICAL-DURATIONS>
	</CONSTRAINT>
	<CONSTRAINT>
		<START>f3598cc0-b741-4822-b00f-8f5d0773873b</START>
		<END>4e69c64e-e97b-411f-9a7a-dd8027a7f927</END>
		<ID>33f8dd62-bb2d-45e0-bb06-ad661bde1478</ID>
		<NAME>Dwell at 70061 (Alewife)</NAME>
		<LOWERBOUND>0.5</LOWERBOUND>
		<UPPERBOUND>0.5</UPPERBOUND>
		<LB-RELAX-COST-RATIO>0.0</LB-RELAX-COST-RATIO>
		<UB-RELAX-COST-RATIO>0.0</UB-RELAX-COST-RATIO>
		<COST>0.0</COST>
		<TYPE>Uncontrollable;Activity</TYPE>
		<MEAN>0.0</MEAN>
		<DISTRIBUTION>Normal</DISTRIBUTION>
		<VARIANCE>0.0</VARIANCE>
	</CONSTRAINT>
	<CONSTRAINT>
		<START>5373e538-a8f1-42b0-a996-9a18a333ff72</START>
		<END>89add076-841c-41d9-9404-7ed043cde5c3</END>
		<ID>90923632-23b0-4370-86d0-4f43998ef210</ID>
		<NAME>Dwell at 70063 (Davis - Inbound)</NAME>
		<LOWERBOUND>0.4166666666666667</LOWERBOUND>
		<UPPERBOUND>1.9</UPPERBOUND>
		<LB-RELAX-COST-RATIO>0.0</LB-RELAX-COST-RATIO>
		<UB-RELAX-COST-RATIO>0.0</UB-RELAX-COST-RATIO>
		<COST>0.0</COST>
		<TYPE>Uncontrollable;Activity</TYPE>
		<MEAN>0.0</MEAN>
		<DISTRIBUTION>Normal</DISTRIBUTION>
		<VARIANCE>0.0</VARIANCE>
		<HISTORICAL-DURATIONS>
			<DURATION>0.4166666666666667</DURATION>
			<DURATION>0.6</DURATION>
			<DURATION>0.6166666666666667</DURATION>
			<DURATION>0.6166666666666667</DURATION>
			<DURATION>0.6333333333333333</DURATION>
			<DURATION>0.6333333333333333</DURATION>
			<DURATION>0.65</DURATION>
			<DURATION>0.65</DURATION>
			<DURATION>0.65</DURATION>
			<DURATION>0.65</DURATION>
			<DURATION>0.65</DURATION>
			<DURATION>0.6666666666666666</DURATION>
			<DURATION>0.6666666666666666</DURATION>
			<DURATION>0.6666666666666666</DURATION>
			<DURATION>0.6833333333333333</DURATION>
			<DURATION>0.6833333333333333</DURATION>
			<DURATION>0.6833333333333333</DURATION>
			<DURATION>0.6833333333333333</DURATION>
			<DURATION>0.6833333333333333</DURATION>
			<DURATION>0.6833333333333333</DURATION>
			<DURATION>0.6833333333333333</DURATION>
			<DURATION>0.6833333333333333</DURATION>
			<DURATION>0.6833333333333333</DURATION>
			<DURATION>0.6833333333333333</DURATION>
			<DURATION>0.6833333333333333</DURATION>
			<DURATION>0.7</DURATION>
			<DURATION>0.7</DURATION>
			<DURATION>0.7</DURATION>
			<DURATION>0.7</DURATION>
			<DURATION>0.7</DURATION>
			<DURATION>0.7</DURATION>
			<DURATION>0.7</DURATION>
			<DURATION>0.7</DURATION>
			<DURATION>0.7</DURATION>
			<DURATION>0.7</DURATION>
			<DURATION>0.7</DURATION>
			<DURATION>0.7</DURATION>
			<DURATION>0.7166666666666667</DURATION>
			<DURATION>0.7166666666666667</DURATION>
			<DURATION>0.7166666666666667</DURATION>
			<DURATION>0.7166666666666667</DURATION>
			<DURATION>0.7166666666666667</DURATION>
			<DURATION>0.7166666666666667</DURATION>
			<DURATION>0.7166666666666667</DURATION>
			<DURATION>0.7166666666666667</DURATION>
			<DURATION>0.7166666666666667</DURATION>
			<DURATION>0.7166666666666667</DURATION>
			<DURATION>0.7166666666666667</DURATION>
			<DURATION>0.7166666666666667</DURATION>
			<DURATION>0.7166666666666667</DURATION>
			<DURATION>0.7166666666666667</DURATION>
			<DURATION>0.7166666666666667</DURATION>
			<DURATION>0.7166666666666667</DURATION>
			<DURATION>0.7166666666666667</DURATION>
			<DURATION>0.7166666666666667</DURATION>
			<DURATION>0.7166666666666667</DURATION>
			<DURATION>0.7166666666666667</DURATION>
			<DURATION>0.7166666666666667</DURATION>
			<DURATION>0.7166666666666667</DURATION>
			<DURATION>0.7166666666666667</DURATION>
			<DURATION>0.7166666666666667</DURATION>
			<DURATION>0.7166666666666667</DURATION>
			<DURATION>0.7166666666666667</DURATION>
			<DURATION>0.7166666666666667</DURATION>
			<DURATION>0.7166666666666667</DURATION>
			<DURATION>0.7166666666666667</DURATION>
			<DURATION>0.7166666666666667</DURATION>
			<DURATION>0.7166666666666667</DURATION>
			<DURATION>0.7166666666666667</DURATION>
			<DURATION>0.7166666666666667</DURATION>
			<DURATION>0.7166666666666667</DURATION>
			<DURATION>0.7166666666666667</DURATION>
			<DURATION>0.7166666666666667</DURATION>
			<DURATION>0.7166666666666667</DURATION>
			<DURATION>0.7333333333333333</DURATION>
			<DURATION>0.7333333333333333</DURATION>
			<DURATION>0.7333333333333333</DURATION>
			<DURATION>0.7333333333333333</DURATION>
			<DURATION>0.7333333333333333</DURATION>
			<DURATION>0.7333333333333333</DURATION>
			<DURATION>0.7333333333333333</DURATION>
			<DURATION>0.7333333333333333</DURATION>
			<DURATION>0.7333333333333333</DURATION>
			<DURATION>0.7333333333333333</DURATION>
			<DURATION>0.7333333333333333</DURATION>
			<DURATION>0.7333333333333333</DURATION>
			<DURATION>0.7333333333333333</DURATION>
			<DURATION>0.7333333333333333</DURATION>
			<DURATION>0.7333333333333333</DURATION>
			<DURATION>0.7333333333333333</DURATION>
			<DURATION>0.7333333333333333</DURATION>
			<DURATION>0.7333333333333333</DURATION>
			<DURATION>0.7333333333333333</DURATION>
			<DURATION>0.7333333333333333</DURATION>
			<DURATION>0.7333333333333333</DURATION>
			<DURATION>0.7333333333333333</DURATION>
			<DURATION>0.7333333333333333</DURATION>
			<DURATION>0.7333333333333333</DURATION>
			<DURATION>0.7333333333333333</DURATION>
			<DURATION>0.7333333333333333</DURATION>
			<DURATION>0.7333333333333333</DURATION>
			<DURATION>0.7333333333333333</DURATION>
			<DURATION>0.7333333333333333</DURATION>
			<DURATION>0.75</DURATION>
			<DURATION>0.75</DURATION>
			<DURATION>0.75</DURATION>
			<DURATION>0.75</DURATION>
			<DURATION>0.75</DURATION>
			<DURATION>0.75</DURATION>
			<DURATION>0.75</DURATION>
			<DURATION>0.75</DURATION>
			<DURATION>0.75</DURATION>
			<DURATION>0.75</DURATION>
			<DURATION>0.75</DURATION>
			<DURATION>0.75</DURATION>
			<DURATION>0.75</DURATION>
			<DURATION>0.75</DURATION>
			<DURATION>0.75</DURATION>
			<DURATION>0.75</DURATION>
			<DURATION>0.75</DURATION>
			<DURATION>0.75</DURATION>
			<DURATION>0.75</DURATION>
			<DURATION>0.75</DURATION>
			<DURATION>0.75</DURATION>
			<DURATION>0.75</DURATION>
			<DURATION>0.75</DURATION>
			<DURATION>0.75</DURATION>
			<DURATION>0.75</DURATION>
			<DURATION>0.75</DURATION>
			<DURATION>0.75</DURATION>
			<DURATION>0.75</DURATION>
			<DURATION>0.75</DURATION>
			<DURATION>0.75</DURATION>
			<DURATION>0.75</DURATION>
			<DURATION>0.75</DURATION>
			<DURATION>0.75</DURATION>
			<DURATION>0.75</DURATION>
			<DURATION>0.75</DURATION>
			<DURATION>0.7666666666666667</DURATION>
			<DURATION>0.7666666666666667</DURATION>
			<DURATION>0.7666666666666667</DURATION>
			<DURATION>0.7666666666666667</DURATION>
			<DURATION>0.7666666666666667</DURATION>
			<DURATION>0.7666666666666667</DURATION>
			<DURATION>0.7666666666666667</DURATION>
			<DURATION>0.7666666666666667</DURATION>
			<DURATION>0.7666666666666667</DURATION>
			<DURATION>0.7666666666666667</DURATION>
			<DURATION>0.7666666666666667</DURATION>
			<DURATION>0.7666666666666667</DURATION>
			<DURATION>0.7666666666666667</DURATION>
			<DURATION>0.7666666666666667</DURATION>
			<DURATION>0.7666666666666667</DURATION>
			<DURATION>0.7666666666666667</DURATION>
			<DURATION>0.7666666666666667</DURATION>
			<DURATION>0.7666666666666667</DURATION>
			<DURATION>0.7666666666666667</DURATION>
			<DURATION>0.7666666666666667</DURATION>
			<DURATION>0.7666666666666667</DURATION>
			<DURATION>0.7666666666666667</DURATION>
			<DURATION>0.7666666666666667</DURATION>
			<DURATION>0.7666666666666667</DURATION>
			<DURATION>0.7666666666666667</DURATION>
			<DURATION>0.7666666666666667</DURATION>
			<DURATION>0.7666666666666667</DURATION>
			<DURATION>0.7666666666666667</DURATION>
			<DURATION>0.7666666666666667</DURATION>
			<DURATION>0.7666666666666667</DURATION>
			<DURATION>0.7666666666666667</DURATION>
			<DURATION>0.7666666666666667</DURATION>
			<DURATION>0.7666666666666667</DURATION>
			<DURATION>0.7666666666666667</DURATION>
			<DURATION>0.7666666666666667</DURATION>
			<DURATION>0.7666666666666667</DURATION>
			<DURATION>0.7666666666666667</DURATION>
			<DURATION>0.7666666666666667</DURATION>
			<DURATION>0.7833333333333333</DURATION>
			<DURATION>0.7833333333333333</DURATION>
			<DURATION>0.7833333333333333</DURATION>
			<DURATION>0.7833333333333333</DURATION>
			<DURATION>0.7833333333333333</DURATION>
			<DURATION>0.7833333333333333</DURATION>
			<DURATION>0.7833333333333333</DURATION>
			<DURATION>0.7833333333333333</DURATION>
			<DURATION>0.7833333333333333</DURATION>
			<DURATION>0.7833333333333333</DURATION>
			<DURATION>0.7833333333333333</DURATION>
			<DURATION>0.7833333333333333</DURATION>
			<DURATION>0.7833333333333333</DURATION>
			<DURATION>0.7833333333333333</DURATION>
			<DURATION>0.7833333333333333</DURATION>
			<DURATION>0.7833333333333333</DURATION>
			<DURATION>0.7833333333333333</DURATION>
			<DURATION>0.7833333333333333</DURATION>
			<DURATION>0.7833333333333333</DURATION>
			<DURATION>0.7833333333333333</DURATION>
			<DURATION>0.7833333333333333</DURATION>
			<DURATION>0.7833333333333333</DURATION>
			<DURATION>0.7833333333333333</DURATION>
			<DURATION>0.7833333333333333</DURATION>
			<DURATION>0.7833333333333333</DURATION>
			<DURATION>0.7833333333333333</DURATION>
			<DURATION>0.7833333333333333</DURATION>
			<DURATION>0.7833333333333333</DURATION>
			<DURATION>0.7833333333333333</DURATION>
			<DURATION>0.7833333333333333</DURATION>
			<DURATION>0.7833333333333333</DURATION>
			<DURATION>0.7833333333333333</DURATION>
			<DURATION>0.7833333333333333</DURATION>
			<DURATION>0.7833333333333333</DURATION>
			<DURATION>0.7833333333333333</DURATION>
			<DURATION>0.8</DURATION>
			<DURATION>0.8</DURATION>
			<DURATION>0.8</DURATION>
			<DURATION>0.8</DURATION>
			<DURATION>0.8</DURATION>
			<DURATION>0.8</DURATION>
			<DURATION>0.8</DURATION>
			<DURATION>0.8</DURATION>
			<DURATION>0.8</DURATION>
			<DURATION>0.8</DURATION>
			<DURATION>0.8</DURATION>
			<DURATION>0.8</DURATION>
			<DURATION>0.8</DURATION>
			<DURATION>0.8</DURATION>
			<DURATION>0.8</DURATION>
			<DURATION>0.8</DURATION>
			<DURATION>0.8</DURATION>
			<DURATION>0.8</DURATION>
			<DURATION>0.8</DURATION>
			<DURATION>0.8</DURATION>
			<DURATION>0.8</DURATION>
			<DURATION>0.8</DURATION>
			<DURATION>0.8</DURATION>
			<DURATION>0.8</DURATION>
			<DURATION>0.8</DURATION>
			<DURATION>0.8</DURATION>
			<DURATION>0.8</DURATION>
			<DURATION>0.8</DURATION>
			<DURATION>0.8</DURATION>
			<DURATION>0.8</DURATION>
			<DURATION>0.8</DURATION>
			<DURATION>0.8</DURATION>
			<DURATION>0.8</DURATION>
			<DURATION>0.8</DURATION>
			<DURATION>0.8</DURATION>
			<DURATION>0.8166666666666667</DURATION>
			<DURATION>0.8166666666666667</DURATION>
			<DURATION>0.8166666666666667</DURATION>
			<DURATION>0.8166666666666667</DURATION>
			<DURATION>0.8166666666666667</DURATION>
			<DURATION>0.8166666666666667</DURATION>
			<DURATION>0.8166666666666667</DURATION>
			<DURATION>0.8166666666666667</DURATION>
			<DURATION>0.8166666666666667</DURATION>
			<DURATION>0.8166666666666667</DURATION>
			<DURATION>0.8166666666666667</DURATION>
			<DURATION>0.8166666666666667</DURATION>
			<DURATION>0.8166666666666667</DURATION>
			<DURATION>0.8166666666666667</DURATION>
			<DURATION>0.8166666666666667</DURATION>
			<DURATION>0.8166666666666667</DURATION>
			<DURATION>0.8166666666666667</DURATION>
			<DURATION>0.8166666666666667</DURATION>
			<DURATION>0.8166666666666667</DURATION>
			<DURATION>0.8166666666666667</DURATION>
			<DURATION>0.8166666666666667</DURATION>
			<DURATION>0.8166666666666667</DURATION>
			<DURATION>0.8166666666666667</DURATION>
			<DURATION>0.8166666666666667</DURATION>
			<DURATION>0.8166666666666667</DURATION>
			<DURATION>0.8166666666666667</DURATION>
			<DURATION>0.8166666666666667</DURATION>
			<DURATION>0.8166666666666667</DURATION>
			<DURATION>0.8166666666666667</DURATION>
			<DURATION>0.8166666666666667</DURATION>
			<DURATION>0.8166666666666667</DURATION>
			<DURATION>0.8166666666666667</DURATION>
			<DURATION>0.8166666666666667</DURATION>
			<DURATION>0.8166666666666667</DURATION>
			<DURATION>0.8166666666666667</DURATION>
			<DURATION>0.8166666666666667</DURATION>
			<DURATION>0.8166666666666667</DURATION>
			<DURATION>0.8166666666666667</DURATION>
			<DURATION>0.8333333333333334</DURATION>
			<DURATION>0.8333333333333334</DURATION>
			<DURATION>0.8333333333333334</DURATION>
			<DURATION>0.8333333333333334</DURATION>
			<DURATION>0.8333333333333334</DURATION>
			<DURATION>0.8333333333333334</DURATION>
			<DURATION>0.8333333333333334</DURATION>
			<DURATION>0.8333333333333334</DURATION>
			<DURATION>0.8333333333333334</DURATION>
			<DURATION>0.8333333333333334</DURATION>
			<DURATION>0.8333333333333334</DURATION>
			<DURATION>0.8333333333333334</DURATION>
			<DURATION>0.8333333333333334</DURATION>
			<DURATION>0.8333333333333334</DURATION>
			<DURATION>0.8333333333333334</DURATION>
			<DURATION>0.8333333333333334</DURATION>
			<DURATION>0.8333333333333334</DURATION>
			<DURATION>0.8333333333333334</DURATION>
			<DURATION>0.8333333333333334</DURATION>
			<DURATION>0.8333333333333334</DURATION>
			<DURATION>0.8333333333333334</DURATION>
			<DURATION>0.8333333333333334</DURATION>
			<DURATION>0.8333333333333334</DURATION>
			<DURATION>0.8333333333333334</DURATION>
			<DURATION>0.8333333333333334</DURATION>
			<DURATION>0.8333333333333334</DURATION>
			<DURATION>0.85</DURATION>
			<DURATION>0.85</DURATION>
			<DURATION>0.85</DURATION>
			<DURATION>0.85</DURATION>
			<DURATION>0.85</DURATION>
			<DURATION>0.85</DURATION>
			<DURATION>0.85</DURATION>
			<DURATION>0.85</DURATION>
			<DURATION>0.85</DURATION>
			<DURATION>0.85</DURATION>
			<DURATION>0.85</DURATION>
			<DURATION>0.85</DURATION>
			<DURATION>0.85</DURATION>
			<DURATION>0.85</DURATION>
			<DURATION>0.85</DURATION>
			<DURATION>0.85</DURATION>
			<DURATION>0.85</DURATION>
			<DURATION>0.85</DURATION>
			<DURATION>0.85</DURATION>
			<DURATION>0.85</DURATION>
			<DURATION>0.85</DURATION>
			<DURATION>0.85</DURATION>
			<DURATION>0.85</DURATION>
			<DURATION>0.85</DURATION>
			<DURATION>0.85</DURATION>
			<DURATION>0.8666666666666667</DURATION>
			<DURATION>0.8666666666666667</DURATION>
			<DURATION>0.8666666666666667</DURATION>
			<DURATION>0.8666666666666667</DURATION>
			<DURATION>0.8666666666666667</DURATION>
			<DURATION>0.8666666666666667</DURATION>
			<DURATION>0.8666666666666667</DURATION>
			<DURATION>0.8666666666666667</DURATION>
			<DURATION>0.8666666666666667</DURATION>
			<DURATION>0.8666666666666667</DURATION>
			<DURATION>0.8666666666666667</DURATION>
			<DURATION>0.8666666666666667</DURATION>
			<DURATION>0.8666666666666667</DURATION>
			<DURATION>0.8666666666666667</DURATION>
			<DURATION>0.8666666666666667</DURATION>
			<DURATION>0.8666666666666667</DURATION>
			<DURATION>0.8666666666666667</DURATION>
			<DURATION>0.8666666666666667</DURATION>
			<DURATION>0.8666666666666667</DURATION>
			<DURATION>0.8666666666666667</DURATION>
			<DURATION>0.8666666666666667</DURATION>
			<DURATION>0.8666666666666667</DURATION>
			<DURATION>0.8666666666666667</DURATION>
			<DURATION>0.8666666666666667</DURATION>
			<DURATION>0.8666666666666667</DURATION>
			<DURATION>0.8666666666666667</DURATION>
			<DURATION>0.8666666666666667</DURATION>
			<DURATION>0.8666666666666667</DURATION>
			<DURATION>0.8833333333333333</DURATION>
			<DURATION>0.8833333333333333</DURATION>
			<DURATION>0.8833333333333333</DURATION>
			<DURATION>0.8833333333333333</DURATION>
			<DURATION>0.8833333333333333</DURATION>
			<DURATION>0.8833333333333333</DURATION>
			<DURATION>0.8833333333333333</DURATION>
			<DURATION>0.8833333333333333</DURATION>
			<DURATION>0.8833333333333333</DURATION>
			<DURATION>0.8833333333333333</DURATION>
			<DURATION>0.8833333333333333</DURATION>
			<DURATION>0.8833333333333333</DURATION>
			<DURATION>0.8833333333333333</DURATION>
			<DURATION>0.8833333333333333</DURATION>
			<DURATION>0.8833333333333333</DURATION>
			<DURATION>0.8833333333333333</DURATION>
			<DURATION>0.8833333333333333</DURATION>
			<DURATION>0.8833333333333333</DURATION>
			<DURATION>0.8833333333333333</DURATION>
			<DURATION>0.8833333333333333</DURATION>
			<DURATION>0.8833333333333333</DURATION>
			<DURATION>0.8833333333333333</DURATION>
			<DURATION>0.9</DURATION>
			<DURATION>0.9</DURATION>
			<DURATION>0.9</DURATION>
			<DURATION>0.9</DURATION>
			<DURATION>0.9</DURATION>
			<DURATION>0.9</DURATION>
			<DURATION>0.9</DURATION>
			<DURATION>0.9</DURATION>
			<DURATION>0.9</DURATION>
			<DURATION>0.9</DURATION>
			<DURATION>0.9</DURATION>
			<DURATION>0.9166666666666666</DURATION>
			<DURATION>0.9166666666666666</DURATION>
			<DURATION>0.9166666666666666</DURATION>
			<DURATION>0.9166666666666666</DURATION>
			<DURATION>0.9166666666666666</DURATION>
			<DURATION>0.9166666666666666</DURATION>
			<DURATION>0.9166666666666666</DURATION>
			<DURATION>0.9166666666666666</DURATION>
			<DURATION>0.9166666666666666</DURATION>
			<DURATION>0.9166666666666666</DURATION>
			<DURATION>0.9166666666666666</DURATION>
			<DURATION>0.9166666666666666</DURATION>
			<DURATION>0.9166666666666666</DURATION>
			<DURATION>0.9166666666666666</DURATION>
			<DURATION>0.9166666666666666</DURATION>
			<DURATION>0.9166666666666666</DURATION>
			<DURATION>0.9166666666666666</DURATION>
			<DURATION>0.9166666666666666</DURATION>
			<DURATION>0.9166666666666666</DURATION>
			<DURATION>0.9166666666666666</DURATION>
			<DURATION>0.9166666666666666</DURATION>
			<DURATION>0.9166666666666666</DURATION>
			<DURATION>0.9166666666666666</DURATION>
			<DURATION>0.9166666666666666</DURATION>
			<DURATION>0.9166666666666666</DURATION>
			<DURATION>0.9166666666666666</DURATION>
			<DURATION>0.9333333333333333</DURATION>
			<DURATION>0.9333333333333333</DURATION>
			<DURATION>0.9333333333333333</DURATION>
			<DURATION>0.9333333333333333</DURATION>
			<DURATION>0.9333333333333333</DURATION>
			<DURATION>0.9333333333333333</DURATION>
			<DURATION>0.9333333333333333</DURATION>
			<DURATION>0.9333333333333333</DURATION>
			<DURATION>0.9333333333333333</DURATION>
			<DURATION>0.9333333333333333</DURATION>
			<DURATION>0.9333333333333333</DURATION>
			<DURATION>0.9333333333333333</DURATION>
			<DURATION>0.9333333333333333</DURATION>
			<DURATION>0.9333333333333333</DURATION>
			<DURATION>0.9333333333333333</DURATION>
			<DURATION>0.95</DURATION>
			<DURATION>0.95</DURATION>
			<DURATION>0.95</DURATION>
			<DURATION>0.95</DURATION>
			<DURATION>0.95</DURATION>
			<DURATION>0.95</DURATION>
			<DURATION>0.95</DURATION>
			<DURATION>0.95</DURATION>
			<DURATION>0.95</DURATION>
			<DURATION>0.95</DURATION>
			<DURATION>0.95</DURATION>
			<DURATION>0.95</DURATION>
			<DURATION>0.95</DURATION>
			<DURATION>0.95</DURATION>
			<DURATION>0.95</DURATION>
			<DURATION>0.9666666666666667</DURATION>
			<DURATION>0.9666666666666667</DURATION>
			<DURATION>0.9666666666666667</DURATION>
			<DURATION>0.9666666666666667</DURATION>
			<DURATION>0.9666666666666667</DURATION>
			<DURATION>0.9666666666666667</DURATION>
			<DURATION>0.9666666666666667</DURATION>
			<DURATION>0.9666666666666667</DURATION>
			<DURATION>0.9666666666666667</DURATION>
			<DURATION>0.9666666666666667</DURATION>
			<DURATION>0.9666666666666667</DURATION>
			<DURATION>0.9666666666666667</DURATION>
			<DURATION>0.9666666666666667</DURATION>
			<DURATION>0.9666666666666667</DURATION>
			<DURATION>0.9666666666666667</DURATION>
			<DURATION>0.9666666666666667</DURATION>
			<DURATION>0.9833333333333333</DURATION>
			<DURATION>0.9833333333333333</DURATION>
			<DURATION>0.9833333333333333</DURATION>
			<DURATION>0.9833333333333333</DURATION>
			<DURATION>0.9833333333333333</DURATION>
			<DURATION>0.9833333333333333</DURATION>
			<DURATION>0.9833333333333333</DURATION>
			<DURATION>0.9833333333333333</DURATION>
			<DURATION>0.9833333333333333</DURATION>
			<DURATION>0.9833333333333333</DURATION>
			<DURATION>0.9833333333333333</DURATION>
			<DURATION>0.9833333333333333</DURATION>
			<DURATION>0.9833333333333333</DURATION>
			<DURATION>0.9833333333333333</DURATION>
			<DURATION>0.9833333333333333</DURATION>
			<DURATION>0.9833333333333333</DURATION>
			<DURATION>0.9833333333333333</DURATION>
			<DURATION>0.9833333333333333</DURATION>
			<DURATION>0.9833333333333333</DURATION>
			<DURATION>0.9833333333333333</DURATION>
			<DURATION>1.0</DURATION>
			<DURATION>1.0</DURATION>
			<DURATION>1.0</DURATION>
			<DURATION>1.0</DURATION>
			<DURATION>1.0</DURATION>
			<DURATION>1.0</DURATION>
			<DURATION>1.0</DURATION>
			<DURATION>1.0</DURATION>
			<DURATION>1.0</DURATION>
			<DURATION>1.0</DURATION>
			<DURATION>1.0</DURATION>
			<DURATION>1.0</DURATION>
			<DURATION>1.0</DURATION>
			<DURATION>1.0</DURATION>
			<DURATION>1.0</DURATION>
			<DURATION>1.0</DURATION>
			<DURATION>1.0</DURATION>
			<DURATION>1.0</DURATION>
			<DURATION>1.0</DURATION>
			<DURATION>1.0</DURATION>
			<DURATION>1.0166666666666666</DURATION>
			<DURATION>1.0166666666666666</DURATION>
			<DURATION>1.0166666666666666</DURATION>
			<DURATION>1.0166666666666666</DURATION>
			<DURATION>1.0166666666666666</DURATION>
			<DURATION>1.0166666666666666</DURATION>
			<DURATION>1.0166666666666666</DURATION>
			<DURATION>1.0166666666666666</DURATION>
			<DURATION>1.0166666666666666</DURATION>
			<DURATION>1.0166666666666666</DURATION>
			<DURATION>1.0166666666666666</DURATION>
			<DURATION>1.0166666666666666</DURATION>
			<DURATION>1.0166666666666666</DURATION>
			<DURATION>1.0166666666666666</DURATION>
			<DURATION>1.0166666666666666</DURATION>
			<DURATION>1.0166666666666666</DURATION>
			<DURATION>1.0166666666666666</DURATION>
			<DURATION>1.0166666666666666</DURATION>
			<DURATION>1.0166666666666666</DURATION>
			<DURATION>1.0166666666666666</DURATION>
			<DURATION>1.0333333333333334</DURATION>
			<DURATION>1.0333333333333334</DURATION>
			<DURATION>1.0333333333333334</DURATION>
			<DURATION>1.0333333333333334</DURATION>
			<DURATION>1.0333333333333334</DURATION>
			<DURATION>1.0333333333333334</DURATION>
			<DURATION>1.0333333333333334</DURATION>
			<DURATION>1.0333333333333334</DURATION>
			<DURATION>1.0333333333333334</DURATION>
			<DURATION>1.0333333333333334</DURATION>
			<DURATION>1.0333333333333334</DURATION>
			<DURATION>1.0333333333333334</DURATION>
			<DURATION>1.0333333333333334</DURATION>
			<DURATION>1.0333333333333334</DURATION>
			<DURATION>1.0333333333333334</DURATION>
			<DURATION>1.0333333333333334</DURATION>
			<DURATION>1.0333333333333334</DURATION>
			<DURATION>1.0333333333333334</DURATION>
			<DURATION>1.0333333333333334</DURATION>
			<DURATION>1.0333333333333334</DURATION>
			<DURATION>1.0333333333333334</DURATION>
			<DURATION>1.0333333333333334</DURATION>
			<DURATION>1.0333333333333334</DURATION>
			<DURATION>1.0333333333333334</DURATION>
			<DURATION>1.05</DURATION>
			<DURATION>1.05</DURATION>
			<DURATION>1.05</DURATION>
			<DURATION>1.05</DURATION>
			<DURATION>1.05</DURATION>
			<DURATION>1.05</DURATION>
			<DURATION>1.05</DURATION>
			<DURATION>1.05</DURATION>
			<DURATION>1.05</DURATION>
			<DURATION>1.05</DURATION>
			<DURATION>1.05</DURATION>
			<DURATION>1.05</DURATION>
			<DURATION>1.05</DURATION>
			<DURATION>1.05</DURATION>
			<DURATION>1.05</DURATION>
			<DURATION>1.05</DURATION>
			<DURATION>1.05</DURATION>
			<DURATION>1.05</DURATION>
			<DURATION>1.05</DURATION>
			<DURATION>1.05</DURATION>
			<DURATION>1.0666666666666667</DURATION>
			<DURATION>1.0666666666666667</DURATION>
			<DURATION>1.0666666666666667</DURATION>
			<DURATION>1.0666666666666667</DURATION>
			<DURATION>1.0666666666666667</DURATION>
			<DURATION>1.0666666666666667</DURATION>
			<DURATION>1.0666666666666667</DURATION>
			<DURATION>1.0666666666666667</DURATION>
			<DURATION>1.0666666666666667</DURATION>
			<DURATION>1.0666666666666667</DURATION>
			<DURATION>1.0666666666666667</DURATION>
			<DURATION>1.0666666666666667</DURATION>
			<DURATION>1.0666666666666667</DURATION>
			<DURATION>1.0666666666666667</DURATION>
			<DURATION>1.0666666666666667</DURATION>
			<DURATION>1.0666666666666667</DURATION>
			<DURATION>1.0833333333333333</DURATION>
			<DURATION>1.0833333333333333</DURATION>
			<DURATION>1.0833333333333333</DURATION>
			<DURATION>1.0833333333333333</DURATION>
			<DURATION>1.0833333333333333</DURATION>
			<DURATION>1.0833333333333333</DURATION>
			<DURATION>1.0833333333333333</DURATION>
			<DURATION>1.0833333333333333</DURATION>
			<DURATION>1.0833333333333333</DURATION>
			<DURATION>1.0833333333333333</DURATION>
			<DURATION>1.0833333333333333</DURATION>
			<DURATION>1.0833333333333333</DURATION>
			<DURATION>1.0833333333333333</DURATION>
			<DURATION>1.0833333333333333</DURATION>
			<DURATION>1.1</DURATION>
			<DURATION>1.1</DURATION>
			<DURATION>1.1</DURATION>
			<DURATION>1.1</DURATION>
			<DURATION>1.1</DURATION>
			<DURATION>1.1</DURATION>
			<DURATION>1.1</DURATION>
			<DURATION>1.1</DURATION>
			<DURATION>1.1</DURATION>
			<DURATION>1.1166666666666667</DURATION>
			<DURATION>1.1166666666666667</DURATION>
			<DURATION>1.1166666666666667</DURATION>
			<DURATION>1.1166666666666667</DURATION>
			<DURATION>1.1166666666666667</DURATION>
			<DURATION>1.1166666666666667</DURATION>
			<DURATION>1.1166666666666667</DURATION>
			<DURATION>1.1166666666666667</DURATION>
			<DURATION>1.1166666666666667</DURATION>
			<DURATION>1.1166666666666667</DURATION>
			<DURATION>1.1333333333333333</DURATION>
			<DURATION>1.1333333333333333</DURATION>
			<DURATION>1.1333333333333333</DURATION>
			<DURATION>1.1333333333333333</DURATION>
			<DURATION>1.1333333333333333</DURATION>
			<DURATION>1.1333333333333333</DURATION>
			<DURATION>1.1333333333333333</DURATION>
			<DURATION>1.1333333333333333</DURATION>
			<DURATION>1.1333333333333333</DURATION>
			<DURATION>1.15</DURATION>
			<DURATION>1.15</DURATION>
			<DURATION>1.15</DURATION>
			<DURATION>1.15</DURATION>
			<DURATION>1.15</DURATION>
			<DURATION>1.15</DURATION>
			<DURATION>1.15</DURATION>
			<DURATION>1.15</DURATION>
			<DURATION>1.1666666666666667</DURATION>
			<DURATION>1.1666666666666667</DURATION>
			<DURATION>1.1666666666666667</DURATION>
			<DURATION>1.1666666666666667</DURATION>
			<DURATION>1.1666666666666667</DURATION>
			<DURATION>1.1666666666666667</DURATION>
			<DURATION>1.1666666666666667</DURATION>
			<DURATION>1.1666666666666667</DURATION>
			<DURATION>1.1666666666666667</DURATION>
			<DURATION>1.1833333333333333</DURATION>
			<DURATION>1.1833333333333333</DURATION>
			<DURATION>1.1833333333333333</DURATION>
			<DURATION>1.1833333333333333</DURATION>
			<DURATION>1.1833333333333333</DURATION>
			<DURATION>1.2</DURATION>
			<DURATION>1.2</DURATION>
			<DURATION>1.2166666666666666</DURATION>
			<DURATION>1.2166666666666666</DURATION>
			<DURATION>1.2166666666666666</DURATION>
			<DURATION>1.2166666666666666</DURATION>
			<DURATION>1.2166666666666666</DURATION>
			<DURATION>1.2166666666666666</DURATION>
			<DURATION>1.2166666666666666</DURATION>
			<DURATION>1.2166666666666666</DURATION>
			<DURATION>1.2166666666666666</DURATION>
			<DURATION>1.2166666666666666</DURATION>
			<DURATION>1.2333333333333334</DURATION>
			<DURATION>1.2333333333333334</DURATION>
			<DURATION>1.2333333333333334</DURATION>
			<DURATION>1.2333333333333334</DURATION>
			<DURATION>1.25</DURATION>
			<DURATION>1.25</DURATION>
			<DURATION>1.25</DURATION>
			<DURATION>1.25</DURATION>
			<DURATION>1.2666666666666666</DURATION>
			<DURATION>1.2666666666666666</DURATION>
			<DURATION>1.2833333333333334</DURATION>
			<DURATION>1.2833333333333334</DURATION>
			<DURATION>1.2833333333333334</DURATION>
			<DURATION>1.2833333333333334</DURATION>
			<DURATION>1.2833333333333334</DURATION>
			<DURATION>1.2833333333333334</DURATION>
			<DURATION>1.3</DURATION>
			<DURATION>1.3</DURATION>
			<DURATION>1.3166666666666667</DURATION>
			<DURATION>1.3166666666666667</DURATION>
			<DURATION>1.3166666666666667</DURATION>
			<DURATION>1.3333333333333333</DURATION>
			<DURATION>1.3333333333333333</DURATION>
			<DURATION>1.3333333333333333</DURATION>
			<DURATION>1.35</DURATION>
			<DURATION>1.3666666666666667</DURATION>
			<DURATION>1.3833333333333333</DURATION>
			<DURATION>1.4333333333333333</DURATION>
			<DURATION>1.4333333333333333</DURATION>
			<DURATION>1.45</DURATION>
			<DURATION>1.4666666666666666</DURATION>
			<DURATION>1.4833333333333334</DURATION>
			<DURATION>1.5</DURATION>
			<DURATION>1.5</DURATION>
			<DURATION>1.5166666666666666</DURATION>
			<DURATION>1.5333333333333334</DURATION>
			<DURATION>1.55</DURATION>
			<DURATION>1.55</DURATION>
			<DURATION>1.6166666666666667</DURATION>
			<DURATION>1.6333333333333333</DURATION>
			<DURATION>1.6833333333333333</DURATION>
			<DURATION>1.7166666666666666</DURATION>
			<DURATION>1.8833333333333333</DURATION>
			<DURATION>1.9</DURATION>
			<DURATION>1.95</DURATION>
			<DURATION>1.95</DURATION>
			<DURATION>1.9666666666666666</DURATION>
			<DURATION>2.0</DURATION>
			<DURATION>2.033333333333333</DURATION>
			<DURATION>2.1166666666666667</DURATION>
			<DURATION>2.316666666666667</DURATION>
			<DURATION>2.4166666666666665</DURATION>
			<DURATION>2.5</DURATION>
			<DURATION>2.5833333333333335</DURATION>
			<DURATION>2.6</DURATION>
			<DURATION>3.15</DURATION>
			<DURATION>3.2</DURATION>
			<DURATION>10.5</DURATION>
		</HISTORICAL-DURATIONS>
	</CONSTRAINT>
	<CONSTRAINT>
		<START>73ebd6d2-9149-4f85-a101-44d96dfab776</START>
		<END>9e5fccf6-4175-42b3-9ff4-dda29bc735cf</END>
		<ID>4686c748-6c17-4c13-b25d-35fa23eda14b</ID>
		<NAME>Dwell at 70065 (Porter - Inbound)</NAME>
		<LOWERBOUND>0.5166666666666667</LOWERBOUND>
		<UPPERBOUND>1.9166666666666667</UPPERBOUND>
		<LB-RELAX-COST-RATIO>0.0</LB-RELAX-COST-RATIO>
		<UB-RELAX-COST-RATIO>0.0</UB-RELAX-COST-RATIO>
		<COST>0.0</COST>
		<TYPE>Uncontrollable;Activity</TYPE>
		<MEAN>0.0</MEAN>
		<DISTRIBUTION>Normal</DISTRIBUTION>
		<VARIANCE>0.0</VARIANCE>
		<HISTORICAL-DURATIONS>
			<DURATION>0.5166666666666667</DURATION>
			<DURATION>0.6</DURATION>
			<DURATION>0.6</DURATION>
			<DURATION>0.6</DURATION>
			<DURATION>0.6</DURATION>
			<DURATION>0.6166666666666667</DURATION>
			<DURATION>0.6166666666666667</DURATION>
			<DURATION>0.6333333333333333</DURATION>
			<DURATION>0.65</DURATION>
			<DURATION>0.65</DURATION>
			<DURATION>0.65</DURATION>
			<DURATION>0.65</DURATION>
			<DURATION>0.65</DURATION>
			<DURATION>0.6666666666666666</DURATION>
			<DURATION>0.6666666666666666</DURATION>
			<DURATION>0.6666666666666666</DURATION>
			<DURATION>0.6666666666666666</DURATION>
			<DURATION>0.6666666666666666</DURATION>
			<DURATION>0.6833333333333333</DURATION>
			<DURATION>0.6833333333333333</DURATION>
			<DURATION>0.6833333333333333</DURATION>
			<DURATION>0.6833333333333333</DURATION>
			<DURATION>0.6833333333333333</DURATION>
			<DURATION>0.6833333333333333</DURATION>
			<DURATION>0.6833333333333333</DURATION>
			<DURATION>0.6833333333333333</DURATION>
			<DURATION>0.6833333333333333</DURATION>
			<DURATION>0.6833333333333333</DURATION>
			<DURATION>0.6833333333333333</DURATION>
			<DURATION>0.6833333333333333</DURATION>
			<DURATION>0.6833333333333333</DURATION>
			<DURATION>0.6833333333333333</DURATION>
			<DURATION>0.7</DURATION>
			<DURATION>0.7</DURATION>
			<DURATION>0.7</DURATION>
			<DURATION>0.7</DURATION>
			<DURATION>0.7</DURATION>
			<DURATION>0.7</DURATION>
			<DURATION>0.7</DURATION>
			<DURATION>0.7</DURATION>
			<DURATION>0.7</DURATION>
			<DURATION>0.7</DURATION>
			<DURATION>0.7</DURATION>
			<DURATION>0.7</DURATION>
			<DURATION>0.7</DURATION>
			<DURATION>0.7</DURATION>
			<DURATION>0.7</DURATION>
			<DURATION>0.7</DURATION>
			<DURATION>0.7</DURATION>
			<DURATION>0.7</DURATION>
			<DURATION>0.7</DURATION>
			<DURATION>0.7</DURATION>
			<DURATION>0.7</DURATION>
			<DURATION>0.7</DURATION>
			<DURATION>0.7</DURATION>
			<DURATION>0.7</DURATION>
			<DURATION>0.7</DURATION>
			<DURATION>0.7</DURATION>
			<DURATION>0.7</DURATION>
			<DURATION>0.7</DURATION>
			<DURATION>0.7</DURATION>
			<DURATION>0.7166666666666667</DURATION>
			<DURATION>0.7166666666666667</DURATION>
			<DURATION>0.7166666666666667</DURATION>
			<DURATION>0.7166666666666667</DURATION>
			<DURATION>0.7166666666666667</DURATION>
			<DURATION>0.7166666666666667</DURATION>
			<DURATION>0.7166666666666667</DURATION>
			<DURATION>0.7166666666666667</DURATION>
			<DURATION>0.7166666666666667</DURATION>
			<DURATION>0.7166666666666667</DURATION>
			<DURATION>0.7166666666666667</DURATION>
			<DURATION>0.7166666666666667</DURATION>
			<DURATION>0.7166666666666667</DURATION>
			<DURATION>0.7166666666666667</DURATION>
			<DURATION>0.7166666666666667</DURATION>
			<DURATION>0.7166666666666667</DURATION>
			<DURATION>0.7166666666666667</DURATION>
			<DURATION>0.7166666666666667</DURATION>
			<DURATION>0.7333333333333333</DURATION>
			<DURATION>0.7333333333333333</DURATION>
			<DURATION>0.7333333333333333</DURATION>
			<DURATION>0.7333333333333333</DURATION>
			<DURATION>0.7333333333333333</DURATION>
			<DURATION>0.7333333333333333</DURATION>
			<DURATION>0.7333333333333333</DURATION>
			<DURATION>0.7333333333333333</DURATION>
			<DURATION>0.7333333333333333</DURATION>
			<DURATION>0.7333333333333333</DURATION>
			<DURATION>0.7333333333333333</DURATION>
			<DURATION>0.7333333333333333</DURATION>
			<DURATION>0.7333333333333333</DURATION>
			<DURATION>0.7333333333333333</DURATION>
			<DURATION>0.7333333333333333</DURATION>
			<DURATION>0.7333333333333333</DURATION>
			<DURATION>0.7333333333333333</DURATION>
			<DURATION>0.7333333333333333</DURATION>
			<DURATION>0.7333333333333333</DURATION>
			<DURATION>0.7333333333333333</DURATION>
			<DURATION>0.7333333333333333</DURATION>
			<DURATION>0.7333333333333333</DURATION>
			<DURATION>0.7333333333333333</DURATION>
			<DURATION>0.7333333333333333</DURATION>
			<DURATION>0.7333333333333333</DURATION>
			<DURATION>0.7333333333333333</DURATION>
			<DURATION>0.7333333333333333</DURATION>
			<DURATION>0.7333333333333333</DURATION>
			<DURATION>0.7333333333333333</DURATION>
			<DURATION>0.7333333333333333</DURATION>
			<DURATION>0.7333333333333333</DURATION>
			<DURATION>0.7333333333333333</DURATION>
			<DURATION>0.7333333333333333</DURATION>
			<DURATION>0.7333333333333333</DURATION>
			<DURATION>0.7333333333333333</DURATION>
			<DURATION>0.7333333333333333</DURATION>
			<DURATION>0.7333333333333333</DURATION>
			<DURATION>0.75</DURATION>
			<DURATION>0.75</DURATION>
			<DURATION>0.75</DURATION>
			<DURATION>0.75</DURATION>
			<DURATION>0.75</DURATION>
			<DURATION>0.75</DURATION>
			<DURATION>0.75</DURATION>
			<DURATION>0.75</DURATION>
			<DURATION>0.75</DURATION>
			<DURATION>0.75</DURATION>
			<DURATION>0.75</DURATION>
			<DURATION>0.75</DURATION>
			<DURATION>0.75</DURATION>
			<DURATION>0.75</DURATION>
			<DURATION>0.75</DURATION>
			<DURATION>0.75</DURATION>
			<DURATION>0.75</DURATION>
			<DURATION>0.75</DURATION>
			<DURATION>0.75</DURATION>
			<DURATION>0.75</DURATION>
			<DURATION>0.75</DURATION>
			<DURATION>0.75</DURATION>
			<DURATION>0.75</DURATION>
			<DURATION>0.75</DURATION>
			<DURATION>0.75</DURATION>
			<DURATION>0.75</DURATION>
			<DURATION>0.75</DURATION>
			<DURATION>0.75</DURATION>
			<DURATION>0.75</DURATION>
			<DURATION>0.75</DURATION>
			<DURATION>0.75</DURATION>
			<DURATION>0.75</DURATION>
			<DURATION>0.75</DURATION>
			<DURATION>0.75</DURATION>
			<DURATION>0.75</DURATION>
			<DURATION>0.7666666666666667</DURATION>
			<DURATION>0.7666666666666667</DURATION>
			<DURATION>0.7666666666666667</DURATION>
			<DURATION>0.7666666666666667</DURATION>
			<DURATION>0.7666666666666667</DURATION>
			<DURATION>0.7666666666666667</DURATION>
			<DURATION>0.7666666666666667</DURATION>
			<DURATION>0.7666666666666667</DURATION>
			<DURATION>0.7666666666666667</DURATION>
			<DURATION>0.7666666666666667</DURATION>
			<DURATION>0.7666666666666667</DURATION>
			<DURATION>0.7666666666666667</DURATION>
			<DURATION>0.7666666666666667</DURATION>
			<DURATION>0.7666666666666667</DURATION>
			<DURATION>0.7666666666666667</DURATION>
			<DURATION>0.7666666666666667</DURATION>
			<DURATION>0.7666666666666667</DURATION>
			<DURATION>0.7666666666666667</DURATION>
			<DURATION>0.7666666666666667</DURATION>
			<DURATION>0.7666666666666667</DURATION>
			<DURATION>0.7666666666666667</DURATION>
			<DURATION>0.7666666666666667</DURATION>
			<DURATION>0.7666666666666667</DURATION>
			<DURATION>0.7666666666666667</DURATION>
			<DURATION>0.7666666666666667</DURATION>
			<DURATION>0.7666666666666667</DURATION>
			<DURATION>0.7666666666666667</DURATION>
			<DURATION>0.7666666666666667</DURATION>
			<DURATION>0.7666666666666667</DURATION>
			<DURATION>0.7666666666666667</DURATION>
			<DURATION>0.7666666666666667</DURATION>
			<DURATION>0.7666666666666667</DURATION>
			<DURATION>0.7666666666666667</DURATION>
			<DURATION>0.7666666666666667</DURATION>
			<DURATION>0.7666666666666667</DURATION>
			<DURATION>0.7666666666666667</DURATION>
			<DURATION>0.7666666666666667</DURATION>
			<DURATION>0.7666666666666667</DURATION>
			<DURATION>0.7666666666666667</DURATION>
			<DURATION>0.7666666666666667</DURATION>
			<DURATION>0.7833333333333333</DURATION>
			<DURATION>0.7833333333333333</DURATION>
			<DURATION>0.7833333333333333</DURATION>
			<DURATION>0.7833333333333333</DURATION>
			<DURATION>0.7833333333333333</DURATION>
			<DURATION>0.7833333333333333</DURATION>
			<DURATION>0.7833333333333333</DURATION>
			<DURATION>0.7833333333333333</DURATION>
			<DURATION>0.7833333333333333</DURATION>
			<DURATION>0.7833333333333333</DURATION>
			<DURATION>0.7833333333333333</DURATION>
			<DURATION>0.7833333333333333</DURATION>
			<DURATION>0.7833333333333333</DURATION>
			<DURATION>0.7833333333333333</DURATION>
			<DURATION>0.7833333333333333</DURATION>
			<DURATION>0.7833333333333333</DURATION>
			<DURATION>0.7833333333333333</DURATION>
			<DURATION>0.7833333333333333</DURATION>
			<DURATION>0.7833333333333333</DURATION>
			<DURATION>0.7833333333333333</DURATION>
			<DURATION>0.7833333333333333</DURATION>
			<DURATION>0.7833333333333333</DURATION>
			<DURATION>0.7833333333333333</DURATION>
			<DURATION>0.7833333333333333</DURATION>
			<DURATION>0.7833333333333333</DURATION>
			<DURATION>0.7833333333333333</DURATION>
			<DURATION>0.7833333333333333</DURATION>
			<DURATION>0.7833333333333333</DURATION>
			<DURATION>0.7833333333333333</DURATION>
			<DURATION>0.7833333333333333</DURATION>
			<DURATION>0.7833333333333333</DURATION>
			<DURATION>0.7833333333333333</DURATION>
			<DURATION>0.7833333333333333</DURATION>
			<DURATION>0.7833333333333333</DURATION>
			<DURATION>0.7833333333333333</DURATION>
			<DURATION>0.7833333333333333</DURATION>
			<DURATION>0.7833333333333333</DURATION>
			<DURATION>0.7833333333333333</DURATION>
			<DURATION>0.7833333333333333</DURATION>
			<DURATION>0.7833333333333333</DURATION>
			<DURATION>0.7833333333333333</DURATION>
			<DURATION>0.8</DURATION>
			<DURATION>0.8</DURATION>
			<DURATION>0.8</DURATION>
			<DURATION>0.8</DURATION>
			<DURATION>0.8</DURATION>
			<DURATION>0.8</DURATION>
			<DURATION>0.8</DURATION>
			<DURATION>0.8</DURATION>
			<DURATION>0.8</DURATION>
			<DURATION>0.8</DURATION>
			<DURATION>0.8</DURATION>
			<DURATION>0.8</DURATION>
			<DURATION>0.8</DURATION>
			<DURATION>0.8</DURATION>
			<DURATION>0.8</DURATION>
			<DURATION>0.8</DURATION>
			<DURATION>0.8</DURATION>
			<DURATION>0.8</DURATION>
			<DURATION>0.8</DURATION>
			<DURATION>0.8</DURATION>
			<DURATION>0.8</DURATION>
			<DURATION>0.8</DURATION>
			<DURATION>0.8</DURATION>
			<DURATION>0.8</DURATION>
			<DURATION>0.8</DURATION>
			<DURATION>0.8</DURATION>
			<DURATION>0.8</DURATION>
			<DURATION>0.8</DURATION>
			<DURATION>0.8</DURATION>
			<DURATION>0.8</DURATION>
			<DURATION>0.8</DURATION>
			<DURATION>0.8</DURATION>
			<DURATION>0.8</DURATION>
			<DURATION>0.8</DURATION>
			<DURATION>0.8</DURATION>
			<DURATION>0.8</DURATION>
			<DURATION>0.8</DURATION>
			<DURATION>0.8</DURATION>
			<DURATION>0.8</DURATION>
			<DURATION>0.8</DURATION>
			<DURATION>0.8</DURATION>
			<DURATION>0.8</DURATION>
			<DURATION>0.8</DURATION>
			<DURATION>0.8</DURATION>
			<DURATION>0.8</DURATION>
			<DURATION>0.8</DURATION>
			<DURATION>0.8</DURATION>
			<DURATION>0.8</DURATION>
			<DURATION>0.8</DURATION>
			<DURATION>0.8</DURATION>
			<DURATION>0.8166666666666667</DURATION>
			<DURATION>0.8166666666666667</DURATION>
			<DURATION>0.8166666666666667</DURATION>
			<DURATION>0.8166666666666667</DURATION>
			<DURATION>0.8166666666666667</DURATION>
			<DURATION>0.8166666666666667</DURATION>
			<DURATION>0.8166666666666667</DURATION>
			<DURATION>0.8166666666666667</DURATION>
			<DURATION>0.8166666666666667</DURATION>
			<DURATION>0.8166666666666667</DURATION>
			<DURATION>0.8166666666666667</DURATION>
			<DURATION>0.8166666666666667</DURATION>
			<DURATION>0.8166666666666667</DURATION>
			<DURATION>0.8166666666666667</DURATION>
			<DURATION>0.8166666666666667</DURATION>
			<DURATION>0.8166666666666667</DURATION>
			<DURATION>0.8166666666666667</DURATION>
			<DURATION>0.8166666666666667</DURATION>
			<DURATION>0.8166666666666667</DURATION>
			<DURATION>0.8166666666666667</DURATION>
			<DURATION>0.8166666666666667</DURATION>
			<DURATION>0.8166666666666667</DURATION>
			<DURATION>0.8166666666666667</DURATION>
			<DURATION>0.8166666666666667</DURATION>
			<DURATION>0.8166666666666667</DURATION>
			<DURATION>0.8166666666666667</DURATION>
			<DURATION>0.8166666666666667</DURATION>
			<DURATION>0.8166666666666667</DURATION>
			<DURATION>0.8166666666666667</DURATION>
			<DURATION>0.8166666666666667</DURATION>
			<DURATION>0.8166666666666667</DURATION>
			<DURATION>0.8166666666666667</DURATION>
			<DURATION>0.8166666666666667</DURATION>
			<DURATION>0.8166666666666667</DURATION>
			<DURATION>0.8166666666666667</DURATION>
			<DURATION>0.8333333333333334</DURATION>
			<DURATION>0.8333333333333334</DURATION>
			<DURATION>0.8333333333333334</DURATION>
			<DURATION>0.8333333333333334</DURATION>
			<DURATION>0.8333333333333334</DURATION>
			<DURATION>0.8333333333333334</DURATION>
			<DURATION>0.8333333333333334</DURATION>
			<DURATION>0.8333333333333334</DURATION>
			<DURATION>0.8333333333333334</DURATION>
			<DURATION>0.8333333333333334</DURATION>
			<DURATION>0.8333333333333334</DURATION>
			<DURATION>0.8333333333333334</DURATION>
			<DURATION>0.8333333333333334</DURATION>
			<DURATION>0.8333333333333334</DURATION>
			<DURATION>0.8333333333333334</DURATION>
			<DURATION>0.8333333333333334</DURATION>
			<DURATION>0.8333333333333334</DURATION>
			<DURATION>0.8333333333333334</DURATION>
			<DURATION>0.8333333333333334</DURATION>
			<DURATION>0.8333333333333334</DURATION>
			<DURATION>0.8333333333333334</DURATION>
			<DURATION>0.8333333333333334</DURATION>
			<DURATION>0.8333333333333334</DURATION>
			<DURATION>0.8333333333333334</DURATION>
			<DURATION>0.8333333333333334</DURATION>
			<DURATION>0.8333333333333334</DURATION>
			<DURATION>0.8333333333333334</DURATION>
			<DURATION>0.8333333333333334</DURATION>
			<DURATION>0.8333333333333334</DURATION>
			<DURATION>0.8333333333333334</DURATION>
			<DURATION>0.85</DURATION>
			<DURATION>0.85</DURATION>
			<DURATION>0.85</DURATION>
			<DURATION>0.85</DURATION>
			<DURATION>0.85</DURATION>
			<DURATION>0.85</DURATION>
			<DURATION>0.85</DURATION>
			<DURATION>0.85</DURATION>
			<DURATION>0.85</DURATION>
			<DURATION>0.85</DURATION>
			<DURATION>0.85</DURATION>
			<DURATION>0.85</DURATION>
			<DURATION>0.85</DURATION>
			<DURATION>0.85</DURATION>
			<DURATION>0.85</DURATION>
			<DURATION>0.85</DURATION>
			<DURATION>0.85</DURATION>
			<DURATION>0.85</DURATION>
			<DURATION>0.85</DURATION>
			<DURATION>0.85</DURATION>
			<DURATION>0.85</DURATION>
			<DURATION>0.85</DURATION>
			<DURATION>0.85</DURATION>
			<DURATION>0.85</DURATION>
			<DURATION>0.85</DURATION>
			<DURATION>0.85</DURATION>
			<DURATION>0.8666666666666667</DURATION>
			<DURATION>0.8666666666666667</DURATION>
			<DURATION>0.8666666666666667</DURATION>
			<DURATION>0.8666666666666667</DURATION>
			<DURATION>0.8666666666666667</DURATION>
			<DURATION>0.8666666666666667</DURATION>
			<DURATION>0.8666666666666667</DURATION>
			<DURATION>0.8666666666666667</DURATION>
			<DURATION>0.8666666666666667</DURATION>
			<DURATION>0.8666666666666667</DURATION>
			<DURATION>0.8666666666666667</DURATION>
			<DURATION>0.8666666666666667</DURATION>
			<DURATION>0.8666666666666667</DURATION>
			<DURATION>0.8666666666666667</DURATION>
			<DURATION>0.8666666666666667</DURATION>
			<DURATION>0.8666666666666667</DURATION>
			<DURATION>0.8666666666666667</DURATION>
			<DURATION>0.8666666666666667</DURATION>
			<DURATION>0.8833333333333333</DURATION>
			<DURATION>0.8833333333333333</DURATION>
			<DURATION>0.8833333333333333</DURATION>
			<DURATION>0.8833333333333333</DURATION>
			<DURATION>0.8833333333333333</DURATION>
			<DURATION>0.8833333333333333</DURATION>
			<DURATION>0.8833333333333333</DURATION>
			<DURATION>0.8833333333333333</DURATION>
			<DURATION>0.8833333333333333</DURATION>
			<DURATION>0.8833333333333333</DURATION>
			<DURATION>0.8833333333333333</DURATION>
			<DURATION>0.8833333333333333</DURATION>
			<DURATION>0.8833333333333333</DURATION>
			<DURATION>0.8833333333333333</DURATION>
			<DURATION>0.8833333333333333</DURATION>
			<DURATION>0.8833333333333333</DURATION>
			<DURATION>0.8833333333333333</DURATION>
			<DURATION>0.8833333333333333</DURATION>
			<DURATION>0.8833333333333333</DURATION>
			<DURATION>0.8833333333333333</DURATION>
			<DURATION>0.9</DURATION>
			<DURATION>0.9</DURATION>
			<DURATION>0.9</DURATION>
			<DURATION>0.9</DURATION>
			<DURATION>0.9</DURATION>
			<DURATION>0.9</DURATION>
			<DURATION>0.9</DURATION>
			<DURATION>0.9</DURATION>
			<DURATION>0.9</DURATION>
			<DURATION>0.9</DURATION>
			<DURATION>0.9</DURATION>
			<DURATION>0.9</DURATION>
			<DURATION>0.9</DURATION>
			<DURATION>0.9</DURATION>
			<DURATION>0.9</DURATION>
			<DURATION>0.9</DURATION>
			<DURATION>0.9</DURATION>
			<DURATION>0.9</DURATION>
			<DURATION>0.9</DURATION>
			<DURATION>0.9</DURATION>
			<DURATION>0.9</DURATION>
			<DURATION>0.9</DURATION>
			<DURATION>0.9</DURATION>
			<DURATION>0.9166666666666666</DURATION>
			<DURATION>0.9166666666666666</DURATION>
			<DURATION>0.9166666666666666</DURATION>
			<DURATION>0.9166666666666666</DURATION>
			<DURATION>0.9166666666666666</DURATION>
			<DURATION>0.9166666666666666</DURATION>
			<DURATION>0.9166666666666666</DURATION>
			<DURATION>0.9166666666666666</DURATION>
			<DURATION>0.9166666666666666</DURATION>
			<DURATION>0.9166666666666666</DURATION>
			<DURATION>0.9166666666666666</DURATION>
			<DURATION>0.9166666666666666</DURATION>
			<DURATION>0.9166666666666666</DURATION>
			<DURATION>0.9166666666666666</DURATION>
			<DURATION>0.9166666666666666</DURATION>
			<DURATION>0.9166666666666666</DURATION>
			<DURATION>0.9166666666666666</DURATION>
			<DURATION>0.9333333333333333</DURATION>
			<DURATION>0.9333333333333333</DURATION>
			<DURATION>0.9333333333333333</DURATION>
			<DURATION>0.9333333333333333</DURATION>
			<DURATION>0.9333333333333333</DURATION>
			<DURATION>0.9333333333333333</DURATION>
			<DURATION>0.9333333333333333</DURATION>
			<DURATION>0.9333333333333333</DURATION>
			<DURATION>0.9333333333333333</DURATION>
			<DURATION>0.9333333333333333</DURATION>
			<DURATION>0.9333333333333333</DURATION>
			<DURATION>0.9333333333333333</DURATION>
			<DURATION>0.9333333333333333</DURATION>
			<DURATION>0.9333333333333333</DURATION>
			<DURATION>0.95</DURATION>
			<DURATION>0.95</DURATION>
			<DURATION>0.95</DURATION>
			<DURATION>0.95</DURATION>
			<DURATION>0.95</DURATION>
			<DURATION>0.95</DURATION>
			<DURATION>0.95</DURATION>
			<DURATION>0.95</DURATION>
			<DURATION>0.95</DURATION>
			<DURATION>0.95</DURATION>
			<DURATION>0.95</DURATION>
			<DURATION>0.95</DURATION>
			<DURATION>0.9666666666666667</DURATION>
			<DURATION>0.9666666666666667</DURATION>
			<DURATION>0.9666666666666667</DURATION>
			<DURATION>0.9666666666666667</DURATION>
			<DURATION>0.9666666666666667</DURATION>
			<DURATION>0.9666666666666667</DURATION>
			<DURATION>0.9666666666666667</DURATION>
			<DURATION>0.9666666666666667</DURATION>
			<DURATION>0.9666666666666667</DURATION>
			<DURATION>0.9833333333333333</DURATION>
			<DURATION>0.9833333333333333</DURATION>
			<DURATION>0.9833333333333333</DURATION>
			<DURATION>0.9833333333333333</DURATION>
			<DURATION>0.9833333333333333</DURATION>
			<DURATION>0.9833333333333333</DURATION>
			<DURATION>0.9833333333333333</DURATION>
			<DURATION>0.9833333333333333</DURATION>
			<DURATION>1.0</DURATION>
			<DURATION>1.0</DURATION>
			<DURATION>1.0</DURATION>
			<DURATION>1.0</DURATION>
			<DURATION>1.0166666666666666</DURATION>
			<DURATION>1.0166666666666666</DURATION>
			<DURATION>1.0166666666666666</DURATION>
			<DURATION>1.0166666666666666</DURATION>
			<DURATION>1.0166666666666666</DURATION>
			<DURATION>1.0166666666666666</DURATION>
			<DURATION>1.0166666666666666</DURATION>
			<DURATION>1.0166666666666666</DURATION>
			<DURATION>1.0166666666666666</DURATION>
			<DURATION>1.0333333333333334</DURATION>
			<DURATION>1.0333333333333334</DURATION>
			<DURATION>1.0333333333333334</DURATION>
			<DURATION>1.0333333333333334</DURATION>
			<DURATION>1.0333333333333334</DURATION>
			<DURATION>1.0333333333333334</DURATION>
			<DURATION>1.0333333333333334</DURATION>
			<DURATION>1.05</DURATION>
			<DURATION>1.05</DURATION>
			<DURATION>1.05</DURATION>
			<DURATION>1.05</DURATION>
			<DURATION>1.05</DURATION>
			<DURATION>1.05</DURATION>
			<DURATION>1.05</DURATION>
			<DURATION>1.05</DURATION>
			<DURATION>1.05</DURATION>
			<DURATION>1.05</DURATION>
			<DURATION>1.05</DURATION>
			<DURATION>1.05</DURATION>
			<DURATION>1.05</DURATION>
			<DURATION>1.0666666666666667</DURATION>
			<DURATION>1.0666666666666667</DURATION>
			<DURATION>1.0666666666666667</DURATION>
			<DURATION>1.0666666666666667</DURATION>
			<DURATION>1.0666666666666667</DURATION>
			<DURATION>1.0666666666666667</DURATION>
			<DURATION>1.0833333333333333</DURATION>
			<DURATION>1.0833333333333333</DURATION>
			<DURATION>1.0833333333333333</DURATION>
			<DURATION>1.0833333333333333</DURATION>
			<DURATION>1.0833333333333333</DURATION>
			<DURATION>1.0833333333333333</DURATION>
			<DURATION>1.0833333333333333</DURATION>
			<DURATION>1.0833333333333333</DURATION>
			<DURATION>1.0833333333333333</DURATION>
			<DURATION>1.0833333333333333</DURATION>
			<DURATION>1.0833333333333333</DURATION>
			<DURATION>1.1</DURATION>
			<DURATION>1.1</DURATION>
			<DURATION>1.1</DURATION>
			<DURATION>1.1</DURATION>
			<DURATION>1.1</DURATION>
			<DURATION>1.1</DURATION>
			<DURATION>1.1</DURATION>
			<DURATION>1.1</DURATION>
			<DURATION>1.1</DURATION>
			<DURATION>1.1166666666666667</DURATION>
			<DURATION>1.1166666666666667</DURATION>
			<DURATION>1.1166666666666667</DURATION>
			<DURATION>1.1166666666666667</DURATION>
			<DURATION>1.1166666666666667</DURATION>
			<DURATION>1.1166666666666667</DURATION>
			<DURATION>1.1333333333333333</DURATION>
			<DURATION>1.1333333333333333</DURATION>
			<DURATION>1.1333333333333333</DURATION>
			<DURATION>1.15</DURATION>
			<DURATION>1.15</DURATION>
			<DURATION>1.15</DURATION>
			<DURATION>1.15</DURATION>
			<DURATION>1.15</DURATION>
			<DURATION>1.15</DURATION>
			<DURATION>1.1666666666666667</DURATION>
			<DURATION>1.1666666666666667</DURATION>
			<DURATION>1.1666666666666667</DURATION>
			<DURATION>1.1666666666666667</DURATION>
			<DURATION>1.1666666666666667</DURATION>
			<DURATION>1.1833333333333333</DURATION>
			<DURATION>1.1833333333333333</DURATION>
			<DURATION>1.2</DURATION>
			<DURATION>1.2</DURATION>
			<DURATION>1.2</DURATION>
			<DURATION>1.2166666666666666</DURATION>
			<DURATION>1.2166666666666666</DURATION>
			<DURATION>1.2166666666666666</DURATION>
			<DURATION>1.25</DURATION>
			<DURATION>1.25</DURATION>
			<DURATION>1.25</DURATION>
			<DURATION>1.2833333333333334</DURATION>
			<DURATION>1.2833333333333334</DURATION>
			<DURATION>1.3</DURATION>
			<DURATION>1.3333333333333333</DURATION>
			<DURATION>1.3333333333333333</DURATION>
			<DURATION>1.3333333333333333</DURATION>
			<DURATION>1.35</DURATION>
			<DURATION>1.4</DURATION>
			<DURATION>1.4166666666666667</DURATION>
			<DURATION>1.45</DURATION>
			<DURATION>1.4833333333333334</DURATION>
			<DURATION>1.5</DURATION>
			<DURATION>1.5333333333333334</DURATION>
			<DURATION>1.55</DURATION>
			<DURATION>1.5666666666666667</DURATION>
			<DURATION>1.5833333333333333</DURATION>
			<DURATION>1.5833333333333333</DURATION>
			<DURATION>1.6</DURATION>
			<DURATION>1.6166666666666667</DURATION>
			<DURATION>1.6666666666666667</DURATION>
			<DURATION>1.6666666666666667</DURATION>
			<DURATION>1.6833333333333333</DURATION>
			<DURATION>1.6833333333333333</DURATION>
			<DURATION>1.6833333333333333</DURATION>
			<DURATION>1.7</DURATION>
			<DURATION>1.8333333333333333</DURATION>
			<DURATION>1.9</DURATION>
			<DURATION>1.9166666666666667</DURATION>
			<DURATION>1.95</DURATION>
			<DURATION>1.95</DURATION>
			<DURATION>2.1166666666666667</DURATION>
			<DURATION>2.15</DURATION>
			<DURATION>2.25</DURATION>
			<DURATION>2.3</DURATION>
			<DURATION>2.6333333333333333</DURATION>
			<DURATION>3.0833333333333335</DURATION>
			<DURATION>3.2</DURATION>
			<DURATION>3.966666666666667</DURATION>
			<DURATION>5.916666666666667</DURATION>
			<DURATION>6.75</DURATION>
		</HISTORICAL-DURATIONS>
	</CONSTRAINT>
	<CONSTRAINT>
		<START>8315d333-f84d-4f27-8fc5-8e580aa65794</START>
		<END>e1fa3199-287d-4f78-a4dc-3b4aa1d386a2</END>
		<ID>e742807a-5f05-44f4-bb45-66d42c3cf5b7</ID>
		<NAME>From 70065 to 70067 (Harvard - Inbound)</NAME>
		<LOWERBOUND>0.8166666666666667</LOWERBOUND>
		<UPPERBOUND>2.4833333333333334</UPPERBOUND>
		<LB-RELAX-COST-RATIO>0.0</LB-RELAX-COST-RATIO>
		<UB-RELAX-COST-RATIO>0.0</UB-RELAX-COST-RATIO>
		<COST>0.0</COST>
		<TYPE>Uncontrollable;Activity</TYPE>
		<MEAN>0.0</MEAN>
		<DISTRIBUTION>Normal</DISTRIBUTION>
		<VARIANCE>0.0</VARIANCE>
		<HISTORICAL-DURATIONS>
			<DURATION>0.8166666666666667</DURATION>
			<DURATION>1.4666666666666666</DURATION>
			<DURATION>1.4666666666666666</DURATION>
			<DURATION>1.5</DURATION>
			<DURATION>1.5</DURATION>
			<DURATION>1.5</DURATION>
			<DURATION>1.5</DURATION>
			<DURATION>1.5166666666666666</DURATION>
			<DURATION>1.5166666666666666</DURATION>
			<DURATION>1.5166666666666666</DURATION>
			<DURATION>1.5333333333333334</DURATION>
			<DURATION>1.5333333333333334</DURATION>
			<DURATION>1.5333333333333334</DURATION>
			<DURATION>1.5333333333333334</DURATION>
			<DURATION>1.5333333333333334</DURATION>
			<DURATION>1.5333333333333334</DURATION>
			<DURATION>1.55</DURATION>
			<DURATION>1.55</DURATION>
			<DURATION>1.55</DURATION>
			<DURATION>1.55</DURATION>
			<DURATION>1.55</DURATION>
			<DURATION>1.5666666666666667</DURATION>
			<DURATION>1.5666666666666667</DURATION>
			<DURATION>1.5666666666666667</DURATION>
			<DURATION>1.5666666666666667</DURATION>
			<DURATION>1.5666666666666667</DURATION>
			<DURATION>1.5666666666666667</DURATION>
			<DURATION>1.5666666666666667</DURATION>
			<DURATION>1.5666666666666667</DURATION>
			<DURATION>1.5833333333333333</DURATION>
			<DURATION>1.5833333333333333</DURATION>
			<DURATION>1.5833333333333333</DURATION>
			<DURATION>1.5833333333333333</DURATION>
			<DURATION>1.5833333333333333</DURATION>
			<DURATION>1.5833333333333333</DURATION>
			<DURATION>1.6</DURATION>
			<DURATION>1.6</DURATION>
			<DURATION>1.6</DURATION>
			<DURATION>1.6</DURATION>
			<DURATION>1.6</DURATION>
			<DURATION>1.6</DURATION>
			<DURATION>1.6</DURATION>
			<DURATION>1.6</DURATION>
			<DURATION>1.6</DURATION>
			<DURATION>1.6</DURATION>
			<DURATION>1.6</DURATION>
			<DURATION>1.6166666666666667</DURATION>
			<DURATION>1.6166666666666667</DURATION>
			<DURATION>1.6166666666666667</DURATION>
			<DURATION>1.6333333333333333</DURATION>
			<DURATION>1.6333333333333333</DURATION>
			<DURATION>1.6333333333333333</DURATION>
			<DURATION>1.6333333333333333</DURATION>
			<DURATION>1.6333333333333333</DURATION>
			<DURATION>1.6333333333333333</DURATION>
			<DURATION>1.6333333333333333</DURATION>
			<DURATION>1.65</DURATION>
			<DURATION>1.6666666666666667</DURATION>
			<DURATION>1.6666666666666667</DURATION>
			<DURATION>1.7333333333333334</DURATION>
			<DURATION>1.7333333333333334</DURATION>
			<DURATION>1.75</DURATION>
			<DURATION>1.75</DURATION>
			<DURATION>1.75</DURATION>
			<DURATION>1.75</DURATION>
			<DURATION>1.7666666666666666</DURATION>
			<DURATION>1.7666666666666666</DURATION>
			<DURATION>1.7666666666666666</DURATION>
			<DURATION>1.7666666666666666</DURATION>
			<DURATION>1.7666666666666666</DURATION>
			<DURATION>1.7666666666666666</DURATION>
			<DURATION>1.7666666666666666</DURATION>
			<DURATION>1.7833333333333334</DURATION>
			<DURATION>1.7833333333333334</DURATION>
			<DURATION>1.7833333333333334</DURATION>
			<DURATION>1.7833333333333334</DURATION>
			<DURATION>1.7833333333333334</DURATION>
			<DURATION>1.7833333333333334</DURATION>
			<DURATION>1.8</DURATION>
			<DURATION>1.8</DURATION>
			<DURATION>1.8</DURATION>
			<DURATION>1.8</DURATION>
			<DURATION>1.8</DURATION>
			<DURATION>1.8</DURATION>
			<DURATION>1.8</DURATION>
			<DURATION>1.8</DURATION>
			<DURATION>1.8</DURATION>
			<DURATION>1.8166666666666667</DURATION>
			<DURATION>1.8166666666666667</DURATION>
			<DURATION>1.8166666666666667</DURATION>
			<DURATION>1.8166666666666667</DURATION>
			<DURATION>1.8166666666666667</DURATION>
			<DURATION>1.8166666666666667</DURATION>
			<DURATION>1.8166666666666667</DURATION>
			<DURATION>1.8166666666666667</DURATION>
			<DURATION>1.8166666666666667</DURATION>
			<DURATION>1.8166666666666667</DURATION>
			<DURATION>1.8166666666666667</DURATION>
			<DURATION>1.8166666666666667</DURATION>
			<DURATION>1.8166666666666667</DURATION>
			<DURATION>1.8166666666666667</DURATION>
			<DURATION>1.8166666666666667</DURATION>
			<DURATION>1.8166666666666667</DURATION>
			<DURATION>1.8166666666666667</DURATION>
			<DURATION>1.8166666666666667</DURATION>
			<DURATION>1.8166666666666667</DURATION>
			<DURATION>1.8166666666666667</DURATION>
			<DURATION>1.8166666666666667</DURATION>
			<DURATION>1.8166666666666667</DURATION>
			<DURATION>1.8166666666666667</DURATION>
			<DURATION>1.8166666666666667</DURATION>
			<DURATION>1.8166666666666667</DURATION>
			<DURATION>1.8166666666666667</DURATION>
			<DURATION>1.8166666666666667</DURATION>
			<DURATION>1.8333333333333333</DURATION>
			<DURATION>1.8333333333333333</DURATION>
			<DURATION>1.8333333333333333</DURATION>
			<DURATION>1.8333333333333333</DURATION>
			<DURATION>1.8333333333333333</DURATION>
			<DURATION>1.8333333333333333</DURATION>
			<DURATION>1.8333333333333333</DURATION>
			<DURATION>1.8333333333333333</DURATION>
			<DURATION>1.8333333333333333</DURATION>
			<DURATION>1.8333333333333333</DURATION>
			<DURATION>1.8333333333333333</DURATION>
			<DURATION>1.8333333333333333</DURATION>
			<DURATION>1.8333333333333333</DURATION>
			<DURATION>1.8333333333333333</DURATION>
			<DURATION>1.8333333333333333</DURATION>
			<DURATION>1.8333333333333333</DURATION>
			<DURATION>1.8333333333333333</DURATION>
			<DURATION>1.8333333333333333</DURATION>
			<DURATION>1.8333333333333333</DURATION>
			<DURATION>1.8333333333333333</DURATION>
			<DURATION>1.8333333333333333</DURATION>
			<DURATION>1.8333333333333333</DURATION>
			<DURATION>1.8333333333333333</DURATION>
			<DURATION>1.8333333333333333</DURATION>
			<DURATION>1.8333333333333333</DURATION>
			<DURATION>1.8333333333333333</DURATION>
			<DURATION>1.8333333333333333</DURATION>
			<DURATION>1.8333333333333333</DURATION>
			<DURATION>1.8333333333333333</DURATION>
			<DURATION>1.8333333333333333</DURATION>
			<DURATION>1.8333333333333333</DURATION>
			<DURATION>1.8333333333333333</DURATION>
			<DURATION>1.8333333333333333</DURATION>
			<DURATION>1.8333333333333333</DURATION>
			<DURATION>1.8333333333333333</DURATION>
			<DURATION>1.85</DURATION>
			<DURATION>1.85</DURATION>
			<DURATION>1.85</DURATION>
			<DURATION>1.85</DURATION>
			<DURATION>1.85</DURATION>
			<DURATION>1.85</DURATION>
			<DURATION>1.85</DURATION>
			<DURATION>1.85</DURATION>
			<DURATION>1.85</DURATION>
			<DURATION>1.85</DURATION>
			<DURATION>1.85</DURATION>
			<DURATION>1.85</DURATION>
			<DURATION>1.85</DURATION>
			<DURATION>1.85</DURATION>
			<DURATION>1.85</DURATION>
			<DURATION>1.85</DURATION>
			<DURATION>1.85</DURATION>
			<DURATION>1.85</DURATION>
			<DURATION>1.85</DURATION>
			<DURATION>1.85</DURATION>
			<DURATION>1.85</DURATION>
			<DURATION>1.85</DURATION>
			<DURATION>1.85</DURATION>
			<DURATION>1.85</DURATION>
			<DURATION>1.85</DURATION>
			<DURATION>1.85</DURATION>
			<DURATION>1.85</DURATION>
			<DURATION>1.85</DURATION>
			<DURATION>1.85</DURATION>
			<DURATION>1.85</DURATION>
			<DURATION>1.85</DURATION>
			<DURATION>1.85</DURATION>
			<DURATION>1.85</DURATION>
			<DURATION>1.85</DURATION>
			<DURATION>1.85</DURATION>
			<DURATION>1.85</DURATION>
			<DURATION>1.85</DURATION>
			<DURATION>1.85</DURATION>
			<DURATION>1.85</DURATION>
			<DURATION>1.85</DURATION>
			<DURATION>1.85</DURATION>
			<DURATION>1.85</DURATION>
			<DURATION>1.85</DURATION>
			<DURATION>1.85</DURATION>
			<DURATION>1.85</DURATION>
			<DURATION>1.85</DURATION>
			<DURATION>1.85</DURATION>
			<DURATION>1.85</DURATION>
			<DURATION>1.85</DURATION>
			<DURATION>1.85</DURATION>
			<DURATION>1.85</DURATION>
			<DURATION>1.85</DURATION>
			<DURATION>1.85</DURATION>
			<DURATION>1.85</DURATION>
			<DURATION>1.85</DURATION>
			<DURATION>1.85</DURATION>
			<DURATION>1.85</DURATION>
			<DURATION>1.85</DURATION>
			<DURATION>1.85</DURATION>
			<DURATION>1.85</DURATION>
			<DURATION>1.85</DURATION>
			<DURATION>1.85</DURATION>
			<DURATION>1.85</DURATION>
			<DURATION>1.85</DURATION>
			<DURATION>1.85</DURATION>
			<DURATION>1.85</DURATION>
			<DURATION>1.85</DURATION>
			<DURATION>1.85</DURATION>
			<DURATION>1.85</DURATION>
			<DURATION>1.85</DURATION>
			<DURATION>1.85</DURATION>
			<DURATION>1.85</DURATION>
			<DURATION>1.85</DURATION>
			<DURATION>1.85</DURATION>
			<DURATION>1.85</DURATION>
			<DURATION>1.85</DURATION>
			<DURATION>1.85</DURATION>
			<DURATION>1.85</DURATION>
			<DURATION>1.85</DURATION>
			<DURATION>1.85</DURATION>
			<DURATION>1.8666666666666667</DURATION>
			<DURATION>1.8666666666666667</DURATION>
			<DURATION>1.8666666666666667</DURATION>
			<DURATION>1.8666666666666667</DURATION>
			<DURATION>1.8666666666666667</DURATION>
			<DURATION>1.8666666666666667</DURATION>
			<DURATION>1.8666666666666667</DURATION>
			<DURATION>1.8666666666666667</DURATION>
			<DURATION>1.8666666666666667</DURATION>
			<DURATION>1.8666666666666667</DURATION>
			<DURATION>1.8666666666666667</DURATION>
			<DURATION>1.8666666666666667</DURATION>
			<DURATION>1.8666666666666667</DURATION>
			<DURATION>1.8666666666666667</DURATION>
			<DURATION>1.8666666666666667</DURATION>
			<DURATION>1.8666666666666667</DURATION>
			<DURATION>1.8666666666666667</DURATION>
			<DURATION>1.8666666666666667</DURATION>
			<DURATION>1.8666666666666667</DURATION>
			<DURATION>1.8666666666666667</DURATION>
			<DURATION>1.8666666666666667</DURATION>
			<DURATION>1.8666666666666667</DURATION>
			<DURATION>1.8666666666666667</DURATION>
			<DURATION>1.8666666666666667</DURATION>
			<DURATION>1.8666666666666667</DURATION>
			<DURATION>1.8666666666666667</DURATION>
			<DURATION>1.8666666666666667</DURATION>
			<DURATION>1.8666666666666667</DURATION>
			<DURATION>1.8666666666666667</DURATION>
			<DURATION>1.8666666666666667</DURATION>
			<DURATION>1.8666666666666667</DURATION>
			<DURATION>1.8666666666666667</DURATION>
			<DURATION>1.8666666666666667</DURATION>
			<DURATION>1.8666666666666667</DURATION>
			<DURATION>1.8666666666666667</DURATION>
			<DURATION>1.8666666666666667</DURATION>
			<DURATION>1.8666666666666667</DURATION>
			<DURATION>1.8666666666666667</DURATION>
			<DURATION>1.8666666666666667</DURATION>
			<DURATION>1.8666666666666667</DURATION>
			<DURATION>1.8666666666666667</DURATION>
			<DURATION>1.8666666666666667</DURATION>
			<DURATION>1.8666666666666667</DURATION>
			<DURATION>1.8666666666666667</DURATION>
			<DURATION>1.8666666666666667</DURATION>
			<DURATION>1.8666666666666667</DURATION>
			<DURATION>1.8666666666666667</DURATION>
			<DURATION>1.8666666666666667</DURATION>
			<DURATION>1.8666666666666667</DURATION>
			<DURATION>1.8666666666666667</DURATION>
			<DURATION>1.8666666666666667</DURATION>
			<DURATION>1.8666666666666667</DURATION>
			<DURATION>1.8666666666666667</DURATION>
			<DURATION>1.8666666666666667</DURATION>
			<DURATION>1.8666666666666667</DURATION>
			<DURATION>1.8666666666666667</DURATION>
			<DURATION>1.8666666666666667</DURATION>
			<DURATION>1.8666666666666667</DURATION>
			<DURATION>1.8666666666666667</DURATION>
			<DURATION>1.8666666666666667</DURATION>
			<DURATION>1.8666666666666667</DURATION>
			<DURATION>1.8666666666666667</DURATION>
			<DURATION>1.8666666666666667</DURATION>
			<DURATION>1.8666666666666667</DURATION>
			<DURATION>1.8666666666666667</DURATION>
			<DURATION>1.8666666666666667</DURATION>
			<DURATION>1.8666666666666667</DURATION>
			<DURATION>1.8666666666666667</DURATION>
			<DURATION>1.8666666666666667</DURATION>
			<DURATION>1.8666666666666667</DURATION>
			<DURATION>1.8666666666666667</DURATION>
			<DURATION>1.8666666666666667</DURATION>
			<DURATION>1.8666666666666667</DURATION>
			<DURATION>1.8666666666666667</DURATION>
			<DURATION>1.8666666666666667</DURATION>
			<DURATION>1.8666666666666667</DURATION>
			<DURATION>1.8666666666666667</DURATION>
			<DURATION>1.8666666666666667</DURATION>
			<DURATION>1.8666666666666667</DURATION>
			<DURATION>1.8666666666666667</DURATION>
			<DURATION>1.8666666666666667</DURATION>
			<DURATION>1.8666666666666667</DURATION>
			<DURATION>1.8666666666666667</DURATION>
			<DURATION>1.8666666666666667</DURATION>
			<DURATION>1.8833333333333333</DURATION>
			<DURATION>1.8833333333333333</DURATION>
			<DURATION>1.8833333333333333</DURATION>
			<DURATION>1.8833333333333333</DURATION>
			<DURATION>1.8833333333333333</DURATION>
			<DURATION>1.8833333333333333</DURATION>
			<DURATION>1.8833333333333333</DURATION>
			<DURATION>1.8833333333333333</DURATION>
			<DURATION>1.8833333333333333</DURATION>
			<DURATION>1.8833333333333333</DURATION>
			<DURATION>1.8833333333333333</DURATION>
			<DURATION>1.8833333333333333</DURATION>
			<DURATION>1.8833333333333333</DURATION>
			<DURATION>1.8833333333333333</DURATION>
			<DURATION>1.8833333333333333</DURATION>
			<DURATION>1.8833333333333333</DURATION>
			<DURATION>1.8833333333333333</DURATION>
			<DURATION>1.8833333333333333</DURATION>
			<DURATION>1.8833333333333333</DURATION>
			<DURATION>1.8833333333333333</DURATION>
			<DURATION>1.8833333333333333</DURATION>
			<DURATION>1.8833333333333333</DURATION>
			<DURATION>1.8833333333333333</DURATION>
			<DURATION>1.8833333333333333</DURATION>
			<DURATION>1.8833333333333333</DURATION>
			<DURATION>1.8833333333333333</DURATION>
			<DURATION>1.8833333333333333</DURATION>
			<DURATION>1.8833333333333333</DURATION>
			<DURATION>1.8833333333333333</DURATION>
			<DURATION>1.8833333333333333</DURATION>
			<DURATION>1.8833333333333333</DURATION>
			<DURATION>1.8833333333333333</DURATION>
			<DURATION>1.8833333333333333</DURATION>
			<DURATION>1.8833333333333333</DURATION>
			<DURATION>1.8833333333333333</DURATION>
			<DURATION>1.8833333333333333</DURATION>
			<DURATION>1.8833333333333333</DURATION>
			<DURATION>1.8833333333333333</DURATION>
			<DURATION>1.8833333333333333</DURATION>
			<DURATION>1.8833333333333333</DURATION>
			<DURATION>1.8833333333333333</DURATION>
			<DURATION>1.8833333333333333</DURATION>
			<DURATION>1.8833333333333333</DURATION>
			<DURATION>1.8833333333333333</DURATION>
			<DURATION>1.8833333333333333</DURATION>
			<DURATION>1.8833333333333333</DURATION>
			<DURATION>1.8833333333333333</DURATION>
			<DURATION>1.8833333333333333</DURATION>
			<DURATION>1.8833333333333333</DURATION>
			<DURATION>1.8833333333333333</DURATION>
			<DURATION>1.8833333333333333</DURATION>
			<DURATION>1.8833333333333333</DURATION>
			<DURATION>1.8833333333333333</DURATION>
			<DURATION>1.8833333333333333</DURATION>
			<DURATION>1.8833333333333333</DURATION>
			<DURATION>1.8833333333333333</DURATION>
			<DURATION>1.8833333333333333</DURATION>
			<DURATION>1.8833333333333333</DURATION>
			<DURATION>1.8833333333333333</DURATION>
			<DURATION>1.8833333333333333</DURATION>
			<DURATION>1.9</DURATION>
			<DURATION>1.9</DURATION>
			<DURATION>1.9</DURATION>
			<DURATION>1.9</DURATION>
			<DURATION>1.9</DURATION>
			<DURATION>1.9</DURATION>
			<DURATION>1.9</DURATION>
			<DURATION>1.9</DURATION>
			<DURATION>1.9</DURATION>
			<DURATION>1.9</DURATION>
			<DURATION>1.9</DURATION>
			<DURATION>1.9</DURATION>
			<DURATION>1.9</DURATION>
			<DURATION>1.9</DURATION>
			<DURATION>1.9</DURATION>
			<DURATION>1.9</DURATION>
			<DURATION>1.9</DURATION>
			<DURATION>1.9</DURATION>
			<DURATION>1.9</DURATION>
			<DURATION>1.9</DURATION>
			<DURATION>1.9</DURATION>
			<DURATION>1.9</DURATION>
			<DURATION>1.9</DURATION>
			<DURATION>1.9</DURATION>
			<DURATION>1.9</DURATION>
			<DURATION>1.9</DURATION>
			<DURATION>1.9</DURATION>
			<DURATION>1.9</DURATION>
			<DURATION>1.9</DURATION>
			<DURATION>1.9</DURATION>
			<DURATION>1.9</DURATION>
			<DURATION>1.9</DURATION>
			<DURATION>1.9</DURATION>
			<DURATION>1.9</DURATION>
			<DURATION>1.9</DURATION>
			<DURATION>1.9</DURATION>
			<DURATION>1.9</DURATION>
			<DURATION>1.9</DURATION>
			<DURATION>1.9</DURATION>
			<DURATION>1.9</DURATION>
			<DURATION>1.9</DURATION>
			<DURATION>1.9</DURATION>
			<DURATION>1.9</DURATION>
			<DURATION>1.9</DURATION>
			<DURATION>1.9</DURATION>
			<DURATION>1.9</DURATION>
			<DURATION>1.9</DURATION>
			<DURATION>1.9</DURATION>
			<DURATION>1.9</DURATION>
			<DURATION>1.9</DURATION>
			<DURATION>1.9</DURATION>
			<DURATION>1.9</DURATION>
			<DURATION>1.9</DURATION>
			<DURATION>1.9</DURATION>
			<DURATION>1.9166666666666667</DURATION>
			<DURATION>1.9166666666666667</DURATION>
			<DURATION>1.9166666666666667</DURATION>
			<DURATION>1.9166666666666667</DURATION>
			<DURATION>1.9166666666666667</DURATION>
			<DURATION>1.9166666666666667</DURATION>
			<DURATION>1.9166666666666667</DURATION>
			<DURATION>1.9166666666666667</DURATION>
			<DURATION>1.9166666666666667</DURATION>
			<DURATION>1.9166666666666667</DURATION>
			<DURATION>1.9166666666666667</DURATION>
			<DURATION>1.9166666666666667</DURATION>
			<DURATION>1.9166666666666667</DURATION>
			<DURATION>1.9166666666666667</DURATION>
			<DURATION>1.9166666666666667</DURATION>
			<DURATION>1.9166666666666667</DURATION>
			<DURATION>1.9166666666666667</DURATION>
			<DURATION>1.9166666666666667</DURATION>
			<DURATION>1.9166666666666667</DURATION>
			<DURATION>1.9166666666666667</DURATION>
			<DURATION>1.9166666666666667</DURATION>
			<DURATION>1.9166666666666667</DURATION>
			<DURATION>1.9166666666666667</DURATION>
			<DURATION>1.9166666666666667</DURATION>
			<DURATION>1.9166666666666667</DURATION>
			<DURATION>1.9166666666666667</DURATION>
			<DURATION>1.9166666666666667</DURATION>
			<DURATION>1.9166666666666667</DURATION>
			<DURATION>1.9166666666666667</DURATION>
			<DURATION>1.9166666666666667</DURATION>
			<DURATION>1.9166666666666667</DURATION>
			<DURATION>1.9166666666666667</DURATION>
			<DURATION>1.9166666666666667</DURATION>
			<DURATION>1.9166666666666667</DURATION>
			<DURATION>1.9166666666666667</DURATION>
			<DURATION>1.9166666666666667</DURATION>
			<DURATION>1.9166666666666667</DURATION>
			<DURATION>1.9166666666666667</DURATION>
			<DURATION>1.9166666666666667</DURATION>
			<DURATION>1.9166666666666667</DURATION>
			<DURATION>1.9166666666666667</DURATION>
			<DURATION>1.9166666666666667</DURATION>
			<DURATION>1.9166666666666667</DURATION>
			<DURATION>1.9166666666666667</DURATION>
			<DURATION>1.9166666666666667</DURATION>
			<DURATION>1.9166666666666667</DURATION>
			<DURATION>1.9166666666666667</DURATION>
			<DURATION>1.9166666666666667</DURATION>
			<DURATION>1.9166666666666667</DURATION>
			<DURATION>1.9166666666666667</DURATION>
			<DURATION>1.9333333333333333</DURATION>
			<DURATION>1.9333333333333333</DURATION>
			<DURATION>1.9333333333333333</DURATION>
			<DURATION>1.9333333333333333</DURATION>
			<DURATION>1.9333333333333333</DURATION>
			<DURATION>1.9333333333333333</DURATION>
			<DURATION>1.9333333333333333</DURATION>
			<DURATION>1.9333333333333333</DURATION>
			<DURATION>1.9333333333333333</DURATION>
			<DURATION>1.9333333333333333</DURATION>
			<DURATION>1.9333333333333333</DURATION>
			<DURATION>1.9333333333333333</DURATION>
			<DURATION>1.9333333333333333</DURATION>
			<DURATION>1.9333333333333333</DURATION>
			<DURATION>1.9333333333333333</DURATION>
			<DURATION>1.9333333333333333</DURATION>
			<DURATION>1.9333333333333333</DURATION>
			<DURATION>1.9333333333333333</DURATION>
			<DURATION>1.9333333333333333</DURATION>
			<DURATION>1.9333333333333333</DURATION>
			<DURATION>1.9333333333333333</DURATION>
			<DURATION>1.9333333333333333</DURATION>
			<DURATION>1.9333333333333333</DURATION>
			<DURATION>1.9333333333333333</DURATION>
			<DURATION>1.9333333333333333</DURATION>
			<DURATION>1.9333333333333333</DURATION>
			<DURATION>1.9333333333333333</DURATION>
			<DURATION>1.95</DURATION>
			<DURATION>1.95</DURATION>
			<DURATION>1.95</DURATION>
			<DURATION>1.95</DURATION>
			<DURATION>1.95</DURATION>
			<DURATION>1.95</DURATION>
			<DURATION>1.95</DURATION>
			<DURATION>1.95</DURATION>
			<DURATION>1.95</DURATION>
			<DURATION>1.95</DURATION>
			<DURATION>1.95</DURATION>
			<DURATION>1.95</DURATION>
			<DURATION>1.95</DURATION>
			<DURATION>1.95</DURATION>
			<DURATION>1.95</DURATION>
			<DURATION>1.95</DURATION>
			<DURATION>1.95</DURATION>
			<DURATION>1.95</DURATION>
			<DURATION>1.95</DURATION>
			<DURATION>1.9666666666666666</DURATION>
			<DURATION>1.9666666666666666</DURATION>
			<DURATION>1.9666666666666666</DURATION>
			<DURATION>1.9666666666666666</DURATION>
			<DURATION>1.9666666666666666</DURATION>
			<DURATION>1.9666666666666666</DURATION>
			<DURATION>1.9666666666666666</DURATION>
			<DURATION>1.9666666666666666</DURATION>
			<DURATION>1.9666666666666666</DURATION>
			<DURATION>1.9666666666666666</DURATION>
			<DURATION>1.9666666666666666</DURATION>
			<DURATION>1.9666666666666666</DURATION>
			<DURATION>1.9666666666666666</DURATION>
			<DURATION>1.9666666666666666</DURATION>
			<DURATION>1.9666666666666666</DURATION>
			<DURATION>1.9666666666666666</DURATION>
			<DURATION>1.9666666666666666</DURATION>
			<DURATION>1.9666666666666666</DURATION>
			<DURATION>1.9666666666666666</DURATION>
			<DURATION>1.9666666666666666</DURATION>
			<DURATION>1.9833333333333334</DURATION>
			<DURATION>1.9833333333333334</DURATION>
			<DURATION>1.9833333333333334</DURATION>
			<DURATION>1.9833333333333334</DURATION>
			<DURATION>1.9833333333333334</DURATION>
			<DURATION>1.9833333333333334</DURATION>
			<DURATION>1.9833333333333334</DURATION>
			<DURATION>1.9833333333333334</DURATION>
			<DURATION>1.9833333333333334</DURATION>
			<DURATION>1.9833333333333334</DURATION>
			<DURATION>1.9833333333333334</DURATION>
			<DURATION>1.9833333333333334</DURATION>
			<DURATION>1.9833333333333334</DURATION>
			<DURATION>1.9833333333333334</DURATION>
			<DURATION>1.9833333333333334</DURATION>
