<CCTP>
	<NAME>Transit Test Route Red</NAME>
	<START>2a1d886a-1764-437b-b45c-cac9fc889474</START>
	<END>5d90cc53-d788-48b2-82be-73ec99950461</END>
	<RISK-BOUND>1.0</RISK-BOUND>
	<RISK-BOUND-RELAX-COST>0.0</RISK-BOUND-RELAX-COST>
	<EVENT-UNIT>millisecond</EVENT-UNIT>
	<DURATION-UNIT>minute</DURATION-UNIT>
	<CONSTRAINT>
		<START>3f9b5aa8-1147-4009-ac2f-0d097ade40ab</START>
		<END>5d90cc53-d788-48b2-82be-73ec99950461</END>
		<ID>0d5f1eeb-3982-455a-a8bf-1de7bed224b5</ID>
		<NAME>Trip Complete</NAME>
		<LOWERBOUND>0.0</LOWERBOUND>
		<UPPERBOUND>Infinity</UPPERBOUND>
		<LB-RELAX-COST-RATIO>0.0</LB-RELAX-COST-RATIO>
		<UB-RELAX-COST-RATIO>0.0</UB-RELAX-COST-RATIO>
		<COST>0.0</COST>
		<TYPE>Controllable;Constraint</TYPE>
		<MEAN>0.0</MEAN>
	</CONSTRAINT>
	<CONSTRAINT>
		<START>29eeeeb6-8ab3-4a57-9e66-b4a7ec14b48d</START>
		<END>c40e98aa-15f5-46d8-839f-4e468b185b28</END>
		<ID>775d1aba-ee85-45fa-8de8-fed2b882cb7c</ID>
		<NAME>30453702 Wait for departure at 70067</NAME>
		<LOWERBOUND>0.0</LOWERBOUND>
		<UPPERBOUND>0.01</UPPERBOUND>
		<UBRELAXABLE>T</UBRELAXABLE>
		<LB-RELAX-COST-RATIO>0.0</LB-RELAX-COST-RATIO>
		<UB-RELAX-COST-RATIO>0.1</UB-RELAX-COST-RATIO>
		<COST>0.0</COST>
		<TYPE>Controllable;Constraint</TYPE>
		<MEAN>0.0</MEAN>
	</CONSTRAINT>
	<CONSTRAINT>
		<START>c40e98aa-15f5-46d8-839f-4e468b185b28</START>
		<END>27a876b3-a8ad-46dc-91ff-2ad1f26e0009</END>
		<ID>ff5eb8de-bb64-4a4c-92f3-7e1323c51d1a</ID>
		<NAME>From 70067 to 70069 (Central - Inbound)</NAME>
		<LOWERBOUND>1.0166666666666666</LOWERBOUND>
		<UPPERBOUND>2.683333333333333</UPPERBOUND>
		<LB-RELAX-COST-RATIO>0.0</LB-RELAX-COST-RATIO>
		<UB-RELAX-COST-RATIO>0.0</UB-RELAX-COST-RATIO>
		<COST>0.0</COST>
		<TYPE>Uncontrollable;Activity</TYPE>
		<MEAN>0.0</MEAN>
		<DISTRIBUTION>Normal</DISTRIBUTION>
		<VARIANCE>0.0</VARIANCE>
		<HISTORICAL-DURATIONS>
			<DURATION>1.0166666666666666</DURATION>
			<DURATION>2.05</DURATION>
			<DURATION>2.0833333333333335</DURATION>
			<DURATION>2.1</DURATION>
			<DURATION>2.1</DURATION>
			<DURATION>2.1166666666666667</DURATION>
			<DURATION>2.1166666666666667</DURATION>
			<DURATION>2.1166666666666667</DURATION>
			<DURATION>2.1166666666666667</DURATION>
			<DURATION>2.1166666666666667</DURATION>
			<DURATION>2.1166666666666667</DURATION>
			<DURATION>2.1166666666666667</DURATION>
			<DURATION>2.1166666666666667</DURATION>
			<DURATION>2.1666666666666665</DURATION>
			<DURATION>2.1666666666666665</DURATION>
			<DURATION>2.1666666666666665</DURATION>
			<DURATION>2.183333333333333</DURATION>
			<DURATION>2.183333333333333</DURATION>
			<DURATION>2.183333333333333</DURATION>
			<DURATION>2.183333333333333</DURATION>
			<DURATION>2.183333333333333</DURATION>
			<DURATION>2.183333333333333</DURATION>
			<DURATION>2.183333333333333</DURATION>
			<DURATION>2.183333333333333</DURATION>
			<DURATION>2.183333333333333</DURATION>
			<DURATION>2.183333333333333</DURATION>
			<DURATION>2.2</DURATION>
			<DURATION>2.2</DURATION>
			<DURATION>2.2</DURATION>
			<DURATION>2.2</DURATION>
			<DURATION>2.2</DURATION>
			<DURATION>2.2</DURATION>
			<DURATION>2.2</DURATION>
			<DURATION>2.2</DURATION>
			<DURATION>2.2</DURATION>
			<DURATION>2.2</DURATION>
			<DURATION>2.2</DURATION>
			<DURATION>2.2</DURATION>
			<DURATION>2.2</DURATION>
			<DURATION>2.2</DURATION>
			<DURATION>2.2</DURATION>
			<DURATION>2.2</DURATION>
			<DURATION>2.2</DURATION>
			<DURATION>2.2</DURATION>
			<DURATION>2.216666666666667</DURATION>
			<DURATION>2.216666666666667</DURATION>
			<DURATION>2.216666666666667</DURATION>
			<DURATION>2.216666666666667</DURATION>
			<DURATION>2.216666666666667</DURATION>
			<DURATION>2.216666666666667</DURATION>
			<DURATION>2.216666666666667</DURATION>
			<DURATION>2.216666666666667</DURATION>
			<DURATION>2.216666666666667</DURATION>
			<DURATION>2.216666666666667</DURATION>
			<DURATION>2.216666666666667</DURATION>
			<DURATION>2.216666666666667</DURATION>
			<DURATION>2.216666666666667</DURATION>
			<DURATION>2.216666666666667</DURATION>
			<DURATION>2.216666666666667</DURATION>
			<DURATION>2.216666666666667</DURATION>
			<DURATION>2.216666666666667</DURATION>
			<DURATION>2.216666666666667</DURATION>
			<DURATION>2.216666666666667</DURATION>
			<DURATION>2.216666666666667</DURATION>
			<DURATION>2.216666666666667</DURATION>
			<DURATION>2.216666666666667</DURATION>
			<DURATION>2.216666666666667</DURATION>
			<DURATION>2.216666666666667</DURATION>
			<DURATION>2.216666666666667</DURATION>
			<DURATION>2.216666666666667</DURATION>
			<DURATION>2.216666666666667</DURATION>
			<DURATION>2.2333333333333334</DURATION>
			<DURATION>2.2333333333333334</DURATION>
			<DURATION>2.2333333333333334</DURATION>
			<DURATION>2.2333333333333334</DURATION>
			<DURATION>2.2333333333333334</DURATION>
			<DURATION>2.2333333333333334</DURATION>
			<DURATION>2.2333333333333334</DURATION>
			<DURATION>2.2333333333333334</DURATION>
			<DURATION>2.2333333333333334</DURATION>
			<DURATION>2.2333333333333334</DURATION>
			<DURATION>2.2333333333333334</DURATION>
			<DURATION>2.2333333333333334</DURATION>
			<DURATION>2.2333333333333334</DURATION>
			<DURATION>2.2333333333333334</DURATION>
			<DURATION>2.2333333333333334</DURATION>
			<DURATION>2.2333333333333334</DURATION>
			<DURATION>2.2333333333333334</DURATION>
			<DURATION>2.2333333333333334</DURATION>
			<DURATION>2.2333333333333334</DURATION>
			<DURATION>2.25</DURATION>
			<DURATION>2.25</DURATION>
			<DURATION>2.25</DURATION>
			<DURATION>2.25</DURATION>
			<DURATION>2.25</DURATION>
			<DURATION>2.25</DURATION>
			<DURATION>2.25</DURATION>
			<DURATION>2.25</DURATION>
			<DURATION>2.25</DURATION>
			<DURATION>2.25</DURATION>
			<DURATION>2.25</DURATION>
			<DURATION>2.25</DURATION>
			<DURATION>2.25</DURATION>
			<DURATION>2.25</DURATION>
			<DURATION>2.25</DURATION>
			<DURATION>2.25</DURATION>
			<DURATION>2.25</DURATION>
			<DURATION>2.25</DURATION>
			<DURATION>2.25</DURATION>
			<DURATION>2.2666666666666666</DURATION>
			<DURATION>2.2666666666666666</DURATION>
			<DURATION>2.2666666666666666</DURATION>
			<DURATION>2.2666666666666666</DURATION>
			<DURATION>2.2666666666666666</DURATION>
			<DURATION>2.2666666666666666</DURATION>
			<DURATION>2.2666666666666666</DURATION>
			<DURATION>2.283333333333333</DURATION>
			<DURATION>2.283333333333333</DURATION>
			<DURATION>2.283333333333333</DURATION>
			<DURATION>2.283333333333333</DURATION>
			<DURATION>2.283333333333333</DURATION>
			<DURATION>2.283333333333333</DURATION>
			<DURATION>2.3</DURATION>
			<DURATION>2.3</DURATION>
			<DURATION>2.3</DURATION>
			<DURATION>2.3</DURATION>
			<DURATION>2.3</DURATION>
			<DURATION>2.3</DURATION>
			<DURATION>2.3</DURATION>
			<DURATION>2.316666666666667</DURATION>
			<DURATION>2.316666666666667</DURATION>
			<DURATION>2.316666666666667</DURATION>
			<DURATION>2.316666666666667</DURATION>
			<DURATION>2.316666666666667</DURATION>
			<DURATION>2.316666666666667</DURATION>
			<DURATION>2.316666666666667</DURATION>
			<DURATION>2.316666666666667</DURATION>
			<DURATION>2.316666666666667</DURATION>
			<DURATION>2.3333333333333335</DURATION>
			<DURATION>2.3333333333333335</DURATION>
			<DURATION>2.3333333333333335</DURATION>
			<DURATION>2.3333333333333335</DURATION>
			<DURATION>2.3333333333333335</DURATION>
			<DURATION>2.3333333333333335</DURATION>
			<DURATION>2.3333333333333335</DURATION>
			<DURATION>2.3333333333333335</DURATION>
			<DURATION>2.3333333333333335</DURATION>
			<DURATION>2.3333333333333335</DURATION>
			<DURATION>2.35</DURATION>
			<DURATION>2.35</DURATION>
			<DURATION>2.35</DURATION>
			<DURATION>2.35</DURATION>
			<DURATION>2.35</DURATION>
			<DURATION>2.35</DURATION>
			<DURATION>2.35</DURATION>
			<DURATION>2.35</DURATION>
			<DURATION>2.35</DURATION>
			<DURATION>2.35</DURATION>
			<DURATION>2.3666666666666667</DURATION>
			<DURATION>2.3666666666666667</DURATION>
			<DURATION>2.3666666666666667</DURATION>
			<DURATION>2.3666666666666667</DURATION>
			<DURATION>2.3666666666666667</DURATION>
			<DURATION>2.3666666666666667</DURATION>
			<DURATION>2.3666666666666667</DURATION>
			<DURATION>2.3666666666666667</DURATION>
			<DURATION>2.3666666666666667</DURATION>
			<DURATION>2.3666666666666667</DURATION>
			<DURATION>2.3666666666666667</DURATION>
			<DURATION>2.3666666666666667</DURATION>
			<DURATION>2.3666666666666667</DURATION>
			<DURATION>2.3666666666666667</DURATION>
			<DURATION>2.3666666666666667</DURATION>
			<DURATION>2.3833333333333333</DURATION>
			<DURATION>2.3833333333333333</DURATION>
			<DURATION>2.3833333333333333</DURATION>
			<DURATION>2.3833333333333333</DURATION>
			<DURATION>2.3833333333333333</DURATION>
			<DURATION>2.3833333333333333</DURATION>
			<DURATION>2.3833333333333333</DURATION>
			<DURATION>2.3833333333333333</DURATION>
			<DURATION>2.3833333333333333</DURATION>
			<DURATION>2.3833333333333333</DURATION>
			<DURATION>2.3833333333333333</DURATION>
			<DURATION>2.3833333333333333</DURATION>
			<DURATION>2.3833333333333333</DURATION>
			<DURATION>2.3833333333333333</DURATION>
			<DURATION>2.3833333333333333</DURATION>
			<DURATION>2.3833333333333333</DURATION>
			<DURATION>2.4</DURATION>
			<DURATION>2.4</DURATION>
			<DURATION>2.4</DURATION>
			<DURATION>2.4</DURATION>
			<DURATION>2.4</DURATION>
			<DURATION>2.4</DURATION>
			<DURATION>2.4</DURATION>
			<DURATION>2.4</DURATION>
			<DURATION>2.4</DURATION>
			<DURATION>2.4</DURATION>
			<DURATION>2.4</DURATION>
			<DURATION>2.4</DURATION>
			<DURATION>2.4</DURATION>
			<DURATION>2.4</DURATION>
			<DURATION>2.4</DURATION>
			<DURATION>2.4</DURATION>
			<DURATION>2.4</DURATION>
			<DURATION>2.4</DURATION>
			<DURATION>2.4</DURATION>
			<DURATION>2.4</DURATION>
			<DURATION>2.4</DURATION>
			<DURATION>2.4</DURATION>
			<DURATION>2.4</DURATION>
			<DURATION>2.4</DURATION>
			<DURATION>2.4</DURATION>
			<DURATION>2.4</DURATION>
			<DURATION>2.4</DURATION>
			<DURATION>2.4</DURATION>
			<DURATION>2.4</DURATION>
			<DURATION>2.4</DURATION>
			<DURATION>2.4166666666666665</DURATION>
			<DURATION>2.4166666666666665</DURATION>
			<DURATION>2.4166666666666665</DURATION>
			<DURATION>2.4166666666666665</DURATION>
			<DURATION>2.4166666666666665</DURATION>
			<DURATION>2.4166666666666665</DURATION>
			<DURATION>2.4166666666666665</DURATION>
			<DURATION>2.4166666666666665</DURATION>
			<DURATION>2.4166666666666665</DURATION>
			<DURATION>2.4166666666666665</DURATION>
			<DURATION>2.4166666666666665</DURATION>
			<DURATION>2.4166666666666665</DURATION>
			<DURATION>2.4166666666666665</DURATION>
			<DURATION>2.4166666666666665</DURATION>
			<DURATION>2.4166666666666665</DURATION>
			<DURATION>2.4166666666666665</DURATION>
			<DURATION>2.4166666666666665</DURATION>
			<DURATION>2.433333333333333</DURATION>
			<DURATION>2.433333333333333</DURATION>
			<DURATION>2.433333333333333</DURATION>
			<DURATION>2.433333333333333</DURATION>
			<DURATION>2.433333333333333</DURATION>
			<DURATION>2.433333333333333</DURATION>
			<DURATION>2.433333333333333</DURATION>
			<DURATION>2.433333333333333</DURATION>
			<DURATION>2.433333333333333</DURATION>
			<DURATION>2.433333333333333</DURATION>
			<DURATION>2.433333333333333</DURATION>
			<DURATION>2.433333333333333</DURATION>
			<DURATION>2.433333333333333</DURATION>
			<DURATION>2.433333333333333</DURATION>
			<DURATION>2.433333333333333</DURATION>
			<DURATION>2.433333333333333</DURATION>
			<DURATION>2.433333333333333</DURATION>
			<DURATION>2.433333333333333</DURATION>
			<DURATION>2.433333333333333</DURATION>
			<DURATION>2.433333333333333</DURATION>
			<DURATION>2.433333333333333</DURATION>
			<DURATION>2.433333333333333</DURATION>
			<DURATION>2.433333333333333</DURATION>
			<DURATION>2.433333333333333</DURATION>
			<DURATION>2.433333333333333</DURATION>
			<DURATION>2.433333333333333</DURATION>
			<DURATION>2.433333333333333</DURATION>
			<DURATION>2.433333333333333</DURATION>
			<DURATION>2.433333333333333</DURATION>
			<DURATION>2.433333333333333</DURATION>
			<DURATION>2.433333333333333</DURATION>
			<DURATION>2.433333333333333</DURATION>
			<DURATION>2.433333333333333</DURATION>
			<DURATION>2.433333333333333</DURATION>
			<DURATION>2.433333333333333</DURATION>
			<DURATION>2.433333333333333</DURATION>
			<DURATION>2.433333333333333</DURATION>
			<DURATION>2.433333333333333</DURATION>
			<DURATION>2.433333333333333</DURATION>
			<DURATION>2.433333333333333</DURATION>
			<DURATION>2.433333333333333</DURATION>
			<DURATION>2.433333333333333</DURATION>
			<DURATION>2.433333333333333</DURATION>
			<DURATION>2.45</DURATION>
			<DURATION>2.45</DURATION>
			<DURATION>2.45</DURATION>
			<DURATION>2.45</DURATION>
			<DURATION>2.45</DURATION>
			<DURATION>2.45</DURATION>
			<DURATION>2.45</DURATION>
			<DURATION>2.45</DURATION>
			<DURATION>2.45</DURATION>
			<DURATION>2.45</DURATION>
			<DURATION>2.45</DURATION>
			<DURATION>2.45</DURATION>
			<DURATION>2.45</DURATION>
			<DURATION>2.45</DURATION>
			<DURATION>2.45</DURATION>
			<DURATION>2.45</DURATION>
			<DURATION>2.45</DURATION>
			<DURATION>2.45</DURATION>
			<DURATION>2.45</DURATION>
			<DURATION>2.45</DURATION>
			<DURATION>2.45</DURATION>
			<DURATION>2.45</DURATION>
			<DURATION>2.45</DURATION>
			<DURATION>2.45</DURATION>
			<DURATION>2.45</DURATION>
			<DURATION>2.45</DURATION>
			<DURATION>2.45</DURATION>
			<DURATION>2.45</DURATION>
			<DURATION>2.45</DURATION>
			<DURATION>2.45</DURATION>
			<DURATION>2.45</DURATION>
			<DURATION>2.45</DURATION>
			<DURATION>2.45</DURATION>
			<DURATION>2.45</DURATION>
			<DURATION>2.45</DURATION>
			<DURATION>2.45</DURATION>
			<DURATION>2.45</DURATION>
			<DURATION>2.45</DURATION>
			<DURATION>2.45</DURATION>
			<DURATION>2.45</DURATION>
			<DURATION>2.45</DURATION>
			<DURATION>2.45</DURATION>
			<DURATION>2.45</DURATION>
			<DURATION>2.45</DURATION>
			<DURATION>2.45</DURATION>
			<DURATION>2.45</DURATION>
			<DURATION>2.45</DURATION>
			<DURATION>2.45</DURATION>
			<DURATION>2.45</DURATION>
			<DURATION>2.45</DURATION>
			<DURATION>2.45</DURATION>
			<DURATION>2.45</DURATION>
			<DURATION>2.45</DURATION>
			<DURATION>2.45</DURATION>
			<DURATION>2.45</DURATION>
			<DURATION>2.45</DURATION>
			<DURATION>2.45</DURATION>
			<DURATION>2.45</DURATION>
			<DURATION>2.45</DURATION>
			<DURATION>2.466666666666667</DURATION>
			<DURATION>2.466666666666667</DURATION>
			<DURATION>2.466666666666667</DURATION>
			<DURATION>2.466666666666667</DURATION>
			<DURATION>2.466666666666667</DURATION>
			<DURATION>2.466666666666667</DURATION>
			<DURATION>2.466666666666667</DURATION>
			<DURATION>2.466666666666667</DURATION>
			<DURATION>2.466666666666667</DURATION>
			<DURATION>2.466666666666667</DURATION>
			<DURATION>2.466666666666667</DURATION>
			<DURATION>2.466666666666667</DURATION>
			<DURATION>2.466666666666667</DURATION>
			<DURATION>2.466666666666667</DURATION>
			<DURATION>2.466666666666667</DURATION>
			<DURATION>2.466666666666667</DURATION>
			<DURATION>2.466666666666667</DURATION>
			<DURATION>2.466666666666667</DURATION>
			<DURATION>2.466666666666667</DURATION>
			<DURATION>2.466666666666667</DURATION>
			<DURATION>2.466666666666667</DURATION>
			<DURATION>2.466666666666667</DURATION>
			<DURATION>2.466666666666667</DURATION>
			<DURATION>2.466666666666667</DURATION>
			<DURATION>2.466666666666667</DURATION>
			<DURATION>2.466666666666667</DURATION>
			<DURATION>2.466666666666667</DURATION>
			<DURATION>2.466666666666667</DURATION>
			<DURATION>2.466666666666667</DURATION>
			<DURATION>2.466666666666667</DURATION>
			<DURATION>2.466666666666667</DURATION>
			<DURATION>2.466666666666667</DURATION>
			<DURATION>2.466666666666667</DURATION>
			<DURATION>2.466666666666667</DURATION>
			<DURATION>2.466666666666667</DURATION>
			<DURATION>2.466666666666667</DURATION>
			<DURATION>2.466666666666667</DURATION>
			<DURATION>2.466666666666667</DURATION>
			<DURATION>2.466666666666667</DURATION>
			<DURATION>2.466666666666667</DURATION>
			<DURATION>2.466666666666667</DURATION>
			<DURATION>2.466666666666667</DURATION>
			<DURATION>2.466666666666667</DURATION>
			<DURATION>2.466666666666667</DURATION>
			<DURATION>2.466666666666667</DURATION>
			<DURATION>2.466666666666667</DURATION>
			<DURATION>2.466666666666667</DURATION>
			<DURATION>2.466666666666667</DURATION>
			<DURATION>2.466666666666667</DURATION>
			<DURATION>2.466666666666667</DURATION>
			<DURATION>2.466666666666667</DURATION>
			<DURATION>2.466666666666667</DURATION>
			<DURATION>2.466666666666667</DURATION>
			<DURATION>2.466666666666667</DURATION>
			<DURATION>2.4833333333333334</DURATION>
			<DURATION>2.4833333333333334</DURATION>
			<DURATION>2.4833333333333334</DURATION>
			<DURATION>2.4833333333333334</DURATION>
			<DURATION>2.4833333333333334</DURATION>
			<DURATION>2.4833333333333334</DURATION>
			<DURATION>2.4833333333333334</DURATION>
			<DURATION>2.4833333333333334</DURATION>
			<DURATION>2.4833333333333334</DURATION>
			<DURATION>2.4833333333333334</DURATION>
			<DURATION>2.4833333333333334</DURATION>
			<DURATION>2.4833333333333334</DURATION>
			<DURATION>2.4833333333333334</DURATION>
			<DURATION>2.4833333333333334</DURATION>
			<DURATION>2.4833333333333334</DURATION>
			<DURATION>2.4833333333333334</DURATION>
			<DURATION>2.4833333333333334</DURATION>
			<DURATION>2.4833333333333334</DURATION>
			<DURATION>2.4833333333333334</DURATION>
			<DURATION>2.4833333333333334</DURATION>
			<DURATION>2.4833333333333334</DURATION>
			<DURATION>2.4833333333333334</DURATION>
			<DURATION>2.4833333333333334</DURATION>
			<DURATION>2.4833333333333334</DURATION>
			<DURATION>2.4833333333333334</DURATION>
			<DURATION>2.4833333333333334</DURATION>
			<DURATION>2.4833333333333334</DURATION>
			<DURATION>2.4833333333333334</DURATION>
			<DURATION>2.4833333333333334</DURATION>
			<DURATION>2.4833333333333334</DURATION>
			<DURATION>2.4833333333333334</DURATION>
			<DURATION>2.4833333333333334</DURATION>
			<DURATION>2.4833333333333334</DURATION>
			<DURATION>2.4833333333333334</DURATION>
			<DURATION>2.4833333333333334</DURATION>
			<DURATION>2.4833333333333334</DURATION>
			<DURATION>2.4833333333333334</DURATION>
			<DURATION>2.4833333333333334</DURATION>
			<DURATION>2.4833333333333334</DURATION>
			<DURATION>2.4833333333333334</DURATION>
			<DURATION>2.4833333333333334</DURATION>
			<DURATION>2.4833333333333334</DURATION>
			<DURATION>2.4833333333333334</DURATION>
			<DURATION>2.4833333333333334</DURATION>
			<DURATION>2.4833333333333334</DURATION>
			<DURATION>2.4833333333333334</DURATION>
			<DURATION>2.4833333333333334</DURATION>
			<DURATION>2.4833333333333334</DURATION>
			<DURATION>2.4833333333333334</DURATION>
			<DURATION>2.4833333333333334</DURATION>
			<DURATION>2.5</DURATION>
			<DURATION>2.5</DURATION>
			<DURATION>2.5</DURATION>
			<DURATION>2.5</DURATION>
			<DURATION>2.5</DURATION>
			<DURATION>2.5</DURATION>
			<DURATION>2.5</DURATION>
			<DURATION>2.5</DURATION>
			<DURATION>2.5</DURATION>
			<DURATION>2.5</DURATION>
			<DURATION>2.5</DURATION>
			<DURATION>2.5</DURATION>
			<DURATION>2.5</DURATION>
			<DURATION>2.5</DURATION>
			<DURATION>2.5</DURATION>
			<DURATION>2.5</DURATION>
			<DURATION>2.5</DURATION>
			<DURATION>2.5</DURATION>
			<DURATION>2.5</DURATION>
			<DURATION>2.5</DURATION>
			<DURATION>2.5</DURATION>
			<DURATION>2.5</DURATION>
			<DURATION>2.5</DURATION>
			<DURATION>2.5</DURATION>
			<DURATION>2.5</DURATION>
			<DURATION>2.5</DURATION>
			<DURATION>2.5</DURATION>
			<DURATION>2.5</DURATION>
			<DURATION>2.5</DURATION>
			<DURATION>2.5</DURATION>
			<DURATION>2.5</DURATION>
			<DURATION>2.5</DURATION>
			<DURATION>2.5</DURATION>
			<DURATION>2.5</DURATION>
			<DURATION>2.5</DURATION>
			<DURATION>2.5</DURATION>
			<DURATION>2.5</DURATION>
			<DURATION>2.5</DURATION>
			<DURATION>2.5</DURATION>
			<DURATION>2.5</DURATION>
			<DURATION>2.5</DURATION>
			<DURATION>2.5</DURATION>
			<DURATION>2.5</DURATION>
			<DURATION>2.5</DURATION>
			<DURATION>2.5</DURATION>
			<DURATION>2.5</DURATION>
			<DURATION>2.5</DURATION>
			<DURATION>2.5</DURATION>
			<DURATION>2.5</DURATION>
			<DURATION>2.5</DURATION>
			<DURATION>2.5166666666666666</DURATION>
			<DURATION>2.5166666666666666</DURATION>
			<DURATION>2.5166666666666666</DURATION>
			<DURATION>2.5166666666666666</DURATION>
			<DURATION>2.5166666666666666</DURATION>
			<DURATION>2.5166666666666666</DURATION>
			<DURATION>2.5166666666666666</DURATION>
			<DURATION>2.5166666666666666</DURATION>
			<DURATION>2.5166666666666666</DURATION>
			<DURATION>2.5166666666666666</DURATION>
			<DURATION>2.5166666666666666</DURATION>
			<DURATION>2.5166666666666666</DURATION>
			<DURATION>2.5166666666666666</DURATION>
			<DURATION>2.5166666666666666</DURATION>
			<DURATION>2.5166666666666666</DURATION>
			<DURATION>2.5166666666666666</DURATION>
			<DURATION>2.5166666666666666</DURATION>
			<DURATION>2.5166666666666666</DURATION>
			<DURATION>2.5166666666666666</DURATION>
			<DURATION>2.5166666666666666</DURATION>
			<DURATION>2.5166666666666666</DURATION>
			<DURATION>2.5166666666666666</DURATION>
			<DURATION>2.5166666666666666</DURATION>
			<DURATION>2.5166666666666666</DURATION>
			<DURATION>2.5166666666666666</DURATION>
			<DURATION>2.5166666666666666</DURATION>
			<DURATION>2.5166666666666666</DURATION>
			<DURATION>2.5166666666666666</DURATION>
			<DURATION>2.533333333333333</DURATION>
			<DURATION>2.533333333333333</DURATION>
			<DURATION>2.533333333333333</DURATION>
			<DURATION>2.533333333333333</DURATION>
			<DURATION>2.533333333333333</DURATION>
			<DURATION>2.533333333333333</DURATION>
			<DURATION>2.533333333333333</DURATION>
			<DURATION>2.533333333333333</DURATION>
			<DURATION>2.533333333333333</DURATION>
			<DURATION>2.533333333333333</DURATION>
			<DURATION>2.533333333333333</DURATION>
			<DURATION>2.533333333333333</DURATION>
			<DURATION>2.533333333333333</DURATION>
			<DURATION>2.533333333333333</DURATION>
			<DURATION>2.533333333333333</DURATION>
			<DURATION>2.533333333333333</DURATION>
			<DURATION>2.533333333333333</DURATION>
			<DURATION>2.533333333333333</DURATION>
			<DURATION>2.533333333333333</DURATION>
			<DURATION>2.533333333333333</DURATION>
			<DURATION>2.533333333333333</DURATION>
			<DURATION>2.533333333333333</DURATION>
			<DURATION>2.533333333333333</DURATION>
			<DURATION>2.533333333333333</DURATION>
			<DURATION>2.533333333333333</DURATION>
			<DURATION>2.55</DURATION>
			<DURATION>2.55</DURATION>
			<DURATION>2.55</DURATION>
			<DURATION>2.55</DURATION>
			<DURATION>2.55</DURATION>
			<DURATION>2.55</DURATION>
			<DURATION>2.55</DURATION>
			<DURATION>2.55</DURATION>
			<DURATION>2.55</DURATION>
			<DURATION>2.55</DURATION>
			<DURATION>2.55</DURATION>
			<DURATION>2.55</DURATION>
			<DURATION>2.55</DURATION>
			<DURATION>2.55</DURATION>
			<DURATION>2.55</DURATION>
			<DURATION>2.55</DURATION>
			<DURATION>2.55</DURATION>
			<DURATION>2.55</DURATION>
			<DURATION>2.55</DURATION>
			<DURATION>2.55</DURATION>
			<DURATION>2.55</DURATION>
			<DURATION>2.55</DURATION>
			<DURATION>2.55</DURATION>
			<DURATION>2.55</DURATION>
			<DURATION>2.55</DURATION>
			<DURATION>2.55</DURATION>
			<DURATION>2.55</DURATION>
			<DURATION>2.566666666666667</DURATION>
			<DURATION>2.566666666666667</DURATION>
			<DURATION>2.566666666666667</DURATION>
			<DURATION>2.566666666666667</DURATION>
			<DURATION>2.566666666666667</DURATION>
			<DURATION>2.566666666666667</DURATION>
			<DURATION>2.566666666666667</DURATION>
			<DURATION>2.566666666666667</DURATION>
			<DURATION>2.566666666666667</DURATION>
			<DURATION>2.566666666666667</DURATION>
			<DURATION>2.566666666666667</DURATION>
			<DURATION>2.566666666666667</DURATION>
			<DURATION>2.566666666666667</DURATION>
			<DURATION>2.566666666666667</DURATION>
			<DURATION>2.566666666666667</DURATION>
			<DURATION>2.566666666666667</DURATION>
			<DURATION>2.5833333333333335</DURATION>
			<DURATION>2.5833333333333335</DURATION>
			<DURATION>2.5833333333333335</DURATION>
			<DURATION>2.5833333333333335</DURATION>
			<DURATION>2.5833333333333335</DURATION>
			<DURATION>2.5833333333333335</DURATION>
			<DURATION>2.5833333333333335</DURATION>
			<DURATION>2.5833333333333335</DURATION>
			<DURATION>2.5833333333333335</DURATION>
			<DURATION>2.5833333333333335</DURATION>
			<DURATION>2.5833333333333335</DURATION>
			<DURATION>2.5833333333333335</DURATION>
			<DURATION>2.6</DURATION>
			<DURATION>2.6</DURATION>
			<DURATION>2.6</DURATION>
			<DURATION>2.6</DURATION>
			<DURATION>2.6</DURATION>
			<DURATION>2.6</DURATION>
			<DURATION>2.6</DURATION>
			<DURATION>2.6</DURATION>
			<DURATION>2.6</DURATION>
			<DURATION>2.6</DURATION>
			<DURATION>2.6</DURATION>
			<DURATION>2.6</DURATION>
			<DURATION>2.6166666666666667</DURATION>
			<DURATION>2.6166666666666667</DURATION>
			<DURATION>2.6166666666666667</DURATION>
			<DURATION>2.6166666666666667</DURATION>
			<DURATION>2.6166666666666667</DURATION>
			<DURATION>2.6166666666666667</DURATION>
			<DURATION>2.6166666666666667</DURATION>
			<DURATION>2.6166666666666667</DURATION>
			<DURATION>2.6166666666666667</DURATION>
			<DURATION>2.6333333333333333</DURATION>
			<DURATION>2.6333333333333333</DURATION>
			<DURATION>2.6333333333333333</DURATION>
			<DURATION>2.6333333333333333</DURATION>
			<DURATION>2.65</DURATION>
			<DURATION>2.65</DURATION>
			<DURATION>2.65</DURATION>
			<DURATION>2.65</DURATION>
			<DURATION>2.65</DURATION>
			<DURATION>2.6666666666666665</DURATION>
			<DURATION>2.6666666666666665</DURATION>
			<DURATION>2.683333333333333</DURATION>
			<DURATION>2.683333333333333</DURATION>
			<DURATION>2.7</DURATION>
			<DURATION>2.7</DURATION>
			<DURATION>2.7</DURATION>
			<DURATION>2.716666666666667</DURATION>
			<DURATION>2.7666666666666666</DURATION>
			<DURATION>2.85</DURATION>
			<DURATION>2.9166666666666665</DURATION>
			<DURATION>3.0166666666666666</DURATION>
			<DURATION>3.1</DURATION>
			<DURATION>3.216666666666667</DURATION>
			<DURATION>3.5166666666666666</DURATION>
			<DURATION>3.8333333333333335</DURATION>
		</HISTORICAL-DURATIONS>
	</CONSTRAINT>
	<CONSTRAINT>
		<START>2a1d886a-1764-437b-b45c-cac9fc889474</START>
		<END>0682e2ac-4f9c-47e2-b112-1e02190637a6</END>
		<ID>ef2dc2da-4ff3-4dc4-a9e4-26ebf31b22ba</ID>
		<NAME>Trip 30453702 Arrive at stop 70077 on 05:35</NAME>
		<LOWERBOUND>334.9</LOWERBOUND>
		<UPPERBOUND>335.1</UPPERBOUND>
		<LBRELAXABLE>T</LBRELAXABLE>
		<UBRELAXABLE>T</UBRELAXABLE>
		<LB-RELAX-COST-RATIO>10.0</LB-RELAX-COST-RATIO>
		<UB-RELAX-COST-RATIO>10.0</UB-RELAX-COST-RATIO>
		<COST>0.0</COST>
		<TYPE>Controllable;Constraint</TYPE>
		<MEAN>0.0</MEAN>
	</CONSTRAINT>
	<CONSTRAINT>
		<START>a58462b3-9751-47b7-96d7-b2419c27e06e</START>
		<END>7455821f-a7ab-48b1-8ca0-600d570d3c49</END>
		<ID>6df544db-79de-4dde-b61a-3047e60cfe74</ID>
		<NAME>From 70071 to 70073 (Charles/MGH - Inbound)</NAME>
		<LOWERBOUND>0.9833333333333333</LOWERBOUND>
		<UPPERBOUND>2.3666666666666667</UPPERBOUND>
		<LB-RELAX-COST-RATIO>0.0</LB-RELAX-COST-RATIO>
		<UB-RELAX-COST-RATIO>0.0</UB-RELAX-COST-RATIO>
		<COST>0.0</COST>
		<TYPE>Uncontrollable;Activity</TYPE>
		<MEAN>0.0</MEAN>
		<DISTRIBUTION>Normal</DISTRIBUTION>
		<VARIANCE>0.0</VARIANCE>
		<HISTORICAL-DURATIONS>
			<DURATION>0.9833333333333333</DURATION>
			<DURATION>1.0333333333333334</DURATION>
			<DURATION>1.2333333333333334</DURATION>
			<DURATION>1.25</DURATION>
			<DURATION>1.2666666666666666</DURATION>
			<DURATION>1.2833333333333334</DURATION>
			<DURATION>1.4166666666666667</DURATION>
			<DURATION>1.4166666666666667</DURATION>
			<DURATION>1.4333333333333333</DURATION>
			<DURATION>1.4333333333333333</DURATION>
			<DURATION>1.4333333333333333</DURATION>
			<DURATION>1.4333333333333333</DURATION>
			<DURATION>1.4333333333333333</DURATION>
			<DURATION>1.4333333333333333</DURATION>
			<DURATION>1.4333333333333333</DURATION>
			<DURATION>1.4333333333333333</DURATION>
			<DURATION>1.4333333333333333</DURATION>
			<DURATION>1.4333333333333333</DURATION>
			<DURATION>1.45</DURATION>
			<DURATION>1.45</DURATION>
			<DURATION>1.45</DURATION>
			<DURATION>1.45</DURATION>
			<DURATION>1.45</DURATION>
			<DURATION>1.45</DURATION>
			<DURATION>1.45</DURATION>
			<DURATION>1.45</DURATION>
			<DURATION>1.45</DURATION>
			<DURATION>1.45</DURATION>
			<DURATION>1.45</DURATION>
			<DURATION>1.45</DURATION>
			<DURATION>1.45</DURATION>
			<DURATION>1.45</DURATION>
			<DURATION>1.45</DURATION>
			<DURATION>1.45</DURATION>
			<DURATION>1.45</DURATION>
			<DURATION>1.4666666666666666</DURATION>
			<DURATION>1.4666666666666666</DURATION>
			<DURATION>1.4666666666666666</DURATION>
			<DURATION>1.4666666666666666</DURATION>
			<DURATION>1.4666666666666666</DURATION>
			<DURATION>1.4666666666666666</DURATION>
			<DURATION>1.4666666666666666</DURATION>
			<DURATION>1.4666666666666666</DURATION>
			<DURATION>1.4666666666666666</DURATION>
			<DURATION>1.4666666666666666</DURATION>
			<DURATION>1.4666666666666666</DURATION>
			<DURATION>1.4666666666666666</DURATION>
			<DURATION>1.4666666666666666</DURATION>
			<DURATION>1.4666666666666666</DURATION>
			<DURATION>1.4666666666666666</DURATION>
			<DURATION>1.4666666666666666</DURATION>
			<DURATION>1.4666666666666666</DURATION>
			<DURATION>1.4666666666666666</DURATION>
			<DURATION>1.4666666666666666</DURATION>
			<DURATION>1.4666666666666666</DURATION>
			<DURATION>1.4666666666666666</DURATION>
			<DURATION>1.4666666666666666</DURATION>
			<DURATION>1.4666666666666666</DURATION>
			<DURATION>1.4666666666666666</DURATION>
			<DURATION>1.4666666666666666</DURATION>
			<DURATION>1.4666666666666666</DURATION>
			<DURATION>1.4666666666666666</DURATION>
			<DURATION>1.4666666666666666</DURATION>
			<DURATION>1.4666666666666666</DURATION>
			<DURATION>1.4666666666666666</DURATION>
			<DURATION>1.4833333333333334</DURATION>
			<DURATION>1.4833333333333334</DURATION>
			<DURATION>1.4833333333333334</DURATION>
			<DURATION>1.4833333333333334</DURATION>
			<DURATION>1.4833333333333334</DURATION>
			<DURATION>1.4833333333333334</DURATION>
			<DURATION>1.4833333333333334</DURATION>
			<DURATION>1.4833333333333334</DURATION>
			<DURATION>1.4833333333333334</DURATION>
			<DURATION>1.4833333333333334</DURATION>
			<DURATION>1.4833333333333334</DURATION>
			<DURATION>1.4833333333333334</DURATION>
			<DURATION>1.4833333333333334</DURATION>
			<DURATION>1.4833333333333334</DURATION>
			<DURATION>1.4833333333333334</DURATION>
			<DURATION>1.4833333333333334</DURATION>
			<DURATION>1.4833333333333334</DURATION>
			<DURATION>1.4833333333333334</DURATION>
			<DURATION>1.4833333333333334</DURATION>
			<DURATION>1.4833333333333334</DURATION>
			<DURATION>1.4833333333333334</DURATION>
			<DURATION>1.4833333333333334</DURATION>
			<DURATION>1.4833333333333334</DURATION>
			<DURATION>1.4833333333333334</DURATION>
			<DURATION>1.4833333333333334</DURATION>
			<DURATION>1.4833333333333334</DURATION>
			<DURATION>1.4833333333333334</DURATION>
			<DURATION>1.4833333333333334</DURATION>
			<DURATION>1.4833333333333334</DURATION>
			<DURATION>1.4833333333333334</DURATION>
			<DURATION>1.4833333333333334</DURATION>
			<DURATION>1.4833333333333334</DURATION>
			<DURATION>1.4833333333333334</DURATION>
			<DURATION>1.4833333333333334</DURATION>
			<DURATION>1.4833333333333334</DURATION>
			<DURATION>1.4833333333333334</DURATION>
			<DURATION>1.4833333333333334</DURATION>
			<DURATION>1.4833333333333334</DURATION>
			<DURATION>1.4833333333333334</DURATION>
			<DURATION>1.4833333333333334</DURATION>
			<DURATION>1.4833333333333334</DURATION>
			<DURATION>1.4833333333333334</DURATION>
			<DURATION>1.5</DURATION>
			<DURATION>1.5</DURATION>
			<DURATION>1.5</DURATION>
			<DURATION>1.5</DURATION>
			<DURATION>1.5</DURATION>
			<DURATION>1.5</DURATION>
			<DURATION>1.5</DURATION>
			<DURATION>1.5</DURATION>
			<DURATION>1.5</DURATION>
			<DURATION>1.5</DURATION>
			<DURATION>1.5</DURATION>
			<DURATION>1.5</DURATION>
			<DURATION>1.5</DURATION>
			<DURATION>1.5</DURATION>
			<DURATION>1.5</DURATION>
			<DURATION>1.5</DURATION>
			<DURATION>1.5</DURATION>
			<DURATION>1.5</DURATION>
			<DURATION>1.5</DURATION>
			<DURATION>1.5</DURATION>
			<DURATION>1.5</DURATION>
			<DURATION>1.5</DURATION>
			<DURATION>1.5</DURATION>
			<DURATION>1.5</DURATION>
			<DURATION>1.5</DURATION>
			<DURATION>1.5</DURATION>
			<DURATION>1.5</DURATION>
			<DURATION>1.5</DURATION>
			<DURATION>1.5</DURATION>
			<DURATION>1.5</DURATION>
			<DURATION>1.5</DURATION>
			<DURATION>1.5</DURATION>
			<DURATION>1.5</DURATION>
			<DURATION>1.5</DURATION>
			<DURATION>1.5</DURATION>
			<DURATION>1.5</DURATION>
			<DURATION>1.5</DURATION>
			<DURATION>1.5</DURATION>
			<DURATION>1.5</DURATION>
			<DURATION>1.5</DURATION>
			<DURATION>1.5</DURATION>
			<DURATION>1.5</DURATION>
			<DURATION>1.5</DURATION>
			<DURATION>1.5</DURATION>
			<DURATION>1.5166666666666666</DURATION>
			<DURATION>1.5166666666666666</DURATION>
			<DURATION>1.5166666666666666</DURATION>
			<DURATION>1.5166666666666666</DURATION>
			<DURATION>1.5166666666666666</DURATION>
			<DURATION>1.5166666666666666</DURATION>
			<DURATION>1.5166666666666666</DURATION>
			<DURATION>1.5166666666666666</DURATION>
			<DURATION>1.5166666666666666</DURATION>
			<DURATION>1.5166666666666666</DURATION>
			<DURATION>1.5166666666666666</DURATION>
			<DURATION>1.5166666666666666</DURATION>
			<DURATION>1.5166666666666666</DURATION>
			<DURATION>1.5166666666666666</DURATION>
			<DURATION>1.5166666666666666</DURATION>
			<DURATION>1.5166666666666666</DURATION>
			<DURATION>1.5166666666666666</DURATION>
			<DURATION>1.5166666666666666</DURATION>
			<DURATION>1.5166666666666666</DURATION>
			<DURATION>1.5166666666666666</DURATION>
			<DURATION>1.5166666666666666</DURATION>
			<DURATION>1.5166666666666666</DURATION>
			<DURATION>1.5166666666666666</DURATION>
			<DURATION>1.5166666666666666</DURATION>
			<DURATION>1.5166666666666666</DURATION>
			<DURATION>1.5166666666666666</DURATION>
			<DURATION>1.5166666666666666</DURATION>
			<DURATION>1.5166666666666666</DURATION>
			<DURATION>1.5166666666666666</DURATION>
			<DURATION>1.5166666666666666</DURATION>
			<DURATION>1.5166666666666666</DURATION>
			<DURATION>1.5166666666666666</DURATION>
			<DURATION>1.5166666666666666</DURATION>
			<DURATION>1.5166666666666666</DURATION>
			<DURATION>1.5166666666666666</DURATION>
			<DURATION>1.5166666666666666</DURATION>
			<DURATION>1.5166666666666666</DURATION>
			<DURATION>1.5166666666666666</DURATION>
			<DURATION>1.5166666666666666</DURATION>
			<DURATION>1.5166666666666666</DURATION>
			<DURATION>1.5166666666666666</DURATION>
			<DURATION>1.5166666666666666</DURATION>
			<DURATION>1.5166666666666666</DURATION>
			<DURATION>1.5166666666666666</DURATION>
			<DURATION>1.5166666666666666</DURATION>
			<DURATION>1.5166666666666666</DURATION>
			<DURATION>1.5166666666666666</DURATION>
			<DURATION>1.5166666666666666</DURATION>
			<DURATION>1.5166666666666666</DURATION>
			<DURATION>1.5166666666666666</DURATION>
			<DURATION>1.5166666666666666</DURATION>
			<DURATION>1.5166666666666666</DURATION>
			<DURATION>1.5166666666666666</DURATION>
			<DURATION>1.5166666666666666</DURATION>
			<DURATION>1.5166666666666666</DURATION>
			<DURATION>1.5166666666666666</DURATION>
			<DURATION>1.5166666666666666</DURATION>
			<DURATION>1.5166666666666666</DURATION>
			<DURATION>1.5166666666666666</DURATION>
			<DURATION>1.5166666666666666</DURATION>
			<DURATION>1.5166666666666666</DURATION>
			<DURATION>1.5166666666666666</DURATION>
			<DURATION>1.5166666666666666</DURATION>
			<DURATION>1.5166666666666666</DURATION>
			<DURATION>1.5166666666666666</DURATION>
			<DURATION>1.5166666666666666</DURATION>
			<DURATION>1.5166666666666666</DURATION>
			<DURATION>1.5166666666666666</DURATION>
			<DURATION>1.5166666666666666</DURATION>
			<DURATION>1.5166666666666666</DURATION>
			<DURATION>1.5166666666666666</DURATION>
			<DURATION>1.5166666666666666</DURATION>
			<DURATION>1.5166666666666666</DURATION>
			<DURATION>1.5166666666666666</DURATION>
			<DURATION>1.5166666666666666</DURATION>
			<DURATION>1.5166666666666666</DURATION>
			<DURATION>1.5166666666666666</DURATION>
			<DURATION>1.5166666666666666</DURATION>
			<DURATION>1.5166666666666666</DURATION>
			<DURATION>1.5166666666666666</DURATION>
			<DURATION>1.5166666666666666</DURATION>
			<DURATION>1.5333333333333334</DURATION>
			<DURATION>1.5333333333333334</DURATION>
			<DURATION>1.5333333333333334</DURATION>
			<DURATION>1.5333333333333334</DURATION>
			<DURATION>1.5333333333333334</DURATION>
			<DURATION>1.5333333333333334</DURATION>
			<DURATION>1.5333333333333334</DURATION>
			<DURATION>1.5333333333333334</DURATION>
			<DURATION>1.5333333333333334</DURATION>
			<DURATION>1.5333333333333334</DURATION>
			<DURATION>1.5333333333333334</DURATION>
			<DURATION>1.5333333333333334</DURATION>
			<DURATION>1.5333333333333334</DURATION>
			<DURATION>1.5333333333333334</DURATION>
			<DURATION>1.5333333333333334</DURATION>
			<DURATION>1.5333333333333334</DURATION>
			<DURATION>1.5333333333333334</DURATION>
			<DURATION>1.5333333333333334</DURATION>
			<DURATION>1.5333333333333334</DURATION>
			<DURATION>1.5333333333333334</DURATION>
			<DURATION>1.5333333333333334</DURATION>
			<DURATION>1.5333333333333334</DURATION>
			<DURATION>1.5333333333333334</DURATION>
			<DURATION>1.5333333333333334</DURATION>
			<DURATION>1.5333333333333334</DURATION>
			<DURATION>1.5333333333333334</DURATION>
			<DURATION>1.5333333333333334</DURATION>
			<DURATION>1.5333333333333334</DURATION>
			<DURATION>1.5333333333333334</DURATION>
			<DURATION>1.5333333333333334</DURATION>
			<DURATION>1.5333333333333334</DURATION>
			<DURATION>1.5333333333333334</DURATION>
			<DURATION>1.5333333333333334</DURATION>
			<DURATION>1.5333333333333334</DURATION>
			<DURATION>1.5333333333333334</DURATION>
			<DURATION>1.5333333333333334</DURATION>
			<DURATION>1.5333333333333334</DURATION>
			<DURATION>1.5333333333333334</DURATION>
			<DURATION>1.5333333333333334</DURATION>
			<DURATION>1.5333333333333334</DURATION>
			<DURATION>1.5333333333333334</DURATION>
			<DURATION>1.5333333333333334</DURATION>
			<DURATION>1.5333333333333334</DURATION>
			<DURATION>1.5333333333333334</DURATION>
			<DURATION>1.5333333333333334</DURATION>
			<DURATION>1.5333333333333334</DURATION>
			<DURATION>1.5333333333333334</DURATION>
			<DURATION>1.5333333333333334</DURATION>
			<DURATION>1.5333333333333334</DURATION>
			<DURATION>1.5333333333333334</DURATION>
			<DURATION>1.5333333333333334</DURATION>
			<DURATION>1.5333333333333334</DURATION>
			<DURATION>1.5333333333333334</DURATION>
			<DURATION>1.5333333333333334</DURATION>
			<DURATION>1.5333333333333334</DURATION>
			<DURATION>1.5333333333333334</DURATION>
			<DURATION>1.5333333333333334</DURATION>
			<DURATION>1.5333333333333334</DURATION>
			<DURATION>1.5333333333333334</DURATION>
			<DURATION>1.5333333333333334</DURATION>
			<DURATION>1.5333333333333334</DURATION>
			<DURATION>1.5333333333333334</DURATION>
			<DURATION>1.5333333333333334</DURATION>
			<DURATION>1.5333333333333334</DURATION>
			<DURATION>1.5333333333333334</DURATION>
			<DURATION>1.5333333333333334</DURATION>
			<DURATION>1.5333333333333334</DURATION>
			<DURATION>1.5333333333333334</DURATION>
			<DURATION>1.5333333333333334</DURATION>
			<DURATION>1.5333333333333334</DURATION>
			<DURATION>1.5333333333333334</DURATION>
			<DURATION>1.5333333333333334</DURATION>
			<DURATION>1.5333333333333334</DURATION>
			<DURATION>1.5333333333333334</DURATION>
			<DURATION>1.5333333333333334</DURATION>
			<DURATION>1.5333333333333334</DURATION>
			<DURATION>1.5333333333333334</DURATION>
			<DURATION>1.5333333333333334</DURATION>
			<DURATION>1.5333333333333334</DURATION>
			<DURATION>1.5333333333333334</DURATION>
			<DURATION>1.5333333333333334</DURATION>
			<DURATION>1.5333333333333334</DURATION>
			<DURATION>1.5333333333333334</DURATION>
			<DURATION>1.5333333333333334</DURATION>
			<DURATION>1.5333333333333334</DURATION>
			<DURATION>1.5333333333333334</DURATION>
			<DURATION>1.5333333333333334</DURATION>
			<DURATION>1.5333333333333334</DURATION>
			<DURATION>1.5333333333333334</DURATION>
			<DURATION>1.5333333333333334</DURATION>
			<DURATION>1.5333333333333334</DURATION>
			<DURATION>1.5333333333333334</DURATION>
			<DURATION>1.5333333333333334</DURATION>
			<DURATION>1.5333333333333334</DURATION>
			<DURATION>1.5333333333333334</DURATION>
			<DURATION>1.5333333333333334</DURATION>
			<DURATION>1.5333333333333334</DURATION>
			<DURATION>1.55</DURATION>
			<DURATION>1.55</DURATION>
			<DURATION>1.55</DURATION>
			<DURATION>1.55</DURATION>
			<DURATION>1.55</DURATION>
			<DURATION>1.55</DURATION>
			<DURATION>1.55</DURATION>
			<DURATION>1.55</DURATION>
			<DURATION>1.55</DURATION>
			<DURATION>1.55</DURATION>
			<DURATION>1.55</DURATION>
			<DURATION>1.55</DURATION>
			<DURATION>1.55</DURATION>
			<DURATION>1.55</DURATION>
			<DURATION>1.55</DURATION>
			<DURATION>1.55</DURATION>
			<DURATION>1.55</DURATION>
			<DURATION>1.55</DURATION>
			<DURATION>1.55</DURATION>
			<DURATION>1.55</DURATION>
			<DURATION>1.55</DURATION>
			<DURATION>1.55</DURATION>
			<DURATION>1.55</DURATION>
			<DURATION>1.55</DURATION>
			<DURATION>1.55</DURATION>
			<DURATION>1.55</DURATION>
			<DURATION>1.55</DURATION>
			<DURATION>1.55</DURATION>
			<DURATION>1.55</DURATION>
			<DURATION>1.55</DURATION>
			<DURATION>1.55</DURATION>
			<DURATION>1.55</DURATION>
			<DURATION>1.55</DURATION>
			<DURATION>1.55</DURATION>
			<DURATION>1.55</DURATION>
			<DURATION>1.55</DURATION>
			<DURATION>1.55</DURATION>
			<DURATION>1.55</DURATION>
			<DURATION>1.55</DURATION>
			<DURATION>1.55</DURATION>
			<DURATION>1.55</DURATION>
			<DURATION>1.55</DURATION>
			<DURATION>1.55</DURATION>
			<DURATION>1.55</DURATION>
			<DURATION>1.55</DURATION>
			<DURATION>1.55</DURATION>
			<DURATION>1.55</DURATION>
			<DURATION>1.55</DURATION>
			<DURATION>1.55</DURATION>
			<DURATION>1.55</DURATION>
			<DURATION>1.55</DURATION>
			<DURATION>1.55</DURATION>
			<DURATION>1.55</DURATION>
			<DURATION>1.55</DURATION>
			<DURATION>1.55</DURATION>
			<DURATION>1.55</DURATION>
			<DURATION>1.55</DURATION>
			<DURATION>1.55</DURATION>
			<DURATION>1.55</DURATION>
			<DURATION>1.55</DURATION>
			<DURATION>1.55</DURATION>
			<DURATION>1.55</DURATION>
			<DURATION>1.55</DURATION>
			<DURATION>1.55</DURATION>
			<DURATION>1.55</DURATION>
			<DURATION>1.55</DURATION>
			<DURATION>1.55</DURATION>
			<DURATION>1.55</DURATION>
			<DURATION>1.55</DURATION>
			<DURATION>1.55</DURATION>
			<DURATION>1.55</DURATION>
			<DURATION>1.55</DURATION>
			<DURATION>1.55</DURATION>
			<DURATION>1.55</DURATION>
			<DURATION>1.55</DURATION>
			<DURATION>1.55</DURATION>
			<DURATION>1.55</DURATION>
			<DURATION>1.55</DURATION>
			<DURATION>1.55</DURATION>
			<DURATION>1.55</DURATION>
			<DURATION>1.55</DURATION>
			<DURATION>1.55</DURATION>
			<DURATION>1.55</DURATION>
			<DURATION>1.55</DURATION>
			<DURATION>1.55</DURATION>
			<DURATION>1.55</DURATION>
			<DURATION>1.55</DURATION>
			<DURATION>1.55</DURATION>
			<DURATION>1.55</DURATION>
			<DURATION>1.55</DURATION>
			<DURATION>1.55</DURATION>
			<DURATION>1.55</DURATION>
			<DURATION>1.55</DURATION>
			<DURATION>1.55</DURATION>
			<DURATION>1.55</DURATION>
			<DURATION>1.55</DURATION>
			<DURATION>1.5666666666666667</DURATION>
			<DURATION>1.5666666666666667</DURATION>
			<DURATION>1.5666666666666667</DURATION>
			<DURATION>1.5666666666666667</DURATION>
			<DURATION>1.5666666666666667</DURATION>
			<DURATION>1.5666666666666667</DURATION>
			<DURATION>1.5666666666666667</DURATION>
			<DURATION>1.5666666666666667</DURATION>
			<DURATION>1.5666666666666667</DURATION>
			<DURATION>1.5666666666666667</DURATION>
			<DURATION>1.5666666666666667</DURATION>
			<DURATION>1.5666666666666667</DURATION>
			<DURATION>1.5666666666666667</DURATION>
			<DURATION>1.5666666666666667</DURATION>
			<DURATION>1.5666666666666667</DURATION>
			<DURATION>1.5666666666666667</DURATION>
			<DURATION>1.5666666666666667</DURATION>
			<DURATION>1.5666666666666667</DURATION>
			<DURATION>1.5666666666666667</DURATION>
			<DURATION>1.5666666666666667</DURATION>
			<DURATION>1.5666666666666667</DURATION>
			<DURATION>1.5666666666666667</DURATION>
			<DURATION>1.5666666666666667</DURATION>
			<DURATION>1.5666666666666667</DURATION>
			<DURATION>1.5666666666666667</DURATION>
			<DURATION>1.5666666666666667</DURATION>
			<DURATION>1.5666666666666667</DURATION>
			<DURATION>1.5666666666666667</DURATION>
			<DURATION>1.5666666666666667</DURATION>
			<DURATION>1.5666666666666667</DURATION>
			<DURATION>1.5666666666666667</DURATION>
			<DURATION>1.5666666666666667</DURATION>
			<DURATION>1.5666666666666667</DURATION>
			<DURATION>1.5666666666666667</DURATION>
			<DURATION>1.5666666666666667</DURATION>
			<DURATION>1.5666666666666667</DURATION>
			<DURATION>1.5666666666666667</DURATION>
			<DURATION>1.5666666666666667</DURATION>
			<DURATION>1.5666666666666667</DURATION>
			<DURATION>1.5666666666666667</DURATION>
			<DURATION>1.5666666666666667</DURATION>
			<DURATION>1.5666666666666667</DURATION>
			<DURATION>1.5666666666666667</DURATION>
			<DURATION>1.5666666666666667</DURATION>
			<DURATION>1.5666666666666667</DURATION>
			<DURATION>1.5666666666666667</DURATION>
			<DURATION>1.5666666666666667</DURATION>
			<DURATION>1.5666666666666667</DURATION>
			<DURATION>1.5666666666666667</DURATION>
			<DURATION>1.5666666666666667</DURATION>
			<DURATION>1.5666666666666667</DURATION>
			<DURATION>1.5666666666666667</DURATION>
			<DURATION>1.5666666666666667</DURATION>
			<DURATION>1.5666666666666667</DURATION>
			<DURATION>1.5833333333333333</DURATION>
			<DURATION>1.5833333333333333</DURATION>
			<DURATION>1.5833333333333333</DURATION>
			<DURATION>1.5833333333333333</DURATION>
			<DURATION>1.5833333333333333</DURATION>
			<DURATION>1.5833333333333333</DURATION>
			<DURATION>1.5833333333333333</DURATION>
			<DURATION>1.5833333333333333</DURATION>
			<DURATION>1.5833333333333333</DURATION>
			<DURATION>1.5833333333333333</DURATION>
			<DURATION>1.5833333333333333</DURATION>
			<DURATION>1.5833333333333333</DURATION>
			<DURATION>1.5833333333333333</DURATION>
			<DURATION>1.5833333333333333</DURATION>
			<DURATION>1.5833333333333333</DURATION>
			<DURATION>1.5833333333333333</DURATION>
			<DURATION>1.5833333333333333</DURATION>
			<DURATION>1.5833333333333333</DURATION>
			<DURATION>1.5833333333333333</DURATION>
			<DURATION>1.5833333333333333</DURATION>
			<DURATION>1.5833333333333333</DURATION>
			<DURATION>1.5833333333333333</DURATION>
			<DURATION>1.6</DURATION>
			<DURATION>1.6</DURATION>
			<DURATION>1.6</DURATION>
			<DURATION>1.6</DURATION>
			<DURATION>1.6</DURATION>
			<DURATION>1.6</DURATION>
			<DURATION>1.6</DURATION>
			<DURATION>1.6</DURATION>
			<DURATION>1.6</DURATION>
			<DURATION>1.6</DURATION>
			<DURATION>1.6</DURATION>
			<DURATION>1.6</DURATION>
			<DURATION>1.6</DURATION>
			<DURATION>1.6</DURATION>
			<DURATION>1.6</DURATION>
			<DURATION>1.6</DURATION>
			<DURATION>1.6</DURATION>
			<DURATION>1.6</DURATION>
			<DURATION>1.6</DURATION>
			<DURATION>1.6</DURATION>
			<DURATION>1.6</DURATION>
			<DURATION>1.6166666666666667</DURATION>
			<DURATION>1.6166666666666667</DURATION>
			<DURATION>1.6166666666666667</DURATION>
			<DURATION>1.6166666666666667</DURATION>
			<DURATION>1.6166666666666667</DURATION>
			<DURATION>1.6166666666666667</DURATION>
			<DURATION>1.6166666666666667</DURATION>
			<DURATION>1.6333333333333333</DURATION>
			<DURATION>1.6333333333333333</DURATION>
			<DURATION>1.6333333333333333</DURATION>
			<DURATION>1.6333333333333333</DURATION>
			<DURATION>1.6333333333333333</DURATION>
			<DURATION>1.6333333333333333</DURATION>
			<DURATION>1.6333333333333333</DURATION>
			<DURATION>1.6333333333333333</DURATION>
			<DURATION>1.6333333333333333</DURATION>
			<DURATION>1.6333333333333333</DURATION>
			<DURATION>1.6333333333333333</DURATION>
			<DURATION>1.6333333333333333</DURATION>
			<DURATION>1.6333333333333333</DURATION>
			<DURATION>1.65</DURATION>
			<DURATION>1.65</DURATION>
			<DURATION>1.65</DURATION>
			<DURATION>1.6666666666666667</DURATION>
			<DURATION>1.6666666666666667</DURATION>
			<DURATION>1.6666666666666667</DURATION>
			<DURATION>1.6666666666666667</DURATION>
			<DURATION>1.6666666666666667</DURATION>
			<DURATION>1.6666666666666667</DURATION>
			<DURATION>1.6833333333333333</DURATION>
			<DURATION>1.6833333333333333</DURATION>
			<DURATION>1.6833333333333333</DURATION>
			<DURATION>1.6833333333333333</DURATION>
			<DURATION>1.7</DURATION>
			<DURATION>1.7</DURATION>
			<DURATION>1.7</DURATION>
			<DURATION>1.7</DURATION>
			<DURATION>1.7</DURATION>
			<DURATION>1.7166666666666666</DURATION>
			<DURATION>1.7333333333333334</DURATION>
			<DURATION>1.7333333333333334</DURATION>
			<DURATION>1.7333333333333334</DURATION>
			<DURATION>1.75</DURATION>
			<DURATION>1.75</DURATION>
			<DURATION>1.75</DURATION>
			<DURATION>1.7666666666666666</DURATION>
			<DURATION>1.7833333333333334</DURATION>
			<DURATION>1.8</DURATION>
			<DURATION>1.8</DURATION>
			<DURATION>1.8166666666666667</DURATION>
			<DURATION>1.8166666666666667</DURATION>
			<DURATION>1.8333333333333333</DURATION>
			<DURATION>1.8333333333333333</DURATION>
			<DURATION>1.85</DURATION>
			<DURATION>1.8666666666666667</DURATION>
			<DURATION>1.8833333333333333</DURATION>
			<DURATION>1.8833333333333333</DURATION>
			<DURATION>1.9166666666666667</DURATION>
			<DURATION>1.9166666666666667</DURATION>
			<DURATION>1.9666666666666666</DURATION>
			<DURATION>1.9833333333333334</DURATION>
			<DURATION>1.9833333333333334</DURATION>
			<DURATION>2.0166666666666666</DURATION>
			<DURATION>2.0833333333333335</DURATION>
			<DURATION>2.1166666666666667</DURATION>
			<DURATION>2.15</DURATION>
			<DURATION>2.2</DURATION>
			<DURATION>2.2</DURATION>
			<DURATION>2.2666666666666666</DURATION>
			<DURATION>2.3</DURATION>
			<DURATION>2.3</DURATION>
			<DURATION>2.3666666666666667</DURATION>
			<DURATION>2.3666666666666667</DURATION>
			<DURATION>2.4</DURATION>
			<DURATION>2.4</DURATION>
			<DURATION>2.45</DURATION>
			<DURATION>2.4833333333333334</DURATION>
			<DURATION>2.5166666666666666</DURATION>
			<DURATION>2.566666666666667</DURATION>
			<DURATION>2.5833333333333335</DURATION>
			<DURATION>3.0166666666666666</DURATION>
			<DURATION>3.05</DURATION>
			<DURATION>3.1166666666666667</DURATION>
			<DURATION>3.15</DURATION>
		</HISTORICAL-DURATIONS>
	</CONSTRAINT>
	<CONSTRAINT>
		<START>e5d86383-e301-4311-9361-ed6d8f02c4aa</START>
		<END>956c05da-21b6-4185-83db-f61ebdf5c56e</END>
		<ID>35119cd2-6ed0-4798-912e-11f6def19cef</ID>
		<NAME>Dwell at 70075 (Park Street - to Ashmont/Braintree)</NAME>
		<LOWERBOUND>0.6833333333333333</LOWERBOUND>
		<UPPERBOUND>2.433333333333333</UPPERBOUND>
		<LB-RELAX-COST-RATIO>0.0</LB-RELAX-COST-RATIO>
		<UB-RELAX-COST-RATIO>0.0</UB-RELAX-COST-RATIO>
		<COST>0.0</COST>
		<TYPE>Uncontrollable;Activity</TYPE>
		<MEAN>0.0</MEAN>
		<DISTRIBUTION>Normal</DISTRIBUTION>
		<VARIANCE>0.0</VARIANCE>
		<HISTORICAL-DURATIONS>
			<DURATION>0.6833333333333333</DURATION>
			<DURATION>0.7</DURATION>
			<DURATION>0.7</DURATION>
			<DURATION>0.7166666666666667</DURATION>
			<DURATION>0.7166666666666667</DURATION>
			<DURATION>0.7333333333333333</DURATION>
			<DURATION>0.75</DURATION>
			<DURATION>0.75</DURATION>
			<DURATION>0.75</DURATION>
			<DURATION>0.75</DURATION>
			<DURATION>0.7666666666666667</DURATION>
			<DURATION>0.7833333333333333</DURATION>
			<DURATION>0.7833333333333333</DURATION>
			<DURATION>0.8</DURATION>
			<DURATION>0.8166666666666667</DURATION>
			<DURATION>0.8166666666666667</DURATION>
			<DURATION>0.8166666666666667</DURATION>
			<DURATION>0.8166666666666667</DURATION>
			<DURATION>0.8166666666666667</DURATION>
			<DURATION>0.8333333333333334</DURATION>
			<DURATION>0.8333333333333334</DURATION>
			<DURATION>0.8333333333333334</DURATION>
			<DURATION>0.8333333333333334</DURATION>
			<DURATION>0.85</DURATION>
			<DURATION>0.8666666666666667</DURATION>
			<DURATION>0.8666666666666667</DURATION>
			<DURATION>0.8666666666666667</DURATION>
			<DURATION>0.8666666666666667</DURATION>
			<DURATION>0.8833333333333333</DURATION>
			<DURATION>0.8833333333333333</DURATION>
			<DURATION>0.8833333333333333</DURATION>
			<DURATION>0.8833333333333333</DURATION>
			<DURATION>0.8833333333333333</DURATION>
			<DURATION>0.8833333333333333</DURATION>
			<DURATION>0.8833333333333333</DURATION>
			<DURATION>0.9</DURATION>
			<DURATION>0.9</DURATION>
			<DURATION>0.9</DURATION>
			<DURATION>0.9</DURATION>
			<DURATION>0.9</DURATION>
			<DURATION>0.9</DURATION>
			<DURATION>0.9</DURATION>
			<DURATION>0.9</DURATION>
			<DURATION>0.9</DURATION>
			<DURATION>0.9</DURATION>
			<DURATION>0.9166666666666666</DURATION>
			<DURATION>0.9166666666666666</DURATION>
			<DURATION>0.9166666666666666</DURATION>
			<DURATION>0.9166666666666666</DURATION>
			<DURATION>0.9166666666666666</DURATION>
			<DURATION>0.9166666666666666</DURATION>
			<DURATION>0.9166666666666666</DURATION>
			<DURATION>0.9166666666666666</DURATION>
			<DURATION>0.9166666666666666</DURATION>
			<DURATION>0.9166666666666666</DURATION>
			<DURATION>0.9166666666666666</DURATION>
			<DURATION>0.9166666666666666</DURATION>
			<DURATION>0.9166666666666666</DURATION>
			<DURATION>0.9333333333333333</DURATION>
			<DURATION>0.9333333333333333</DURATION>
			<DURATION>0.9333333333333333</DURATION>
			<DURATION>0.9333333333333333</DURATION>
			<DURATION>0.9333333333333333</DURATION>
			<DURATION>0.9333333333333333</DURATION>
			<DURATION>0.9333333333333333</DURATION>
			<DURATION>0.9333333333333333</DURATION>
			<DURATION>0.9333333333333333</DURATION>
			<DURATION>0.9333333333333333</DURATION>
			<DURATION>0.9333333333333333</DURATION>
			<DURATION>0.95</DURATION>
			<DURATION>0.95</DURATION>
			<DURATION>0.95</DURATION>
			<DURATION>0.95</DURATION>
			<DURATION>0.95</DURATION>
			<DURATION>0.95</DURATION>
			<DURATION>0.95</DURATION>
			<DURATION>0.95</DURATION>
			<DURATION>0.95</DURATION>
			<DURATION>0.95</DURATION>
			<DURATION>0.95</DURATION>
			<DURATION>0.95</DURATION>
			<DURATION>0.95</DURATION>
			<DURATION>0.95</DURATION>
			<DURATION>0.9666666666666667</DURATION>
			<DURATION>0.9666666666666667</DURATION>
			<DURATION>0.9666666666666667</DURATION>
			<DURATION>0.9666666666666667</DURATION>
			<DURATION>0.9666666666666667</DURATION>
			<DURATION>0.9666666666666667</DURATION>
			<DURATION>0.9666666666666667</DURATION>
			<DURATION>0.9666666666666667</DURATION>
			<DURATION>0.9666666666666667</DURATION>
			<DURATION>0.9666666666666667</DURATION>
			<DURATION>0.9666666666666667</DURATION>
			<DURATION>0.9666666666666667</DURATION>
			<DURATION>0.9666666666666667</DURATION>
			<DURATION>0.9666666666666667</DURATION>
			<DURATION>0.9666666666666667</DURATION>
			<DURATION>0.9666666666666667</DURATION>
			<DURATION>0.9666666666666667</DURATION>
			<DURATION>0.9666666666666667</DURATION>
			<DURATION>0.9666666666666667</DURATION>
			<DURATION>0.9666666666666667</DURATION>
			<DURATION>0.9666666666666667</DURATION>
			<DURATION>0.9666666666666667</DURATION>
			<DURATION>0.9666666666666667</DURATION>
			<DURATION>0.9833333333333333</DURATION>
			<DURATION>0.9833333333333333</DURATION>
			<DURATION>0.9833333333333333</DURATION>
			<DURATION>0.9833333333333333</DURATION>
			<DURATION>0.9833333333333333</DURATION>
			<DURATION>0.9833333333333333</DURATION>
			<DURATION>0.9833333333333333</DURATION>
			<DURATION>0.9833333333333333</DURATION>
			<DURATION>0.9833333333333333</DURATION>
			<DURATION>0.9833333333333333</DURATION>
			<DURATION>0.9833333333333333</DURATION>
			<DURATION>0.9833333333333333</DURATION>
			<DURATION>0.9833333333333333</DURATION>
			<DURATION>0.9833333333333333</DURATION>
			<DURATION>0.9833333333333333</DURATION>
			<DURATION>0.9833333333333333</DURATION>
			<DURATION>0.9833333333333333</DURATION>
			<DURATION>0.9833333333333333</DURATION>
			<DURATION>0.9833333333333333</DURATION>
			<DURATION>1.0</DURATION>
			<DURATION>1.0</DURATION>
			<DURATION>1.0</DURATION>
			<DURATION>1.0</DURATION>
			<DURATION>1.0</DURATION>
			<DURATION>1.0</DURATION>
			<DURATION>1.0</DURATION>
			<DURATION>1.0</DURATION>
			<DURATION>1.0</DURATION>
			<DURATION>1.0</DURATION>
			<DURATION>1.0</DURATION>
			<DURATION>1.0</DURATION>
			<DURATION>1.0</DURATION>
			<DURATION>1.0</DURATION>
			<DURATION>1.0</DURATION>
			<DURATION>1.0</DURATION>
			<DURATION>1.0</DURATION>
			<DURATION>1.0</DURATION>
			<DURATION>1.0166666666666666</DURATION>
			<DURATION>1.0166666666666666</DURATION>
			<DURATION>1.0166666666666666</DURATION>
			<DURATION>1.0166666666666666</DURATION>
			<DURATION>1.0166666666666666</DURATION>
			<DURATION>1.0166666666666666</DURATION>
			<DURATION>1.0166666666666666</DURATION>
			<DURATION>1.0166666666666666</DURATION>
			<DURATION>1.0166666666666666</DURATION>
			<DURATION>1.0166666666666666</DURATION>
			<DURATION>1.0166666666666666</DURATION>
			<DURATION>1.0166666666666666</DURATION>
			<DURATION>1.0166666666666666</DURATION>
			<DURATION>1.0166666666666666</DURATION>
			<DURATION>1.0166666666666666</DURATION>
			<DURATION>1.0166666666666666</DURATION>
			<DURATION>1.0166666666666666</DURATION>
			<DURATION>1.0166666666666666</DURATION>
			<DURATION>1.0166666666666666</DURATION>
			<DURATION>1.0166666666666666</DURATION>
			<DURATION>1.0166666666666666</DURATION>
			<DURATION>1.0166666666666666</DURATION>
			<DURATION>1.0166666666666666</DURATION>
			<DURATION>1.0333333333333334</DURATION>
			<DURATION>1.0333333333333334</DURATION>
			<DURATION>1.0333333333333334</DURATION>
			<DURATION>1.0333333333333334</DURATION>
			<DURATION>1.0333333333333334</DURATION>
			<DURATION>1.0333333333333334</DURATION>
			<DURATION>1.0333333333333334</DURATION>
			<DURATION>1.0333333333333334</DURATION>
			<DURATION>1.0333333333333334</DURATION>
			<DURATION>1.0333333333333334</DURATION>
			<DURATION>1.0333333333333334</DURATION>
			<DURATION>1.0333333333333334</DURATION>
			<DURATION>1.0333333333333334</DURATION>
			<DURATION>1.0333333333333334</DURATION>
			<DURATION>1.0333333333333334</DURATION>
			<DURATION>1.0333333333333334</DURATION>
			<DURATION>1.0333333333333334</DURATION>
			<DURATION>1.0333333333333334</DURATION>
			<DURATION>1.0333333333333334</DURATION>
			<DURATION>1.0333333333333334</DURATION>
			<DURATION>1.0333333333333334</DURATION>
			<DURATION>1.0333333333333334</DURATION>
			<DURATION>1.0333333333333334</DURATION>
			<DURATION>1.0333333333333334</DURATION>
			<DURATION>1.0333333333333334</DURATION>
			<DURATION>1.0333333333333334</DURATION>
			<DURATION>1.0333333333333334</DURATION>
			<DURATION>1.05</DURATION>
			<DURATION>1.05</DURATION>
			<DURATION>1.05</DURATION>
			<DURATION>1.05</DURATION>
			<DURATION>1.05</DURATION>
			<DURATION>1.05</DURATION>
			<DURATION>1.05</DURATION>
			<DURATION>1.05</DURATION>
			<DURATION>1.05</DURATION>
			<DURATION>1.05</DURATION>
			<DURATION>1.05</DURATION>
			<DURATION>1.05</DURATION>
			<DURATION>1.05</DURATION>
			<DURATION>1.05</DURATION>
			<DURATION>1.05</DURATION>
			<DURATION>1.05</DURATION>
			<DURATION>1.05</DURATION>
			<DURATION>1.05</DURATION>
			<DURATION>1.05</DURATION>
			<DURATION>1.05</DURATION>
			<DURATION>1.05</DURATION>
			<DURATION>1.05</DURATION>
			<DURATION>1.05</DURATION>
			<DURATION>1.05</DURATION>
			<DURATION>1.0666666666666667</DURATION>
			<DURATION>1.0666666666666667</DURATION>
			<DURATION>1.0666666666666667</DURATION>
			<DURATION>1.0666666666666667</DURATION>
			<DURATION>1.0666666666666667</DURATION>
			<DURATION>1.0666666666666667</DURATION>
			<DURATION>1.0666666666666667</DURATION>
			<DURATION>1.0666666666666667</DURATION>
			<DURATION>1.0666666666666667</DURATION>
			<DURATION>1.0666666666666667</DURATION>
			<DURATION>1.0666666666666667</DURATION>
			<DURATION>1.0666666666666667</DURATION>
			<DURATION>1.0666666666666667</DURATION>
			<DURATION>1.0666666666666667</DURATION>
			<DURATION>1.0666666666666667</DURATION>
			<DURATION>1.0666666666666667</DURATION>
			<DURATION>1.0666666666666667</DURATION>
			<DURATION>1.0666666666666667</DURATION>
			<DURATION>1.0666666666666667</DURATION>
			<DURATION>1.0666666666666667</DURATION>
			<DURATION>1.0666666666666667</DURATION>
			<DURATION>1.0666666666666667</DURATION>
			<DURATION>1.0666666666666667</DURATION>
			<DURATION>1.0666666666666667</DURATION>
			<DURATION>1.0666666666666667</DURATION>
			<DURATION>1.0666666666666667</DURATION>
			<DURATION>1.0666666666666667</DURATION>
			<DURATION>1.0666666666666667</DURATION>
			<DURATION>1.0666666666666667</DURATION>
			<DURATION>1.0833333333333333</DURATION>
			<DURATION>1.0833333333333333</DURATION>
			<DURATION>1.0833333333333333</DURATION>
			<DURATION>1.0833333333333333</DURATION>
			<DURATION>1.0833333333333333</DURATION>
			<DURATION>1.0833333333333333</DURATION>
			<DURATION>1.0833333333333333</DURATION>
			<DURATION>1.0833333333333333</DURATION>
			<DURATION>1.0833333333333333</DURATION>
			<DURATION>1.0833333333333333</DURATION>
			<DURATION>1.0833333333333333</DURATION>
			<DURATION>1.0833333333333333</DURATION>
			<DURATION>1.0833333333333333</DURATION>
			<DURATION>1.0833333333333333</DURATION>
			<DURATION>1.0833333333333333</DURATION>
			<DURATION>1.0833333333333333</DURATION>
			<DURATION>1.0833333333333333</DURATION>
			<DURATION>1.0833333333333333</DURATION>
			<DURATION>1.0833333333333333</DURATION>
			<DURATION>1.0833333333333333</DURATION>
			<DURATION>1.0833333333333333</DURATION>
			<DURATION>1.0833333333333333</DURATION>
			<DURATION>1.0833333333333333</DURATION>
			<DURATION>1.0833333333333333</DURATION>
			<DURATION>1.0833333333333333</DURATION>
			<DURATION>1.0833333333333333</DURATION>
			<DURATION>1.1</DURATION>
			<DURATION>1.1</DURATION>
			<DURATION>1.1</DURATION>
			<DURATION>1.1</DURATION>
			<DURATION>1.1</DURATION>
			<DURATION>1.1</DURATION>
			<DURATION>1.1</DURATION>
			<DURATION>1.1</DURATION>
			<DURATION>1.1</DURATION>
			<DURATION>1.1</DURATION>
			<DURATION>1.1</DURATION>
			<DURATION>1.1</DURATION>
			<DURATION>1.1</DURATION>
			<DURATION>1.1</DURATION>
			<DURATION>1.1</DURATION>
			<DURATION>1.1</DURATION>
			<DURATION>1.1</DURATION>
			<DURATION>1.1</DURATION>
			<DURATION>1.1</DURATION>
			<DURATION>1.1</DURATION>
			<DURATION>1.1</DURATION>
			<DURATION>1.1166666666666667</DURATION>
			<DURATION>1.1166666666666667</DURATION>
			<DURATION>1.1166666666666667</DURATION>
			<DURATION>1.1166666666666667</DURATION>
			<DURATION>1.1166666666666667</DURATION>
			<DURATION>1.1166666666666667</DURATION>
			<DURATION>1.1166666666666667</DURATION>
			<DURATION>1.1166666666666667</DURATION>
			<DURATION>1.1166666666666667</DURATION>
			<DURATION>1.1166666666666667</DURATION>
			<DURATION>1.1166666666666667</DURATION>
			<DURATION>1.1166666666666667</DURATION>
			<DURATION>1.1166666666666667</DURATION>
			<DURATION>1.1166666666666667</DURATION>
			<DURATION>1.1333333333333333</DURATION>
			<DURATION>1.1333333333333333</DURATION>
			<DURATION>1.1333333333333333</DURATION>
			<DURATION>1.1333333333333333</DURATION>
			<DURATION>1.1333333333333333</DURATION>
			<DURATION>1.1333333333333333</DURATION>
			<DURATION>1.1333333333333333</DURATION>
			<DURATION>1.1333333333333333</DURATION>
			<DURATION>1.1333333333333333</DURATION>
			<DURATION>1.1333333333333333</DURATION>
			<DURATION>1.1333333333333333</DURATION>
			<DURATION>1.1333333333333333</DURATION>
			<DURATION>1.1333333333333333</DURATION>
			<DURATION>1.1333333333333333</DURATION>
			<DURATION>1.1333333333333333</DURATION>
			<DURATION>1.1333333333333333</DURATION>
			<DURATION>1.1333333333333333</DURATION>
			<DURATION>1.1333333333333333</DURATION>
			<DURATION>1.1333333333333333</DURATION>
			<DURATION>1.15</DURATION>
			<DURATION>1.15</DURATION>
			<DURATION>1.15</DURATION>
			<DURATION>1.15</DURATION>
			<DURATION>1.15</DURATION>
			<DURATION>1.15</DURATION>
			<DURATION>1.15</DURATION>
			<DURATION>1.15</DURATION>
			<DURATION>1.15</DURATION>
			<DURATION>1.15</DURATION>
			<DURATION>1.15</DURATION>
			<DURATION>1.15</DURATION>
			<DURATION>1.15</DURATION>
			<DURATION>1.15</DURATION>
			<DURATION>1.15</DURATION>
			<DURATION>1.15</DURATION>
			<DURATION>1.15</DURATION>
			<DURATION>1.15</DURATION>
			<DURATION>1.15</DURATION>
			<DURATION>1.15</DURATION>
			<DURATION>1.1666666666666667</DURATION>
			<DURATION>1.1666666666666667</DURATION>
			<DURATION>1.1666666666666667</DURATION>
			<DURATION>1.1666666666666667</DURATION>
			<DURATION>1.1666666666666667</DURATION>
			<DURATION>1.1666666666666667</DURATION>
			<DURATION>1.1666666666666667</DURATION>
			<DURATION>1.1666666666666667</DURATION>
			<DURATION>1.1666666666666667</DURATION>
			<DURATION>1.1666666666666667</DURATION>
			<DURATION>1.1666666666666667</DURATION>
			<DURATION>1.1666666666666667</DURATION>
			<DURATION>1.1666666666666667</DURATION>
			<DURATION>1.1666666666666667</DURATION>
			<DURATION>1.1666666666666667</DURATION>
			<DURATION>1.1666666666666667</DURATION>
			<DURATION>1.1666666666666667</DURATION>
			<DURATION>1.1666666666666667</DURATION>
			<DURATION>1.1666666666666667</DURATION>
			<DURATION>1.1666666666666667</DURATION>
			<DURATION>1.1666666666666667</DURATION>
			<DURATION>1.1833333333333333</DURATION>
			<DURATION>1.1833333333333333</DURATION>
			<DURATION>1.1833333333333333</DURATION>
			<DURATION>1.1833333333333333</DURATION>
			<DURATION>1.1833333333333333</DURATION>
			<DURATION>1.1833333333333333</DURATION>
			<DURATION>1.1833333333333333</DURATION>
			<DURATION>1.1833333333333333</DURATION>
			<DURATION>1.1833333333333333</DURATION>
			<DURATION>1.1833333333333333</DURATION>
			<DURATION>1.1833333333333333</DURATION>
			<DURATION>1.1833333333333333</DURATION>
			<DURATION>1.1833333333333333</DURATION>
			<DURATION>1.1833333333333333</DURATION>
			<DURATION>1.1833333333333333</DURATION>
			<DURATION>1.1833333333333333</DURATION>
			<DURATION>1.2</DURATION>
			<DURATION>1.2</DURATION>
			<DURATION>1.2</DURATION>
			<DURATION>1.2</DURATION>
			<DURATION>1.2</DURATION>
			<DURATION>1.2</DURATION>
			<DURATION>1.2</DURATION>
			<DURATION>1.2</DURATION>
			<DURATION>1.2</DURATION>
			<DURATION>1.2</DURATION>
			<DURATION>1.2</DURATION>
			<DURATION>1.2</DURATION>
			<DURATION>1.2</DURATION>
			<DURATION>1.2</DURATION>
			<DURATION>1.2</DURATION>
			<DURATION>1.2</DURATION>
			<DURATION>1.2166666666666666</DURATION>
			<DURATION>1.2166666666666666</DURATION>
			<DURATION>1.2166666666666666</DURATION>
			<DURATION>1.2166666666666666</DURATION>
			<DURATION>1.2166666666666666</DURATION>
			<DURATION>1.2166666666666666</DURATION>
			<DURATION>1.2166666666666666</DURATION>
			<DURATION>1.2166666666666666</DURATION>
			<DURATION>1.2166666666666666</DURATION>
			<DURATION>1.2166666666666666</DURATION>
			<DURATION>1.2166666666666666</DURATION>
			<DURATION>1.2166666666666666</DURATION>
			<DURATION>1.2166666666666666</DURATION>
			<DURATION>1.2166666666666666</DURATION>
			<DURATION>1.2333333333333334</DURATION>
			<DURATION>1.2333333333333334</DURATION>
			<DURATION>1.2333333333333334</DURATION>
			<DURATION>1.2333333333333334</DURATION>
			<DURATION>1.2333333333333334</DURATION>
			<DURATION>1.2333333333333334</DURATION>
			<DURATION>1.2333333333333334</DURATION>
			<DURATION>1.2333333333333334</DURATION>
			<DURATION>1.2333333333333334</DURATION>
			<DURATION>1.2333333333333334</DURATION>
			<DURATION>1.2333333333333334</DURATION>
			<DURATION>1.2333333333333334</DURATION>
			<DURATION>1.2333333333333334</DURATION>
			<DURATION>1.2333333333333334</DURATION>
			<DURATION>1.25</DURATION>
			<DURATION>1.25</DURATION>
			<DURATION>1.25</DURATION>
			<DURATION>1.25</DURATION>
			<DURATION>1.25</DURATION>
			<DURATION>1.25</DURATION>
			<DURATION>1.25</DURATION>
			<DURATION>1.25</DURATION>
			<DURATION>1.25</DURATION>
			<DURATION>1.25</DURATION>
			<DURATION>1.25</DURATION>
			<DURATION>1.2666666666666666</DURATION>
			<DURATION>1.2666666666666666</DURATION>
			<DURATION>1.2666666666666666</DURATION>
			<DURATION>1.2666666666666666</DURATION>
			<DURATION>1.2666666666666666</DURATION>
			<DURATION>1.2666666666666666</DURATION>
			<DURATION>1.2666666666666666</DURATION>
			<DURATION>1.2666666666666666</DURATION>
			<DURATION>1.2666666666666666</DURATION>
			<DURATION>1.2666666666666666</DURATION>
			<DURATION>1.2666666666666666</DURATION>
			<DURATION>1.2666666666666666</DURATION>
			<DURATION>1.2666666666666666</DURATION>
			<DURATION>1.2833333333333334</DURATION>
			<DURATION>1.2833333333333334</DURATION>
			<DURATION>1.2833333333333334</DURATION>
			<DURATION>1.2833333333333334</DURATION>
			<DURATION>1.2833333333333334</DURATION>
			<DURATION>1.2833333333333334</DURATION>
			<DURATION>1.2833333333333334</DURATION>
			<DURATION>1.2833333333333334</DURATION>
			<DURATION>1.2833333333333334</DURATION>
			<DURATION>1.3</DURATION>
			<DURATION>1.3</DURATION>
			<DURATION>1.3</DURATION>
			<DURATION>1.3</DURATION>
			<DURATION>1.3</DURATION>
			<DURATION>1.3</DURATION>
			<DURATION>1.3</DURATION>
			<DURATION>1.3</DURATION>
			<DURATION>1.3</DURATION>
			<DURATION>1.3</DURATION>
			<DURATION>1.3</DURATION>
			<DURATION>1.3</DURATION>
			<DURATION>1.3166666666666667</DURATION>
			<DURATION>1.3166666666666667</DURATION>
			<DURATION>1.3166666666666667</DURATION>
			<DURATION>1.3166666666666667</DURATION>
			<DURATION>1.3166666666666667</DURATION>
			<DURATION>1.3166666666666667</DURATION>
			<DURATION>1.3166666666666667</DURATION>
			<DURATION>1.3166666666666667</DURATION>
			<DURATION>1.3166666666666667</DURATION>
			<DURATION>1.3166666666666667</DURATION>
			<DURATION>1.3166666666666667</DURATION>
			<DURATION>1.3166666666666667</DURATION>
			<DURATION>1.3166666666666667</DURATION>
			<DURATION>1.3333333333333333</DURATION>
			<DURATION>1.3333333333333333</DURATION>
			<DURATION>1.3333333333333333</DURATION>
			<DURATION>1.3333333333333333</DURATION>
			<DURATION>1.3333333333333333</DURATION>
			<DURATION>1.3333333333333333</DURATION>
			<DURATION>1.3333333333333333</DURATION>
			<DURATION>1.3333333333333333</DURATION>
			<DURATION>1.3333333333333333</DURATION>
			<DURATION>1.3333333333333333</DURATION>
			<DURATION>1.3333333333333333</DURATION>
			<DURATION>1.3333333333333333</DURATION>
			<DURATION>1.3333333333333333</DURATION>
			<DURATION>1.35</DURATION>
			<DURATION>1.35</DURATION>
			<DURATION>1.35</DURATION>
			<DURATION>1.35</DURATION>
			<DURATION>1.35</DURATION>
			<DURATION>1.35</DURATION>
			<DURATION>1.35</DURATION>
			<DURATION>1.35</DURATION>
			<DURATION>1.35</DURATION>
			<DURATION>1.35</DURATION>
			<DURATION>1.3666666666666667</DURATION>
			<DURATION>1.3666666666666667</DURATION>
			<DURATION>1.3666666666666667</DURATION>
			<DURATION>1.3833333333333333</DURATION>
			<DURATION>1.3833333333333333</DURATION>
			<DURATION>1.3833333333333333</DURATION>
			<DURATION>1.3833333333333333</DURATION>
			<DURATION>1.3833333333333333</DURATION>
			<DURATION>1.4</DURATION>
			<DURATION>1.4</DURATION>
			<DURATION>1.4</DURATION>
			<DURATION>1.4</DURATION>
			<DURATION>1.4166666666666667</DURATION>
			<DURATION>1.4166666666666667</DURATION>
			<DURATION>1.4333333333333333</DURATION>
			<DURATION>1.4333333333333333</DURATION>
			<DURATION>1.4333333333333333</DURATION>
			<DURATION>1.4333333333333333</DURATION>
			<DURATION>1.4333333333333333</DURATION>
			<DURATION>1.4333333333333333</DURATION>
			<DURATION>1.45</DURATION>
			<DURATION>1.45</DURATION>
			<DURATION>1.45</DURATION>
			<DURATION>1.45</DURATION>
			<DURATION>1.45</DURATION>
			<DURATION>1.45</DURATION>
			<DURATION>1.45</DURATION>
			<DURATION>1.45</DURATION>
			<DURATION>1.4666666666666666</DURATION>
			<DURATION>1.4666666666666666</DURATION>
			<DURATION>1.4666666666666666</DURATION>
			<DURATION>1.4666666666666666</DURATION>
			<DURATION>1.4666666666666666</DURATION>
			<DURATION>1.4666666666666666</DURATION>
			<DURATION>1.4833333333333334</DURATION>
			<DURATION>1.4833333333333334</DURATION>
			<DURATION>1.4833333333333334</DURATION>
			<DURATION>1.4833333333333334</DURATION>
			<DURATION>1.4833333333333334</DURATION>
			<DURATION>1.5</DURATION>
			<DURATION>1.5</DURATION>
			<DURATION>1.5</DURATION>
			<DURATION>1.5166666666666666</DURATION>
			<DURATION>1.5333333333333334</DURATION>
			<DURATION>1.5333333333333334</DURATION>
			<DURATION>1.5333333333333334</DURATION>
			<DURATION>1.5333333333333334</DURATION>
			<DURATION>1.55</DURATION>
			<DURATION>1.55</DURATION>
			<DURATION>1.55</DURATION>
			<DURATION>1.5666666666666667</DURATION>
			<DURATION>1.5666666666666667</DURATION>
			<DURATION>1.5833333333333333</DURATION>
			<DURATION>1.5833333333333333</DURATION>
			<DURATION>1.6</DURATION>
			<DURATION>1.6</DURATION>
			<DURATION>1.6</DURATION>
			<DURATION>1.6</DURATION>
			<DURATION>1.6</DURATION>
			<DURATION>1.6166666666666667</DURATION>
			<DURATION>1.6166666666666667</DURATION>
			<DURATION>1.6166666666666667</DURATION>
			<DURATION>1.6333333333333333</DURATION>
			<DURATION>1.6333333333333333</DURATION>
			<DURATION>1.6333333333333333</DURATION>
			<DURATION>1.65</DURATION>
			<DURATION>1.65</DURATION>
			<DURATION>1.6666666666666667</DURATION>
			<DURATION>1.6666666666666667</DURATION>
			<DURATION>1.6833333333333333</DURATION>
			<DURATION>1.6833333333333333</DURATION>
			<DURATION>1.6833333333333333</DURATION>
			<DURATION>1.6833333333333333</DURATION>
			<DURATION>1.6833333333333333</DURATION>
			<DURATION>1.7166666666666666</DURATION>
			<DURATION>1.7166666666666666</DURATION>
			<DURATION>1.7333333333333334</DURATION>
			<DURATION>1.7333333333333334</DURATION>
			<DURATION>1.7333333333333334</DURATION>
			<DURATION>1.75</DURATION>
			<DURATION>1.7666666666666666</DURATION>
			<DURATION>1.7833333333333334</DURATION>
			<DURATION>1.7833333333333334</DURATION>
			<DURATION>1.8</DURATION>
			<DURATION>1.8</DURATION>
			<DURATION>1.8</DURATION>
			<DURATION>1.8</DURATION>
			<DURATION>1.8333333333333333</DURATION>
			<DURATION>1.8333333333333333</DURATION>
			<DURATION>1.85</DURATION>
			<DURATION>1.85</DURATION>
			<DURATION>1.85</DURATION>
			<DURATION>1.8833333333333333</DURATION>
			<DURATION>1.9</DURATION>
			<DURATION>1.9166666666666667</DURATION>
			<DURATION>1.9333333333333333</DURATION>
			<DURATION>1.95</DURATION>
			<DURATION>1.95</DURATION>
			<DURATION>1.95</DURATION>
			<DURATION>1.9833333333333334</DURATION>
			<DURATION>2.033333333333333</DURATION>
			<DURATION>2.066666666666667</DURATION>
			<DURATION>2.0833333333333335</DURATION>
			<DURATION>2.1166666666666667</DURATION>
			<DURATION>2.15</DURATION>
			<DURATION>2.1666666666666665</DURATION>
			<DURATION>2.2</DURATION>
			<DURATION>2.3</DURATION>
			<DURATION>2.3</DURATION>
			<DURATION>2.316666666666667</DURATION>
			<DURATION>2.433333333333333</DURATION>
			<DURATION>2.433333333333333</DURATION>
			<DURATION>2.5</DURATION>
			<DURATION>2.55</DURATION>
			<DURATION>2.7</DURATION>
			<DURATION>2.8333333333333335</DURATION>
			<DURATION>2.8833333333333333</DURATION>
			<DURATION>3.0166666666666666</DURATION>
			<DURATION>3.1666666666666665</DURATION>
			<DURATION>3.6166666666666667</DURATION>
			<DURATION>3.75</DURATION>
			<DURATION>4.216666666666667</DURATION>
			<DURATION>5.166666666666667</DURATION>
			<DURATION>27.883333333333333</DURATION>
		</HISTORICAL-DURATIONS>
	</CONSTRAINT>
	<CONSTRAINT>
		<START>2a1d886a-1764-437b-b45c-cac9fc889474</START>
		<END>56a6bdef-2695-4e5c-bafe-8fe059b0c3a5</END>
		<ID>ed18d502-9357-4a9f-ba42-9fecdbad1436</ID>
		<NAME>Trip 30453702 Arrive at stop 70065 on 05:21</NAME>
		<LOWERBOUND>320.9</LOWERBOUND>
		<UPPERBOUND>321.1</UPPERBOUND>
		<LBRELAXABLE>T</LBRELAXABLE>
		<UBRELAXABLE>T</UBRELAXABLE>
		<LB-RELAX-COST-RATIO>10.0</LB-RELAX-COST-RATIO>
		<UB-RELAX-COST-RATIO>10.0</UB-RELAX-COST-RATIO>
		<COST>0.0</COST>
		<TYPE>Controllable;Constraint</TYPE>
		<MEAN>0.0</MEAN>
	</CONSTRAINT>
	<CONSTRAINT>
		<START>3885d4a0-1cb8-419c-9cb8-4a3f326cc7e3</START>
		<END>4aff09b9-8437-49e0-af96-3ce3d094b80f</END>
		<ID>49d063df-76de-4696-ad18-e4c13007f587</ID>
		<NAME>From 70061 to 70063 (Davis - Inbound)</NAME>
		<LOWERBOUND>3.0</LOWERBOUND>
		<UPPERBOUND>4.0</UPPERBOUND>
		<LB-RELAX-COST-RATIO>0.0</LB-RELAX-COST-RATIO>
		<UB-RELAX-COST-RATIO>0.0</UB-RELAX-COST-RATIO>
		<COST>0.0</COST>
		<TYPE>Uncontrollable;Activity</TYPE>
		<MEAN>0.0</MEAN>
		<DISTRIBUTION>Normal</DISTRIBUTION>
		<VARIANCE>0.0</VARIANCE>
	</CONSTRAINT>
	<CONSTRAINT>
		<START>f80c153c-2364-4839-9ddb-79db94ee8b03</START>
		<END>e5d86383-e301-4311-9361-ed6d8f02c4aa</END>
		<ID>8da57bd2-5dba-495b-8591-39307109159c</ID>
		<NAME>From 70073 to 70075 (Park Street - to Ashmont/Braintree)</NAME>
		<LOWERBOUND>0.5833333333333334</LOWERBOUND>
		<UPPERBOUND>1.9166666666666667</UPPERBOUND>
		<LB-RELAX-COST-RATIO>0.0</LB-RELAX-COST-RATIO>
		<UB-RELAX-COST-RATIO>0.0</UB-RELAX-COST-RATIO>
		<COST>0.0</COST>
		<TYPE>Uncontrollable;Activity</TYPE>
		<MEAN>0.0</MEAN>
		<DISTRIBUTION>Normal</DISTRIBUTION>
		<VARIANCE>0.0</VARIANCE>
		<HISTORICAL-DURATIONS>
			<DURATION>0.5833333333333334</DURATION>
			<DURATION>0.6333333333333333</DURATION>
			<DURATION>0.65</DURATION>
			<DURATION>0.9166666666666666</DURATION>
			<DURATION>0.9166666666666666</DURATION>
			<DURATION>0.9333333333333333</DURATION>
			<DURATION>0.9333333333333333</DURATION>
			<DURATION>0.9333333333333333</DURATION>
			<DURATION>0.9333333333333333</DURATION>
			<DURATION>0.9333333333333333</DURATION>
			<DURATION>0.9333333333333333</DURATION>
			<DURATION>0.95</DURATION>
			<DURATION>0.95</DURATION>
			<DURATION>0.95</DURATION>
			<DURATION>0.95</DURATION>
			<DURATION>0.95</DURATION>
			<DURATION>0.95</DURATION>
			<DURATION>0.95</DURATION>
			<DURATION>0.95</DURATION>
			<DURATION>0.95</DURATION>
			<DURATION>0.95</DURATION>
			<DURATION>0.95</DURATION>
			<DURATION>0.95</DURATION>
			<DURATION>0.9666666666666667</DURATION>
			<DURATION>0.9666666666666667</DURATION>
			<DURATION>0.9666666666666667</DURATION>
			<DURATION>0.9666666666666667</DURATION>
			<DURATION>0.9666666666666667</DURATION>
			<DURATION>0.9666666666666667</DURATION>
			<DURATION>0.9666666666666667</DURATION>
			<DURATION>0.9666666666666667</DURATION>
			<DURATION>0.9666666666666667</DURATION>
			<DURATION>0.9666666666666667</DURATION>
			<DURATION>0.9666666666666667</DURATION>
			<DURATION>0.9666666666666667</DURATION>
			<DURATION>0.9666666666666667</DURATION>
			<DURATION>0.9666666666666667</DURATION>
			<DURATION>0.9666666666666667</DURATION>
			<DURATION>0.9666666666666667</DURATION>
			<DURATION>0.9666666666666667</DURATION>
			<DURATION>0.9666666666666667</DURATION>
			<DURATION>0.9666666666666667</DURATION>
			<DURATION>0.9666666666666667</DURATION>
			<DURATION>0.9666666666666667</DURATION>
			<DURATION>0.9666666666666667</DURATION>
			<DURATION>0.9666666666666667</DURATION>
			<DURATION>0.9666666666666667</DURATION>
			<DURATION>0.9666666666666667</DURATION>
			<DURATION>0.9833333333333333</DURATION>
			<DURATION>0.9833333333333333</DURATION>
			<DURATION>0.9833333333333333</DURATION>
			<DURATION>0.9833333333333333</DURATION>
			<DURATION>0.9833333333333333</DURATION>
			<DURATION>0.9833333333333333</DURATION>
			<DURATION>0.9833333333333333</DURATION>
			<DURATION>0.9833333333333333</DURATION>
			<DURATION>0.9833333333333333</DURATION>
			<DURATION>0.9833333333333333</DURATION>
			<DURATION>0.9833333333333333</DURATION>
			<DURATION>0.9833333333333333</DURATION>
			<DURATION>0.9833333333333333</DURATION>
			<DURATION>0.9833333333333333</DURATION>
			<DURATION>0.9833333333333333</DURATION>
			<DURATION>0.9833333333333333</DURATION>
			<DURATION>0.9833333333333333</DURATION>
			<DURATION>0.9833333333333333</DURATION>
			<DURATION>0.9833333333333333</DURATION>
			<DURATION>0.9833333333333333</DURATION>
			<DURATION>0.9833333333333333</DURATION>
			<DURATION>0.9833333333333333</DURATION>
			<DURATION>0.9833333333333333</DURATION>
			<DURATION>0.9833333333333333</DURATION>
			<DURATION>0.9833333333333333</DURATION>
			<DURATION>0.9833333333333333</DURATION>
			<DURATION>0.9833333333333333</DURATION>
			<DURATION>0.9833333333333333</DURATION>
			<DURATION>0.9833333333333333</DURATION>
			<DURATION>0.9833333333333333</DURATION>
			<DURATION>0.9833333333333333</DURATION>
			<DURATION>0.9833333333333333</DURATION>
			<DURATION>0.9833333333333333</DURATION>
			<DURATION>0.9833333333333333</DURATION>
			<DURATION>0.9833333333333333</DURATION>
			<DURATION>0.9833333333333333</DURATION>
			<DURATION>1.0</DURATION>
			<DURATION>1.0</DURATION>
			<DURATION>1.0</DURATION>
			<DURATION>1.0</DURATION>
			<DURATION>1.0</DURATION>
			<DURATION>1.0</DURATION>
			<DURATION>1.0</DURATION>
			<DURATION>1.0</DURATION>
			<DURATION>1.0</DURATION>
			<DURATION>1.0</DURATION>
			<DURATION>1.0</DURATION>
			<DURATION>1.0</DURATION>
			<DURATION>1.0</DURATION>
			<DURATION>1.0</DURATION>
			<DURATION>1.0</DURATION>
			<DURATION>1.0</DURATION>
			<DURATION>1.0</DURATION>
			<DURATION>1.0</DURATION>
			<DURATION>1.0</DURATION>
			<DURATION>1.0</DURATION>
			<DURATION>1.0</DURATION>
			<DURATION>1.0</DURATION>
			<DURATION>1.0</DURATION>
			<DURATION>1.0</DURATION>
			<DURATION>1.0</DURATION>
			<DURATION>1.0</DURATION>
			<DURATION>1.0</DURATION>
			<DURATION>1.0</DURATION>
			<DURATION>1.0</DURATION>
			<DURATION>1.0</DURATION>
			<DURATION>1.0</DURATION>
			<DURATION>1.0</DURATION>
			<DURATION>1.0</DURATION>
			<DURATION>1.0</DURATION>
			<DURATION>1.0</DURATION>
			<DURATION>1.0</DURATION>
			<DURATION>1.0</DURATION>
			<DURATION>1.0</DURATION>
			<DURATION>1.0</DURATION>
			<DURATION>1.0</DURATION>
			<DURATION>1.0</DURATION>
			<DURATION>1.0</DURATION>
			<DURATION>1.0</DURATION>
			<DURATION>1.0</DURATION>
			<DURATION>1.0</DURATION>
			<DURATION>1.0</DURATION>
			<DURATION>1.0</DURATION>
			<DURATION>1.0</DURATION>
			<DURATION>1.0</DURATION>
			<DURATION>1.0</DURATION>
			<DURATION>1.0</DURATION>
			<DURATION>1.0</DURATION>
			<DURATION>1.0</DURATION>
			<DURATION>1.0</DURATION>
			<DURATION>1.0</DURATION>
			<DURATION>1.0166666666666666</DURATION>
			<DURATION>1.0166666666666666</DURATION>
			<DURATION>1.0166666666666666</DURATION>
			<DURATION>1.0166666666666666</DURATION>
			<DURATION>1.0166666666666666</DURATION>
			<DURATION>1.0166666666666666</DURATION>
			<DURATION>1.0166666666666666</DURATION>
			<DURATION>1.0166666666666666</DURATION>
			<DURATION>1.0166666666666666</DURATION>
			<DURATION>1.0166666666666666</DURATION>
			<DURATION>1.0166666666666666</DURATION>
			<DURATION>1.0166666666666666</DURATION>
			<DURATION>1.0166666666666666</DURATION>
			<DURATION>1.0166666666666666</DURATION>
			<DURATION>1.0166666666666666</DURATION>
			<DURATION>1.0166666666666666</DURATION>
			<DURATION>1.0166666666666666</DURATION>
			<DURATION>1.0166666666666666</DURATION>
			<DURATION>1.0166666666666666</DURATION>
			<DURATION>1.0166666666666666</DURATION>
			<DURATION>1.0166666666666666</DURATION>
			<DURATION>1.0166666666666666</DURATION>
			<DURATION>1.0166666666666666</DURATION>
			<DURATION>1.0166666666666666</DURATION>
			<DURATION>1.0166666666666666</DURATION>
			<DURATION>1.0166666666666666</DURATION>
			<DURATION>1.0166666666666666</DURATION>
			<DURATION>1.0166666666666666</DURATION>
			<DURATION>1.0166666666666666</DURATION>
			<DURATION>1.0166666666666666</DURATION>
			<DURATION>1.0166666666666666</DURATION>
			<DURATION>1.0166666666666666</DURATION>
			<DURATION>1.0166666666666666</DURATION>
			<DURATION>1.0166666666666666</DURATION>
			<DURATION>1.0166666666666666</DURATION>
			<DURATION>1.0166666666666666</DURATION>
			<DURATION>1.0166666666666666</DURATION>
			<DURATION>1.0166666666666666</DURATION>
			<DURATION>1.0166666666666666</DURATION>
			<DURATION>1.0166666666666666</DURATION>
			<DURATION>1.0166666666666666</DURATION>
			<DURATION>1.0166666666666666</DURATION>
			<DURATION>1.0166666666666666</DURATION>
			<DURATION>1.0166666666666666</DURATION>
			<DURATION>1.0333333333333334</DURATION>
			<DURATION>1.0333333333333334</DURATION>
			<DURATION>1.0333333333333334</DURATION>
			<DURATION>1.0333333333333334</DURATION>
			<DURATION>1.0333333333333334</DURATION>
			<DURATION>1.0333333333333334</DURATION>
			<DURATION>1.0333333333333334</DURATION>
			<DURATION>1.0333333333333334</DURATION>
			<DURATION>1.0333333333333334</DURATION>
			<DURATION>1.0333333333333334</DURATION>
			<DURATION>1.0333333333333334</DURATION>
			<DURATION>1.0333333333333334</DURATION>
			<DURATION>1.0333333333333334</DURATION>
			<DURATION>1.0333333333333334</DURATION>
			<DURATION>1.0333333333333334</DURATION>
			<DURATION>1.0333333333333334</DURATION>
			<DURATION>1.0333333333333334</DURATION>
			<DURATION>1.0333333333333334</DURATION>
			<DURATION>1.0333333333333334</DURATION>
			<DURATION>1.0333333333333334</DURATION>
			<DURATION>1.0333333333333334</DURATION>
			<DURATION>1.0333333333333334</DURATION>
			<DURATION>1.0333333333333334</DURATION>
			<DURATION>1.0333333333333334</DURATION>
			<DURATION>1.0333333333333334</DURATION>
			<DURATION>1.0333333333333334</DURATION>
			<DURATION>1.0333333333333334</DURATION>
			<DURATION>1.0333333333333334</DURATION>
			<DURATION>1.0333333333333334</DURATION>
			<DURATION>1.0333333333333334</DURATION>
			<DURATION>1.0333333333333334</DURATION>
			<DURATION>1.0333333333333334</DURATION>
			<DURATION>1.0333333333333334</DURATION>
			<DURATION>1.0333333333333334</DURATION>
			<DURATION>1.0333333333333334</DURATION>
			<DURATION>1.0333333333333334</DURATION>
			<DURATION>1.0333333333333334</DURATION>
			<DURATION>1.0333333333333334</DURATION>
			<DURATION>1.0333333333333334</DURATION>
			<DURATION>1.0333333333333334</DURATION>
			<DURATION>1.0333333333333334</DURATION>
			<DURATION>1.0333333333333334</DURATION>
			<DURATION>1.0333333333333334</DURATION>
			<DURATION>1.0333333333333334</DURATION>
			<DURATION>1.0333333333333334</DURATION>
			<DURATION>1.0333333333333334</DURATION>
			<DURATION>1.0333333333333334</DURATION>
			<DURATION>1.0333333333333334</DURATION>
			<DURATION>1.0333333333333334</DURATION>
			<DURATION>1.0333333333333334</DURATION>
			<DURATION>1.0333333333333334</DURATION>
			<DURATION>1.0333333333333334</DURATION>
			<DURATION>1.0333333333333334</DURATION>
			<DURATION>1.0333333333333334</DURATION>
			<DURATION>1.0333333333333334</DURATION>
			<DURATION>1.0333333333333334</DURATION>
			<DURATION>1.0333333333333334</DURATION>
			<DURATION>1.0333333333333334</DURATION>
			<DURATION>1.0333333333333334</DURATION>
			<DURATION>1.0333333333333334</DURATION>
			<DURATION>1.0333333333333334</DURATION>
			<DURATION>1.0333333333333334</DURATION>
			<DURATION>1.05</DURATION>
			<DURATION>1.05</DURATION>
			<DURATION>1.05</DURATION>
			<DURATION>1.05</DURATION>
			<DURATION>1.05</DURATION>
			<DURATION>1.05</DURATION>
			<DURATION>1.05</DURATION>
			<DURATION>1.05</DURATION>
			<DURATION>1.05</DURATION>
			<DURATION>1.05</DURATION>
			<DURATION>1.05</DURATION>
			<DURATION>1.05</DURATION>
			<DURATION>1.05</DURATION>
			<DURATION>1.05</DURATION>
			<DURATION>1.05</DURATION>
			<DURATION>1.05</DURATION>
			<DURATION>1.05</DURATION>
			<DURATION>1.05</DURATION>
			<DURATION>1.05</DURATION>
			<DURATION>1.05</DURATION>
			<DURATION>1.05</DURATION>
			<DURATION>1.05</DURATION>
			<DURATION>1.05</DURATION>
			<DURATION>1.05</DURATION>
			<DURATION>1.05</DURATION>
			<DURATION>1.05</DURATION>
			<DURATION>1.05</DURATION>
			<DURATION>1.05</DURATION>
			<DURATION>1.05</DURATION>
			<DURATION>1.05</DURATION>
			<DURATION>1.05</DURATION>
			<DURATION>1.05</DURATION>
			<DURATION>1.05</DURATION>
			<DURATION>1.05</DURATION>
			<DURATION>1.05</DURATION>
			<DURATION>1.05</DURATION>
			<DURATION>1.05</DURATION>
			<DURATION>1.05</DURATION>
			<DURATION>1.05</DURATION>
			<DURATION>1.05</DURATION>
			<DURATION>1.05</DURATION>
			<DURATION>1.05</DURATION>
			<DURATION>1.05</DURATION>
			<DURATION>1.05</DURATION>
			<DURATION>1.05</DURATION>
			<DURATION>1.05</DURATION>
			<DURATION>1.05</DURATION>
			<DURATION>1.05</DURATION>
			<DURATION>1.05</DURATION>
			<DURATION>1.05</DURATION>
			<DURATION>1.05</DURATION>
			<DURATION>1.05</DURATION>
			<DURATION>1.05</DURATION>
			<DURATION>1.05</DURATION>
			<DURATION>1.05</DURATION>
			<DURATION>1.05</DURATION>
			<DURATION>1.05</DURATION>
			<DURATION>1.05</DURATION>
			<DURATION>1.05</DURATION>
			<DURATION>1.05</DURATION>
			<DURATION>1.05</DURATION>
			<DURATION>1.0666666666666667</DURATION>
			<DURATION>1.0666666666666667</DURATION>
			<DURATION>1.0666666666666667</DURATION>
			<DURATION>1.0666666666666667</DURATION>
			<DURATION>1.0666666666666667</DURATION>
			<DURATION>1.0666666666666667</DURATION>
			<DURATION>1.0666666666666667</DURATION>
			<DURATION>1.0666666666666667</DURATION>
			<DURATION>1.0666666666666667</DURATION>
			<DURATION>1.0666666666666667</DURATION>
			<DURATION>1.0666666666666667</DURATION>
			<DURATION>1.0666666666666667</DURATION>
			<DURATION>1.0666666666666667</DURATION>
			<DURATION>1.0666666666666667</DURATION>
			<DURATION>1.0666666666666667</DURATION>
			<DURATION>1.0666666666666667</DURATION>
			<DURATION>1.0666666666666667</DURATION>
			<DURATION>1.0666666666666667</DURATION>
			<DURATION>1.0666666666666667</DURATION>
			<DURATION>1.0666666666666667</DURATION>
			<DURATION>1.0666666666666667</DURATION>
			<DURATION>1.0666666666666667</DURATION>
			<DURATION>1.0666666666666667</DURATION>
			<DURATION>1.0666666666666667</DURATION>
			<DURATION>1.0666666666666667</DURATION>
			<DURATION>1.0666666666666667</DURATION>
			<DURATION>1.0666666666666667</DURATION>
			<DURATION>1.0666666666666667</DURATION>
			<DURATION>1.0666666666666667</DURATION>
			<DURATION>1.0666666666666667</DURATION>
			<DURATION>1.0666666666666667</DURATION>
			<DURATION>1.0666666666666667</DURATION>
			<DURATION>1.0666666666666667</DURATION>
			<DURATION>1.0666666666666667</DURATION>
			<DURATION>1.0666666666666667</DURATION>
			<DURATION>1.0666666666666667</DURATION>
			<DURATION>1.0666666666666667</DURATION>
			<DURATION>1.0666666666666667</DURATION>
			<DURATION>1.0666666666666667</DURATION>
			<DURATION>1.0666666666666667</DURATION>
			<DURATION>1.0666666666666667</DURATION>
			<DURATION>1.0666666666666667</DURATION>
			<DURATION>1.0666666666666667</DURATION>
			<DURATION>1.0666666666666667</DURATION>
			<DURATION>1.0666666666666667</DURATION>
			<DURATION>1.0666666666666667</DURATION>
			<DURATION>1.0666666666666667</DURATION>
			<DURATION>1.0666666666666667</DURATION>
			<DURATION>1.0666666666666667</DURATION>
			<DURATION>1.0666666666666667</DURATION>
			<DURATION>1.0666666666666667</DURATION>
			<DURATION>1.0666666666666667</DURATION>
			<DURATION>1.0666666666666667</DURATION>
			<DURATION>1.0666666666666667</DURATION>
			<DURATION>1.0666666666666667</DURATION>
			<DURATION>1.0666666666666667</DURATION>
			<DURATION>1.0666666666666667</DURATION>
			<DURATION>1.0666666666666667</DURATION>
			<DURATION>1.0666666666666667</DURATION>
			<DURATION>1.0666666666666667</DURATION>
			<DURATION>1.0666666666666667</DURATION>
			<DURATION>1.0833333333333333</DURATION>
			<DURATION>1.0833333333333333</DURATION>
			<DURATION>1.0833333333333333</DURATION>
			<DURATION>1.0833333333333333</DURATION>
			<DURATION>1.0833333333333333</DURATION>
			<DURATION>1.0833333333333333</DURATION>
			<DURATION>1.0833333333333333</DURATION>
			<DURATION>1.0833333333333333</DURATION>
			<DURATION>1.0833333333333333</DURATION>
			<DURATION>1.0833333333333333</DURATION>
			<DURATION>1.0833333333333333</DURATION>
			<DURATION>1.0833333333333333</DURATION>
			<DURATION>1.0833333333333333</DURATION>
			<DURATION>1.0833333333333333</DURATION>
			<DURATION>1.0833333333333333</DURATION>
			<DURATION>1.0833333333333333</DURATION>
			<DURATION>1.0833333333333333</DURATION>
			<DURATION>1.0833333333333333</DURATION>
			<DURATION>1.0833333333333333</DURATION>
			<DURATION>1.0833333333333333</DURATION>
			<DURATION>1.0833333333333333</DURATION>
			<DURATION>1.0833333333333333</DURATION>
			<DURATION>1.0833333333333333</DURATION>
			<DURATION>1.0833333333333333</DURATION>
			<DURATION>1.0833333333333333</DURATION>
			<DURATION>1.0833333333333333</DURATION>
			<DURATION>1.0833333333333333</DURATION>
			<DURATION>1.0833333333333333</DURATION>
			<DURATION>1.0833333333333333</DURATION>
			<DURATION>1.0833333333333333</DURATION>
			<DURATION>1.0833333333333333</DURATION>
			<DURATION>1.0833333333333333</DURATION>
			<DURATION>1.0833333333333333</DURATION>
			<DURATION>1.0833333333333333</DURATION>
			<DURATION>1.0833333333333333</DURATION>
			<DURATION>1.0833333333333333</DURATION>
			<DURATION>1.0833333333333333</DURATION>
			<DURATION>1.1</DURATION>
			<DURATION>1.1</DURATION>
			<DURATION>1.1</DURATION>
			<DURATION>1.1</DURATION>
			<DURATION>1.1</DURATION>
			<DURATION>1.1</DURATION>
			<DURATION>1.1</DURATION>
			<DURATION>1.1</DURATION>
			<DURATION>1.1</DURATION>
			<DURATION>1.1</DURATION>
			<DURATION>1.1</DURATION>
			<DURATION>1.1</DURATION>
			<DURATION>1.1</DURATION>
			<DURATION>1.1</DURATION>
			<DURATION>1.1</DURATION>
			<DURATION>1.1</DURATION>
			<DURATION>1.1</DURATION>
			<DURATION>1.1</DURATION>
			<DURATION>1.1</DURATION>
			<DURATION>1.1</DURATION>
			<DURATION>1.1</DURATION>
			<DURATION>1.1</DURATION>
			<DURATION>1.1</DURATION>
			<DURATION>1.1</DURATION>
			<DURATION>1.1</DURATION>
			<DURATION>1.1</DURATION>
			<DURATION>1.1</DURATION>
			<DURATION>1.1</DURATION>
			<DURATION>1.1</DURATION>
			<DURATION>1.1</DURATION>
			<DURATION>1.1</DURATION>
			<DURATION>1.1166666666666667</DURATION>
			<DURATION>1.1166666666666667</DURATION>
			<DURATION>1.1166666666666667</DURATION>
			<DURATION>1.1166666666666667</DURATION>
			<DURATION>1.1166666666666667</DURATION>
			<DURATION>1.1166666666666667</DURATION>
			<DURATION>1.1166666666666667</DURATION>
			<DURATION>1.1166666666666667</DURATION>
			<DURATION>1.1166666666666667</DURATION>
			<DURATION>1.1166666666666667</DURATION>
			<DURATION>1.1166666666666667</DURATION>
			<DURATION>1.1166666666666667</DURATION>
			<DURATION>1.1166666666666667</DURATION>
			<DURATION>1.1166666666666667</DURATION>
			<DURATION>1.1166666666666667</DURATION>
			<DURATION>1.1166666666666667</DURATION>
			<DURATION>1.1166666666666667</DURATION>
			<DURATION>1.1166666666666667</DURATION>
			<DURATION>1.1166666666666667</DURATION>
			<DURATION>1.1166666666666667</DURATION>
			<DURATION>1.1166666666666667</DURATION>
			<DURATION>1.1166666666666667</DURATION>
			<DURATION>1.1166666666666667</DURATION>
			<DURATION>1.1166666666666667</DURATION>
			<DURATION>1.1166666666666667</DURATION>
			<DURATION>1.1166666666666667</DURATION>
			<DURATION>1.1166666666666667</DURATION>
			<DURATION>1.1166666666666667</DURATION>
			<DURATION>1.1166666666666667</DURATION>
			<DURATION>1.1166666666666667</DURATION>
			<DURATION>1.1333333333333333</DURATION>
			<DURATION>1.1333333333333333</DURATION>
			<DURATION>1.1333333333333333</DURATION>
			<DURATION>1.1333333333333333</DURATION>
			<DURATION>1.1333333333333333</DURATION>
			<DURATION>1.1333333333333333</DURATION>
			<DURATION>1.1333333333333333</DURATION>
			<DURATION>1.1333333333333333</DURATION>
			<DURATION>1.1333333333333333</DURATION>
			<DURATION>1.1333333333333333</DURATION>
			<DURATION>1.1333333333333333</DURATION>
			<DURATION>1.1333333333333333</DURATION>
			<DURATION>1.1333333333333333</DURATION>
			<DURATION>1.1333333333333333</DURATION>
			<DURATION>1.1333333333333333</DURATION>
			<DURATION>1.1333333333333333</DURATION>
			<DURATION>1.15</DURATION>
			<DURATION>1.15</DURATION>
			<DURATION>1.15</DURATION>
			<DURATION>1.15</DURATION>
			<DURATION>1.15</DURATION>
			<DURATION>1.15</DURATION>
			<DURATION>1.15</DURATION>
			<DURATION>1.15</DURATION>
			<DURATION>1.15</DURATION>
			<DURATION>1.15</DURATION>
			<DURATION>1.15</DURATION>
			<DURATION>1.15</DURATION>
			<DURATION>1.15</DURATION>
			<DURATION>1.15</DURATION>
			<DURATION>1.15</DURATION>
			<DURATION>1.1666666666666667</DURATION>
			<DURATION>1.1666666666666667</DURATION>
			<DURATION>1.1666666666666667</DURATION>
			<DURATION>1.1666666666666667</DURATION>
			<DURATION>1.1666666666666667</DURATION>
			<DURATION>1.1666666666666667</DURATION>
			<DURATION>1.1666666666666667</DURATION>
			<DURATION>1.1666666666666667</DURATION>
			<DURATION>1.1833333333333333</DURATION>
			<DURATION>1.1833333333333333</DURATION>
			<DURATION>1.1833333333333333</DURATION>
			<DURATION>1.1833333333333333</DURATION>
			<DURATION>1.1833333333333333</DURATION>
			<DURATION>1.1833333333333333</DURATION>
			<DURATION>1.1833333333333333</DURATION>
			<DURATION>1.1833333333333333</DURATION>
			<DURATION>1.1833333333333333</DURATION>
			<DURATION>1.1833333333333333</DURATION>
			<DURATION>1.1833333333333333</DURATION>
			<DURATION>1.1833333333333333</DURATION>
			<DURATION>1.2</DURATION>
			<DURATION>1.2</DURATION>
			<DURATION>1.2</DURATION>
			<DURATION>1.2</DURATION>
			<DURATION>1.2</DURATION>
			<DURATION>1.2</DURATION>
			<DURATION>1.2</DURATION>
			<DURATION>1.2</DURATION>
			<DURATION>1.2</DURATION>
			<DURATION>1.2</DURATION>
			<DURATION>1.2</DURATION>
			<DURATION>1.2</DURATION>
			<DURATION>1.2166666666666666</DURATION>
			<DURATION>1.2166666666666666</DURATION>
			<DURATION>1.2166666666666666</DURATION>
			<DURATION>1.2166666666666666</DURATION>
			<DURATION>1.2333333333333334</DURATION>
			<DURATION>1.2333333333333334</DURATION>
			<DURATION>1.2333333333333334</DURATION>
			<DURATION>1.2333333333333334</DURATION>
			<DURATION>1.2333333333333334</DURATION>
			<DURATION>1.25</DURATION>
			<DURATION>1.25</DURATION>
			<DURATION>1.25</DURATION>
			<DURATION>1.25</DURATION>
			<DURATION>1.2666666666666666</DURATION>
			<DURATION>1.2666666666666666</DURATION>
			<DURATION>1.2666666666666666</DURATION>
			<DURATION>1.2833333333333334</DURATION>
			<DURATION>1.2833333333333334</DURATION>
			<DURATION>1.2833333333333334</DURATION>
			<DURATION>1.2833333333333334</DURATION>
			<DURATION>1.3</DURATION>
			<DURATION>1.3</DURATION>
			<DURATION>1.3</DURATION>
			<DURATION>1.3</DURATION>
			<DURATION>1.3</DURATION>
			<DURATION>1.3166666666666667</DURATION>
			<DURATION>1.3166666666666667</DURATION>
			<DURATION>1.3166666666666667</DURATION>
			<DURATION>1.3166666666666667</DURATION>
			<DURATION>1.35</DURATION>
			<DURATION>1.35</DURATION>
			<DURATION>1.3666666666666667</DURATION>
			<DURATION>1.3666666666666667</DURATION>
			<DURATION>1.3666666666666667</DURATION>
			<DURATION>1.3833333333333333</DURATION>
			<DURATION>1.3833333333333333</DURATION>
			<DURATION>1.3833333333333333</DURATION>
			<DURATION>1.3833333333333333</DURATION>
			<DURATION>1.4</DURATION>
			<DURATION>1.4</DURATION>
			<DURATION>1.4166666666666667</DURATION>
			<DURATION>1.4666666666666666</DURATION>
			<DURATION>1.4666666666666666</DURATION>
			<DURATION>1.4666666666666666</DURATION>
			<DURATION>1.4833333333333334</DURATION>
			<DURATION>1.5</DURATION>
			<DURATION>1.5333333333333334</DURATION>
			<DURATION>1.6</DURATION>
			<DURATION>1.6</DURATION>
			<DURATION>1.6166666666666667</DURATION>
			<DURATION>1.6333333333333333</DURATION>
			<DURATION>1.65</DURATION>
			<DURATION>1.6666666666666667</DURATION>
			<DURATION>1.6666666666666667</DURATION>
			<DURATION>1.7</DURATION>
			<DURATION>1.7166666666666666</DURATION>
			<DURATION>1.7333333333333334</DURATION>
			<DURATION>1.7333333333333334</DURATION>
			<DURATION>1.7333333333333334</DURATION>
			<DURATION>1.75</DURATION>
			<DURATION>1.75</DURATION>
			<DURATION>1.75</DURATION>
			<DURATION>1.7833333333333334</DURATION>
			<DURATION>1.7833333333333334</DURATION>
			<DURATION>1.7833333333333334</DURATION>
			<DURATION>1.8</DURATION>
			<DURATION>1.8166666666666667</DURATION>
			<DURATION>1.8166666666666667</DURATION>
			<DURATION>1.8333333333333333</DURATION>
			<DURATION>1.9166666666666667</DURATION>
			<DURATION>1.9333333333333333</DURATION>
			<DURATION>1.9666666666666666</DURATION>
			<DURATION>2.0166666666666666</DURATION>
			<DURATION>2.05</DURATION>
			<DURATION>2.15</DURATION>
			<DURATION>2.216666666666667</DURATION>
			<DURATION>2.2666666666666666</DURATION>
			<DURATION>2.316666666666667</DURATION>
			<DURATION>2.7666666666666666</DURATION>
			<DURATION>2.8833333333333333</DURATION>
			<DURATION>3.45</DURATION>
			<DURATION>4.866666666666666</DURATION>
		</HISTORICAL-DURATIONS>
	</CONSTRAINT>
	<CONSTRAINT>
		<START>8478b526-9a35-4715-8697-9218953d0a4c</START>
		<END>b5e70e1c-c873-4db4-a010-00765b62c84c</END>
