<CCTP>
	<NAME>Transit Test Route Red</NAME>
	<START>945a440a-c3ba-4d67-a7c7-fbd39b43a0a1</START>
	<END>63d51fdd-4e85-42ab-94d4-349b470ddc0f</END>
	<RISK-BOUND>1.0</RISK-BOUND>
	<RISK-BOUND-RELAX-COST>0.0</RISK-BOUND-RELAX-COST>
	<EVENT-UNIT>millisecond</EVENT-UNIT>
	<DURATION-UNIT>minute</DURATION-UNIT>
	<CONSTRAINT>
		<START>fd9a256f-f1da-487e-81cd-250a9e4a8145</START>
		<END>d3167703-c42d-4a68-a8d2-d79631d7aa6c</END>
		<ID>86dbf3a6-2646-48ee-86e7-441764af63f7</ID>
		<NAME>Dwell at 70067 (Harvard - Inbound)</NAME>
		<LOWERBOUND>0.6</LOWERBOUND>
		<UPPERBOUND>3.0</UPPERBOUND>
		<LB-RELAX-COST-RATIO>0.0</LB-RELAX-COST-RATIO>
		<UB-RELAX-COST-RATIO>0.0</UB-RELAX-COST-RATIO>
		<COST>0.0</COST>
		<TYPE>Uncontrollable;Activity</TYPE>
		<MEAN>0.0</MEAN>
		<DISTRIBUTION>Normal</DISTRIBUTION>
		<VARIANCE>0.0</VARIANCE>
		<HISTORICAL-DURATIONS>
			<DURATION>0.6</DURATION>
			<DURATION>0.7333333333333333</DURATION>
			<DURATION>0.75</DURATION>
			<DURATION>0.75</DURATION>
			<DURATION>0.75</DURATION>
			<DURATION>0.75</DURATION>
			<DURATION>0.75</DURATION>
			<DURATION>0.75</DURATION>
			<DURATION>0.7666666666666667</DURATION>
			<DURATION>0.7666666666666667</DURATION>
			<DURATION>0.7833333333333333</DURATION>
			<DURATION>0.7833333333333333</DURATION>
			<DURATION>0.7833333333333333</DURATION>
			<DURATION>0.7833333333333333</DURATION>
			<DURATION>0.7833333333333333</DURATION>
			<DURATION>0.7833333333333333</DURATION>
			<DURATION>0.7833333333333333</DURATION>
			<DURATION>0.7833333333333333</DURATION>
			<DURATION>0.8</DURATION>
			<DURATION>0.8</DURATION>
			<DURATION>0.8</DURATION>
			<DURATION>0.8</DURATION>
			<DURATION>0.8166666666666667</DURATION>
			<DURATION>0.8166666666666667</DURATION>
			<DURATION>0.8166666666666667</DURATION>
			<DURATION>0.8166666666666667</DURATION>
			<DURATION>0.8166666666666667</DURATION>
			<DURATION>0.8166666666666667</DURATION>
			<DURATION>0.8166666666666667</DURATION>
			<DURATION>0.8166666666666667</DURATION>
			<DURATION>0.8166666666666667</DURATION>
			<DURATION>0.8166666666666667</DURATION>
			<DURATION>0.8166666666666667</DURATION>
			<DURATION>0.8166666666666667</DURATION>
			<DURATION>0.8333333333333334</DURATION>
			<DURATION>0.8333333333333334</DURATION>
			<DURATION>0.8333333333333334</DURATION>
			<DURATION>0.8333333333333334</DURATION>
			<DURATION>0.8333333333333334</DURATION>
			<DURATION>0.8333333333333334</DURATION>
			<DURATION>0.8333333333333334</DURATION>
			<DURATION>0.8333333333333334</DURATION>
			<DURATION>0.8333333333333334</DURATION>
			<DURATION>0.8333333333333334</DURATION>
			<DURATION>0.8333333333333334</DURATION>
			<DURATION>0.8333333333333334</DURATION>
			<DURATION>0.8333333333333334</DURATION>
			<DURATION>0.8333333333333334</DURATION>
			<DURATION>0.8333333333333334</DURATION>
			<DURATION>0.8333333333333334</DURATION>
			<DURATION>0.8333333333333334</DURATION>
			<DURATION>0.8333333333333334</DURATION>
			<DURATION>0.8333333333333334</DURATION>
			<DURATION>0.85</DURATION>
			<DURATION>0.85</DURATION>
			<DURATION>0.85</DURATION>
			<DURATION>0.85</DURATION>
			<DURATION>0.85</DURATION>
			<DURATION>0.85</DURATION>
			<DURATION>0.85</DURATION>
			<DURATION>0.85</DURATION>
			<DURATION>0.85</DURATION>
			<DURATION>0.8666666666666667</DURATION>
			<DURATION>0.8666666666666667</DURATION>
			<DURATION>0.8666666666666667</DURATION>
			<DURATION>0.8666666666666667</DURATION>
			<DURATION>0.8666666666666667</DURATION>
			<DURATION>0.8666666666666667</DURATION>
			<DURATION>0.8666666666666667</DURATION>
			<DURATION>0.8666666666666667</DURATION>
			<DURATION>0.8666666666666667</DURATION>
			<DURATION>0.8666666666666667</DURATION>
			<DURATION>0.8666666666666667</DURATION>
			<DURATION>0.8666666666666667</DURATION>
			<DURATION>0.8666666666666667</DURATION>
			<DURATION>0.8666666666666667</DURATION>
			<DURATION>0.8666666666666667</DURATION>
			<DURATION>0.8666666666666667</DURATION>
			<DURATION>0.8666666666666667</DURATION>
			<DURATION>0.8666666666666667</DURATION>
			<DURATION>0.8666666666666667</DURATION>
			<DURATION>0.8666666666666667</DURATION>
			<DURATION>0.8666666666666667</DURATION>
			<DURATION>0.8666666666666667</DURATION>
			<DURATION>0.8833333333333333</DURATION>
			<DURATION>0.8833333333333333</DURATION>
			<DURATION>0.8833333333333333</DURATION>
			<DURATION>0.8833333333333333</DURATION>
			<DURATION>0.8833333333333333</DURATION>
			<DURATION>0.8833333333333333</DURATION>
			<DURATION>0.8833333333333333</DURATION>
			<DURATION>0.8833333333333333</DURATION>
			<DURATION>0.8833333333333333</DURATION>
			<DURATION>0.8833333333333333</DURATION>
			<DURATION>0.8833333333333333</DURATION>
			<DURATION>0.8833333333333333</DURATION>
			<DURATION>0.8833333333333333</DURATION>
			<DURATION>0.8833333333333333</DURATION>
			<DURATION>0.8833333333333333</DURATION>
			<DURATION>0.8833333333333333</DURATION>
			<DURATION>0.8833333333333333</DURATION>
			<DURATION>0.8833333333333333</DURATION>
			<DURATION>0.8833333333333333</DURATION>
			<DURATION>0.8833333333333333</DURATION>
			<DURATION>0.8833333333333333</DURATION>
			<DURATION>0.8833333333333333</DURATION>
			<DURATION>0.8833333333333333</DURATION>
			<DURATION>0.8833333333333333</DURATION>
			<DURATION>0.8833333333333333</DURATION>
			<DURATION>0.8833333333333333</DURATION>
			<DURATION>0.8833333333333333</DURATION>
			<DURATION>0.8833333333333333</DURATION>
			<DURATION>0.8833333333333333</DURATION>
			<DURATION>0.8833333333333333</DURATION>
			<DURATION>0.8833333333333333</DURATION>
			<DURATION>0.9</DURATION>
			<DURATION>0.9</DURATION>
			<DURATION>0.9</DURATION>
			<DURATION>0.9</DURATION>
			<DURATION>0.9</DURATION>
			<DURATION>0.9</DURATION>
			<DURATION>0.9</DURATION>
			<DURATION>0.9</DURATION>
			<DURATION>0.9</DURATION>
			<DURATION>0.9</DURATION>
			<DURATION>0.9</DURATION>
			<DURATION>0.9</DURATION>
			<DURATION>0.9</DURATION>
			<DURATION>0.9</DURATION>
			<DURATION>0.9</DURATION>
			<DURATION>0.9</DURATION>
			<DURATION>0.9</DURATION>
			<DURATION>0.9</DURATION>
			<DURATION>0.9</DURATION>
			<DURATION>0.9</DURATION>
			<DURATION>0.9</DURATION>
			<DURATION>0.9</DURATION>
			<DURATION>0.9</DURATION>
			<DURATION>0.9</DURATION>
			<DURATION>0.9</DURATION>
			<DURATION>0.9</DURATION>
			<DURATION>0.9</DURATION>
			<DURATION>0.9166666666666666</DURATION>
			<DURATION>0.9166666666666666</DURATION>
			<DURATION>0.9166666666666666</DURATION>
			<DURATION>0.9166666666666666</DURATION>
			<DURATION>0.9166666666666666</DURATION>
			<DURATION>0.9166666666666666</DURATION>
			<DURATION>0.9166666666666666</DURATION>
			<DURATION>0.9166666666666666</DURATION>
			<DURATION>0.9166666666666666</DURATION>
			<DURATION>0.9166666666666666</DURATION>
			<DURATION>0.9166666666666666</DURATION>
			<DURATION>0.9166666666666666</DURATION>
			<DURATION>0.9166666666666666</DURATION>
			<DURATION>0.9166666666666666</DURATION>
			<DURATION>0.9166666666666666</DURATION>
			<DURATION>0.9166666666666666</DURATION>
			<DURATION>0.9166666666666666</DURATION>
			<DURATION>0.9166666666666666</DURATION>
			<DURATION>0.9166666666666666</DURATION>
			<DURATION>0.9166666666666666</DURATION>
			<DURATION>0.9166666666666666</DURATION>
			<DURATION>0.9333333333333333</DURATION>
			<DURATION>0.9333333333333333</DURATION>
			<DURATION>0.9333333333333333</DURATION>
			<DURATION>0.9333333333333333</DURATION>
			<DURATION>0.9333333333333333</DURATION>
			<DURATION>0.9333333333333333</DURATION>
			<DURATION>0.9333333333333333</DURATION>
			<DURATION>0.9333333333333333</DURATION>
			<DURATION>0.9333333333333333</DURATION>
			<DURATION>0.9333333333333333</DURATION>
			<DURATION>0.9333333333333333</DURATION>
			<DURATION>0.9333333333333333</DURATION>
			<DURATION>0.9333333333333333</DURATION>
			<DURATION>0.9333333333333333</DURATION>
			<DURATION>0.9333333333333333</DURATION>
			<DURATION>0.9333333333333333</DURATION>
			<DURATION>0.9333333333333333</DURATION>
			<DURATION>0.9333333333333333</DURATION>
			<DURATION>0.9333333333333333</DURATION>
			<DURATION>0.9333333333333333</DURATION>
			<DURATION>0.9333333333333333</DURATION>
			<DURATION>0.9333333333333333</DURATION>
			<DURATION>0.9333333333333333</DURATION>
			<DURATION>0.95</DURATION>
			<DURATION>0.95</DURATION>
			<DURATION>0.95</DURATION>
			<DURATION>0.95</DURATION>
			<DURATION>0.95</DURATION>
			<DURATION>0.95</DURATION>
			<DURATION>0.95</DURATION>
			<DURATION>0.95</DURATION>
			<DURATION>0.95</DURATION>
			<DURATION>0.95</DURATION>
			<DURATION>0.95</DURATION>
			<DURATION>0.95</DURATION>
			<DURATION>0.95</DURATION>
			<DURATION>0.95</DURATION>
			<DURATION>0.95</DURATION>
			<DURATION>0.95</DURATION>
			<DURATION>0.95</DURATION>
			<DURATION>0.95</DURATION>
			<DURATION>0.95</DURATION>
			<DURATION>0.95</DURATION>
			<DURATION>0.95</DURATION>
			<DURATION>0.95</DURATION>
			<DURATION>0.95</DURATION>
			<DURATION>0.95</DURATION>
			<DURATION>0.95</DURATION>
			<DURATION>0.95</DURATION>
			<DURATION>0.95</DURATION>
			<DURATION>0.95</DURATION>
			<DURATION>0.95</DURATION>
			<DURATION>0.95</DURATION>
			<DURATION>0.95</DURATION>
			<DURATION>0.95</DURATION>
			<DURATION>0.95</DURATION>
			<DURATION>0.95</DURATION>
			<DURATION>0.95</DURATION>
			<DURATION>0.95</DURATION>
			<DURATION>0.95</DURATION>
			<DURATION>0.95</DURATION>
			<DURATION>0.9666666666666667</DURATION>
			<DURATION>0.9666666666666667</DURATION>
			<DURATION>0.9666666666666667</DURATION>
			<DURATION>0.9666666666666667</DURATION>
			<DURATION>0.9666666666666667</DURATION>
			<DURATION>0.9666666666666667</DURATION>
			<DURATION>0.9666666666666667</DURATION>
			<DURATION>0.9666666666666667</DURATION>
			<DURATION>0.9666666666666667</DURATION>
			<DURATION>0.9666666666666667</DURATION>
			<DURATION>0.9666666666666667</DURATION>
			<DURATION>0.9666666666666667</DURATION>
			<DURATION>0.9666666666666667</DURATION>
			<DURATION>0.9666666666666667</DURATION>
			<DURATION>0.9666666666666667</DURATION>
			<DURATION>0.9666666666666667</DURATION>
			<DURATION>0.9666666666666667</DURATION>
			<DURATION>0.9666666666666667</DURATION>
			<DURATION>0.9666666666666667</DURATION>
			<DURATION>0.9666666666666667</DURATION>
			<DURATION>0.9666666666666667</DURATION>
			<DURATION>0.9666666666666667</DURATION>
			<DURATION>0.9666666666666667</DURATION>
			<DURATION>0.9666666666666667</DURATION>
			<DURATION>0.9666666666666667</DURATION>
			<DURATION>0.9666666666666667</DURATION>
			<DURATION>0.9666666666666667</DURATION>
			<DURATION>0.9833333333333333</DURATION>
			<DURATION>0.9833333333333333</DURATION>
			<DURATION>0.9833333333333333</DURATION>
			<DURATION>0.9833333333333333</DURATION>
			<DURATION>0.9833333333333333</DURATION>
			<DURATION>0.9833333333333333</DURATION>
			<DURATION>0.9833333333333333</DURATION>
			<DURATION>0.9833333333333333</DURATION>
			<DURATION>0.9833333333333333</DURATION>
			<DURATION>0.9833333333333333</DURATION>
			<DURATION>0.9833333333333333</DURATION>
			<DURATION>0.9833333333333333</DURATION>
			<DURATION>0.9833333333333333</DURATION>
			<DURATION>0.9833333333333333</DURATION>
			<DURATION>0.9833333333333333</DURATION>
			<DURATION>0.9833333333333333</DURATION>
			<DURATION>0.9833333333333333</DURATION>
			<DURATION>0.9833333333333333</DURATION>
			<DURATION>0.9833333333333333</DURATION>
			<DURATION>0.9833333333333333</DURATION>
			<DURATION>0.9833333333333333</DURATION>
			<DURATION>0.9833333333333333</DURATION>
			<DURATION>0.9833333333333333</DURATION>
			<DURATION>0.9833333333333333</DURATION>
			<DURATION>0.9833333333333333</DURATION>
			<DURATION>0.9833333333333333</DURATION>
			<DURATION>1.0</DURATION>
			<DURATION>1.0</DURATION>
			<DURATION>1.0</DURATION>
			<DURATION>1.0</DURATION>
			<DURATION>1.0</DURATION>
			<DURATION>1.0</DURATION>
			<DURATION>1.0</DURATION>
			<DURATION>1.0</DURATION>
			<DURATION>1.0</DURATION>
			<DURATION>1.0</DURATION>
			<DURATION>1.0</DURATION>
			<DURATION>1.0</DURATION>
			<DURATION>1.0</DURATION>
			<DURATION>1.0</DURATION>
			<DURATION>1.0</DURATION>
			<DURATION>1.0</DURATION>
			<DURATION>1.0166666666666666</DURATION>
			<DURATION>1.0166666666666666</DURATION>
			<DURATION>1.0166666666666666</DURATION>
			<DURATION>1.0166666666666666</DURATION>
			<DURATION>1.0166666666666666</DURATION>
			<DURATION>1.0166666666666666</DURATION>
			<DURATION>1.0166666666666666</DURATION>
			<DURATION>1.0166666666666666</DURATION>
			<DURATION>1.0166666666666666</DURATION>
			<DURATION>1.0166666666666666</DURATION>
			<DURATION>1.0166666666666666</DURATION>
			<DURATION>1.0166666666666666</DURATION>
			<DURATION>1.0166666666666666</DURATION>
			<DURATION>1.0166666666666666</DURATION>
			<DURATION>1.0166666666666666</DURATION>
			<DURATION>1.0166666666666666</DURATION>
			<DURATION>1.0166666666666666</DURATION>
			<DURATION>1.0166666666666666</DURATION>
			<DURATION>1.0166666666666666</DURATION>
			<DURATION>1.0166666666666666</DURATION>
			<DURATION>1.0166666666666666</DURATION>
			<DURATION>1.0166666666666666</DURATION>
			<DURATION>1.0333333333333334</DURATION>
			<DURATION>1.0333333333333334</DURATION>
			<DURATION>1.0333333333333334</DURATION>
			<DURATION>1.0333333333333334</DURATION>
			<DURATION>1.0333333333333334</DURATION>
			<DURATION>1.0333333333333334</DURATION>
			<DURATION>1.0333333333333334</DURATION>
			<DURATION>1.0333333333333334</DURATION>
			<DURATION>1.0333333333333334</DURATION>
			<DURATION>1.0333333333333334</DURATION>
			<DURATION>1.0333333333333334</DURATION>
			<DURATION>1.0333333333333334</DURATION>
			<DURATION>1.0333333333333334</DURATION>
			<DURATION>1.0333333333333334</DURATION>
			<DURATION>1.0333333333333334</DURATION>
			<DURATION>1.0333333333333334</DURATION>
			<DURATION>1.0333333333333334</DURATION>
			<DURATION>1.0333333333333334</DURATION>
			<DURATION>1.0333333333333334</DURATION>
			<DURATION>1.0333333333333334</DURATION>
			<DURATION>1.0333333333333334</DURATION>
			<DURATION>1.0333333333333334</DURATION>
			<DURATION>1.0333333333333334</DURATION>
			<DURATION>1.05</DURATION>
			<DURATION>1.05</DURATION>
			<DURATION>1.05</DURATION>
			<DURATION>1.05</DURATION>
			<DURATION>1.05</DURATION>
			<DURATION>1.05</DURATION>
			<DURATION>1.05</DURATION>
			<DURATION>1.05</DURATION>
			<DURATION>1.05</DURATION>
			<DURATION>1.05</DURATION>
			<DURATION>1.05</DURATION>
			<DURATION>1.05</DURATION>
			<DURATION>1.05</DURATION>
			<DURATION>1.05</DURATION>
			<DURATION>1.05</DURATION>
			<DURATION>1.05</DURATION>
			<DURATION>1.05</DURATION>
			<DURATION>1.05</DURATION>
			<DURATION>1.05</DURATION>
			<DURATION>1.05</DURATION>
			<DURATION>1.05</DURATION>
			<DURATION>1.05</DURATION>
			<DURATION>1.05</DURATION>
			<DURATION>1.05</DURATION>
			<DURATION>1.05</DURATION>
			<DURATION>1.05</DURATION>
			<DURATION>1.05</DURATION>
			<DURATION>1.0666666666666667</DURATION>
			<DURATION>1.0666666666666667</DURATION>
			<DURATION>1.0666666666666667</DURATION>
			<DURATION>1.0666666666666667</DURATION>
			<DURATION>1.0666666666666667</DURATION>
			<DURATION>1.0666666666666667</DURATION>
			<DURATION>1.0666666666666667</DURATION>
			<DURATION>1.0666666666666667</DURATION>
			<DURATION>1.0666666666666667</DURATION>
			<DURATION>1.0666666666666667</DURATION>
			<DURATION>1.0666666666666667</DURATION>
			<DURATION>1.0666666666666667</DURATION>
			<DURATION>1.0666666666666667</DURATION>
			<DURATION>1.0666666666666667</DURATION>
			<DURATION>1.0666666666666667</DURATION>
			<DURATION>1.0666666666666667</DURATION>
			<DURATION>1.0666666666666667</DURATION>
			<DURATION>1.0666666666666667</DURATION>
			<DURATION>1.0666666666666667</DURATION>
			<DURATION>1.0666666666666667</DURATION>
			<DURATION>1.0666666666666667</DURATION>
			<DURATION>1.0666666666666667</DURATION>
			<DURATION>1.0666666666666667</DURATION>
			<DURATION>1.0666666666666667</DURATION>
			<DURATION>1.0666666666666667</DURATION>
			<DURATION>1.0666666666666667</DURATION>
			<DURATION>1.0666666666666667</DURATION>
			<DURATION>1.0666666666666667</DURATION>
			<DURATION>1.0666666666666667</DURATION>
			<DURATION>1.0666666666666667</DURATION>
			<DURATION>1.0833333333333333</DURATION>
			<DURATION>1.0833333333333333</DURATION>
			<DURATION>1.0833333333333333</DURATION>
			<DURATION>1.0833333333333333</DURATION>
			<DURATION>1.0833333333333333</DURATION>
			<DURATION>1.0833333333333333</DURATION>
			<DURATION>1.0833333333333333</DURATION>
			<DURATION>1.0833333333333333</DURATION>
			<DURATION>1.0833333333333333</DURATION>
			<DURATION>1.0833333333333333</DURATION>
			<DURATION>1.0833333333333333</DURATION>
			<DURATION>1.0833333333333333</DURATION>
			<DURATION>1.0833333333333333</DURATION>
			<DURATION>1.0833333333333333</DURATION>
			<DURATION>1.0833333333333333</DURATION>
			<DURATION>1.0833333333333333</DURATION>
			<DURATION>1.0833333333333333</DURATION>
			<DURATION>1.0833333333333333</DURATION>
			<DURATION>1.1</DURATION>
			<DURATION>1.1</DURATION>
			<DURATION>1.1</DURATION>
			<DURATION>1.1</DURATION>
			<DURATION>1.1</DURATION>
			<DURATION>1.1</DURATION>
			<DURATION>1.1</DURATION>
			<DURATION>1.1</DURATION>
			<DURATION>1.1</DURATION>
			<DURATION>1.1</DURATION>
			<DURATION>1.1</DURATION>
			<DURATION>1.1</DURATION>
			<DURATION>1.1</DURATION>
			<DURATION>1.1</DURATION>
			<DURATION>1.1166666666666667</DURATION>
			<DURATION>1.1166666666666667</DURATION>
			<DURATION>1.1166666666666667</DURATION>
			<DURATION>1.1166666666666667</DURATION>
			<DURATION>1.1166666666666667</DURATION>
			<DURATION>1.1166666666666667</DURATION>
			<DURATION>1.1166666666666667</DURATION>
			<DURATION>1.1166666666666667</DURATION>
			<DURATION>1.1166666666666667</DURATION>
			<DURATION>1.1166666666666667</DURATION>
			<DURATION>1.1166666666666667</DURATION>
			<DURATION>1.1166666666666667</DURATION>
			<DURATION>1.1166666666666667</DURATION>
			<DURATION>1.1166666666666667</DURATION>
			<DURATION>1.1166666666666667</DURATION>
			<DURATION>1.1166666666666667</DURATION>
			<DURATION>1.1333333333333333</DURATION>
			<DURATION>1.1333333333333333</DURATION>
			<DURATION>1.1333333333333333</DURATION>
			<DURATION>1.1333333333333333</DURATION>
			<DURATION>1.1333333333333333</DURATION>
			<DURATION>1.1333333333333333</DURATION>
			<DURATION>1.1333333333333333</DURATION>
			<DURATION>1.1333333333333333</DURATION>
			<DURATION>1.1333333333333333</DURATION>
			<DURATION>1.1333333333333333</DURATION>
			<DURATION>1.1333333333333333</DURATION>
			<DURATION>1.1333333333333333</DURATION>
			<DURATION>1.1333333333333333</DURATION>
			<DURATION>1.1333333333333333</DURATION>
			<DURATION>1.1333333333333333</DURATION>
			<DURATION>1.1333333333333333</DURATION>
			<DURATION>1.1333333333333333</DURATION>
			<DURATION>1.15</DURATION>
			<DURATION>1.15</DURATION>
			<DURATION>1.15</DURATION>
			<DURATION>1.15</DURATION>
			<DURATION>1.15</DURATION>
			<DURATION>1.15</DURATION>
			<DURATION>1.15</DURATION>
			<DURATION>1.15</DURATION>
			<DURATION>1.15</DURATION>
			<DURATION>1.15</DURATION>
			<DURATION>1.15</DURATION>
			<DURATION>1.15</DURATION>
			<DURATION>1.15</DURATION>
			<DURATION>1.15</DURATION>
			<DURATION>1.15</DURATION>
			<DURATION>1.15</DURATION>
			<DURATION>1.15</DURATION>
			<DURATION>1.15</DURATION>
			<DURATION>1.15</DURATION>
			<DURATION>1.1666666666666667</DURATION>
			<DURATION>1.1666666666666667</DURATION>
			<DURATION>1.1666666666666667</DURATION>
			<DURATION>1.1666666666666667</DURATION>
			<DURATION>1.1666666666666667</DURATION>
			<DURATION>1.1666666666666667</DURATION>
			<DURATION>1.1666666666666667</DURATION>
			<DURATION>1.1666666666666667</DURATION>
			<DURATION>1.1833333333333333</DURATION>
			<DURATION>1.1833333333333333</DURATION>
			<DURATION>1.1833333333333333</DURATION>
			<DURATION>1.1833333333333333</DURATION>
			<DURATION>1.1833333333333333</DURATION>
			<DURATION>1.1833333333333333</DURATION>
			<DURATION>1.1833333333333333</DURATION>
			<DURATION>1.1833333333333333</DURATION>
			<DURATION>1.1833333333333333</DURATION>
			<DURATION>1.1833333333333333</DURATION>
			<DURATION>1.1833333333333333</DURATION>
			<DURATION>1.1833333333333333</DURATION>
			<DURATION>1.1833333333333333</DURATION>
			<DURATION>1.1833333333333333</DURATION>
			<DURATION>1.1833333333333333</DURATION>
			<DURATION>1.1833333333333333</DURATION>
			<DURATION>1.1833333333333333</DURATION>
			<DURATION>1.1833333333333333</DURATION>
			<DURATION>1.1833333333333333</DURATION>
			<DURATION>1.1833333333333333</DURATION>
			<DURATION>1.1833333333333333</DURATION>
			<DURATION>1.1833333333333333</DURATION>
			<DURATION>1.1833333333333333</DURATION>
			<DURATION>1.1833333333333333</DURATION>
			<DURATION>1.1833333333333333</DURATION>
			<DURATION>1.1833333333333333</DURATION>
			<DURATION>1.1833333333333333</DURATION>
			<DURATION>1.1833333333333333</DURATION>
			<DURATION>1.1833333333333333</DURATION>
			<DURATION>1.1833333333333333</DURATION>
			<DURATION>1.1833333333333333</DURATION>
			<DURATION>1.2</DURATION>
			<DURATION>1.2</DURATION>
			<DURATION>1.2</DURATION>
			<DURATION>1.2</DURATION>
			<DURATION>1.2</DURATION>
			<DURATION>1.2</DURATION>
			<DURATION>1.2</DURATION>
			<DURATION>1.2</DURATION>
			<DURATION>1.2</DURATION>
			<DURATION>1.2</DURATION>
			<DURATION>1.2</DURATION>
			<DURATION>1.2</DURATION>
			<DURATION>1.2</DURATION>
			<DURATION>1.2</DURATION>
			<DURATION>1.2</DURATION>
			<DURATION>1.2</DURATION>
			<DURATION>1.2</DURATION>
			<DURATION>1.2</DURATION>
			<DURATION>1.2</DURATION>
			<DURATION>1.2</DURATION>
			<DURATION>1.2166666666666666</DURATION>
			<DURATION>1.2166666666666666</DURATION>
			<DURATION>1.2166666666666666</DURATION>
			<DURATION>1.2166666666666666</DURATION>
			<DURATION>1.2166666666666666</DURATION>
			<DURATION>1.2166666666666666</DURATION>
			<DURATION>1.2166666666666666</DURATION>
			<DURATION>1.2166666666666666</DURATION>
			<DURATION>1.2166666666666666</DURATION>
			<DURATION>1.2166666666666666</DURATION>
			<DURATION>1.2166666666666666</DURATION>
			<DURATION>1.2166666666666666</DURATION>
			<DURATION>1.2333333333333334</DURATION>
			<DURATION>1.2333333333333334</DURATION>
			<DURATION>1.2333333333333334</DURATION>
			<DURATION>1.2333333333333334</DURATION>
			<DURATION>1.2333333333333334</DURATION>
			<DURATION>1.2333333333333334</DURATION>
			<DURATION>1.2333333333333334</DURATION>
			<DURATION>1.2333333333333334</DURATION>
			<DURATION>1.2333333333333334</DURATION>
			<DURATION>1.2333333333333334</DURATION>
			<DURATION>1.2333333333333334</DURATION>
			<DURATION>1.25</DURATION>
			<DURATION>1.25</DURATION>
			<DURATION>1.25</DURATION>
			<DURATION>1.25</DURATION>
			<DURATION>1.25</DURATION>
			<DURATION>1.25</DURATION>
			<DURATION>1.25</DURATION>
			<DURATION>1.25</DURATION>
			<DURATION>1.25</DURATION>
			<DURATION>1.25</DURATION>
			<DURATION>1.2666666666666666</DURATION>
			<DURATION>1.2666666666666666</DURATION>
			<DURATION>1.2666666666666666</DURATION>
			<DURATION>1.2666666666666666</DURATION>
			<DURATION>1.2666666666666666</DURATION>
			<DURATION>1.2666666666666666</DURATION>
			<DURATION>1.2666666666666666</DURATION>
			<DURATION>1.2833333333333334</DURATION>
			<DURATION>1.2833333333333334</DURATION>
			<DURATION>1.2833333333333334</DURATION>
			<DURATION>1.2833333333333334</DURATION>
			<DURATION>1.2833333333333334</DURATION>
			<DURATION>1.2833333333333334</DURATION>
			<DURATION>1.2833333333333334</DURATION>
			<DURATION>1.3</DURATION>
			<DURATION>1.3</DURATION>
			<DURATION>1.3</DURATION>
			<DURATION>1.3</DURATION>
			<DURATION>1.3</DURATION>
			<DURATION>1.3</DURATION>
			<DURATION>1.3</DURATION>
			<DURATION>1.3</DURATION>
			<DURATION>1.3166666666666667</DURATION>
			<DURATION>1.3166666666666667</DURATION>
			<DURATION>1.3166666666666667</DURATION>
			<DURATION>1.3166666666666667</DURATION>
			<DURATION>1.3166666666666667</DURATION>
			<DURATION>1.3166666666666667</DURATION>
			<DURATION>1.3166666666666667</DURATION>
			<DURATION>1.3166666666666667</DURATION>
			<DURATION>1.3333333333333333</DURATION>
			<DURATION>1.3333333333333333</DURATION>
			<DURATION>1.3333333333333333</DURATION>
			<DURATION>1.3333333333333333</DURATION>
			<DURATION>1.35</DURATION>
			<DURATION>1.35</DURATION>
			<DURATION>1.35</DURATION>
			<DURATION>1.35</DURATION>
			<DURATION>1.35</DURATION>
			<DURATION>1.35</DURATION>
			<DURATION>1.35</DURATION>
			<DURATION>1.3666666666666667</DURATION>
			<DURATION>1.3666666666666667</DURATION>
			<DURATION>1.3666666666666667</DURATION>
			<DURATION>1.3666666666666667</DURATION>
			<DURATION>1.3666666666666667</DURATION>
			<DURATION>1.3666666666666667</DURATION>
			<DURATION>1.3833333333333333</DURATION>
			<DURATION>1.3833333333333333</DURATION>
			<DURATION>1.3833333333333333</DURATION>
			<DURATION>1.3833333333333333</DURATION>
			<DURATION>1.4</DURATION>
			<DURATION>1.4</DURATION>
			<DURATION>1.4</DURATION>
			<DURATION>1.4166666666666667</DURATION>
			<DURATION>1.4166666666666667</DURATION>
			<DURATION>1.4166666666666667</DURATION>
			<DURATION>1.4166666666666667</DURATION>
			<DURATION>1.4166666666666667</DURATION>
			<DURATION>1.4333333333333333</DURATION>
			<DURATION>1.4333333333333333</DURATION>
			<DURATION>1.45</DURATION>
			<DURATION>1.45</DURATION>
			<DURATION>1.4666666666666666</DURATION>
			<DURATION>1.4833333333333334</DURATION>
			<DURATION>1.4833333333333334</DURATION>
			<DURATION>1.4833333333333334</DURATION>
			<DURATION>1.5</DURATION>
			<DURATION>1.5</DURATION>
			<DURATION>1.5</DURATION>
			<DURATION>1.5166666666666666</DURATION>
			<DURATION>1.5166666666666666</DURATION>
			<DURATION>1.5333333333333334</DURATION>
			<DURATION>1.5333333333333334</DURATION>
			<DURATION>1.5333333333333334</DURATION>
			<DURATION>1.5333333333333334</DURATION>
			<DURATION>1.55</DURATION>
			<DURATION>1.55</DURATION>
			<DURATION>1.55</DURATION>
			<DURATION>1.55</DURATION>
			<DURATION>1.5833333333333333</DURATION>
			<DURATION>1.6</DURATION>
			<DURATION>1.6</DURATION>
			<DURATION>1.6</DURATION>
			<DURATION>1.6166666666666667</DURATION>
			<DURATION>1.6166666666666667</DURATION>
			<DURATION>1.65</DURATION>
			<DURATION>1.65</DURATION>
			<DURATION>1.65</DURATION>
			<DURATION>1.6666666666666667</DURATION>
			<DURATION>1.6666666666666667</DURATION>
			<DURATION>1.6833333333333333</DURATION>
			<DURATION>1.7</DURATION>
			<DURATION>1.7166666666666666</DURATION>
			<DURATION>1.7166666666666666</DURATION>
			<DURATION>1.7333333333333334</DURATION>
			<DURATION>1.7333333333333334</DURATION>
			<DURATION>1.7666666666666666</DURATION>
			<DURATION>1.8</DURATION>
			<DURATION>1.8333333333333333</DURATION>
			<DURATION>1.8333333333333333</DURATION>
			<DURATION>1.8666666666666667</DURATION>
			<DURATION>1.8833333333333333</DURATION>
			<DURATION>1.9</DURATION>
			<DURATION>1.9166666666666667</DURATION>
			<DURATION>1.95</DURATION>
			<DURATION>1.9666666666666666</DURATION>
			<DURATION>2.0</DURATION>
			<DURATION>2.0166666666666666</DURATION>
			<DURATION>2.033333333333333</DURATION>
			<DURATION>2.0833333333333335</DURATION>
			<DURATION>2.1166666666666667</DURATION>
			<DURATION>2.15</DURATION>
			<DURATION>2.1666666666666665</DURATION>
			<DURATION>2.1666666666666665</DURATION>
			<DURATION>2.1666666666666665</DURATION>
			<DURATION>2.3</DURATION>
			<DURATION>2.3333333333333335</DURATION>
			<DURATION>2.466666666666667</DURATION>
			<DURATION>2.4833333333333334</DURATION>
			<DURATION>2.6333333333333333</DURATION>
			<DURATION>2.6333333333333333</DURATION>
			<DURATION>2.7</DURATION>
			<DURATION>3.0</DURATION>
			<DURATION>3.066666666666667</DURATION>
			<DURATION>3.2333333333333334</DURATION>
			<DURATION>3.3</DURATION>
			<DURATION>3.4833333333333334</DURATION>
			<DURATION>3.5166666666666666</DURATION>
			<DURATION>4.0</DURATION>
			<DURATION>4.1</DURATION>
			<DURATION>4.466666666666667</DURATION>
			<DURATION>4.65</DURATION>
			<DURATION>5.65</DURATION>
			<DURATION>5.716666666666667</DURATION>
			<DURATION>6.15</DURATION>
			<DURATION>7.666666666666667</DURATION>
			<DURATION>14.25</DURATION>
		</HISTORICAL-DURATIONS>
	</CONSTRAINT>
	<CONSTRAINT>
		<START>945a440a-c3ba-4d67-a7c7-fbd39b43a0a1</START>
		<END>1043e417-0e26-4b20-b70f-8614c99d9548</END>
		<ID>3af4aa24-f34c-4131-b906-1ecc91498c2e</ID>
		<NAME>Trip 30453702 Arrive at stop 70063 on 05:19</NAME>
		<LOWERBOUND>318.9</LOWERBOUND>
		<UPPERBOUND>319.1</UPPERBOUND>
		<LBRELAXABLE>T</LBRELAXABLE>
		<UBRELAXABLE>T</UBRELAXABLE>
		<LB-RELAX-COST-RATIO>10.0</LB-RELAX-COST-RATIO>
		<UB-RELAX-COST-RATIO>10.0</UB-RELAX-COST-RATIO>
		<COST>0.0</COST>
		<TYPE>Controllable;Constraint</TYPE>
		<MEAN>0.0</MEAN>
	</CONSTRAINT>
	<CONSTRAINT>
		<START>ce10c4bb-1002-4d52-a9d4-3f8a5e2835ed</START>
		<END>01c73968-e110-4cc3-8e48-0e3fcbc71fa5</END>
		<ID>e6efde20-6bcc-49ac-9a5b-883676599cd5</ID>
		<NAME>Dwell at 70069 (Central - Inbound)</NAME>
		<LOWERBOUND>0.48333333333333334</LOWERBOUND>
		<UPPERBOUND>5.85</UPPERBOUND>
		<LB-RELAX-COST-RATIO>0.0</LB-RELAX-COST-RATIO>
		<UB-RELAX-COST-RATIO>0.0</UB-RELAX-COST-RATIO>
		<COST>0.0</COST>
		<TYPE>Uncontrollable;Activity</TYPE>
		<MEAN>0.0</MEAN>
		<DISTRIBUTION>Normal</DISTRIBUTION>
		<VARIANCE>0.0</VARIANCE>
		<HISTORICAL-DURATIONS>
			<DURATION>0.48333333333333334</DURATION>
			<DURATION>0.6166666666666667</DURATION>
			<DURATION>0.6166666666666667</DURATION>
			<DURATION>0.65</DURATION>
			<DURATION>0.6666666666666666</DURATION>
			<DURATION>0.6666666666666666</DURATION>
			<DURATION>0.6833333333333333</DURATION>
			<DURATION>0.6833333333333333</DURATION>
			<DURATION>0.6833333333333333</DURATION>
			<DURATION>0.6833333333333333</DURATION>
			<DURATION>0.7</DURATION>
			<DURATION>0.7</DURATION>
			<DURATION>0.7</DURATION>
			<DURATION>0.7</DURATION>
			<DURATION>0.7</DURATION>
			<DURATION>0.7</DURATION>
			<DURATION>0.7166666666666667</DURATION>
			<DURATION>0.7166666666666667</DURATION>
			<DURATION>0.7166666666666667</DURATION>
			<DURATION>0.7166666666666667</DURATION>
			<DURATION>0.7166666666666667</DURATION>
			<DURATION>0.7166666666666667</DURATION>
			<DURATION>0.7166666666666667</DURATION>
			<DURATION>0.7166666666666667</DURATION>
			<DURATION>0.7166666666666667</DURATION>
			<DURATION>0.7166666666666667</DURATION>
			<DURATION>0.7166666666666667</DURATION>
			<DURATION>0.7166666666666667</DURATION>
			<DURATION>0.7333333333333333</DURATION>
			<DURATION>0.7333333333333333</DURATION>
			<DURATION>0.7333333333333333</DURATION>
			<DURATION>0.7333333333333333</DURATION>
			<DURATION>0.7333333333333333</DURATION>
			<DURATION>0.7333333333333333</DURATION>
			<DURATION>0.7333333333333333</DURATION>
			<DURATION>0.7333333333333333</DURATION>
			<DURATION>0.7333333333333333</DURATION>
			<DURATION>0.7333333333333333</DURATION>
			<DURATION>0.7333333333333333</DURATION>
			<DURATION>0.7333333333333333</DURATION>
			<DURATION>0.7333333333333333</DURATION>
			<DURATION>0.7333333333333333</DURATION>
			<DURATION>0.7333333333333333</DURATION>
			<DURATION>0.7333333333333333</DURATION>
			<DURATION>0.7333333333333333</DURATION>
			<DURATION>0.7333333333333333</DURATION>
			<DURATION>0.7333333333333333</DURATION>
			<DURATION>0.75</DURATION>
			<DURATION>0.75</DURATION>
			<DURATION>0.75</DURATION>
			<DURATION>0.75</DURATION>
			<DURATION>0.75</DURATION>
			<DURATION>0.75</DURATION>
			<DURATION>0.75</DURATION>
			<DURATION>0.75</DURATION>
			<DURATION>0.75</DURATION>
			<DURATION>0.75</DURATION>
			<DURATION>0.75</DURATION>
			<DURATION>0.75</DURATION>
			<DURATION>0.75</DURATION>
			<DURATION>0.75</DURATION>
			<DURATION>0.75</DURATION>
			<DURATION>0.75</DURATION>
			<DURATION>0.75</DURATION>
			<DURATION>0.75</DURATION>
			<DURATION>0.75</DURATION>
			<DURATION>0.75</DURATION>
			<DURATION>0.75</DURATION>
			<DURATION>0.75</DURATION>
			<DURATION>0.75</DURATION>
			<DURATION>0.75</DURATION>
			<DURATION>0.75</DURATION>
			<DURATION>0.75</DURATION>
			<DURATION>0.75</DURATION>
			<DURATION>0.7666666666666667</DURATION>
			<DURATION>0.7666666666666667</DURATION>
			<DURATION>0.7666666666666667</DURATION>
			<DURATION>0.7666666666666667</DURATION>
			<DURATION>0.7666666666666667</DURATION>
			<DURATION>0.7666666666666667</DURATION>
			<DURATION>0.7666666666666667</DURATION>
			<DURATION>0.7666666666666667</DURATION>
			<DURATION>0.7666666666666667</DURATION>
			<DURATION>0.7666666666666667</DURATION>
			<DURATION>0.7666666666666667</DURATION>
			<DURATION>0.7666666666666667</DURATION>
			<DURATION>0.7666666666666667</DURATION>
			<DURATION>0.7666666666666667</DURATION>
			<DURATION>0.7666666666666667</DURATION>
			<DURATION>0.7666666666666667</DURATION>
			<DURATION>0.7666666666666667</DURATION>
			<DURATION>0.7666666666666667</DURATION>
			<DURATION>0.7666666666666667</DURATION>
			<DURATION>0.7666666666666667</DURATION>
			<DURATION>0.7666666666666667</DURATION>
			<DURATION>0.7666666666666667</DURATION>
			<DURATION>0.7666666666666667</DURATION>
			<DURATION>0.7666666666666667</DURATION>
			<DURATION>0.7666666666666667</DURATION>
			<DURATION>0.7666666666666667</DURATION>
			<DURATION>0.7666666666666667</DURATION>
			<DURATION>0.7666666666666667</DURATION>
			<DURATION>0.7833333333333333</DURATION>
			<DURATION>0.7833333333333333</DURATION>
			<DURATION>0.7833333333333333</DURATION>
			<DURATION>0.7833333333333333</DURATION>
			<DURATION>0.7833333333333333</DURATION>
			<DURATION>0.7833333333333333</DURATION>
			<DURATION>0.7833333333333333</DURATION>
			<DURATION>0.7833333333333333</DURATION>
			<DURATION>0.7833333333333333</DURATION>
			<DURATION>0.7833333333333333</DURATION>
			<DURATION>0.7833333333333333</DURATION>
			<DURATION>0.7833333333333333</DURATION>
			<DURATION>0.7833333333333333</DURATION>
			<DURATION>0.7833333333333333</DURATION>
			<DURATION>0.7833333333333333</DURATION>
			<DURATION>0.7833333333333333</DURATION>
			<DURATION>0.7833333333333333</DURATION>
			<DURATION>0.7833333333333333</DURATION>
			<DURATION>0.7833333333333333</DURATION>
			<DURATION>0.7833333333333333</DURATION>
			<DURATION>0.7833333333333333</DURATION>
			<DURATION>0.7833333333333333</DURATION>
			<DURATION>0.7833333333333333</DURATION>
			<DURATION>0.7833333333333333</DURATION>
			<DURATION>0.7833333333333333</DURATION>
			<DURATION>0.7833333333333333</DURATION>
			<DURATION>0.7833333333333333</DURATION>
			<DURATION>0.7833333333333333</DURATION>
			<DURATION>0.7833333333333333</DURATION>
			<DURATION>0.7833333333333333</DURATION>
			<DURATION>0.7833333333333333</DURATION>
			<DURATION>0.7833333333333333</DURATION>
			<DURATION>0.7833333333333333</DURATION>
			<DURATION>0.7833333333333333</DURATION>
			<DURATION>0.7833333333333333</DURATION>
			<DURATION>0.7833333333333333</DURATION>
			<DURATION>0.7833333333333333</DURATION>
			<DURATION>0.7833333333333333</DURATION>
			<DURATION>0.7833333333333333</DURATION>
			<DURATION>0.7833333333333333</DURATION>
			<DURATION>0.7833333333333333</DURATION>
			<DURATION>0.7833333333333333</DURATION>
			<DURATION>0.7833333333333333</DURATION>
			<DURATION>0.7833333333333333</DURATION>
			<DURATION>0.8</DURATION>
			<DURATION>0.8</DURATION>
			<DURATION>0.8</DURATION>
			<DURATION>0.8</DURATION>
			<DURATION>0.8</DURATION>
			<DURATION>0.8</DURATION>
			<DURATION>0.8</DURATION>
			<DURATION>0.8</DURATION>
			<DURATION>0.8</DURATION>
			<DURATION>0.8</DURATION>
			<DURATION>0.8</DURATION>
			<DURATION>0.8</DURATION>
			<DURATION>0.8</DURATION>
			<DURATION>0.8</DURATION>
			<DURATION>0.8</DURATION>
			<DURATION>0.8</DURATION>
			<DURATION>0.8</DURATION>
			<DURATION>0.8</DURATION>
			<DURATION>0.8</DURATION>
			<DURATION>0.8</DURATION>
			<DURATION>0.8</DURATION>
			<DURATION>0.8</DURATION>
			<DURATION>0.8</DURATION>
			<DURATION>0.8</DURATION>
			<DURATION>0.8</DURATION>
			<DURATION>0.8</DURATION>
			<DURATION>0.8</DURATION>
			<DURATION>0.8</DURATION>
			<DURATION>0.8</DURATION>
			<DURATION>0.8</DURATION>
			<DURATION>0.8</DURATION>
			<DURATION>0.8</DURATION>
			<DURATION>0.8</DURATION>
			<DURATION>0.8</DURATION>
			<DURATION>0.8</DURATION>
			<DURATION>0.8</DURATION>
			<DURATION>0.8</DURATION>
			<DURATION>0.8</DURATION>
			<DURATION>0.8</DURATION>
			<DURATION>0.8</DURATION>
			<DURATION>0.8</DURATION>
			<DURATION>0.8</DURATION>
			<DURATION>0.8</DURATION>
			<DURATION>0.8</DURATION>
			<DURATION>0.8</DURATION>
			<DURATION>0.8166666666666667</DURATION>
			<DURATION>0.8166666666666667</DURATION>
			<DURATION>0.8166666666666667</DURATION>
			<DURATION>0.8166666666666667</DURATION>
			<DURATION>0.8166666666666667</DURATION>
			<DURATION>0.8166666666666667</DURATION>
			<DURATION>0.8166666666666667</DURATION>
			<DURATION>0.8166666666666667</DURATION>
			<DURATION>0.8166666666666667</DURATION>
			<DURATION>0.8166666666666667</DURATION>
			<DURATION>0.8166666666666667</DURATION>
			<DURATION>0.8166666666666667</DURATION>
			<DURATION>0.8166666666666667</DURATION>
			<DURATION>0.8166666666666667</DURATION>
			<DURATION>0.8166666666666667</DURATION>
			<DURATION>0.8166666666666667</DURATION>
			<DURATION>0.8166666666666667</DURATION>
			<DURATION>0.8166666666666667</DURATION>
			<DURATION>0.8166666666666667</DURATION>
			<DURATION>0.8166666666666667</DURATION>
			<DURATION>0.8166666666666667</DURATION>
			<DURATION>0.8166666666666667</DURATION>
			<DURATION>0.8166666666666667</DURATION>
			<DURATION>0.8166666666666667</DURATION>
			<DURATION>0.8166666666666667</DURATION>
			<DURATION>0.8166666666666667</DURATION>
			<DURATION>0.8166666666666667</DURATION>
			<DURATION>0.8166666666666667</DURATION>
			<DURATION>0.8166666666666667</DURATION>
			<DURATION>0.8166666666666667</DURATION>
			<DURATION>0.8166666666666667</DURATION>
			<DURATION>0.8166666666666667</DURATION>
			<DURATION>0.8166666666666667</DURATION>
			<DURATION>0.8166666666666667</DURATION>
			<DURATION>0.8166666666666667</DURATION>
			<DURATION>0.8166666666666667</DURATION>
			<DURATION>0.8333333333333334</DURATION>
			<DURATION>0.8333333333333334</DURATION>
			<DURATION>0.8333333333333334</DURATION>
			<DURATION>0.8333333333333334</DURATION>
			<DURATION>0.8333333333333334</DURATION>
			<DURATION>0.8333333333333334</DURATION>
			<DURATION>0.8333333333333334</DURATION>
			<DURATION>0.8333333333333334</DURATION>
			<DURATION>0.8333333333333334</DURATION>
			<DURATION>0.8333333333333334</DURATION>
			<DURATION>0.8333333333333334</DURATION>
			<DURATION>0.8333333333333334</DURATION>
			<DURATION>0.8333333333333334</DURATION>
			<DURATION>0.8333333333333334</DURATION>
			<DURATION>0.8333333333333334</DURATION>
			<DURATION>0.8333333333333334</DURATION>
			<DURATION>0.8333333333333334</DURATION>
			<DURATION>0.8333333333333334</DURATION>
			<DURATION>0.8333333333333334</DURATION>
			<DURATION>0.8333333333333334</DURATION>
			<DURATION>0.8333333333333334</DURATION>
			<DURATION>0.8333333333333334</DURATION>
			<DURATION>0.8333333333333334</DURATION>
			<DURATION>0.8333333333333334</DURATION>
			<DURATION>0.8333333333333334</DURATION>
			<DURATION>0.8333333333333334</DURATION>
			<DURATION>0.8333333333333334</DURATION>
			<DURATION>0.8333333333333334</DURATION>
			<DURATION>0.8333333333333334</DURATION>
			<DURATION>0.8333333333333334</DURATION>
			<DURATION>0.8333333333333334</DURATION>
			<DURATION>0.8333333333333334</DURATION>
			<DURATION>0.8333333333333334</DURATION>
			<DURATION>0.8333333333333334</DURATION>
			<DURATION>0.8333333333333334</DURATION>
			<DURATION>0.8333333333333334</DURATION>
			<DURATION>0.8333333333333334</DURATION>
			<DURATION>0.8333333333333334</DURATION>
			<DURATION>0.8333333333333334</DURATION>
			<DURATION>0.8333333333333334</DURATION>
			<DURATION>0.8333333333333334</DURATION>
			<DURATION>0.8333333333333334</DURATION>
			<DURATION>0.8333333333333334</DURATION>
			<DURATION>0.8333333333333334</DURATION>
			<DURATION>0.85</DURATION>
			<DURATION>0.85</DURATION>
			<DURATION>0.85</DURATION>
			<DURATION>0.85</DURATION>
			<DURATION>0.85</DURATION>
			<DURATION>0.85</DURATION>
			<DURATION>0.85</DURATION>
			<DURATION>0.85</DURATION>
			<DURATION>0.85</DURATION>
			<DURATION>0.85</DURATION>
			<DURATION>0.85</DURATION>
			<DURATION>0.85</DURATION>
			<DURATION>0.85</DURATION>
			<DURATION>0.85</DURATION>
			<DURATION>0.85</DURATION>
			<DURATION>0.85</DURATION>
			<DURATION>0.85</DURATION>
			<DURATION>0.85</DURATION>
			<DURATION>0.85</DURATION>
			<DURATION>0.85</DURATION>
			<DURATION>0.85</DURATION>
			<DURATION>0.85</DURATION>
			<DURATION>0.85</DURATION>
			<DURATION>0.85</DURATION>
			<DURATION>0.85</DURATION>
			<DURATION>0.85</DURATION>
			<DURATION>0.85</DURATION>
			<DURATION>0.85</DURATION>
			<DURATION>0.85</DURATION>
			<DURATION>0.85</DURATION>
			<DURATION>0.85</DURATION>
			<DURATION>0.85</DURATION>
			<DURATION>0.8666666666666667</DURATION>
			<DURATION>0.8666666666666667</DURATION>
			<DURATION>0.8666666666666667</DURATION>
			<DURATION>0.8666666666666667</DURATION>
			<DURATION>0.8666666666666667</DURATION>
			<DURATION>0.8666666666666667</DURATION>
			<DURATION>0.8666666666666667</DURATION>
			<DURATION>0.8666666666666667</DURATION>
			<DURATION>0.8666666666666667</DURATION>
			<DURATION>0.8666666666666667</DURATION>
			<DURATION>0.8666666666666667</DURATION>
			<DURATION>0.8666666666666667</DURATION>
			<DURATION>0.8666666666666667</DURATION>
			<DURATION>0.8666666666666667</DURATION>
			<DURATION>0.8666666666666667</DURATION>
			<DURATION>0.8666666666666667</DURATION>
			<DURATION>0.8666666666666667</DURATION>
			<DURATION>0.8666666666666667</DURATION>
			<DURATION>0.8666666666666667</DURATION>
			<DURATION>0.8666666666666667</DURATION>
			<DURATION>0.8666666666666667</DURATION>
			<DURATION>0.8666666666666667</DURATION>
			<DURATION>0.8666666666666667</DURATION>
			<DURATION>0.8666666666666667</DURATION>
			<DURATION>0.8666666666666667</DURATION>
			<DURATION>0.8666666666666667</DURATION>
			<DURATION>0.8666666666666667</DURATION>
			<DURATION>0.8666666666666667</DURATION>
			<DURATION>0.8833333333333333</DURATION>
			<DURATION>0.8833333333333333</DURATION>
			<DURATION>0.8833333333333333</DURATION>
			<DURATION>0.8833333333333333</DURATION>
			<DURATION>0.8833333333333333</DURATION>
			<DURATION>0.8833333333333333</DURATION>
			<DURATION>0.8833333333333333</DURATION>
			<DURATION>0.8833333333333333</DURATION>
			<DURATION>0.8833333333333333</DURATION>
			<DURATION>0.8833333333333333</DURATION>
			<DURATION>0.8833333333333333</DURATION>
			<DURATION>0.8833333333333333</DURATION>
			<DURATION>0.8833333333333333</DURATION>
			<DURATION>0.8833333333333333</DURATION>
			<DURATION>0.8833333333333333</DURATION>
			<DURATION>0.8833333333333333</DURATION>
			<DURATION>0.8833333333333333</DURATION>
			<DURATION>0.8833333333333333</DURATION>
			<DURATION>0.8833333333333333</DURATION>
			<DURATION>0.8833333333333333</DURATION>
			<DURATION>0.8833333333333333</DURATION>
			<DURATION>0.8833333333333333</DURATION>
			<DURATION>0.8833333333333333</DURATION>
			<DURATION>0.8833333333333333</DURATION>
			<DURATION>0.8833333333333333</DURATION>
			<DURATION>0.8833333333333333</DURATION>
			<DURATION>0.8833333333333333</DURATION>
			<DURATION>0.9</DURATION>
			<DURATION>0.9</DURATION>
			<DURATION>0.9</DURATION>
			<DURATION>0.9</DURATION>
			<DURATION>0.9</DURATION>
			<DURATION>0.9</DURATION>
			<DURATION>0.9</DURATION>
			<DURATION>0.9</DURATION>
			<DURATION>0.9</DURATION>
			<DURATION>0.9</DURATION>
			<DURATION>0.9</DURATION>
			<DURATION>0.9</DURATION>
			<DURATION>0.9</DURATION>
			<DURATION>0.9</DURATION>
			<DURATION>0.9</DURATION>
			<DURATION>0.9</DURATION>
			<DURATION>0.9</DURATION>
			<DURATION>0.9</DURATION>
			<DURATION>0.9</DURATION>
			<DURATION>0.9</DURATION>
			<DURATION>0.9</DURATION>
			<DURATION>0.9</DURATION>
			<DURATION>0.9</DURATION>
			<DURATION>0.9</DURATION>
			<DURATION>0.9</DURATION>
			<DURATION>0.9</DURATION>
			<DURATION>0.9</DURATION>
			<DURATION>0.9</DURATION>
			<DURATION>0.9</DURATION>
			<DURATION>0.9</DURATION>
			<DURATION>0.9</DURATION>
			<DURATION>0.9</DURATION>
			<DURATION>0.9166666666666666</DURATION>
			<DURATION>0.9166666666666666</DURATION>
			<DURATION>0.9166666666666666</DURATION>
			<DURATION>0.9166666666666666</DURATION>
			<DURATION>0.9166666666666666</DURATION>
			<DURATION>0.9166666666666666</DURATION>
			<DURATION>0.9166666666666666</DURATION>
			<DURATION>0.9166666666666666</DURATION>
			<DURATION>0.9166666666666666</DURATION>
			<DURATION>0.9166666666666666</DURATION>
			<DURATION>0.9166666666666666</DURATION>
			<DURATION>0.9166666666666666</DURATION>
			<DURATION>0.9166666666666666</DURATION>
			<DURATION>0.9166666666666666</DURATION>
			<DURATION>0.9166666666666666</DURATION>
			<DURATION>0.9166666666666666</DURATION>
			<DURATION>0.9166666666666666</DURATION>
			<DURATION>0.9166666666666666</DURATION>
			<DURATION>0.9166666666666666</DURATION>
			<DURATION>0.9166666666666666</DURATION>
			<DURATION>0.9166666666666666</DURATION>
			<DURATION>0.9166666666666666</DURATION>
			<DURATION>0.9166666666666666</DURATION>
			<DURATION>0.9166666666666666</DURATION>
			<DURATION>0.9166666666666666</DURATION>
			<DURATION>0.9166666666666666</DURATION>
			<DURATION>0.9166666666666666</DURATION>
			<DURATION>0.9166666666666666</DURATION>
			<DURATION>0.9166666666666666</DURATION>
			<DURATION>0.9166666666666666</DURATION>
			<DURATION>0.9166666666666666</DURATION>
			<DURATION>0.9166666666666666</DURATION>
			<DURATION>0.9166666666666666</DURATION>
			<DURATION>0.9166666666666666</DURATION>
			<DURATION>0.9333333333333333</DURATION>
			<DURATION>0.9333333333333333</DURATION>
			<DURATION>0.9333333333333333</DURATION>
			<DURATION>0.9333333333333333</DURATION>
			<DURATION>0.9333333333333333</DURATION>
			<DURATION>0.9333333333333333</DURATION>
			<DURATION>0.9333333333333333</DURATION>
			<DURATION>0.9333333333333333</DURATION>
			<DURATION>0.9333333333333333</DURATION>
			<DURATION>0.9333333333333333</DURATION>
			<DURATION>0.9333333333333333</DURATION>
			<DURATION>0.9333333333333333</DURATION>
			<DURATION>0.9333333333333333</DURATION>
			<DURATION>0.9333333333333333</DURATION>
			<DURATION>0.9333333333333333</DURATION>
			<DURATION>0.9333333333333333</DURATION>
			<DURATION>0.9333333333333333</DURATION>
			<DURATION>0.9333333333333333</DURATION>
			<DURATION>0.9333333333333333</DURATION>
			<DURATION>0.9333333333333333</DURATION>
			<DURATION>0.9333333333333333</DURATION>
			<DURATION>0.9333333333333333</DURATION>
			<DURATION>0.9333333333333333</DURATION>
			<DURATION>0.9333333333333333</DURATION>
			<DURATION>0.9333333333333333</DURATION>
			<DURATION>0.95</DURATION>
			<DURATION>0.95</DURATION>
			<DURATION>0.95</DURATION>
			<DURATION>0.95</DURATION>
			<DURATION>0.95</DURATION>
			<DURATION>0.95</DURATION>
			<DURATION>0.95</DURATION>
			<DURATION>0.95</DURATION>
			<DURATION>0.95</DURATION>
			<DURATION>0.95</DURATION>
			<DURATION>0.95</DURATION>
			<DURATION>0.95</DURATION>
			<DURATION>0.95</DURATION>
			<DURATION>0.95</DURATION>
			<DURATION>0.95</DURATION>
			<DURATION>0.95</DURATION>
			<DURATION>0.95</DURATION>
			<DURATION>0.95</DURATION>
			<DURATION>0.95</DURATION>
			<DURATION>0.95</DURATION>
			<DURATION>0.95</DURATION>
			<DURATION>0.95</DURATION>
			<DURATION>0.9666666666666667</DURATION>
			<DURATION>0.9666666666666667</DURATION>
			<DURATION>0.9666666666666667</DURATION>
			<DURATION>0.9666666666666667</DURATION>
			<DURATION>0.9666666666666667</DURATION>
			<DURATION>0.9666666666666667</DURATION>
			<DURATION>0.9666666666666667</DURATION>
			<DURATION>0.9666666666666667</DURATION>
			<DURATION>0.9666666666666667</DURATION>
			<DURATION>0.9666666666666667</DURATION>
			<DURATION>0.9666666666666667</DURATION>
			<DURATION>0.9666666666666667</DURATION>
			<DURATION>0.9666666666666667</DURATION>
			<DURATION>0.9666666666666667</DURATION>
			<DURATION>0.9666666666666667</DURATION>
			<DURATION>0.9666666666666667</DURATION>
			<DURATION>0.9666666666666667</DURATION>
			<DURATION>0.9666666666666667</DURATION>
			<DURATION>0.9666666666666667</DURATION>
			<DURATION>0.9666666666666667</DURATION>
			<DURATION>0.9666666666666667</DURATION>
			<DURATION>0.9666666666666667</DURATION>
			<DURATION>0.9666666666666667</DURATION>
			<DURATION>0.9666666666666667</DURATION>
			<DURATION>0.9666666666666667</DURATION>
			<DURATION>0.9666666666666667</DURATION>
			<DURATION>0.9666666666666667</DURATION>
			<DURATION>0.9666666666666667</DURATION>
			<DURATION>0.9666666666666667</DURATION>
			<DURATION>0.9666666666666667</DURATION>
			<DURATION>0.9666666666666667</DURATION>
			<DURATION>0.9666666666666667</DURATION>
			<DURATION>0.9833333333333333</DURATION>
			<DURATION>0.9833333333333333</DURATION>
			<DURATION>0.9833333333333333</DURATION>
			<DURATION>0.9833333333333333</DURATION>
			<DURATION>0.9833333333333333</DURATION>
			<DURATION>0.9833333333333333</DURATION>
			<DURATION>0.9833333333333333</DURATION>
			<DURATION>0.9833333333333333</DURATION>
			<DURATION>0.9833333333333333</DURATION>
			<DURATION>0.9833333333333333</DURATION>
			<DURATION>0.9833333333333333</DURATION>
			<DURATION>0.9833333333333333</DURATION>
			<DURATION>0.9833333333333333</DURATION>
			<DURATION>0.9833333333333333</DURATION>
			<DURATION>0.9833333333333333</DURATION>
			<DURATION>0.9833333333333333</DURATION>
			<DURATION>1.0</DURATION>
			<DURATION>1.0</DURATION>
			<DURATION>1.0</DURATION>
			<DURATION>1.0</DURATION>
			<DURATION>1.0</DURATION>
			<DURATION>1.0</DURATION>
			<DURATION>1.0</DURATION>
			<DURATION>1.0</DURATION>
			<DURATION>1.0</DURATION>
			<DURATION>1.0</DURATION>
			<DURATION>1.0</DURATION>
			<DURATION>1.0166666666666666</DURATION>
			<DURATION>1.0166666666666666</DURATION>
			<DURATION>1.0166666666666666</DURATION>
			<DURATION>1.0166666666666666</DURATION>
			<DURATION>1.0166666666666666</DURATION>
			<DURATION>1.0166666666666666</DURATION>
			<DURATION>1.0166666666666666</DURATION>
			<DURATION>1.0166666666666666</DURATION>
			<DURATION>1.0166666666666666</DURATION>
			<DURATION>1.0166666666666666</DURATION>
			<DURATION>1.0166666666666666</DURATION>
			<DURATION>1.0333333333333334</DURATION>
			<DURATION>1.0333333333333334</DURATION>
			<DURATION>1.0333333333333334</DURATION>
			<DURATION>1.0333333333333334</DURATION>
			<DURATION>1.0333333333333334</DURATION>
			<DURATION>1.0333333333333334</DURATION>
			<DURATION>1.0333333333333334</DURATION>
			<DURATION>1.0333333333333334</DURATION>
			<DURATION>1.0333333333333334</DURATION>
			<DURATION>1.0333333333333334</DURATION>
			<DURATION>1.0333333333333334</DURATION>
			<DURATION>1.0333333333333334</DURATION>
			<DURATION>1.0333333333333334</DURATION>
			<DURATION>1.0333333333333334</DURATION>
			<DURATION>1.05</DURATION>
			<DURATION>1.05</DURATION>
			<DURATION>1.05</DURATION>
			<DURATION>1.0666666666666667</DURATION>
			<DURATION>1.0666666666666667</DURATION>
			<DURATION>1.0666666666666667</DURATION>
			<DURATION>1.0666666666666667</DURATION>
			<DURATION>1.0666666666666667</DURATION>
			<DURATION>1.0666666666666667</DURATION>
			<DURATION>1.0666666666666667</DURATION>
			<DURATION>1.0666666666666667</DURATION>
			<DURATION>1.0833333333333333</DURATION>
			<DURATION>1.0833333333333333</DURATION>
			<DURATION>1.0833333333333333</DURATION>
			<DURATION>1.0833333333333333</DURATION>
			<DURATION>1.0833333333333333</DURATION>
			<DURATION>1.0833333333333333</DURATION>
			<DURATION>1.0833333333333333</DURATION>
			<DURATION>1.1</DURATION>
			<DURATION>1.1</DURATION>
			<DURATION>1.1</DURATION>
			<DURATION>1.1</DURATION>
			<DURATION>1.1</DURATION>
			<DURATION>1.1</DURATION>
			<DURATION>1.1</DURATION>
			<DURATION>1.1166666666666667</DURATION>
			<DURATION>1.1166666666666667</DURATION>
			<DURATION>1.1166666666666667</DURATION>
			<DURATION>1.1166666666666667</DURATION>
			<DURATION>1.1333333333333333</DURATION>
			<DURATION>1.1333333333333333</DURATION>
			<DURATION>1.1333333333333333</DURATION>
			<DURATION>1.15</DURATION>
			<DURATION>1.15</DURATION>
			<DURATION>1.15</DURATION>
			<DURATION>1.15</DURATION>
			<DURATION>1.15</DURATION>
			<DURATION>1.15</DURATION>
			<DURATION>1.1666666666666667</DURATION>
			<DURATION>1.1666666666666667</DURATION>
			<DURATION>1.1666666666666667</DURATION>
			<DURATION>1.1666666666666667</DURATION>
			<DURATION>1.1666666666666667</DURATION>
			<DURATION>1.1833333333333333</DURATION>
			<DURATION>1.2</DURATION>
			<DURATION>1.2</DURATION>
			<DURATION>1.2</DURATION>
			<DURATION>1.2</DURATION>
			<DURATION>1.2</DURATION>
			<DURATION>1.2166666666666666</DURATION>
			<DURATION>1.2333333333333334</DURATION>
			<DURATION>1.25</DURATION>
			<DURATION>1.25</DURATION>
			<DURATION>1.2666666666666666</DURATION>
			<DURATION>1.2666666666666666</DURATION>
			<DURATION>1.3</DURATION>
			<DURATION>1.3</DURATION>
			<DURATION>1.3166666666666667</DURATION>
			<DURATION>1.3333333333333333</DURATION>
			<DURATION>1.3333333333333333</DURATION>
			<DURATION>1.3333333333333333</DURATION>
			<DURATION>1.35</DURATION>
			<DURATION>1.35</DURATION>
			<DURATION>1.35</DURATION>
			<DURATION>1.3666666666666667</DURATION>
			<DURATION>1.3666666666666667</DURATION>
			<DURATION>1.3833333333333333</DURATION>
			<DURATION>1.4333333333333333</DURATION>
			<DURATION>1.4333333333333333</DURATION>
			<DURATION>1.45</DURATION>
			<DURATION>1.4666666666666666</DURATION>
			<DURATION>1.4666666666666666</DURATION>
			<DURATION>1.4666666666666666</DURATION>
			<DURATION>1.4666666666666666</DURATION>
			<DURATION>1.5333333333333334</DURATION>
			<DURATION>1.5333333333333334</DURATION>
			<DURATION>1.6166666666666667</DURATION>
			<DURATION>1.6333333333333333</DURATION>
			<DURATION>1.6666666666666667</DURATION>
			<DURATION>1.7666666666666666</DURATION>
			<DURATION>1.8</DURATION>
			<DURATION>1.8666666666666667</DURATION>
			<DURATION>2.0</DURATION>
			<DURATION>2.0</DURATION>
			<DURATION>2.1333333333333333</DURATION>
			<DURATION>2.183333333333333</DURATION>
			<DURATION>2.2666666666666666</DURATION>
			<DURATION>2.2666666666666666</DURATION>
			<DURATION>2.316666666666667</DURATION>
			<DURATION>2.316666666666667</DURATION>
			<DURATION>2.35</DURATION>
			<DURATION>2.3666666666666667</DURATION>
			<DURATION>2.4833333333333334</DURATION>
			<DURATION>2.533333333333333</DURATION>
			<DURATION>2.5833333333333335</DURATION>
			<DURATION>2.6666666666666665</DURATION>
			<DURATION>2.683333333333333</DURATION>
			<DURATION>2.7666666666666666</DURATION>
			<DURATION>2.8</DURATION>
			<DURATION>2.9166666666666665</DURATION>
			<DURATION>3.0</DURATION>
			<DURATION>3.1166666666666667</DURATION>
			<DURATION>3.1666666666666665</DURATION>
			<DURATION>3.1666666666666665</DURATION>
			<DURATION>3.283333333333333</DURATION>
			<DURATION>3.316666666666667</DURATION>
			<DURATION>3.3333333333333335</DURATION>
			<DURATION>3.3333333333333335</DURATION>
			<DURATION>3.3666666666666667</DURATION>
			<DURATION>3.3833333333333333</DURATION>
			<DURATION>3.4</DURATION>
			<DURATION>3.4166666666666665</DURATION>
			<DURATION>3.5166666666666666</DURATION>
			<DURATION>3.5166666666666666</DURATION>
			<DURATION>3.533333333333333</DURATION>
			<DURATION>3.55</DURATION>
			<DURATION>3.6166666666666667</DURATION>
			<DURATION>3.6333333333333333</DURATION>
			<DURATION>3.683333333333333</DURATION>
			<DURATION>3.783333333333333</DURATION>
			<DURATION>3.8</DURATION>
			<DURATION>3.816666666666667</DURATION>
			<DURATION>3.8333333333333335</DURATION>
			<DURATION>3.8833333333333333</DURATION>
			<DURATION>3.9833333333333334</DURATION>
			<DURATION>4.0</DURATION>
			<DURATION>4.066666666666666</DURATION>
			<DURATION>4.2</DURATION>
			<DURATION>4.233333333333333</DURATION>
			<DURATION>4.3</DURATION>
			<DURATION>4.3</DURATION>
			<DURATION>4.466666666666667</DURATION>
			<DURATION>4.466666666666667</DURATION>
			<DURATION>4.466666666666667</DURATION>
			<DURATION>4.516666666666667</DURATION>
			<DURATION>4.766666666666667</DURATION>
			<DURATION>4.816666666666666</DURATION>
			<DURATION>5.016666666666667</DURATION>
			<DURATION>5.083333333333333</DURATION>
			<DURATION>5.1</DURATION>
			<DURATION>5.1</DURATION>
			<DURATION>5.15</DURATION>
			<DURATION>5.2</DURATION>
			<DURATION>5.2</DURATION>
			<DURATION>5.216666666666667</DURATION>
			<DURATION>5.233333333333333</DURATION>
			<DURATION>5.25</DURATION>
			<DURATION>5.516666666666667</DURATION>
			<DURATION>5.85</DURATION>
			<DURATION>5.933333333333334</DURATION>
			<DURATION>5.95</DURATION>
			<DURATION>6.35</DURATION>
			<DURATION>6.933333333333334</DURATION>
			<DURATION>6.933333333333334</DURATION>
			<DURATION>6.933333333333334</DURATION>
			<DURATION>7.1</DURATION>
			<DURATION>7.833333333333333</DURATION>
			<DURATION>8.016666666666667</DURATION>
			<DURATION>8.116666666666667</DURATION>
			<DURATION>8.216666666666667</DURATION>
			<DURATION>8.766666666666667</DURATION>
			<DURATION>9.25</DURATION>
			<DURATION>9.65</DURATION>
		</HISTORICAL-DURATIONS>
	</CONSTRAINT>
	<CONSTRAINT>
		<START>28f05052-f568-4403-ab14-9c0088435805</START>
		<END>8f42cfe1-4b4a-40af-b1be-7cb511b8b086</END>
		<ID>5e3c5570-e376-428e-8dba-ecc13d2f5518</ID>
		<NAME>From 70075 to 70077 (Downtown Crossing - to Ashmont/Braintree)</NAME>
		<LOWERBOUND>0.26666666666666666</LOWERBOUND>
		<UPPERBOUND>0.5166666666666667</UPPERBOUND>
		<LB-RELAX-COST-RATIO>0.0</LB-RELAX-COST-RATIO>
		<UB-RELAX-COST-RATIO>0.0</UB-RELAX-COST-RATIO>
		<COST>0.0</COST>
		<TYPE>Uncontrollable;Activity</TYPE>
		<MEAN>0.0</MEAN>
		<DISTRIBUTION>Normal</DISTRIBUTION>
		<VARIANCE>0.0</VARIANCE>
		<HISTORICAL-DURATIONS>
			<DURATION>0.26666666666666666</DURATION>
			<DURATION>0.26666666666666666</DURATION>
			<DURATION>0.26666666666666666</DURATION>
			<DURATION>0.26666666666666666</DURATION>
			<DURATION>0.26666666666666666</DURATION>
			<DURATION>0.26666666666666666</DURATION>
			<DURATION>0.26666666666666666</DURATION>
			<DURATION>0.26666666666666666</DURATION>
			<DURATION>0.2833333333333333</DURATION>
			<DURATION>0.2833333333333333</DURATION>
			<DURATION>0.2833333333333333</DURATION>
			<DURATION>0.2833333333333333</DURATION>
			<DURATION>0.2833333333333333</DURATION>
			<DURATION>0.2833333333333333</DURATION>
			<DURATION>0.2833333333333333</DURATION>
			<DURATION>0.2833333333333333</DURATION>
			<DURATION>0.2833333333333333</DURATION>
			<DURATION>0.2833333333333333</DURATION>
			<DURATION>0.2833333333333333</DURATION>
			<DURATION>0.2833333333333333</DURATION>
			<DURATION>0.2833333333333333</DURATION>
			<DURATION>0.2833333333333333</DURATION>
			<DURATION>0.2833333333333333</DURATION>
			<DURATION>0.2833333333333333</DURATION>
			<DURATION>0.2833333333333333</DURATION>
			<DURATION>0.2833333333333333</DURATION>
			<DURATION>0.2833333333333333</DURATION>
			<DURATION>0.2833333333333333</DURATION>
			<DURATION>0.2833333333333333</DURATION>
			<DURATION>0.2833333333333333</DURATION>
			<DURATION>0.2833333333333333</DURATION>
			<DURATION>0.2833333333333333</DURATION>
			<DURATION>0.2833333333333333</DURATION>
			<DURATION>0.2833333333333333</DURATION>
			<DURATION>0.2833333333333333</DURATION>
			<DURATION>0.2833333333333333</DURATION>
			<DURATION>0.2833333333333333</DURATION>
			<DURATION>0.2833333333333333</DURATION>
			<DURATION>0.2833333333333333</DURATION>
			<DURATION>0.2833333333333333</DURATION>
			<DURATION>0.2833333333333333</DURATION>
			<DURATION>0.2833333333333333</DURATION>
			<DURATION>0.2833333333333333</DURATION>
			<DURATION>0.2833333333333333</DURATION>
			<DURATION>0.2833333333333333</DURATION>
			<DURATION>0.2833333333333333</DURATION>
			<DURATION>0.2833333333333333</DURATION>
			<DURATION>0.2833333333333333</DURATION>
			<DURATION>0.2833333333333333</DURATION>
			<DURATION>0.2833333333333333</DURATION>
			<DURATION>0.2833333333333333</DURATION>
			<DURATION>0.2833333333333333</DURATION>
			<DURATION>0.2833333333333333</DURATION>
			<DURATION>0.2833333333333333</DURATION>
			<DURATION>0.2833333333333333</DURATION>
			<DURATION>0.2833333333333333</DURATION>
			<DURATION>0.2833333333333333</DURATION>
			<DURATION>0.2833333333333333</DURATION>
			<DURATION>0.2833333333333333</DURATION>
			<DURATION>0.2833333333333333</DURATION>
			<DURATION>0.2833333333333333</DURATION>
			<DURATION>0.2833333333333333</DURATION>
			<DURATION>0.2833333333333333</DURATION>
			<DURATION>0.2833333333333333</DURATION>
			<DURATION>0.2833333333333333</DURATION>
			<DURATION>0.2833333333333333</DURATION>
			<DURATION>0.2833333333333333</DURATION>
			<DURATION>0.2833333333333333</DURATION>
			<DURATION>0.2833333333333333</DURATION>
			<DURATION>0.2833333333333333</DURATION>
			<DURATION>0.2833333333333333</DURATION>
			<DURATION>0.2833333333333333</DURATION>
			<DURATION>0.2833333333333333</DURATION>
			<DURATION>0.2833333333333333</DURATION>
			<DURATION>0.2833333333333333</DURATION>
			<DURATION>0.2833333333333333</DURATION>
			<DURATION>0.2833333333333333</DURATION>
			<DURATION>0.2833333333333333</DURATION>
			<DURATION>0.2833333333333333</DURATION>
			<DURATION>0.2833333333333333</DURATION>
			<DURATION>0.2833333333333333</DURATION>
			<DURATION>0.2833333333333333</DURATION>
			<DURATION>0.2833333333333333</DURATION>
			<DURATION>0.2833333333333333</DURATION>
			<DURATION>0.2833333333333333</DURATION>
			<DURATION>0.2833333333333333</DURATION>
			<DURATION>0.2833333333333333</DURATION>
			<DURATION>0.2833333333333333</DURATION>
			<DURATION>0.2833333333333333</DURATION>
			<DURATION>0.2833333333333333</DURATION>
			<DURATION>0.2833333333333333</DURATION>
			<DURATION>0.2833333333333333</DURATION>
			<DURATION>0.2833333333333333</DURATION>
			<DURATION>0.2833333333333333</DURATION>
			<DURATION>0.2833333333333333</DURATION>
			<DURATION>0.2833333333333333</DURATION>
			<DURATION>0.2833333333333333</DURATION>
			<DURATION>0.2833333333333333</DURATION>
			<DURATION>0.2833333333333333</DURATION>
			<DURATION>0.2833333333333333</DURATION>
			<DURATION>0.2833333333333333</DURATION>
			<DURATION>0.2833333333333333</DURATION>
			<DURATION>0.2833333333333333</DURATION>
			<DURATION>0.2833333333333333</DURATION>
			<DURATION>0.2833333333333333</DURATION>
			<DURATION>0.2833333333333333</DURATION>
			<DURATION>0.2833333333333333</DURATION>
			<DURATION>0.2833333333333333</DURATION>
			<DURATION>0.2833333333333333</DURATION>
			<DURATION>0.2833333333333333</DURATION>
			<DURATION>0.2833333333333333</DURATION>
			<DURATION>0.2833333333333333</DURATION>
			<DURATION>0.2833333333333333</DURATION>
			<DURATION>0.2833333333333333</DURATION>
			<DURATION>0.2833333333333333</DURATION>
			<DURATION>0.2833333333333333</DURATION>
			<DURATION>0.2833333333333333</DURATION>
			<DURATION>0.2833333333333333</DURATION>
			<DURATION>0.2833333333333333</DURATION>
			<DURATION>0.2833333333333333</DURATION>
			<DURATION>0.2833333333333333</DURATION>
			<DURATION>0.2833333333333333</DURATION>
			<DURATION>0.2833333333333333</DURATION>
			<DURATION>0.2833333333333333</DURATION>
			<DURATION>0.2833333333333333</DURATION>
			<DURATION>0.2833333333333333</DURATION>
			<DURATION>0.2833333333333333</DURATION>
			<DURATION>0.2833333333333333</DURATION>
			<DURATION>0.2833333333333333</DURATION>
			<DURATION>0.2833333333333333</DURATION>
			<DURATION>0.2833333333333333</DURATION>
			<DURATION>0.2833333333333333</DURATION>
			<DURATION>0.2833333333333333</DURATION>
			<DURATION>0.2833333333333333</DURATION>
			<DURATION>0.2833333333333333</DURATION>
			<DURATION>0.2833333333333333</DURATION>
			<DURATION>0.2833333333333333</DURATION>
			<DURATION>0.2833333333333333</DURATION>
			<DURATION>0.2833333333333333</DURATION>
			<DURATION>0.2833333333333333</DURATION>
			<DURATION>0.2833333333333333</DURATION>
			<DURATION>0.2833333333333333</DURATION>
			<DURATION>0.2833333333333333</DURATION>
			<DURATION>0.2833333333333333</DURATION>
			<DURATION>0.2833333333333333</DURATION>
			<DURATION>0.2833333333333333</DURATION>
			<DURATION>0.2833333333333333</DURATION>
			<DURATION>0.2833333333333333</DURATION>
			<DURATION>0.2833333333333333</DURATION>
			<DURATION>0.2833333333333333</DURATION>
			<DURATION>0.2833333333333333</DURATION>
			<DURATION>0.2833333333333333</DURATION>
			<DURATION>0.2833333333333333</DURATION>
			<DURATION>0.2833333333333333</DURATION>
			<DURATION>0.2833333333333333</DURATION>
			<DURATION>0.2833333333333333</DURATION>
			<DURATION>0.2833333333333333</DURATION>
			<DURATION>0.2833333333333333</DURATION>
			<DURATION>0.2833333333333333</DURATION>
			<DURATION>0.2833333333333333</DURATION>
			<DURATION>0.2833333333333333</DURATION>
			<DURATION>0.2833333333333333</DURATION>
			<DURATION>0.2833333333333333</DURATION>
			<DURATION>0.2833333333333333</DURATION>
			<DURATION>0.2833333333333333</DURATION>
			<DURATION>0.2833333333333333</DURATION>
			<DURATION>0.2833333333333333</DURATION>
			<DURATION>0.2833333333333333</DURATION>
			<DURATION>0.2833333333333333</DURATION>
			<DURATION>0.2833333333333333</DURATION>
			<DURATION>0.2833333333333333</DURATION>
			<DURATION>0.2833333333333333</DURATION>
			<DURATION>0.2833333333333333</DURATION>
			<DURATION>0.2833333333333333</DURATION>
			<DURATION>0.2833333333333333</DURATION>
			<DURATION>0.2833333333333333</DURATION>
			<DURATION>0.2833333333333333</DURATION>
			<DURATION>0.2833333333333333</DURATION>
			<DURATION>0.2833333333333333</DURATION>
			<DURATION>0.2833333333333333</DURATION>
			<DURATION>0.2833333333333333</DURATION>
			<DURATION>0.2833333333333333</DURATION>
			<DURATION>0.2833333333333333</DURATION>
			<DURATION>0.2833333333333333</DURATION>
			<DURATION>0.2833333333333333</DURATION>
			<DURATION>0.2833333333333333</DURATION>
			<DURATION>0.2833333333333333</DURATION>
			<DURATION>0.2833333333333333</DURATION>
			<DURATION>0.2833333333333333</DURATION>
			<DURATION>0.2833333333333333</DURATION>
			<DURATION>0.2833333333333333</DURATION>
			<DURATION>0.2833333333333333</DURATION>
			<DURATION>0.2833333333333333</DURATION>
			<DURATION>0.2833333333333333</DURATION>
			<DURATION>0.2833333333333333</DURATION>
			<DURATION>0.2833333333333333</DURATION>
			<DURATION>0.2833333333333333</DURATION>
			<DURATION>0.2833333333333333</DURATION>
			<DURATION>0.2833333333333333</DURATION>
			<DURATION>0.2833333333333333</DURATION>
			<DURATION>0.2833333333333333</DURATION>
			<DURATION>0.2833333333333333</DURATION>
			<DURATION>0.2833333333333333</DURATION>
			<DURATION>0.2833333333333333</DURATION>
			<DURATION>0.2833333333333333</DURATION>
			<DURATION>0.2833333333333333</DURATION>
			<DURATION>0.2833333333333333</DURATION>
			<DURATION>0.2833333333333333</DURATION>
			<DURATION>0.3</DURATION>
			<DURATION>0.3</DURATION>
			<DURATION>0.3</DURATION>
			<DURATION>0.3</DURATION>
			<DURATION>0.3</DURATION>
			<DURATION>0.3</DURATION>
			<DURATION>0.3</DURATION>
			<DURATION>0.3</DURATION>
			<DURATION>0.3</DURATION>
			<DURATION>0.3</DURATION>
			<DURATION>0.3</DURATION>
			<DURATION>0.3</DURATION>
			<DURATION>0.3</DURATION>
			<DURATION>0.3</DURATION>
			<DURATION>0.3</DURATION>
			<DURATION>0.3</DURATION>
			<DURATION>0.3</DURATION>
			<DURATION>0.3</DURATION>
			<DURATION>0.3</DURATION>
			<DURATION>0.3</DURATION>
			<DURATION>0.3</DURATION>
			<DURATION>0.3</DURATION>
			<DURATION>0.3</DURATION>
			<DURATION>0.3</DURATION>
			<DURATION>0.3</DURATION>
			<DURATION>0.3</DURATION>
			<DURATION>0.3</DURATION>
			<DURATION>0.3</DURATION>
			<DURATION>0.3</DURATION>
			<DURATION>0.3</DURATION>
			<DURATION>0.3</DURATION>
			<DURATION>0.3</DURATION>
			<DURATION>0.3</DURATION>
			<DURATION>0.3</DURATION>
			<DURATION>0.3</DURATION>
			<DURATION>0.3</DURATION>
			<DURATION>0.3</DURATION>
			<DURATION>0.3</DURATION>
			<DURATION>0.3</DURATION>
			<DURATION>0.3</DURATION>
			<DURATION>0.3</DURATION>
			<DURATION>0.3</DURATION>
			<DURATION>0.3</DURATION>
			<DURATION>0.3</DURATION>
			<DURATION>0.3</DURATION>
			<DURATION>0.3</DURATION>
			<DURATION>0.3</DURATION>
			<DURATION>0.3</DURATION>
			<DURATION>0.3</DURATION>
			<DURATION>0.3</DURATION>
			<DURATION>0.3</DURATION>
			<DURATION>0.3</DURATION>
			<DURATION>0.3</DURATION>
			<DURATION>0.3</DURATION>
			<DURATION>0.3</DURATION>
			<DURATION>0.3</DURATION>
			<DURATION>0.3</DURATION>
			<DURATION>0.3</DURATION>
			<DURATION>0.3</DURATION>
			<DURATION>0.3</DURATION>
			<DURATION>0.3</DURATION>
			<DURATION>0.3</DURATION>
			<DURATION>0.3</DURATION>
			<DURATION>0.3</DURATION>
			<DURATION>0.3</DURATION>
			<DURATION>0.3</DURATION>
			<DURATION>0.3</DURATION>
			<DURATION>0.3</DURATION>
			<DURATION>0.3</DURATION>
			<DURATION>0.3</DURATION>
			<DURATION>0.3</DURATION>
			<DURATION>0.3</DURATION>
			<DURATION>0.3</DURATION>
			<DURATION>0.3</DURATION>
			<DURATION>0.3</DURATION>
			<DURATION>0.3</DURATION>
			<DURATION>0.3</DURATION>
			<DURATION>0.3</DURATION>
			<DURATION>0.3</DURATION>
			<DURATION>0.3</DURATION>
			<DURATION>0.3</DURATION>
			<DURATION>0.3</DURATION>
			<DURATION>0.3</DURATION>
			<DURATION>0.3</DURATION>
			<DURATION>0.3</DURATION>
			<DURATION>0.3</DURATION>
			<DURATION>0.3</DURATION>
			<DURATION>0.3</DURATION>
			<DURATION>0.3</DURATION>
			<DURATION>0.3</DURATION>
			<DURATION>0.3</DURATION>
			<DURATION>0.3</DURATION>
			<DURATION>0.3</DURATION>
			<DURATION>0.3</DURATION>
			<DURATION>0.3</DURATION>
			<DURATION>0.3</DURATION>
			<DURATION>0.3</DURATION>
			<DURATION>0.3</DURATION>
			<DURATION>0.3</DURATION>
			<DURATION>0.3</DURATION>
			<DURATION>0.3</DURATION>
			<DURATION>0.3</DURATION>
			<DURATION>0.3</DURATION>
			<DURATION>0.3</DURATION>
			<DURATION>0.3</DURATION>
			<DURATION>0.3</DURATION>
			<DURATION>0.3</DURATION>
			<DURATION>0.3</DURATION>
			<DURATION>0.3</DURATION>
			<DURATION>0.3</DURATION>
			<DURATION>0.3</DURATION>
			<DURATION>0.3</DURATION>
			<DURATION>0.3</DURATION>
			<DURATION>0.3</DURATION>
			<DURATION>0.3</DURATION>
			<DURATION>0.3</DURATION>
			<DURATION>0.3</DURATION>
			<DURATION>0.3</DURATION>
			<DURATION>0.3</DURATION>
			<DURATION>0.3</DURATION>
			<DURATION>0.3</DURATION>
			<DURATION>0.3</DURATION>
			<DURATION>0.3</DURATION>
			<DURATION>0.3</DURATION>
			<DURATION>0.3</DURATION>
			<DURATION>0.3</DURATION>
			<DURATION>0.3</DURATION>
			<DURATION>0.3</DURATION>
			<DURATION>0.3</DURATION>
			<DURATION>0.3</DURATION>
			<DURATION>0.3</DURATION>
			<DURATION>0.3</DURATION>
			<DURATION>0.3</DURATION>
			<DURATION>0.3</DURATION>
			<DURATION>0.3</DURATION>
			<DURATION>0.3</DURATION>
			<DURATION>0.3</DURATION>
			<DURATION>0.3</DURATION>
			<DURATION>0.3</DURATION>
			<DURATION>0.3</DURATION>
			<DURATION>0.3</DURATION>
			<DURATION>0.3</DURATION>
			<DURATION>0.3</DURATION>
			<DURATION>0.3</DURATION>
			<DURATION>0.3</DURATION>
			<DURATION>0.3</DURATION>
			<DURATION>0.3</DURATION>
			<DURATION>0.3</DURATION>
			<DURATION>0.3</DURATION>
			<DURATION>0.3</DURATION>
			<DURATION>0.3</DURATION>
			<DURATION>0.3</DURATION>
			<DURATION>0.3</DURATION>
			<DURATION>0.3</DURATION>
			<DURATION>0.3</DURATION>
			<DURATION>0.3</DURATION>
			<DURATION>0.3</DURATION>
			<DURATION>0.3</DURATION>
			<DURATION>0.3</DURATION>
			<DURATION>0.3</DURATION>
			<DURATION>0.3</DURATION>
			<DURATION>0.3</DURATION>
			<DURATION>0.3</DURATION>
			<DURATION>0.3</DURATION>
			<DURATION>0.3</DURATION>
			<DURATION>0.3</DURATION>
			<DURATION>0.3</DURATION>
			<DURATION>0.3</DURATION>
			<DURATION>0.3</DURATION>
			<DURATION>0.3</DURATION>
			<DURATION>0.3</DURATION>
			<DURATION>0.3</DURATION>
			<DURATION>0.3</DURATION>
			<DURATION>0.3</DURATION>
			<DURATION>0.3</DURATION>
			<DURATION>0.3</DURATION>
			<DURATION>0.3</DURATION>
			<DURATION>0.3</DURATION>
			<DURATION>0.3</DURATION>
			<DURATION>0.3</DURATION>
			<DURATION>0.3</DURATION>
			<DURATION>0.3</DURATION>
			<DURATION>0.3</DURATION>
			<DURATION>0.3</DURATION>
			<DURATION>0.3</DURATION>
			<DURATION>0.3</DURATION>
			<DURATION>0.3</DURATION>
			<DURATION>0.3</DURATION>
			<DURATION>0.3</DURATION>
			<DURATION>0.3</DURATION>
			<DURATION>0.3</DURATION>
			<DURATION>0.3</DURATION>
			<DURATION>0.3</DURATION>
			<DURATION>0.3</DURATION>
			<DURATION>0.3</DURATION>
			<DURATION>0.3</DURATION>
			<DURATION>0.3</DURATION>
			<DURATION>0.3</DURATION>
			<DURATION>0.3</DURATION>
			<DURATION>0.3</DURATION>
			<DURATION>0.3</DURATION>
			<DURATION>0.3</DURATION>
			<DURATION>0.3</DURATION>
			<DURATION>0.3</DURATION>
			<DURATION>0.3</DURATION>
			<DURATION>0.3</DURATION>
			<DURATION>0.3</DURATION>
			<DURATION>0.3</DURATION>
			<DURATION>0.3</DURATION>
			<DURATION>0.3</DURATION>
			<DURATION>0.3</DURATION>
			<DURATION>0.3</DURATION>
			<DURATION>0.3</DURATION>
			<DURATION>0.3</DURATION>
			<DURATION>0.3</DURATION>
			<DURATION>0.3</DURATION>
			<DURATION>0.3</DURATION>
			<DURATION>0.3</DURATION>
			<DURATION>0.3</DURATION>
			<DURATION>0.3</DURATION>
			<DURATION>0.3</DURATION>
			<DURATION>0.3</DURATION>
			<DURATION>0.3</DURATION>
			<DURATION>0.3</DURATION>
			<DURATION>0.3</DURATION>
			<DURATION>0.3</DURATION>
			<DURATION>0.3</DURATION>
			<DURATION>0.3</DURATION>
			<DURATION>0.3</DURATION>
			<DURATION>0.3</DURATION>
			<DURATION>0.3</DURATION>
			<DURATION>0.3</DURATION>
			<DURATION>0.3</DURATION>
			<DURATION>0.3</DURATION>
			<DURATION>0.3</DURATION>
			<DURATION>0.3</DURATION>
			<DURATION>0.31666666666666665</DURATION>
			<DURATION>0.31666666666666665</DURATION>
			<DURATION>0.31666666666666665</DURATION>
			<DURATION>0.31666666666666665</DURATION>
			<DURATION>0.31666666666666665</DURATION>
			<DURATION>0.31666666666666665</DURATION>
			<DURATION>0.31666666666666665</DURATION>
			<DURATION>0.31666666666666665</DURATION>
			<DURATION>0.31666666666666665</DURATION>
			<DURATION>0.31666666666666665</DURATION>
			<DURATION>0.31666666666666665</DURATION>
			<DURATION>0.31666666666666665</DURATION>
			<DURATION>0.31666666666666665</DURATION>
			<DURATION>0.31666666666666665</DURATION>
			<DURATION>0.31666666666666665</DURATION>
			<DURATION>0.31666666666666665</DURATION>
			<DURATION>0.31666666666666665</DURATION>
			<DURATION>0.31666666666666665</DURATION>
			<DURATION>0.31666666666666665</DURATION>
			<DURATION>0.31666666666666665</DURATION>
			<DURATION>0.31666666666666665</DURATION>
			<DURATION>0.31666666666666665</DURATION>
			<DURATION>0.31666666666666665</DURATION>
			<DURATION>0.31666666666666665</DURATION>
			<DURATION>0.31666666666666665</DURATION>
			<DURATION>0.31666666666666665</DURATION>
			<DURATION>0.31666666666666665</DURATION>
			<DURATION>0.31666666666666665</DURATION>
			<DURATION>0.31666666666666665</DURATION>
			<DURATION>0.31666666666666665</DURATION>
			<DURATION>0.31666666666666665</DURATION>
			<DURATION>0.31666666666666665</DURATION>
			<DURATION>0.31666666666666665</DURATION>
			<DURATION>0.31666666666666665</DURATION>
			<DURATION>0.31666666666666665</DURATION>
			<DURATION>0.31666666666666665</DURATION>
			<DURATION>0.31666666666666665</DURATION>
			<DURATION>0.31666666666666665</DURATION>
			<DURATION>0.31666666666666665</DURATION>
			<DURATION>0.31666666666666665</DURATION>
			<DURATION>0.31666666666666665</DURATION>
			<DURATION>0.31666666666666665</DURATION>
			<DURATION>0.31666666666666665</DURATION>
			<DURATION>0.31666666666666665</DURATION>
			<DURATION>0.31666666666666665</DURATION>
			<DURATION>0.31666666666666665</DURATION>
			<DURATION>0.31666666666666665</DURATION>
			<DURATION>0.31666666666666665</DURATION>
			<DURATION>0.31666666666666665</DURATION>
			<DURATION>0.31666666666666665</DURATION>
			<DURATION>0.31666666666666665</DURATION>
			<DURATION>0.31666666666666665</DURATION>
			<DURATION>0.31666666666666665</DURATION>
			<DURATION>0.31666666666666665</DURATION>
			<DURATION>0.31666666666666665</DURATION>
			<DURATION>0.31666666666666665</DURATION>
			<DURATION>0.31666666666666665</DURATION>
			<DURATION>0.31666666666666665</DURATION>
			<DURATION>0.31666666666666665</DURATION>
			<DURATION>0.3333333333333333</DURATION>
			<DURATION>0.3333333333333333</DURATION>
			<DURATION>0.3333333333333333</DURATION>
			<DURATION>0.3333333333333333</DURATION>
			<DURATION>0.3333333333333333</DURATION>
			<DURATION>0.3333333333333333</DURATION>
			<DURATION>0.3333333333333333</DURATION>
			<DURATION>0.3333333333333333</DURATION>
			<DURATION>0.3333333333333333</DURATION>
			<DURATION>0.3333333333333333</DURATION>
			<DURATION>0.3333333333333333</DURATION>
			<DURATION>0.3333333333333333</DURATION>
			<DURATION>0.3333333333333333</DURATION>
			<DURATION>0.35</DURATION>
			<DURATION>0.35</DURATION>
			<DURATION>0.35</DURATION>
			<DURATION>0.35</DURATION>
			<DURATION>0.35</DURATION>
			<DURATION>0.35</DURATION>
			<DURATION>0.35</DURATION>
			<DURATION>0.36666666666666664</DURATION>
			<DURATION>0.36666666666666664</DURATION>
			<DURATION>0.36666666666666664</DURATION>
			<DURATION>0.36666666666666664</DURATION>
			<DURATION>0.36666666666666664</DURATION>
			<DURATION>0.38333333333333336</DURATION>
			<DURATION>0.4</DURATION>
			<DURATION>0.4</DURATION>
			<DURATION>0.4166666666666667</DURATION>
			<DURATION>0.43333333333333335</DURATION>
			<DURATION>0.4666666666666667</DURATION>
			<DURATION>0.48333333333333334</DURATION>
			<DURATION>0.5166666666666667</DURATION>
			<DURATION>0.5166666666666667</DURATION>
			<DURATION>0.55</DURATION>
			<DURATION>0.6</DURATION>
			<DURATION>0.6166666666666667</DURATION>
			<DURATION>0.6333333333333333</DURATION>
			<DURATION>0.6333333333333333</DURATION>
			<DURATION>0.65</DURATION>
			<DURATION>0.6666666666666666</DURATION>
			<DURATION>0.6833333333333333</DURATION>
			<DURATION>0.6833333333333333</DURATION>
		</HISTORICAL-DURATIONS>
	</CONSTRAINT>
	<CONSTRAINT>
		<START>945a440a-c3ba-4d67-a7c7-fbd39b43a0a1</START>
		<END>2cd60c7b-6d69-48f8-8981-aee30f0e4d47</END>
		<ID>7378afba-8ebe-42dd-9b60-d1c29725b201</ID>
		<NAME>Wait for Departure Origin</NAME>
		<LOWERBOUND>0.0</LOWERBOUND>
		<UPPERBOUND>0.01</UPPERBOUND>
		<UBRELAXABLE>T</UBRELAXABLE>
		<LB-RELAX-COST-RATIO>0.0</LB-RELAX-COST-RATIO>
		<UB-RELAX-COST-RATIO>0.0</UB-RELAX-COST-RATIO>
		<COST>0.0</COST>
		<TYPE>Controllable;Activity</TYPE>
		<MEAN>0.0</MEAN>
	</CONSTRAINT>
	<CONSTRAINT>
		<START>88d0536a-d4cb-42c8-8e6d-5c0ef5e92b2f</START>
		<END>5d1d753e-7fdb-4208-a7c0-2c07cddeff19</END>
		<ID>8e174ee2-e71f-44c7-9026-5b62adc0ccf5</ID>
		<NAME>30453702 Wait for departure at 70071</NAME>
		<LOWERBOUND>0.0</LOWERBOUND>
		<UPPERBOUND>0.01</UPPERBOUND>
		<UBRELAXABLE>T</UBRELAXABLE>
		<LB-RELAX-COST-RATIO>0.0</LB-RELAX-COST-RATIO>
		<UB-RELAX-COST-RATIO>0.1</UB-RELAX-COST-RATIO>
		<COST>0.0</COST>
		<TYPE>Controllable;Constraint</TYPE>
		<MEAN>0.0</MEAN>
	</CONSTRAINT>
	<CONSTRAINT>
		<START>8f42cfe1-4b4a-40af-b1be-7cb511b8b086</START>
		<END>63d51fdd-4e85-42ab-94d4-349b470ddc0f</END>
		<ID>c50da046-871f-4dde-bd40-41047f09ee09</ID>
		<NAME>Trip Complete</NAME>
		<LOWERBOUND>0.0</LOWERBOUND>
		<UPPERBOUND>Infinity</UPPERBOUND>
		<LB-RELAX-COST-RATIO>0.0</LB-RELAX-COST-RATIO>
		<UB-RELAX-COST-RATIO>0.0</UB-RELAX-COST-RATIO>
		<COST>0.0</COST>
		<TYPE>Controllable;Constraint</TYPE>
		<MEAN>0.0</MEAN>
	</CONSTRAINT>
	<CONSTRAINT>
		<START>2cd60c7b-6d69-48f8-8981-aee30f0e4d47</START>
		<END>8e8e9f37-a5f1-4306-8acd-e262d5491d80</END>
		<ID>acdca4e8-7d26-4e94-bd25-8427a587442c</ID>
		<NAME>Dwell at 70061 (Alewife)</NAME>
		<LOWERBOUND>0.5</LOWERBOUND>
		<UPPERBOUND>0.5</UPPERBOUND>
		<LB-RELAX-COST-RATIO>0.0</LB-RELAX-COST-RATIO>
		<UB-RELAX-COST-RATIO>0.0</UB-RELAX-COST-RATIO>
		<COST>0.0</COST>
		<TYPE>Uncontrollable;Activity</TYPE>
		<MEAN>0.0</MEAN>
		<DISTRIBUTION>Normal</DISTRIBUTION>
		<VARIANCE>0.0</VARIANCE>
	</CONSTRAINT>
	<CONSTRAINT>
		<START>8e8e9f37-a5f1-4306-8acd-e262d5491d80</START>
		<END>459a19c8-8360-4c64-87c9-ac6a533076b6</END>
		<ID>b9d94cfb-a7a4-44e3-bc8d-fda039d517de</ID>
		<NAME>30453702 Wait for departure at 70061</NAME>
		<LOWERBOUND>0.0</LOWERBOUND>
		<UPPERBOUND>0.01</UPPERBOUND>
		<UBRELAXABLE>T</UBRELAXABLE>
		<LB-RELAX-COST-RATIO>0.0</LB-RELAX-COST-RATIO>
		<UB-RELAX-COST-RATIO>0.1</UB-RELAX-COST-RATIO>
		<COST>0.0</COST>
		<TYPE>Controllable;Constraint</TYPE>
		<MEAN>0.0</MEAN>
	</CONSTRAINT>
	<CONSTRAINT>
		<START>945a440a-c3ba-4d67-a7c7-fbd39b43a0a1</START>
		<END>0e91bfd0-95fb-4b64-a49f-46480209223c</END>
		<ID>d0f970f6-eb89-4c07-8005-6b3c5b3cfa25</ID>
		<NAME>Trip 30453702 Arrive at stop 70071 on 05:29</NAME>
		<LOWERBOUND>328.9</LOWERBOUND>
		<UPPERBOUND>329.1</UPPERBOUND>
		<LBRELAXABLE>T</LBRELAXABLE>
		<UBRELAXABLE>T</UBRELAXABLE>
		<LB-RELAX-COST-RATIO>10.0</LB-RELAX-COST-RATIO>
		<UB-RELAX-COST-RATIO>10.0</UB-RELAX-COST-RATIO>
		<COST>0.0</COST>
		<TYPE>Controllable;Constraint</TYPE>
		<MEAN>0.0</MEAN>
	</CONSTRAINT>
	<CONSTRAINT>
		<START>386bf88e-fdae-47b2-b239-24aa25e025ed</START>
		<END>30395b27-96bc-45cd-9eba-ab07cd1d8e67</END>
		<ID>385fdeb8-7093-414a-96c3-507c6a54cbf7</ID>
		<NAME>30453702 Wait for departure at 70063</NAME>
		<LOWERBOUND>0.0</LOWERBOUND>
		<UPPERBOUND>0.01</UPPERBOUND>
		<UBRELAXABLE>T</UBRELAXABLE>
		<LB-RELAX-COST-RATIO>0.0</LB-RELAX-COST-RATIO>
		<UB-RELAX-COST-RATIO>0.1</UB-RELAX-COST-RATIO>
		<COST>0.0</COST>
		<TYPE>Controllable;Constraint</TYPE>
		<MEAN>0.0</MEAN>
	</CONSTRAINT>
	<CONSTRAINT>
		<START>941d06bd-9d00-4d0d-bb99-a49369a7e901</START>
		<END>ce10c4bb-1002-4d52-a9d4-3f8a5e2835ed</END>
		<ID>8e91a37b-7364-4311-a5fb-38a9eef45ea2</ID>
		<NAME>From 70067 to 70069 (Central - Inbound)</NAME>
		<LOWERBOUND>1.0166666666666666</LOWERBOUND>
		<UPPERBOUND>2.683333333333333</UPPERBOUND>
		<LB-RELAX-COST-RATIO>0.0</LB-RELAX-COST-RATIO>
		<UB-RELAX-COST-RATIO>0.0</UB-RELAX-COST-RATIO>
		<COST>0.0</COST>
		<TYPE>Uncontrollable;Activity</TYPE>
		<MEAN>0.0</MEAN>
		<DISTRIBUTION>Normal</DISTRIBUTION>
		<VARIANCE>0.0</VARIANCE>
		<HISTORICAL-DURATIONS>
			<DURATION>1.0166666666666666</DURATION>
			<DURATION>2.05</DURATION>
			<DURATION>2.0833333333333335</DURATION>
			<DURATION>2.1</DURATION>
			<DURATION>2.1</DURATION>
			<DURATION>2.1166666666666667</DURATION>
			<DURATION>2.1166666666666667</DURATION>
			<DURATION>2.1166666666666667</DURATION>
			<DURATION>2.1166666666666667</DURATION>
			<DURATION>2.1166666666666667</DURATION>
			<DURATION>2.1166666666666667</DURATION>
			<DURATION>2.1166666666666667</DURATION>
			<DURATION>2.1166666666666667</DURATION>
			<DURATION>2.1666666666666665</DURATION>
			<DURATION>2.1666666666666665</DURATION>
			<DURATION>2.1666666666666665</DURATION>
			<DURATION>2.183333333333333</DURATION>
			<DURATION>2.183333333333333</DURATION>
			<DURATION>2.183333333333333</DURATION>
			<DURATION>2.183333333333333</DURATION>
			<DURATION>2.183333333333333</DURATION>
			<DURATION>2.183333333333333</DURATION>
			<DURATION>2.183333333333333</DURATION>
			<DURATION>2.183333333333333</DURATION>
			<DURATION>2.183333333333333</DURATION>
			<DURATION>2.183333333333333</DURATION>
			<DURATION>2.2</DURATION>
			<DURATION>2.2</DURATION>
			<DURATION>2.2</DURATION>
			<DURATION>2.2</DURATION>
			<DURATION>2.2</DURATION>
			<DURATION>2.2</DURATION>
			<DURATION>2.2</DURATION>
			<DURATION>2.2</DURATION>
			<DURATION>2.2</DURATION>
			<DURATION>2.2</DURATION>
			<DURATION>2.2</DURATION>
			<DURATION>2.2</DURATION>
			<DURATION>2.2</DURATION>
			<DURATION>2.2</DURATION>
			<DURATION>2.2</DURATION>
			<DURATION>2.2</DURATION>
			<DURATION>2.2</DURATION>
			<DURATION>2.2</DURATION>
			<DURATION>2.216666666666667</DURATION>
			<DURATION>2.216666666666667</DURATION>
			<DURATION>2.216666666666667</DURATION>
			<DURATION>2.216666666666667</DURATION>
			<DURATION>2.216666666666667</DURATION>
			<DURATION>2.216666666666667</DURATION>
			<DURATION>2.216666666666667</DURATION>
			<DURATION>2.216666666666667</DURATION>
			<DURATION>2.216666666666667</DURATION>
			<DURATION>2.216666666666667</DURATION>
			<DURATION>2.216666666666667</DURATION>
			<DURATION>2.216666666666667</DURATION>
			<DURATION>2.216666666666667</DURATION>
			<DURATION>2.216666666666667</DURATION>
			<DURATION>2.216666666666667</DURATION>
			<DURATION>2.216666666666667</DURATION>
			<DURATION>2.216666666666667</DURATION>
			<DURATION>2.216666666666667</DURATION>
			<DURATION>2.216666666666667</DURATION>
			<DURATION>2.216666666666667</DURATION>
			<DURATION>2.216666666666667</DURATION>
			<DURATION>2.216666666666667</DURATION>
			<DURATION>2.216666666666667</DURATION>
			<DURATION>2.216666666666667</DURATION>
			<DURATION>2.216666666666667</DURATION>
			<DURATION>2.216666666666667</DURATION>
			<DURATION>2.216666666666667</DURATION>
			<DURATION>2.2333333333333334</DURATION>
			<DURATION>2.2333333333333334</DURATION>
			<DURATION>2.2333333333333334</DURATION>
			<DURATION>2.2333333333333334</DURATION>
			<DURATION>2.2333333333333334</DURATION>
			<DURATION>2.2333333333333334</DURATION>
			<DURATION>2.2333333333333334</DURATION>
			<DURATION>2.2333333333333334</DURATION>
			<DURATION>2.2333333333333334</DURATION>
			<DURATION>2.2333333333333334</DURATION>
			<DURATION>2.2333333333333334</DURATION>
			<DURATION>2.2333333333333334</DURATION>
			<DURATION>2.2333333333333334</DURATION>
			<DURATION>2.2333333333333334</DURATION>
			<DURATION>2.2333333333333334</DURATION>
			<DURATION>2.2333333333333334</DURATION>
			<DURATION>2.2333333333333334</DURATION>
			<DURATION>2.2333333333333334</DURATION>
			<DURATION>2.2333333333333334</DURATION>
			<DURATION>2.25</DURATION>
			<DURATION>2.25</DURATION>
			<DURATION>2.25</DURATION>
			<DURATION>2.25</DURATION>
			<DURATION>2.25</DURATION>
			<DURATION>2.25</DURATION>
			<DURATION>2.25</DURATION>
			<DURATION>2.25</DURATION>
			<DURATION>2.25</DURATION>
			<DURATION>2.25</DURATION>
			<DURATION>2.25</DURATION>
			<DURATION>2.25</DURATION>
			<DURATION>2.25</DURATION>
			<DURATION>2.25</DURATION>
			<DURATION>2.25</DURATION>
			<DURATION>2.25</DURATION>
			<DURATION>2.25</DURATION>
			<DURATION>2.25</DURATION>
			<DURATION>2.25</DURATION>
			<DURATION>2.2666666666666666</DURATION>
			<DURATION>2.2666666666666666</DURATION>
			<DURATION>2.2666666666666666</DURATION>
			<DURATION>2.2666666666666666</DURATION>
			<DURATION>2.2666666666666666</DURATION>
			<DURATION>2.2666666666666666</DURATION>
			<DURATION>2.2666666666666666</DURATION>
			<DURATION>2.283333333333333</DURATION>
			<DURATION>2.283333333333333</DURATION>
			<DURATION>2.283333333333333</DURATION>
			<DURATION>2.283333333333333</DURATION>
			<DURATION>2.283333333333333</DURATION>
			<DURATION>2.283333333333333</DURATION>
			<DURATION>2.3</DURATION>
			<DURATION>2.3</DURATION>
			<DURATION>2.3</DURATION>
			<DURATION>2.3</DURATION>
			<DURATION>2.3</DURATION>
			<DURATION>2.3</DURATION>
			<DURATION>2.3</DURATION>
			<DURATION>2.316666666666667</DURATION>
			<DURATION>2.316666666666667</DURATION>
			<DURATION>2.316666666666667</DURATION>
			<DURATION>2.316666666666667</DURATION>
			<DURATION>2.316666666666667</DURATION>
			<DURATION>2.316666666666667</DURATION>
			<DURATION>2.316666666666667</DURATION>
			<DURATION>2.316666666666667</DURATION>
			<DURATION>2.316666666666667</DURATION>
			<DURATION>2.3333333333333335</DURATION>
			<DURATION>2.3333333333333335</DURATION>
			<DURATION>2.3333333333333335</DURATION>
			<DURATION>2.3333333333333335</DURATION>
			<DURATION>2.3333333333333335</DURATION>
			<DURATION>2.3333333333333335</DURATION>
			<DURATION>2.3333333333333335</DURATION>
			<DURATION>2.3333333333333335</DURATION>
			<DURATION>2.3333333333333335</DURATION>
			<DURATION>2.3333333333333335</DURATION>
			<DURATION>2.35</DURATION>
			<DURATION>2.35</DURATION>
			<DURATION>2.35</DURATION>
			<DURATION>2.35</DURATION>
			<DURATION>2.35</DURATION>
			<DURATION>2.35</DURATION>
			<DURATION>2.35</DURATION>
			<DURATION>2.35</DURATION>
			<DURATION>2.35</DURATION>
			<DURATION>2.35</DURATION>
			<DURATION>2.3666666666666667</DURATION>
			<DURATION>2.3666666666666667</DURATION>
			<DURATION>2.3666666666666667</DURATION>
			<DURATION>2.3666666666666667</DURATION>
			<DURATION>2.3666666666666667</DURATION>
			<DURATION>2.3666666666666667</DURATION>
			<DURATION>2.3666666666666667</DURATION>
			<DURATION>2.3666666666666667</DURATION>
			<DURATION>2.3666666666666667</DURATION>
			<DURATION>2.3666666666666667</DURATION>
			<DURATION>2.3666666666666667</DURATION>
			<DURATION>2.3666666666666667</DURATION>
			<DURATION>2.3666666666666667</DURATION>
			<DURATION>2.3666666666666667</DURATION>
			<DURATION>2.3666666666666667</DURATION>
			<DURATION>2.3833333333333333</DURATION>
			<DURATION>2.3833333333333333</DURATION>
			<DURATION>2.3833333333333333</DURATION>
			<DURATION>2.3833333333333333</DURATION>
			<DURATION>2.3833333333333333</DURATION>
			<DURATION>2.3833333333333333</DURATION>
			<DURATION>2.3833333333333333</DURATION>
			<DURATION>2.3833333333333333</DURATION>
			<DURATION>2.3833333333333333</DURATION>
			<DURATION>2.3833333333333333</DURATION>
			<DURATION>2.3833333333333333</DURATION>
			<DURATION>2.3833333333333333</DURATION>
			<DURATION>2.3833333333333333</DURATION>
			<DURATION>2.3833333333333333</DURATION>
			<DURATION>2.3833333333333333</DURATION>
			<DURATION>2.3833333333333333</DURATION>
			<DURATION>2.4</DURATION>
			<DURATION>2.4</DURATION>
			<DURATION>2.4</DURATION>
			<DURATION>2.4</DURATION>
			<DURATION>2.4</DURATION>
			<DURATION>2.4</DURATION>
			<DURATION>2.4</DURATION>
			<DURATION>2.4</DURATION>
			<DURATION>2.4</DURATION>
			<DURATION>2.4</DURATION>
			<DURATION>2.4</DURATION>
			<DURATION>2.4</DURATION>
			<DURATION>2.4</DURATION>
			<DURATION>2.4</DURATION>
			<DURATION>2.4</DURATION>
			<DURATION>2.4</DURATION>
			<DURATION>2.4</DURATION>
			<DURATION>2.4</DURATION>
			<DURATION>2.4</DURATION>
			<DURATION>2.4</DURATION>
			<DURATION>2.4</DURATION>
			<DURATION>2.4</DURATION>
			<DURATION>2.4</DURATION>
			<DURATION>2.4</DURATION>
			<DURATION>2.4</DURATION>
			<DURATION>2.4</DURATION>
			<DURATION>2.4</DURATION>
			<DURATION>2.4</DURATION>
			<DURATION>2.4</DURATION>
			<DURATION>2.4</DURATION>
			<DURATION>2.4166666666666665</DURATION>
			<DURATION>2.4166666666666665</DURATION>
			<DURATION>2.4166666666666665</DURATION>
			<DURATION>2.4166666666666665</DURATION>
			<DURATION>2.4166666666666665</DURATION>
			<DURATION>2.4166666666666665</DURATION>
			<DURATION>2.4166666666666665</DURATION>
			<DURATION>2.4166666666666665</DURATION>
			<DURATION>2.4166666666666665</DURATION>
			<DURATION>2.4166666666666665</DURATION>
			<DURATION>2.4166666666666665</DURATION>
			<DURATION>2.4166666666666665</DURATION>
			<DURATION>2.4166666666666665</DURATION>
			<DURATION>2.4166666666666665</DURATION>
			<DURATION>2.4166666666666665</DURATION>
			<DURATION>2.4166666666666665</DURATION>
			<DURATION>2.4166666666666665</DURATION>
			<DURATION>2.433333333333333</DURATION>
			<DURATION>2.433333333333333</DURATION>
			<DURATION>2.433333333333333</DURATION>
			<DURATION>2.433333333333333</DURATION>
			<DURATION>2.433333333333333</DURATION>
			<DURATION>2.433333333333333</DURATION>
			<DURATION>2.433333333333333</DURATION>
			<DURATION>2.433333333333333</DURATION>
			<DURATION>2.433333333333333</DURATION>
			<DURATION>2.433333333333333</DURATION>
			<DURATION>2.433333333333333</DURATION>
			<DURATION>2.433333333333333</DURATION>
			<DURATION>2.433333333333333</DURATION>
			<DURATION>2.433333333333333</DURATION>
			<DURATION>2.433333333333333</DURATION>
			<DURATION>2.433333333333333</DURATION>
			<DURATION>2.433333333333333</DURATION>
			<DURATION>2.433333333333333</DURATION>
			<DURATION>2.433333333333333</DURATION>
			<DURATION>2.433333333333333</DURATION>
			<DURATION>2.433333333333333</DURATION>
			<DURATION>2.433333333333333</DURATION>
			<DURATION>2.433333333333333</DURATION>
			<DURATION>2.433333333333333</DURATION>
			<DURATION>2.433333333333333</DURATION>
			<DURATION>2.433333333333333</DURATION>
			<DURATION>2.433333333333333</DURATION>
			<DURATION>2.433333333333333</DURATION>
			<DURATION>2.433333333333333</DURATION>
			<DURATION>2.433333333333333</DURATION>
			<DURATION>2.433333333333333</DURATION>
			<DURATION>2.433333333333333</DURATION>
			<DURATION>2.433333333333333</DURATION>
			<DURATION>2.433333333333333</DURATION>
			<DURATION>2.433333333333333</DURATION>
			<DURATION>2.433333333333333</DURATION>
			<DURATION>2.433333333333333</DURATION>
			<DURATION>2.433333333333333</DURATION>
			<DURATION>2.433333333333333</DURATION>
			<DURATION>2.433333333333333</DURATION>
			<DURATION>2.433333333333333</DURATION>
			<DURATION>2.433333333333333</DURATION>
			<DURATION>2.433333333333333</DURATION>
			<DURATION>2.45</DURATION>
			<DURATION>2.45</DURATION>
			<DURATION>2.45</DURATION>
			<DURATION>2.45</DURATION>
			<DURATION>2.45</DURATION>
			<DURATION>2.45</DURATION>
			<DURATION>2.45</DURATION>
			<DURATION>2.45</DURATION>
			<DURATION>2.45</DURATION>
			<DURATION>2.45</DURATION>
			<DURATION>2.45</DURATION>
			<DURATION>2.45</DURATION>
			<DURATION>2.45</DURATION>
			<DURATION>2.45</DURATION>
			<DURATION>2.45</DURATION>
			<DURATION>2.45</DURATION>
			<DURATION>2.45</DURATION>
			<DURATION>2.45</DURATION>
			<DURATION>2.45</DURATION>
			<DURATION>2.45</DURATION>
			<DURATION>2.45</DURATION>
			<DURATION>2.45</DURATION>
			<DURATION>2.45</DURATION>
			<DURATION>2.45</DURATION>
			<DURATION>2.45</DURATION>
			<DURATION>2.45</DURATION>
			<DURATION>2.45</DURATION>
			<DURATION>2.45</DURATION>
			<DURATION>2.45</DURATION>
			<DURATION>2.45</DURATION>
			<DURATION>2.45</DURATION>
			<DURATION>2.45</DURATION>
			<DURATION>2.45</DURATION>
			<DURATION>2.45</DURATION>
			<DURATION>2.45</DURATION>
			<DURATION>2.45</DURATION>
			<DURATION>2.45</DURATION>
			<DURATION>2.45</DURATION>
			<DURATION>2.45</DURATION>
			<DURATION>2.45</DURATION>
			<DURATION>2.45</DURATION>
			<DURATION>2.45</DURATION>
			<DURATION>2.45</DURATION>
			<DURATION>2.45</DURATION>
			<DURATION>2.45</DURATION>
			<DURATION>2.45</DURATION>
			<DURATION>2.45</DURATION>
			<DURATION>2.45</DURATION>
			<DURATION>2.45</DURATION>
			<DURATION>2.45</DURATION>
			<DURATION>2.45</DURATION>
			<DURATION>2.45</DURATION>
			<DURATION>2.45</DURATION>
			<DURATION>2.45</DURATION>
			<DURATION>2.45</DURATION>
			<DURATION>2.45</DURATION>
			<DURATION>2.45</DURATION>
			<DURATION>2.45</DURATION>
			<DURATION>2.45</DURATION>
			<DURATION>2.466666666666667</DURATION>
			<DURATION>2.466666666666667</DURATION>
			<DURATION>2.466666666666667</DURATION>
			<DURATION>2.466666666666667</DURATION>
			<DURATION>2.466666666666667</DURATION>
			<DURATION>2.466666666666667</DURATION>
			<DURATION>2.466666666666667</DURATION>
			<DURATION>2.466666666666667</DURATION>
			<DURATION>2.466666666666667</DURATION>
			<DURATION>2.466666666666667</DURATION>
			<DURATION>2.466666666666667</DURATION>
			<DURATION>2.466666666666667</DURATION>
			<DURATION>2.466666666666667</DURATION>
			<DURATION>2.466666666666667</DURATION>
			<DURATION>2.466666666666667</DURATION>
			<DURATION>2.466666666666667</DURATION>
			<DURATION>2.466666666666667</DURATION>
			<DURATION>2.466666666666667</DURATION>
			<DURATION>2.466666666666667</DURATION>
			<DURATION>2.466666666666667</DURATION>
			<DURATION>2.466666666666667</DURATION>
			<DURATION>2.466666666666667</DURATION>
			<DURATION>2.466666666666667</DURATION>
			<DURATION>2.466666666666667</DURATION>
			<DURATION>2.466666666666667</DURATION>
			<DURATION>2.466666666666667</DURATION>
			<DURATION>2.466666666666667</DURATION>
			<DURATION>2.466666666666667</DURATION>
			<DURATION>2.466666666666667</DURATION>
			<DURATION>2.466666666666667</DURATION>
			<DURATION>2.466666666666667</DURATION>
			<DURATION>2.466666666666667</DURATION>
			<DURATION>2.466666666666667</DURATION>
			<DURATION>2.466666666666667</DURATION>
			<DURATION>2.466666666666667</DURATION>
			<DURATION>2.466666666666667</DURATION>
			<DURATION>2.466666666666667</DURATION>
			<DURATION>2.466666666666667</DURATION>
			<DURATION>2.466666666666667</DURATION>
			<DURATION>2.466666666666667</DURATION>
			<DURATION>2.466666666666667</DURATION>
			<DURATION>2.466666666666667</DURATION>
			<DURATION>2.466666666666667</DURATION>
			<DURATION>2.466666666666667</DURATION>
			<DURATION>2.466666666666667</DURATION>
			<DURATION>2.466666666666667</DURATION>
			<DURATION>2.466666666666667</DURATION>
			<DURATION>2.466666666666667</DURATION>
			<DURATION>2.466666666666667</DURATION>
			<DURATION>2.466666666666667</DURATION>
			<DURATION>2.466666666666667</DURATION>
			<DURATION>2.466666666666667</DURATION>
			<DURATION>2.466666666666667</DURATION>
			<DURATION>2.466666666666667</DURATION>
			<DURATION>2.4833333333333334</DURATION>
			<DURATION>2.4833333333333334</DURATION>
			<DURATION>2.4833333333333334</DURATION>
			<DURATION>2.4833333333333334</DURATION>
			<DURATION>2.4833333333333334</DURATION>
			<DURATION>2.4833333333333334</DURATION>
			<DURATION>2.4833333333333334</DURATION>
			<DURATION>2.4833333333333334</DURATION>
			<DURATION>2.4833333333333334</DURATION>
			<DURATION>2.4833333333333334</DURATION>
			<DURATION>2.4833333333333334</DURATION>
			<DURATION>2.4833333333333334</DURATION>
			<DURATION>2.4833333333333334</DURATION>
			<DURATION>2.4833333333333334</DURATION>
			<DURATION>2.4833333333333334</DURATION>
			<DURATION>2.4833333333333334</DURATION>
			<DURATION>2.4833333333333334</DURATION>
			<DURATION>2.4833333333333334</DURATION>
			<DURATION>2.4833333333333334</DURATION>
			<DURATION>2.4833333333333334</DURATION>
			<DURATION>2.4833333333333334</DURATION>
			<DURATION>2.4833333333333334</DURATION>
			<DURATION>2.4833333333333334</DURATION>
			<DURATION>2.4833333333333334</DURATION>
			<DURATION>2.4833333333333334</DURATION>
			<DURATION>2.4833333333333334</DURATION>
			<DURATION>2.4833333333333334</DURATION>
			<DURATION>2.4833333333333334</DURATION>
			<DURATION>2.4833333333333334</DURATION>
			<DURATION>2.4833333333333334</DURATION>
			<DURATION>2.4833333333333334</DURATION>
			<DURATION>2.4833333333333334</DURATION>
			<DURATION>2.4833333333333334</DURATION>
			<DURATION>2.4833333333333334</DURATION>
			<DURATION>2.4833333333333334</DURATION>
			<DURATION>2.4833333333333334</DURATION>
			<DURATION>2.4833333333333334</DURATION>
			<DURATION>2.4833333333333334</DURATION>
			<DURATION>2.4833333333333334</DURATION>
			<DURATION>2.4833333333333334</DURATION>
			<DURATION>2.4833333333333334</DURATION>
			<DURATION>2.4833333333333334</DURATION>
			<DURATION>2.4833333333333334</DURATION>
			<DURATION>2.4833333333333334</DURATION>
			<DURATION>2.4833333333333334</DURATION>
			<DURATION>2.4833333333333334</DURATION>
			<DURATION>2.4833333333333334</DURATION>
			<DURATION>2.4833333333333334</DURATION>
			<DURATION>2.4833333333333334</DURATION>
			<DURATION>2.4833333333333334</DURATION>
			<DURATION>2.5</DURATION>
			<DURATION>2.5</DURATION>
			<DURATION>2.5</DURATION>
			<DURATION>2.5</DURATION>
			<DURATION>2.5</DURATION>
			<DURATION>2.5</DURATION>
			<DURATION>2.5</DURATION>
			<DURATION>2.5</DURATION>
			<DURATION>2.5</DURATION>
			<DURATION>2.5</DURATION>
			<DURATION>2.5</DURATION>
			<DURATION>2.5</DURATION>
			<DURATION>2.5</DURATION>
			<DURATION>2.5</DURATION>
			<DURATION>2.5</DURATION>
			<DURATION>2.5</DURATION>
			<DURATION>2.5</DURATION>
			<DURATION>2.5</DURATION>
			<DURATION>2.5</DURATION>
			<DURATION>2.5</DURATION>
			<DURATION>2.5</DURATION>
			<DURATION>2.5</DURATION>
			<DURATION>2.5</DURATION>
			<DURATION>2.5</DURATION>
			<DURATION>2.5</DURATION>
			<DURATION>2.5</DURATION>
			<DURATION>2.5</DURATION>
			<DURATION>2.5</DURATION>
			<DURATION>2.5</DURATION>
			<DURATION>2.5</DURATION>
			<DURATION>2.5</DURATION>
			<DURATION>2.5</DURATION>
			<DURATION>2.5</DURATION>
			<DURATION>2.5</DURATION>
			<DURATION>2.5</DURATION>
			<DURATION>2.5</DURATION>
			<DURATION>2.5</DURATION>
			<DURATION>2.5</DURATION>
			<DURATION>2.5</DURATION>
			<DURATION>2.5</DURATION>
			<DURATION>2.5</DURATION>
			<DURATION>2.5</DURATION>
			<DURATION>2.5</DURATION>
			<DURATION>2.5</DURATION>
			<DURATION>2.5</DURATION>
			<DURATION>2.5</DURATION>
			<DURATION>2.5</DURATION>
			<DURATION>2.5</DURATION>
			<DURATION>2.5</DURATION>
			<DURATION>2.5</DURATION>
			<DURATION>2.5166666666666666</DURATION>
			<DURATION>2.5166666666666666</DURATION>
			<DURATION>2.5166666666666666</DURATION>
			<DURATION>2.5166666666666666</DURATION>
			<DURATION>2.5166666666666666</DURATION>
			<DURATION>2.5166666666666666</DURATION>
			<DURATION>2.5166666666666666</DURATION>
			<DURATION>2.5166666666666666</DURATION>
			<DURATION>2.5166666666666666</DURATION>
			<DURATION>2.5166666666666666</DURATION>
			<DURATION>2.5166666666666666</DURATION>
			<DURATION>2.5166666666666666</DURATION>
			<DURATION>2.5166666666666666</DURATION>
			<DURATION>2.5166666666666666</DURATION>
			<DURATION>2.5166666666666666</DURATION>
			<DURATION>2.5166666666666666</DURATION>
