<CCTP>
	<NAME>Transit Test Route Red</NAME>
	<START>aa80316d-8056-4384-ba46-e6ab27d3ac93</START>
	<END>d4bdb324-17e8-4937-8fdb-fed419b66284</END>
	<RISK-BOUND>1.0</RISK-BOUND>
	<RISK-BOUND-RELAX-COST>0.0</RISK-BOUND-RELAX-COST>
	<EVENT-UNIT>millisecond</EVENT-UNIT>
	<DURATION-UNIT>minute</DURATION-UNIT>
	<CONSTRAINT>
		<START>7769a388-1021-42ac-8c24-a0816012d554</START>
		<END>36dc613c-124b-40f1-b64d-7e31e38b106c</END>
		<ID>9ce6c64d-ed66-460a-a21f-30c1dc645481</ID>
		<NAME>30453832 Wait for departure at 70063</NAME>
		<LOWERBOUND>0.0</LOWERBOUND>
		<UPPERBOUND>0.1</UPPERBOUND>
		<UBRELAXABLE>T</UBRELAXABLE>
		<LB-RELAX-COST-RATIO>0.0</LB-RELAX-COST-RATIO>
		<UB-RELAX-COST-RATIO>0.1</UB-RELAX-COST-RATIO>
		<COST>0.0</COST>
		<TYPE>Controllable;Constraint</TYPE>
		<MEAN>0.0</MEAN>
	</CONSTRAINT>
	<CONSTRAINT>
		<START>94d9597a-3106-4f34-b930-cd6f82a71b3c</START>
		<END>f04b8a0e-981b-4841-aa54-c5a0812db750</END>
		<ID>7f601005-f982-4070-9d2a-10d1fe72db4f</ID>
		<NAME>Dwell at 70069 (Central - Inbound)</NAME>
		<LOWERBOUND>0.48333333333333334</LOWERBOUND>
		<UPPERBOUND>6.616666666666666</UPPERBOUND>
		<LB-RELAX-COST-RATIO>0.0</LB-RELAX-COST-RATIO>
		<UB-RELAX-COST-RATIO>0.0</UB-RELAX-COST-RATIO>
		<COST>0.0</COST>
		<TYPE>Uncontrollable;Activity</TYPE>
		<MEAN>0.0</MEAN>
		<DISTRIBUTION>Normal</DISTRIBUTION>
		<VARIANCE>0.0</VARIANCE>
		<HISTORICAL-DURATIONS>
			<DURATION>0.48333333333333334</DURATION>
			<DURATION>0.6166666666666667</DURATION>
			<DURATION>0.6166666666666667</DURATION>
			<DURATION>0.65</DURATION>
			<DURATION>0.6666666666666666</DURATION>
			<DURATION>0.6833333333333333</DURATION>
			<DURATION>0.6833333333333333</DURATION>
			<DURATION>0.6833333333333333</DURATION>
			<DURATION>0.6833333333333333</DURATION>
			<DURATION>0.7</DURATION>
			<DURATION>0.7</DURATION>
			<DURATION>0.7</DURATION>
			<DURATION>0.7</DURATION>
			<DURATION>0.7</DURATION>
			<DURATION>0.7166666666666667</DURATION>
			<DURATION>0.7166666666666667</DURATION>
			<DURATION>0.7166666666666667</DURATION>
			<DURATION>0.7166666666666667</DURATION>
			<DURATION>0.7166666666666667</DURATION>
			<DURATION>0.7166666666666667</DURATION>
			<DURATION>0.7333333333333333</DURATION>
			<DURATION>0.7333333333333333</DURATION>
			<DURATION>0.7333333333333333</DURATION>
			<DURATION>0.7333333333333333</DURATION>
			<DURATION>0.7333333333333333</DURATION>
			<DURATION>0.7333333333333333</DURATION>
			<DURATION>0.7333333333333333</DURATION>
			<DURATION>0.7333333333333333</DURATION>
			<DURATION>0.7333333333333333</DURATION>
			<DURATION>0.7333333333333333</DURATION>
			<DURATION>0.7333333333333333</DURATION>
			<DURATION>0.7333333333333333</DURATION>
			<DURATION>0.7333333333333333</DURATION>
			<DURATION>0.7333333333333333</DURATION>
			<DURATION>0.75</DURATION>
			<DURATION>0.75</DURATION>
			<DURATION>0.75</DURATION>
			<DURATION>0.75</DURATION>
			<DURATION>0.75</DURATION>
			<DURATION>0.75</DURATION>
			<DURATION>0.75</DURATION>
			<DURATION>0.75</DURATION>
			<DURATION>0.75</DURATION>
			<DURATION>0.75</DURATION>
			<DURATION>0.75</DURATION>
			<DURATION>0.75</DURATION>
			<DURATION>0.75</DURATION>
			<DURATION>0.75</DURATION>
			<DURATION>0.75</DURATION>
			<DURATION>0.75</DURATION>
			<DURATION>0.75</DURATION>
			<DURATION>0.75</DURATION>
			<DURATION>0.75</DURATION>
			<DURATION>0.7666666666666667</DURATION>
			<DURATION>0.7666666666666667</DURATION>
			<DURATION>0.7666666666666667</DURATION>
			<DURATION>0.7666666666666667</DURATION>
			<DURATION>0.7666666666666667</DURATION>
			<DURATION>0.7666666666666667</DURATION>
			<DURATION>0.7666666666666667</DURATION>
			<DURATION>0.7666666666666667</DURATION>
			<DURATION>0.7666666666666667</DURATION>
			<DURATION>0.7666666666666667</DURATION>
			<DURATION>0.7666666666666667</DURATION>
			<DURATION>0.7666666666666667</DURATION>
			<DURATION>0.7666666666666667</DURATION>
			<DURATION>0.7666666666666667</DURATION>
			<DURATION>0.7666666666666667</DURATION>
			<DURATION>0.7666666666666667</DURATION>
			<DURATION>0.7666666666666667</DURATION>
			<DURATION>0.7666666666666667</DURATION>
			<DURATION>0.7666666666666667</DURATION>
			<DURATION>0.7666666666666667</DURATION>
			<DURATION>0.7666666666666667</DURATION>
			<DURATION>0.7666666666666667</DURATION>
			<DURATION>0.7666666666666667</DURATION>
			<DURATION>0.7833333333333333</DURATION>
			<DURATION>0.7833333333333333</DURATION>
			<DURATION>0.7833333333333333</DURATION>
			<DURATION>0.7833333333333333</DURATION>
			<DURATION>0.7833333333333333</DURATION>
			<DURATION>0.7833333333333333</DURATION>
			<DURATION>0.7833333333333333</DURATION>
			<DURATION>0.7833333333333333</DURATION>
			<DURATION>0.7833333333333333</DURATION>
			<DURATION>0.7833333333333333</DURATION>
			<DURATION>0.7833333333333333</DURATION>
			<DURATION>0.7833333333333333</DURATION>
			<DURATION>0.7833333333333333</DURATION>
			<DURATION>0.7833333333333333</DURATION>
			<DURATION>0.7833333333333333</DURATION>
			<DURATION>0.7833333333333333</DURATION>
			<DURATION>0.7833333333333333</DURATION>
			<DURATION>0.7833333333333333</DURATION>
			<DURATION>0.7833333333333333</DURATION>
			<DURATION>0.7833333333333333</DURATION>
			<DURATION>0.7833333333333333</DURATION>
			<DURATION>0.7833333333333333</DURATION>
			<DURATION>0.7833333333333333</DURATION>
			<DURATION>0.7833333333333333</DURATION>
			<DURATION>0.7833333333333333</DURATION>
			<DURATION>0.7833333333333333</DURATION>
			<DURATION>0.7833333333333333</DURATION>
			<DURATION>0.7833333333333333</DURATION>
			<DURATION>0.7833333333333333</DURATION>
			<DURATION>0.7833333333333333</DURATION>
			<DURATION>0.7833333333333333</DURATION>
			<DURATION>0.7833333333333333</DURATION>
			<DURATION>0.7833333333333333</DURATION>
			<DURATION>0.7833333333333333</DURATION>
			<DURATION>0.7833333333333333</DURATION>
			<DURATION>0.7833333333333333</DURATION>
			<DURATION>0.7833333333333333</DURATION>
			<DURATION>0.8</DURATION>
			<DURATION>0.8</DURATION>
			<DURATION>0.8</DURATION>
			<DURATION>0.8</DURATION>
			<DURATION>0.8</DURATION>
			<DURATION>0.8</DURATION>
			<DURATION>0.8</DURATION>
			<DURATION>0.8</DURATION>
			<DURATION>0.8</DURATION>
			<DURATION>0.8</DURATION>
			<DURATION>0.8</DURATION>
			<DURATION>0.8</DURATION>
			<DURATION>0.8</DURATION>
			<DURATION>0.8</DURATION>
			<DURATION>0.8</DURATION>
			<DURATION>0.8</DURATION>
			<DURATION>0.8</DURATION>
			<DURATION>0.8</DURATION>
			<DURATION>0.8</DURATION>
			<DURATION>0.8</DURATION>
			<DURATION>0.8</DURATION>
			<DURATION>0.8</DURATION>
			<DURATION>0.8</DURATION>
			<DURATION>0.8</DURATION>
			<DURATION>0.8</DURATION>
			<DURATION>0.8</DURATION>
			<DURATION>0.8</DURATION>
			<DURATION>0.8</DURATION>
			<DURATION>0.8</DURATION>
			<DURATION>0.8</DURATION>
			<DURATION>0.8</DURATION>
			<DURATION>0.8166666666666667</DURATION>
			<DURATION>0.8166666666666667</DURATION>
			<DURATION>0.8166666666666667</DURATION>
			<DURATION>0.8166666666666667</DURATION>
			<DURATION>0.8166666666666667</DURATION>
			<DURATION>0.8166666666666667</DURATION>
			<DURATION>0.8166666666666667</DURATION>
			<DURATION>0.8166666666666667</DURATION>
			<DURATION>0.8166666666666667</DURATION>
			<DURATION>0.8166666666666667</DURATION>
			<DURATION>0.8166666666666667</DURATION>
			<DURATION>0.8166666666666667</DURATION>
			<DURATION>0.8166666666666667</DURATION>
			<DURATION>0.8166666666666667</DURATION>
			<DURATION>0.8166666666666667</DURATION>
			<DURATION>0.8166666666666667</DURATION>
			<DURATION>0.8166666666666667</DURATION>
			<DURATION>0.8166666666666667</DURATION>
			<DURATION>0.8166666666666667</DURATION>
			<DURATION>0.8166666666666667</DURATION>
			<DURATION>0.8166666666666667</DURATION>
			<DURATION>0.8166666666666667</DURATION>
			<DURATION>0.8166666666666667</DURATION>
			<DURATION>0.8166666666666667</DURATION>
			<DURATION>0.8166666666666667</DURATION>
			<DURATION>0.8166666666666667</DURATION>
			<DURATION>0.8166666666666667</DURATION>
			<DURATION>0.8166666666666667</DURATION>
			<DURATION>0.8166666666666667</DURATION>
			<DURATION>0.8333333333333334</DURATION>
			<DURATION>0.8333333333333334</DURATION>
			<DURATION>0.8333333333333334</DURATION>
			<DURATION>0.8333333333333334</DURATION>
			<DURATION>0.8333333333333334</DURATION>
			<DURATION>0.8333333333333334</DURATION>
			<DURATION>0.8333333333333334</DURATION>
			<DURATION>0.8333333333333334</DURATION>
			<DURATION>0.8333333333333334</DURATION>
			<DURATION>0.8333333333333334</DURATION>
			<DURATION>0.8333333333333334</DURATION>
			<DURATION>0.8333333333333334</DURATION>
			<DURATION>0.8333333333333334</DURATION>
			<DURATION>0.8333333333333334</DURATION>
			<DURATION>0.8333333333333334</DURATION>
			<DURATION>0.8333333333333334</DURATION>
			<DURATION>0.8333333333333334</DURATION>
			<DURATION>0.8333333333333334</DURATION>
			<DURATION>0.8333333333333334</DURATION>
			<DURATION>0.8333333333333334</DURATION>
			<DURATION>0.8333333333333334</DURATION>
			<DURATION>0.8333333333333334</DURATION>
			<DURATION>0.8333333333333334</DURATION>
			<DURATION>0.8333333333333334</DURATION>
			<DURATION>0.8333333333333334</DURATION>
			<DURATION>0.8333333333333334</DURATION>
			<DURATION>0.8333333333333334</DURATION>
			<DURATION>0.8333333333333334</DURATION>
			<DURATION>0.8333333333333334</DURATION>
			<DURATION>0.8333333333333334</DURATION>
			<DURATION>0.8333333333333334</DURATION>
			<DURATION>0.8333333333333334</DURATION>
			<DURATION>0.8333333333333334</DURATION>
			<DURATION>0.8333333333333334</DURATION>
			<DURATION>0.8333333333333334</DURATION>
			<DURATION>0.8333333333333334</DURATION>
			<DURATION>0.8333333333333334</DURATION>
			<DURATION>0.8333333333333334</DURATION>
			<DURATION>0.8333333333333334</DURATION>
			<DURATION>0.8333333333333334</DURATION>
			<DURATION>0.8333333333333334</DURATION>
			<DURATION>0.85</DURATION>
			<DURATION>0.85</DURATION>
			<DURATION>0.85</DURATION>
			<DURATION>0.85</DURATION>
			<DURATION>0.85</DURATION>
			<DURATION>0.85</DURATION>
			<DURATION>0.85</DURATION>
			<DURATION>0.85</DURATION>
			<DURATION>0.85</DURATION>
			<DURATION>0.85</DURATION>
			<DURATION>0.85</DURATION>
			<DURATION>0.85</DURATION>
			<DURATION>0.85</DURATION>
			<DURATION>0.85</DURATION>
			<DURATION>0.85</DURATION>
			<DURATION>0.85</DURATION>
			<DURATION>0.85</DURATION>
			<DURATION>0.85</DURATION>
			<DURATION>0.85</DURATION>
			<DURATION>0.85</DURATION>
			<DURATION>0.85</DURATION>
			<DURATION>0.85</DURATION>
			<DURATION>0.85</DURATION>
			<DURATION>0.85</DURATION>
			<DURATION>0.85</DURATION>
			<DURATION>0.85</DURATION>
			<DURATION>0.85</DURATION>
			<DURATION>0.85</DURATION>
			<DURATION>0.85</DURATION>
			<DURATION>0.85</DURATION>
			<DURATION>0.85</DURATION>
			<DURATION>0.8666666666666667</DURATION>
			<DURATION>0.8666666666666667</DURATION>
			<DURATION>0.8666666666666667</DURATION>
			<DURATION>0.8666666666666667</DURATION>
			<DURATION>0.8666666666666667</DURATION>
			<DURATION>0.8666666666666667</DURATION>
			<DURATION>0.8666666666666667</DURATION>
			<DURATION>0.8666666666666667</DURATION>
			<DURATION>0.8666666666666667</DURATION>
			<DURATION>0.8666666666666667</DURATION>
			<DURATION>0.8666666666666667</DURATION>
			<DURATION>0.8666666666666667</DURATION>
			<DURATION>0.8666666666666667</DURATION>
			<DURATION>0.8666666666666667</DURATION>
			<DURATION>0.8666666666666667</DURATION>
			<DURATION>0.8666666666666667</DURATION>
			<DURATION>0.8666666666666667</DURATION>
			<DURATION>0.8666666666666667</DURATION>
			<DURATION>0.8666666666666667</DURATION>
			<DURATION>0.8666666666666667</DURATION>
			<DURATION>0.8666666666666667</DURATION>
			<DURATION>0.8666666666666667</DURATION>
			<DURATION>0.8666666666666667</DURATION>
			<DURATION>0.8666666666666667</DURATION>
			<DURATION>0.8666666666666667</DURATION>
			<DURATION>0.8833333333333333</DURATION>
			<DURATION>0.8833333333333333</DURATION>
			<DURATION>0.8833333333333333</DURATION>
			<DURATION>0.8833333333333333</DURATION>
			<DURATION>0.8833333333333333</DURATION>
			<DURATION>0.8833333333333333</DURATION>
			<DURATION>0.8833333333333333</DURATION>
			<DURATION>0.8833333333333333</DURATION>
			<DURATION>0.8833333333333333</DURATION>
			<DURATION>0.8833333333333333</DURATION>
			<DURATION>0.8833333333333333</DURATION>
			<DURATION>0.8833333333333333</DURATION>
			<DURATION>0.8833333333333333</DURATION>
			<DURATION>0.8833333333333333</DURATION>
			<DURATION>0.8833333333333333</DURATION>
			<DURATION>0.8833333333333333</DURATION>
			<DURATION>0.8833333333333333</DURATION>
			<DURATION>0.8833333333333333</DURATION>
			<DURATION>0.8833333333333333</DURATION>
			<DURATION>0.8833333333333333</DURATION>
			<DURATION>0.8833333333333333</DURATION>
			<DURATION>0.8833333333333333</DURATION>
			<DURATION>0.8833333333333333</DURATION>
			<DURATION>0.8833333333333333</DURATION>
			<DURATION>0.9</DURATION>
			<DURATION>0.9</DURATION>
			<DURATION>0.9</DURATION>
			<DURATION>0.9</DURATION>
			<DURATION>0.9</DURATION>
			<DURATION>0.9</DURATION>
			<DURATION>0.9</DURATION>
			<DURATION>0.9</DURATION>
			<DURATION>0.9</DURATION>
			<DURATION>0.9</DURATION>
			<DURATION>0.9</DURATION>
			<DURATION>0.9</DURATION>
			<DURATION>0.9</DURATION>
			<DURATION>0.9</DURATION>
			<DURATION>0.9</DURATION>
			<DURATION>0.9</DURATION>
			<DURATION>0.9</DURATION>
			<DURATION>0.9</DURATION>
			<DURATION>0.9</DURATION>
			<DURATION>0.9</DURATION>
			<DURATION>0.9</DURATION>
			<DURATION>0.9</DURATION>
			<DURATION>0.9</DURATION>
			<DURATION>0.9</DURATION>
			<DURATION>0.9</DURATION>
			<DURATION>0.9</DURATION>
			<DURATION>0.9</DURATION>
			<DURATION>0.9166666666666666</DURATION>
			<DURATION>0.9166666666666666</DURATION>
			<DURATION>0.9166666666666666</DURATION>
			<DURATION>0.9166666666666666</DURATION>
			<DURATION>0.9166666666666666</DURATION>
			<DURATION>0.9166666666666666</DURATION>
			<DURATION>0.9166666666666666</DURATION>
			<DURATION>0.9166666666666666</DURATION>
			<DURATION>0.9166666666666666</DURATION>
			<DURATION>0.9166666666666666</DURATION>
			<DURATION>0.9166666666666666</DURATION>
			<DURATION>0.9166666666666666</DURATION>
			<DURATION>0.9166666666666666</DURATION>
			<DURATION>0.9166666666666666</DURATION>
			<DURATION>0.9166666666666666</DURATION>
			<DURATION>0.9166666666666666</DURATION>
			<DURATION>0.9166666666666666</DURATION>
			<DURATION>0.9166666666666666</DURATION>
			<DURATION>0.9166666666666666</DURATION>
			<DURATION>0.9166666666666666</DURATION>
			<DURATION>0.9166666666666666</DURATION>
			<DURATION>0.9166666666666666</DURATION>
			<DURATION>0.9166666666666666</DURATION>
			<DURATION>0.9166666666666666</DURATION>
			<DURATION>0.9166666666666666</DURATION>
			<DURATION>0.9166666666666666</DURATION>
			<DURATION>0.9166666666666666</DURATION>
			<DURATION>0.9166666666666666</DURATION>
			<DURATION>0.9166666666666666</DURATION>
			<DURATION>0.9166666666666666</DURATION>
			<DURATION>0.9166666666666666</DURATION>
			<DURATION>0.9166666666666666</DURATION>
			<DURATION>0.9166666666666666</DURATION>
			<DURATION>0.9166666666666666</DURATION>
			<DURATION>0.9333333333333333</DURATION>
			<DURATION>0.9333333333333333</DURATION>
			<DURATION>0.9333333333333333</DURATION>
			<DURATION>0.9333333333333333</DURATION>
			<DURATION>0.9333333333333333</DURATION>
			<DURATION>0.9333333333333333</DURATION>
			<DURATION>0.9333333333333333</DURATION>
			<DURATION>0.9333333333333333</DURATION>
			<DURATION>0.9333333333333333</DURATION>
			<DURATION>0.9333333333333333</DURATION>
			<DURATION>0.9333333333333333</DURATION>
			<DURATION>0.9333333333333333</DURATION>
			<DURATION>0.9333333333333333</DURATION>
			<DURATION>0.9333333333333333</DURATION>
			<DURATION>0.9333333333333333</DURATION>
			<DURATION>0.9333333333333333</DURATION>
			<DURATION>0.95</DURATION>
			<DURATION>0.95</DURATION>
			<DURATION>0.95</DURATION>
			<DURATION>0.95</DURATION>
			<DURATION>0.95</DURATION>
			<DURATION>0.95</DURATION>
			<DURATION>0.95</DURATION>
			<DURATION>0.95</DURATION>
			<DURATION>0.95</DURATION>
			<DURATION>0.95</DURATION>
			<DURATION>0.95</DURATION>
			<DURATION>0.95</DURATION>
			<DURATION>0.95</DURATION>
			<DURATION>0.95</DURATION>
			<DURATION>0.95</DURATION>
			<DURATION>0.95</DURATION>
			<DURATION>0.95</DURATION>
			<DURATION>0.95</DURATION>
			<DURATION>0.95</DURATION>
			<DURATION>0.95</DURATION>
			<DURATION>0.95</DURATION>
			<DURATION>0.95</DURATION>
			<DURATION>0.95</DURATION>
			<DURATION>0.9666666666666667</DURATION>
			<DURATION>0.9666666666666667</DURATION>
			<DURATION>0.9666666666666667</DURATION>
			<DURATION>0.9666666666666667</DURATION>
			<DURATION>0.9666666666666667</DURATION>
			<DURATION>0.9666666666666667</DURATION>
			<DURATION>0.9666666666666667</DURATION>
			<DURATION>0.9666666666666667</DURATION>
			<DURATION>0.9666666666666667</DURATION>
			<DURATION>0.9666666666666667</DURATION>
			<DURATION>0.9666666666666667</DURATION>
			<DURATION>0.9666666666666667</DURATION>
			<DURATION>0.9666666666666667</DURATION>
			<DURATION>0.9666666666666667</DURATION>
			<DURATION>0.9666666666666667</DURATION>
			<DURATION>0.9666666666666667</DURATION>
			<DURATION>0.9666666666666667</DURATION>
			<DURATION>0.9666666666666667</DURATION>
			<DURATION>0.9666666666666667</DURATION>
			<DURATION>0.9666666666666667</DURATION>
			<DURATION>0.9666666666666667</DURATION>
			<DURATION>0.9666666666666667</DURATION>
			<DURATION>0.9666666666666667</DURATION>
			<DURATION>0.9666666666666667</DURATION>
			<DURATION>0.9666666666666667</DURATION>
			<DURATION>0.9833333333333333</DURATION>
			<DURATION>0.9833333333333333</DURATION>
			<DURATION>0.9833333333333333</DURATION>
			<DURATION>0.9833333333333333</DURATION>
			<DURATION>0.9833333333333333</DURATION>
			<DURATION>0.9833333333333333</DURATION>
			<DURATION>0.9833333333333333</DURATION>
			<DURATION>0.9833333333333333</DURATION>
			<DURATION>0.9833333333333333</DURATION>
			<DURATION>0.9833333333333333</DURATION>
			<DURATION>0.9833333333333333</DURATION>
			<DURATION>0.9833333333333333</DURATION>
			<DURATION>0.9833333333333333</DURATION>
			<DURATION>0.9833333333333333</DURATION>
			<DURATION>0.9833333333333333</DURATION>
			<DURATION>0.9833333333333333</DURATION>
			<DURATION>1.0</DURATION>
			<DURATION>1.0</DURATION>
			<DURATION>1.0</DURATION>
			<DURATION>1.0</DURATION>
			<DURATION>1.0</DURATION>
			<DURATION>1.0</DURATION>
			<DURATION>1.0</DURATION>
			<DURATION>1.0</DURATION>
			<DURATION>1.0</DURATION>
			<DURATION>1.0</DURATION>
			<DURATION>1.0166666666666666</DURATION>
			<DURATION>1.0166666666666666</DURATION>
			<DURATION>1.0166666666666666</DURATION>
			<DURATION>1.0166666666666666</DURATION>
			<DURATION>1.0166666666666666</DURATION>
			<DURATION>1.0166666666666666</DURATION>
			<DURATION>1.0166666666666666</DURATION>
			<DURATION>1.0166666666666666</DURATION>
			<DURATION>1.0166666666666666</DURATION>
			<DURATION>1.0333333333333334</DURATION>
			<DURATION>1.0333333333333334</DURATION>
			<DURATION>1.0333333333333334</DURATION>
			<DURATION>1.0333333333333334</DURATION>
			<DURATION>1.0333333333333334</DURATION>
			<DURATION>1.0333333333333334</DURATION>
			<DURATION>1.0333333333333334</DURATION>
			<DURATION>1.0333333333333334</DURATION>
			<DURATION>1.0333333333333334</DURATION>
			<DURATION>1.0333333333333334</DURATION>
			<DURATION>1.0333333333333334</DURATION>
			<DURATION>1.0333333333333334</DURATION>
			<DURATION>1.0333333333333334</DURATION>
			<DURATION>1.0333333333333334</DURATION>
			<DURATION>1.05</DURATION>
			<DURATION>1.05</DURATION>
			<DURATION>1.05</DURATION>
			<DURATION>1.0666666666666667</DURATION>
			<DURATION>1.0666666666666667</DURATION>
			<DURATION>1.0666666666666667</DURATION>
			<DURATION>1.0666666666666667</DURATION>
			<DURATION>1.0666666666666667</DURATION>
			<DURATION>1.0666666666666667</DURATION>
			<DURATION>1.0833333333333333</DURATION>
			<DURATION>1.0833333333333333</DURATION>
			<DURATION>1.0833333333333333</DURATION>
			<DURATION>1.0833333333333333</DURATION>
			<DURATION>1.0833333333333333</DURATION>
			<DURATION>1.0833333333333333</DURATION>
			<DURATION>1.1</DURATION>
			<DURATION>1.1</DURATION>
			<DURATION>1.1</DURATION>
			<DURATION>1.1</DURATION>
			<DURATION>1.1</DURATION>
			<DURATION>1.1166666666666667</DURATION>
			<DURATION>1.1166666666666667</DURATION>
			<DURATION>1.1166666666666667</DURATION>
			<DURATION>1.1166666666666667</DURATION>
			<DURATION>1.1333333333333333</DURATION>
			<DURATION>1.1333333333333333</DURATION>
			<DURATION>1.1333333333333333</DURATION>
			<DURATION>1.15</DURATION>
			<DURATION>1.15</DURATION>
			<DURATION>1.15</DURATION>
			<DURATION>1.15</DURATION>
			<DURATION>1.1666666666666667</DURATION>
			<DURATION>1.1666666666666667</DURATION>
			<DURATION>1.1666666666666667</DURATION>
			<DURATION>1.1666666666666667</DURATION>
			<DURATION>1.1833333333333333</DURATION>
			<DURATION>1.1833333333333333</DURATION>
			<DURATION>1.2</DURATION>
			<DURATION>1.2</DURATION>
			<DURATION>1.2</DURATION>
			<DURATION>1.2</DURATION>
			<DURATION>1.2</DURATION>
			<DURATION>1.2166666666666666</DURATION>
			<DURATION>1.2333333333333334</DURATION>
			<DURATION>1.25</DURATION>
			<DURATION>1.25</DURATION>
			<DURATION>1.2666666666666666</DURATION>
			<DURATION>1.2666666666666666</DURATION>
			<DURATION>1.3</DURATION>
			<DURATION>1.3166666666666667</DURATION>
			<DURATION>1.3333333333333333</DURATION>
			<DURATION>1.3333333333333333</DURATION>
			<DURATION>1.3333333333333333</DURATION>
			<DURATION>1.35</DURATION>
			<DURATION>1.35</DURATION>
			<DURATION>1.35</DURATION>
			<DURATION>1.3833333333333333</DURATION>
			<DURATION>1.3833333333333333</DURATION>
			<DURATION>1.4333333333333333</DURATION>
			<DURATION>1.4333333333333333</DURATION>
			<DURATION>1.45</DURATION>
			<DURATION>1.4666666666666666</DURATION>
			<DURATION>1.4666666666666666</DURATION>
			<DURATION>1.4666666666666666</DURATION>
			<DURATION>1.5333333333333334</DURATION>
			<DURATION>1.5333333333333334</DURATION>
			<DURATION>1.5833333333333333</DURATION>
			<DURATION>1.6166666666666667</DURATION>
			<DURATION>1.6666666666666667</DURATION>
			<DURATION>1.7666666666666666</DURATION>
			<DURATION>1.8</DURATION>
			<DURATION>1.8666666666666667</DURATION>
			<DURATION>2.0</DURATION>
			<DURATION>2.0</DURATION>
			<DURATION>2.1333333333333333</DURATION>
			<DURATION>2.2666666666666666</DURATION>
			<DURATION>2.2666666666666666</DURATION>
			<DURATION>2.316666666666667</DURATION>
			<DURATION>2.35</DURATION>
			<DURATION>2.3666666666666667</DURATION>
			<DURATION>2.4833333333333334</DURATION>
			<DURATION>2.533333333333333</DURATION>
			<DURATION>2.5833333333333335</DURATION>
			<DURATION>2.6666666666666665</DURATION>
			<DURATION>2.683333333333333</DURATION>
			<DURATION>2.7666666666666666</DURATION>
			<DURATION>2.8</DURATION>
			<DURATION>2.9166666666666665</DURATION>
			<DURATION>2.95</DURATION>
			<DURATION>2.966666666666667</DURATION>
			<DURATION>3.0</DURATION>
			<DURATION>3.1166666666666667</DURATION>
			<DURATION>3.1666666666666665</DURATION>
			<DURATION>3.1666666666666665</DURATION>
			<DURATION>3.283333333333333</DURATION>
			<DURATION>3.316666666666667</DURATION>
			<DURATION>3.3333333333333335</DURATION>
			<DURATION>3.3333333333333335</DURATION>
			<DURATION>3.3666666666666667</DURATION>
			<DURATION>3.3833333333333333</DURATION>
			<DURATION>3.4</DURATION>
			<DURATION>3.4166666666666665</DURATION>
			<DURATION>3.4833333333333334</DURATION>
			<DURATION>3.5166666666666666</DURATION>
			<DURATION>3.5166666666666666</DURATION>
			<DURATION>3.533333333333333</DURATION>
			<DURATION>3.55</DURATION>
			<DURATION>3.566666666666667</DURATION>
			<DURATION>3.6166666666666667</DURATION>
			<DURATION>3.6333333333333333</DURATION>
			<DURATION>3.683333333333333</DURATION>
			<DURATION>3.783333333333333</DURATION>
			<DURATION>3.8</DURATION>
			<DURATION>3.816666666666667</DURATION>
			<DURATION>3.8333333333333335</DURATION>
			<DURATION>3.8833333333333333</DURATION>
			<DURATION>3.9833333333333334</DURATION>
			<DURATION>4.066666666666666</DURATION>
			<DURATION>4.2</DURATION>
			<DURATION>4.233333333333333</DURATION>
			<DURATION>4.3</DURATION>
			<DURATION>4.3</DURATION>
			<DURATION>4.466666666666667</DURATION>
			<DURATION>4.466666666666667</DURATION>
			<DURATION>4.466666666666667</DURATION>
			<DURATION>4.516666666666667</DURATION>
			<DURATION>4.816666666666666</DURATION>
			<DURATION>5.016666666666667</DURATION>
			<DURATION>5.033333333333333</DURATION>
			<DURATION>5.083333333333333</DURATION>
			<DURATION>5.1</DURATION>
			<DURATION>5.1</DURATION>
			<DURATION>5.15</DURATION>
			<DURATION>5.2</DURATION>
			<DURATION>5.2</DURATION>
			<DURATION>5.216666666666667</DURATION>
			<DURATION>5.233333333333333</DURATION>
			<DURATION>5.25</DURATION>
			<DURATION>5.433333333333334</DURATION>
			<DURATION>5.516666666666667</DURATION>
			<DURATION>5.683333333333334</DURATION>
			<DURATION>5.85</DURATION>
			<DURATION>5.933333333333334</DURATION>
			<DURATION>5.95</DURATION>
			<DURATION>6.083333333333333</DURATION>
			<DURATION>6.35</DURATION>
			<DURATION>6.616666666666666</DURATION>
			<DURATION>6.933333333333334</DURATION>
			<DURATION>6.933333333333334</DURATION>
			<DURATION>6.933333333333334</DURATION>
			<DURATION>7.1</DURATION>
			<DURATION>7.833333333333333</DURATION>
			<DURATION>8.016666666666667</DURATION>
			<DURATION>8.083333333333334</DURATION>
			<DURATION>8.116666666666667</DURATION>
			<DURATION>8.216666666666667</DURATION>
			<DURATION>8.766666666666667</DURATION>
			<DURATION>9.25</DURATION>
			<DURATION>9.65</DURATION>
		</HISTORICAL-DURATIONS>
	</CONSTRAINT>
	<CONSTRAINT>
		<START>93a8e719-7430-4c20-a8e2-e58748562033</START>
		<END>d61b9630-392b-4dd8-96c6-64b1c4f6dd2a</END>
		<ID>c10d7a66-cd0e-44a9-a374-414f432bd4a1</ID>
		<NAME>Dwell at 70067 (Harvard - Inbound)</NAME>
		<LOWERBOUND>0.6</LOWERBOUND>
		<UPPERBOUND>3.0</UPPERBOUND>
		<LB-RELAX-COST-RATIO>0.0</LB-RELAX-COST-RATIO>
		<UB-RELAX-COST-RATIO>0.0</UB-RELAX-COST-RATIO>
		<COST>0.0</COST>
		<TYPE>Uncontrollable;Activity</TYPE>
		<MEAN>0.0</MEAN>
		<DISTRIBUTION>Normal</DISTRIBUTION>
		<VARIANCE>0.0</VARIANCE>
		<HISTORICAL-DURATIONS>
			<DURATION>0.6</DURATION>
			<DURATION>0.7333333333333333</DURATION>
			<DURATION>0.75</DURATION>
			<DURATION>0.75</DURATION>
			<DURATION>0.75</DURATION>
			<DURATION>0.75</DURATION>
			<DURATION>0.75</DURATION>
			<DURATION>0.75</DURATION>
			<DURATION>0.7666666666666667</DURATION>
			<DURATION>0.7666666666666667</DURATION>
			<DURATION>0.7833333333333333</DURATION>
			<DURATION>0.7833333333333333</DURATION>
			<DURATION>0.7833333333333333</DURATION>
			<DURATION>0.7833333333333333</DURATION>
			<DURATION>0.7833333333333333</DURATION>
			<DURATION>0.7833333333333333</DURATION>
			<DURATION>0.7833333333333333</DURATION>
			<DURATION>0.7833333333333333</DURATION>
			<DURATION>0.8</DURATION>
			<DURATION>0.8</DURATION>
			<DURATION>0.8</DURATION>
			<DURATION>0.8</DURATION>
			<DURATION>0.8166666666666667</DURATION>
			<DURATION>0.8166666666666667</DURATION>
			<DURATION>0.8166666666666667</DURATION>
			<DURATION>0.8166666666666667</DURATION>
			<DURATION>0.8166666666666667</DURATION>
			<DURATION>0.8166666666666667</DURATION>
			<DURATION>0.8166666666666667</DURATION>
			<DURATION>0.8166666666666667</DURATION>
			<DURATION>0.8166666666666667</DURATION>
			<DURATION>0.8166666666666667</DURATION>
			<DURATION>0.8166666666666667</DURATION>
			<DURATION>0.8166666666666667</DURATION>
			<DURATION>0.8333333333333334</DURATION>
			<DURATION>0.8333333333333334</DURATION>
			<DURATION>0.8333333333333334</DURATION>
			<DURATION>0.8333333333333334</DURATION>
			<DURATION>0.8333333333333334</DURATION>
			<DURATION>0.8333333333333334</DURATION>
			<DURATION>0.8333333333333334</DURATION>
			<DURATION>0.8333333333333334</DURATION>
			<DURATION>0.8333333333333334</DURATION>
			<DURATION>0.8333333333333334</DURATION>
			<DURATION>0.8333333333333334</DURATION>
			<DURATION>0.8333333333333334</DURATION>
			<DURATION>0.8333333333333334</DURATION>
			<DURATION>0.8333333333333334</DURATION>
			<DURATION>0.8333333333333334</DURATION>
			<DURATION>0.8333333333333334</DURATION>
			<DURATION>0.8333333333333334</DURATION>
			<DURATION>0.8333333333333334</DURATION>
			<DURATION>0.8333333333333334</DURATION>
			<DURATION>0.85</DURATION>
			<DURATION>0.85</DURATION>
			<DURATION>0.85</DURATION>
			<DURATION>0.85</DURATION>
			<DURATION>0.85</DURATION>
			<DURATION>0.85</DURATION>
			<DURATION>0.85</DURATION>
			<DURATION>0.85</DURATION>
			<DURATION>0.85</DURATION>
			<DURATION>0.8666666666666667</DURATION>
			<DURATION>0.8666666666666667</DURATION>
			<DURATION>0.8666666666666667</DURATION>
			<DURATION>0.8666666666666667</DURATION>
			<DURATION>0.8666666666666667</DURATION>
			<DURATION>0.8666666666666667</DURATION>
			<DURATION>0.8666666666666667</DURATION>
			<DURATION>0.8666666666666667</DURATION>
			<DURATION>0.8666666666666667</DURATION>
			<DURATION>0.8666666666666667</DURATION>
			<DURATION>0.8666666666666667</DURATION>
			<DURATION>0.8666666666666667</DURATION>
			<DURATION>0.8666666666666667</DURATION>
			<DURATION>0.8666666666666667</DURATION>
			<DURATION>0.8666666666666667</DURATION>
			<DURATION>0.8666666666666667</DURATION>
			<DURATION>0.8666666666666667</DURATION>
			<DURATION>0.8666666666666667</DURATION>
			<DURATION>0.8666666666666667</DURATION>
			<DURATION>0.8666666666666667</DURATION>
			<DURATION>0.8666666666666667</DURATION>
			<DURATION>0.8666666666666667</DURATION>
			<DURATION>0.8833333333333333</DURATION>
			<DURATION>0.8833333333333333</DURATION>
			<DURATION>0.8833333333333333</DURATION>
			<DURATION>0.8833333333333333</DURATION>
			<DURATION>0.8833333333333333</DURATION>
			<DURATION>0.8833333333333333</DURATION>
			<DURATION>0.8833333333333333</DURATION>
			<DURATION>0.8833333333333333</DURATION>
			<DURATION>0.8833333333333333</DURATION>
			<DURATION>0.8833333333333333</DURATION>
			<DURATION>0.8833333333333333</DURATION>
			<DURATION>0.8833333333333333</DURATION>
			<DURATION>0.8833333333333333</DURATION>
			<DURATION>0.8833333333333333</DURATION>
			<DURATION>0.8833333333333333</DURATION>
			<DURATION>0.8833333333333333</DURATION>
			<DURATION>0.8833333333333333</DURATION>
			<DURATION>0.8833333333333333</DURATION>
			<DURATION>0.8833333333333333</DURATION>
			<DURATION>0.8833333333333333</DURATION>
			<DURATION>0.8833333333333333</DURATION>
			<DURATION>0.8833333333333333</DURATION>
			<DURATION>0.8833333333333333</DURATION>
			<DURATION>0.8833333333333333</DURATION>
			<DURATION>0.8833333333333333</DURATION>
			<DURATION>0.8833333333333333</DURATION>
			<DURATION>0.8833333333333333</DURATION>
			<DURATION>0.8833333333333333</DURATION>
			<DURATION>0.8833333333333333</DURATION>
			<DURATION>0.8833333333333333</DURATION>
			<DURATION>0.8833333333333333</DURATION>
			<DURATION>0.9</DURATION>
			<DURATION>0.9</DURATION>
			<DURATION>0.9</DURATION>
			<DURATION>0.9</DURATION>
			<DURATION>0.9</DURATION>
			<DURATION>0.9</DURATION>
			<DURATION>0.9</DURATION>
			<DURATION>0.9</DURATION>
			<DURATION>0.9</DURATION>
			<DURATION>0.9</DURATION>
			<DURATION>0.9</DURATION>
			<DURATION>0.9</DURATION>
			<DURATION>0.9</DURATION>
			<DURATION>0.9</DURATION>
			<DURATION>0.9</DURATION>
			<DURATION>0.9</DURATION>
			<DURATION>0.9</DURATION>
			<DURATION>0.9</DURATION>
			<DURATION>0.9</DURATION>
			<DURATION>0.9</DURATION>
			<DURATION>0.9</DURATION>
			<DURATION>0.9</DURATION>
			<DURATION>0.9</DURATION>
			<DURATION>0.9</DURATION>
			<DURATION>0.9</DURATION>
			<DURATION>0.9</DURATION>
			<DURATION>0.9</DURATION>
			<DURATION>0.9166666666666666</DURATION>
			<DURATION>0.9166666666666666</DURATION>
			<DURATION>0.9166666666666666</DURATION>
			<DURATION>0.9166666666666666</DURATION>
			<DURATION>0.9166666666666666</DURATION>
			<DURATION>0.9166666666666666</DURATION>
			<DURATION>0.9166666666666666</DURATION>
			<DURATION>0.9166666666666666</DURATION>
			<DURATION>0.9166666666666666</DURATION>
			<DURATION>0.9166666666666666</DURATION>
			<DURATION>0.9166666666666666</DURATION>
			<DURATION>0.9166666666666666</DURATION>
			<DURATION>0.9166666666666666</DURATION>
			<DURATION>0.9166666666666666</DURATION>
			<DURATION>0.9166666666666666</DURATION>
			<DURATION>0.9166666666666666</DURATION>
			<DURATION>0.9166666666666666</DURATION>
			<DURATION>0.9166666666666666</DURATION>
			<DURATION>0.9166666666666666</DURATION>
			<DURATION>0.9166666666666666</DURATION>
			<DURATION>0.9166666666666666</DURATION>
			<DURATION>0.9333333333333333</DURATION>
			<DURATION>0.9333333333333333</DURATION>
			<DURATION>0.9333333333333333</DURATION>
			<DURATION>0.9333333333333333</DURATION>
			<DURATION>0.9333333333333333</DURATION>
			<DURATION>0.9333333333333333</DURATION>
			<DURATION>0.9333333333333333</DURATION>
			<DURATION>0.9333333333333333</DURATION>
			<DURATION>0.9333333333333333</DURATION>
			<DURATION>0.9333333333333333</DURATION>
			<DURATION>0.9333333333333333</DURATION>
			<DURATION>0.9333333333333333</DURATION>
			<DURATION>0.9333333333333333</DURATION>
			<DURATION>0.9333333333333333</DURATION>
			<DURATION>0.9333333333333333</DURATION>
			<DURATION>0.9333333333333333</DURATION>
			<DURATION>0.9333333333333333</DURATION>
			<DURATION>0.9333333333333333</DURATION>
			<DURATION>0.9333333333333333</DURATION>
			<DURATION>0.9333333333333333</DURATION>
			<DURATION>0.9333333333333333</DURATION>
			<DURATION>0.9333333333333333</DURATION>
			<DURATION>0.9333333333333333</DURATION>
			<DURATION>0.95</DURATION>
			<DURATION>0.95</DURATION>
			<DURATION>0.95</DURATION>
			<DURATION>0.95</DURATION>
			<DURATION>0.95</DURATION>
			<DURATION>0.95</DURATION>
			<DURATION>0.95</DURATION>
			<DURATION>0.95</DURATION>
			<DURATION>0.95</DURATION>
			<DURATION>0.95</DURATION>
			<DURATION>0.95</DURATION>
			<DURATION>0.95</DURATION>
			<DURATION>0.95</DURATION>
			<DURATION>0.95</DURATION>
			<DURATION>0.95</DURATION>
			<DURATION>0.95</DURATION>
			<DURATION>0.95</DURATION>
			<DURATION>0.95</DURATION>
			<DURATION>0.95</DURATION>
			<DURATION>0.95</DURATION>
			<DURATION>0.95</DURATION>
			<DURATION>0.95</DURATION>
			<DURATION>0.95</DURATION>
			<DURATION>0.95</DURATION>
			<DURATION>0.95</DURATION>
			<DURATION>0.95</DURATION>
			<DURATION>0.95</DURATION>
			<DURATION>0.95</DURATION>
			<DURATION>0.95</DURATION>
			<DURATION>0.95</DURATION>
			<DURATION>0.95</DURATION>
			<DURATION>0.95</DURATION>
			<DURATION>0.95</DURATION>
			<DURATION>0.95</DURATION>
			<DURATION>0.95</DURATION>
			<DURATION>0.95</DURATION>
			<DURATION>0.95</DURATION>
			<DURATION>0.95</DURATION>
			<DURATION>0.9666666666666667</DURATION>
			<DURATION>0.9666666666666667</DURATION>
			<DURATION>0.9666666666666667</DURATION>
			<DURATION>0.9666666666666667</DURATION>
			<DURATION>0.9666666666666667</DURATION>
			<DURATION>0.9666666666666667</DURATION>
			<DURATION>0.9666666666666667</DURATION>
			<DURATION>0.9666666666666667</DURATION>
			<DURATION>0.9666666666666667</DURATION>
			<DURATION>0.9666666666666667</DURATION>
			<DURATION>0.9666666666666667</DURATION>
			<DURATION>0.9666666666666667</DURATION>
			<DURATION>0.9666666666666667</DURATION>
			<DURATION>0.9666666666666667</DURATION>
			<DURATION>0.9666666666666667</DURATION>
			<DURATION>0.9666666666666667</DURATION>
			<DURATION>0.9666666666666667</DURATION>
			<DURATION>0.9666666666666667</DURATION>
			<DURATION>0.9666666666666667</DURATION>
			<DURATION>0.9666666666666667</DURATION>
			<DURATION>0.9666666666666667</DURATION>
			<DURATION>0.9666666666666667</DURATION>
			<DURATION>0.9666666666666667</DURATION>
			<DURATION>0.9666666666666667</DURATION>
			<DURATION>0.9666666666666667</DURATION>
			<DURATION>0.9666666666666667</DURATION>
			<DURATION>0.9666666666666667</DURATION>
			<DURATION>0.9833333333333333</DURATION>
			<DURATION>0.9833333333333333</DURATION>
			<DURATION>0.9833333333333333</DURATION>
			<DURATION>0.9833333333333333</DURATION>
			<DURATION>0.9833333333333333</DURATION>
			<DURATION>0.9833333333333333</DURATION>
			<DURATION>0.9833333333333333</DURATION>
			<DURATION>0.9833333333333333</DURATION>
			<DURATION>0.9833333333333333</DURATION>
			<DURATION>0.9833333333333333</DURATION>
			<DURATION>0.9833333333333333</DURATION>
			<DURATION>0.9833333333333333</DURATION>
			<DURATION>0.9833333333333333</DURATION>
			<DURATION>0.9833333333333333</DURATION>
			<DURATION>0.9833333333333333</DURATION>
			<DURATION>0.9833333333333333</DURATION>
			<DURATION>0.9833333333333333</DURATION>
			<DURATION>0.9833333333333333</DURATION>
			<DURATION>0.9833333333333333</DURATION>
			<DURATION>0.9833333333333333</DURATION>
			<DURATION>0.9833333333333333</DURATION>
			<DURATION>0.9833333333333333</DURATION>
			<DURATION>0.9833333333333333</DURATION>
			<DURATION>0.9833333333333333</DURATION>
			<DURATION>0.9833333333333333</DURATION>
			<DURATION>0.9833333333333333</DURATION>
			<DURATION>1.0</DURATION>
			<DURATION>1.0</DURATION>
			<DURATION>1.0</DURATION>
			<DURATION>1.0</DURATION>
			<DURATION>1.0</DURATION>
			<DURATION>1.0</DURATION>
			<DURATION>1.0</DURATION>
			<DURATION>1.0</DURATION>
			<DURATION>1.0</DURATION>
			<DURATION>1.0</DURATION>
			<DURATION>1.0</DURATION>
			<DURATION>1.0</DURATION>
			<DURATION>1.0</DURATION>
			<DURATION>1.0</DURATION>
			<DURATION>1.0</DURATION>
			<DURATION>1.0</DURATION>
			<DURATION>1.0166666666666666</DURATION>
			<DURATION>1.0166666666666666</DURATION>
			<DURATION>1.0166666666666666</DURATION>
			<DURATION>1.0166666666666666</DURATION>
			<DURATION>1.0166666666666666</DURATION>
			<DURATION>1.0166666666666666</DURATION>
			<DURATION>1.0166666666666666</DURATION>
			<DURATION>1.0166666666666666</DURATION>
			<DURATION>1.0166666666666666</DURATION>
			<DURATION>1.0166666666666666</DURATION>
			<DURATION>1.0166666666666666</DURATION>
			<DURATION>1.0166666666666666</DURATION>
			<DURATION>1.0166666666666666</DURATION>
			<DURATION>1.0166666666666666</DURATION>
			<DURATION>1.0166666666666666</DURATION>
			<DURATION>1.0166666666666666</DURATION>
			<DURATION>1.0166666666666666</DURATION>
			<DURATION>1.0166666666666666</DURATION>
			<DURATION>1.0166666666666666</DURATION>
			<DURATION>1.0166666666666666</DURATION>
			<DURATION>1.0166666666666666</DURATION>
			<DURATION>1.0166666666666666</DURATION>
			<DURATION>1.0333333333333334</DURATION>
			<DURATION>1.0333333333333334</DURATION>
			<DURATION>1.0333333333333334</DURATION>
			<DURATION>1.0333333333333334</DURATION>
			<DURATION>1.0333333333333334</DURATION>
			<DURATION>1.0333333333333334</DURATION>
			<DURATION>1.0333333333333334</DURATION>
			<DURATION>1.0333333333333334</DURATION>
			<DURATION>1.0333333333333334</DURATION>
			<DURATION>1.0333333333333334</DURATION>
			<DURATION>1.0333333333333334</DURATION>
			<DURATION>1.0333333333333334</DURATION>
			<DURATION>1.0333333333333334</DURATION>
			<DURATION>1.0333333333333334</DURATION>
			<DURATION>1.0333333333333334</DURATION>
			<DURATION>1.0333333333333334</DURATION>
			<DURATION>1.0333333333333334</DURATION>
			<DURATION>1.0333333333333334</DURATION>
			<DURATION>1.0333333333333334</DURATION>
			<DURATION>1.0333333333333334</DURATION>
			<DURATION>1.0333333333333334</DURATION>
			<DURATION>1.0333333333333334</DURATION>
			<DURATION>1.0333333333333334</DURATION>
			<DURATION>1.05</DURATION>
			<DURATION>1.05</DURATION>
			<DURATION>1.05</DURATION>
			<DURATION>1.05</DURATION>
			<DURATION>1.05</DURATION>
			<DURATION>1.05</DURATION>
			<DURATION>1.05</DURATION>
			<DURATION>1.05</DURATION>
			<DURATION>1.05</DURATION>
			<DURATION>1.05</DURATION>
			<DURATION>1.05</DURATION>
			<DURATION>1.05</DURATION>
			<DURATION>1.05</DURATION>
			<DURATION>1.05</DURATION>
			<DURATION>1.05</DURATION>
			<DURATION>1.05</DURATION>
			<DURATION>1.05</DURATION>
			<DURATION>1.05</DURATION>
			<DURATION>1.05</DURATION>
			<DURATION>1.05</DURATION>
			<DURATION>1.05</DURATION>
			<DURATION>1.05</DURATION>
			<DURATION>1.05</DURATION>
			<DURATION>1.05</DURATION>
			<DURATION>1.05</DURATION>
			<DURATION>1.05</DURATION>
			<DURATION>1.05</DURATION>
			<DURATION>1.0666666666666667</DURATION>
			<DURATION>1.0666666666666667</DURATION>
			<DURATION>1.0666666666666667</DURATION>
			<DURATION>1.0666666666666667</DURATION>
			<DURATION>1.0666666666666667</DURATION>
			<DURATION>1.0666666666666667</DURATION>
			<DURATION>1.0666666666666667</DURATION>
			<DURATION>1.0666666666666667</DURATION>
			<DURATION>1.0666666666666667</DURATION>
			<DURATION>1.0666666666666667</DURATION>
			<DURATION>1.0666666666666667</DURATION>
			<DURATION>1.0666666666666667</DURATION>
			<DURATION>1.0666666666666667</DURATION>
			<DURATION>1.0666666666666667</DURATION>
			<DURATION>1.0666666666666667</DURATION>
			<DURATION>1.0666666666666667</DURATION>
			<DURATION>1.0666666666666667</DURATION>
			<DURATION>1.0666666666666667</DURATION>
			<DURATION>1.0666666666666667</DURATION>
			<DURATION>1.0666666666666667</DURATION>
			<DURATION>1.0666666666666667</DURATION>
			<DURATION>1.0666666666666667</DURATION>
			<DURATION>1.0666666666666667</DURATION>
			<DURATION>1.0666666666666667</DURATION>
			<DURATION>1.0666666666666667</DURATION>
			<DURATION>1.0666666666666667</DURATION>
			<DURATION>1.0666666666666667</DURATION>
			<DURATION>1.0666666666666667</DURATION>
			<DURATION>1.0666666666666667</DURATION>
			<DURATION>1.0666666666666667</DURATION>
			<DURATION>1.0833333333333333</DURATION>
			<DURATION>1.0833333333333333</DURATION>
			<DURATION>1.0833333333333333</DURATION>
			<DURATION>1.0833333333333333</DURATION>
			<DURATION>1.0833333333333333</DURATION>
			<DURATION>1.0833333333333333</DURATION>
			<DURATION>1.0833333333333333</DURATION>
			<DURATION>1.0833333333333333</DURATION>
			<DURATION>1.0833333333333333</DURATION>
			<DURATION>1.0833333333333333</DURATION>
			<DURATION>1.0833333333333333</DURATION>
			<DURATION>1.0833333333333333</DURATION>
			<DURATION>1.0833333333333333</DURATION>
			<DURATION>1.0833333333333333</DURATION>
			<DURATION>1.0833333333333333</DURATION>
			<DURATION>1.0833333333333333</DURATION>
			<DURATION>1.0833333333333333</DURATION>
			<DURATION>1.0833333333333333</DURATION>
			<DURATION>1.1</DURATION>
			<DURATION>1.1</DURATION>
			<DURATION>1.1</DURATION>
			<DURATION>1.1</DURATION>
			<DURATION>1.1</DURATION>
			<DURATION>1.1</DURATION>
			<DURATION>1.1</DURATION>
			<DURATION>1.1</DURATION>
			<DURATION>1.1</DURATION>
			<DURATION>1.1</DURATION>
			<DURATION>1.1</DURATION>
			<DURATION>1.1</DURATION>
			<DURATION>1.1</DURATION>
			<DURATION>1.1</DURATION>
			<DURATION>1.1166666666666667</DURATION>
			<DURATION>1.1166666666666667</DURATION>
			<DURATION>1.1166666666666667</DURATION>
			<DURATION>1.1166666666666667</DURATION>
			<DURATION>1.1166666666666667</DURATION>
			<DURATION>1.1166666666666667</DURATION>
			<DURATION>1.1166666666666667</DURATION>
			<DURATION>1.1166666666666667</DURATION>
			<DURATION>1.1166666666666667</DURATION>
			<DURATION>1.1166666666666667</DURATION>
			<DURATION>1.1166666666666667</DURATION>
			<DURATION>1.1166666666666667</DURATION>
			<DURATION>1.1166666666666667</DURATION>
			<DURATION>1.1166666666666667</DURATION>
			<DURATION>1.1166666666666667</DURATION>
			<DURATION>1.1166666666666667</DURATION>
			<DURATION>1.1333333333333333</DURATION>
			<DURATION>1.1333333333333333</DURATION>
			<DURATION>1.1333333333333333</DURATION>
			<DURATION>1.1333333333333333</DURATION>
			<DURATION>1.1333333333333333</DURATION>
			<DURATION>1.1333333333333333</DURATION>
			<DURATION>1.1333333333333333</DURATION>
			<DURATION>1.1333333333333333</DURATION>
			<DURATION>1.1333333333333333</DURATION>
			<DURATION>1.1333333333333333</DURATION>
			<DURATION>1.1333333333333333</DURATION>
			<DURATION>1.1333333333333333</DURATION>
			<DURATION>1.1333333333333333</DURATION>
			<DURATION>1.1333333333333333</DURATION>
			<DURATION>1.1333333333333333</DURATION>
			<DURATION>1.1333333333333333</DURATION>
			<DURATION>1.1333333333333333</DURATION>
			<DURATION>1.15</DURATION>
			<DURATION>1.15</DURATION>
			<DURATION>1.15</DURATION>
			<DURATION>1.15</DURATION>
			<DURATION>1.15</DURATION>
			<DURATION>1.15</DURATION>
			<DURATION>1.15</DURATION>
			<DURATION>1.15</DURATION>
			<DURATION>1.15</DURATION>
			<DURATION>1.15</DURATION>
			<DURATION>1.15</DURATION>
			<DURATION>1.15</DURATION>
			<DURATION>1.15</DURATION>
			<DURATION>1.15</DURATION>
			<DURATION>1.15</DURATION>
			<DURATION>1.15</DURATION>
			<DURATION>1.15</DURATION>
			<DURATION>1.15</DURATION>
			<DURATION>1.15</DURATION>
			<DURATION>1.1666666666666667</DURATION>
			<DURATION>1.1666666666666667</DURATION>
			<DURATION>1.1666666666666667</DURATION>
			<DURATION>1.1666666666666667</DURATION>
			<DURATION>1.1666666666666667</DURATION>
			<DURATION>1.1666666666666667</DURATION>
			<DURATION>1.1666666666666667</DURATION>
			<DURATION>1.1666666666666667</DURATION>
			<DURATION>1.1833333333333333</DURATION>
			<DURATION>1.1833333333333333</DURATION>
			<DURATION>1.1833333333333333</DURATION>
			<DURATION>1.1833333333333333</DURATION>
			<DURATION>1.1833333333333333</DURATION>
			<DURATION>1.1833333333333333</DURATION>
			<DURATION>1.1833333333333333</DURATION>
			<DURATION>1.1833333333333333</DURATION>
			<DURATION>1.1833333333333333</DURATION>
			<DURATION>1.1833333333333333</DURATION>
			<DURATION>1.1833333333333333</DURATION>
			<DURATION>1.1833333333333333</DURATION>
			<DURATION>1.1833333333333333</DURATION>
			<DURATION>1.1833333333333333</DURATION>
			<DURATION>1.1833333333333333</DURATION>
			<DURATION>1.1833333333333333</DURATION>
			<DURATION>1.1833333333333333</DURATION>
			<DURATION>1.1833333333333333</DURATION>
			<DURATION>1.1833333333333333</DURATION>
			<DURATION>1.1833333333333333</DURATION>
			<DURATION>1.1833333333333333</DURATION>
			<DURATION>1.1833333333333333</DURATION>
			<DURATION>1.1833333333333333</DURATION>
			<DURATION>1.1833333333333333</DURATION>
			<DURATION>1.1833333333333333</DURATION>
			<DURATION>1.1833333333333333</DURATION>
			<DURATION>1.1833333333333333</DURATION>
			<DURATION>1.1833333333333333</DURATION>
			<DURATION>1.1833333333333333</DURATION>
			<DURATION>1.1833333333333333</DURATION>
			<DURATION>1.1833333333333333</DURATION>
			<DURATION>1.2</DURATION>
			<DURATION>1.2</DURATION>
			<DURATION>1.2</DURATION>
			<DURATION>1.2</DURATION>
			<DURATION>1.2</DURATION>
			<DURATION>1.2</DURATION>
			<DURATION>1.2</DURATION>
			<DURATION>1.2</DURATION>
			<DURATION>1.2</DURATION>
			<DURATION>1.2</DURATION>
			<DURATION>1.2</DURATION>
			<DURATION>1.2</DURATION>
			<DURATION>1.2</DURATION>
			<DURATION>1.2</DURATION>
			<DURATION>1.2</DURATION>
			<DURATION>1.2</DURATION>
			<DURATION>1.2</DURATION>
			<DURATION>1.2</DURATION>
			<DURATION>1.2</DURATION>
			<DURATION>1.2</DURATION>
			<DURATION>1.2166666666666666</DURATION>
			<DURATION>1.2166666666666666</DURATION>
			<DURATION>1.2166666666666666</DURATION>
			<DURATION>1.2166666666666666</DURATION>
			<DURATION>1.2166666666666666</DURATION>
			<DURATION>1.2166666666666666</DURATION>
			<DURATION>1.2166666666666666</DURATION>
			<DURATION>1.2166666666666666</DURATION>
			<DURATION>1.2166666666666666</DURATION>
			<DURATION>1.2166666666666666</DURATION>
			<DURATION>1.2166666666666666</DURATION>
			<DURATION>1.2166666666666666</DURATION>
			<DURATION>1.2333333333333334</DURATION>
			<DURATION>1.2333333333333334</DURATION>
			<DURATION>1.2333333333333334</DURATION>
			<DURATION>1.2333333333333334</DURATION>
			<DURATION>1.2333333333333334</DURATION>
			<DURATION>1.2333333333333334</DURATION>
			<DURATION>1.2333333333333334</DURATION>
			<DURATION>1.2333333333333334</DURATION>
			<DURATION>1.2333333333333334</DURATION>
			<DURATION>1.2333333333333334</DURATION>
			<DURATION>1.2333333333333334</DURATION>
			<DURATION>1.25</DURATION>
			<DURATION>1.25</DURATION>
			<DURATION>1.25</DURATION>
			<DURATION>1.25</DURATION>
			<DURATION>1.25</DURATION>
			<DURATION>1.25</DURATION>
			<DURATION>1.25</DURATION>
			<DURATION>1.25</DURATION>
			<DURATION>1.25</DURATION>
			<DURATION>1.25</DURATION>
			<DURATION>1.2666666666666666</DURATION>
			<DURATION>1.2666666666666666</DURATION>
			<DURATION>1.2666666666666666</DURATION>
			<DURATION>1.2666666666666666</DURATION>
			<DURATION>1.2666666666666666</DURATION>
			<DURATION>1.2666666666666666</DURATION>
			<DURATION>1.2666666666666666</DURATION>
			<DURATION>1.2833333333333334</DURATION>
			<DURATION>1.2833333333333334</DURATION>
			<DURATION>1.2833333333333334</DURATION>
			<DURATION>1.2833333333333334</DURATION>
			<DURATION>1.2833333333333334</DURATION>
			<DURATION>1.2833333333333334</DURATION>
			<DURATION>1.2833333333333334</DURATION>
			<DURATION>1.3</DURATION>
			<DURATION>1.3</DURATION>
			<DURATION>1.3</DURATION>
			<DURATION>1.3</DURATION>
			<DURATION>1.3</DURATION>
			<DURATION>1.3</DURATION>
			<DURATION>1.3</DURATION>
			<DURATION>1.3</DURATION>
			<DURATION>1.3166666666666667</DURATION>
			<DURATION>1.3166666666666667</DURATION>
			<DURATION>1.3166666666666667</DURATION>
			<DURATION>1.3166666666666667</DURATION>
			<DURATION>1.3166666666666667</DURATION>
			<DURATION>1.3166666666666667</DURATION>
			<DURATION>1.3166666666666667</DURATION>
			<DURATION>1.3166666666666667</DURATION>
			<DURATION>1.3333333333333333</DURATION>
			<DURATION>1.3333333333333333</DURATION>
			<DURATION>1.3333333333333333</DURATION>
			<DURATION>1.3333333333333333</DURATION>
			<DURATION>1.35</DURATION>
			<DURATION>1.35</DURATION>
			<DURATION>1.35</DURATION>
			<DURATION>1.35</DURATION>
			<DURATION>1.35</DURATION>
			<DURATION>1.35</DURATION>
			<DURATION>1.35</DURATION>
			<DURATION>1.3666666666666667</DURATION>
			<DURATION>1.3666666666666667</DURATION>
			<DURATION>1.3666666666666667</DURATION>
			<DURATION>1.3666666666666667</DURATION>
			<DURATION>1.3666666666666667</DURATION>
			<DURATION>1.3666666666666667</DURATION>
			<DURATION>1.3833333333333333</DURATION>
			<DURATION>1.3833333333333333</DURATION>
			<DURATION>1.3833333333333333</DURATION>
			<DURATION>1.3833333333333333</DURATION>
			<DURATION>1.4</DURATION>
			<DURATION>1.4</DURATION>
			<DURATION>1.4</DURATION>
			<DURATION>1.4166666666666667</DURATION>
			<DURATION>1.4166666666666667</DURATION>
			<DURATION>1.4166666666666667</DURATION>
			<DURATION>1.4166666666666667</DURATION>
			<DURATION>1.4166666666666667</DURATION>
			<DURATION>1.4333333333333333</DURATION>
			<DURATION>1.4333333333333333</DURATION>
			<DURATION>1.45</DURATION>
			<DURATION>1.45</DURATION>
			<DURATION>1.4666666666666666</DURATION>
			<DURATION>1.4833333333333334</DURATION>
			<DURATION>1.4833333333333334</DURATION>
			<DURATION>1.4833333333333334</DURATION>
			<DURATION>1.5</DURATION>
			<DURATION>1.5</DURATION>
			<DURATION>1.5</DURATION>
			<DURATION>1.5166666666666666</DURATION>
			<DURATION>1.5166666666666666</DURATION>
			<DURATION>1.5333333333333334</DURATION>
			<DURATION>1.5333333333333334</DURATION>
			<DURATION>1.5333333333333334</DURATION>
			<DURATION>1.5333333333333334</DURATION>
			<DURATION>1.55</DURATION>
			<DURATION>1.55</DURATION>
			<DURATION>1.55</DURATION>
			<DURATION>1.55</DURATION>
			<DURATION>1.5833333333333333</DURATION>
			<DURATION>1.6</DURATION>
			<DURATION>1.6</DURATION>
			<DURATION>1.6</DURATION>
			<DURATION>1.6166666666666667</DURATION>
			<DURATION>1.6166666666666667</DURATION>
			<DURATION>1.65</DURATION>
			<DURATION>1.65</DURATION>
			<DURATION>1.65</DURATION>
			<DURATION>1.6666666666666667</DURATION>
			<DURATION>1.6666666666666667</DURATION>
			<DURATION>1.6833333333333333</DURATION>
			<DURATION>1.7</DURATION>
			<DURATION>1.7166666666666666</DURATION>
			<DURATION>1.7166666666666666</DURATION>
			<DURATION>1.7333333333333334</DURATION>
			<DURATION>1.7333333333333334</DURATION>
			<DURATION>1.7666666666666666</DURATION>
			<DURATION>1.8</DURATION>
			<DURATION>1.8333333333333333</DURATION>
			<DURATION>1.8333333333333333</DURATION>
			<DURATION>1.8666666666666667</DURATION>
			<DURATION>1.8833333333333333</DURATION>
			<DURATION>1.9</DURATION>
			<DURATION>1.9166666666666667</DURATION>
			<DURATION>1.95</DURATION>
			<DURATION>1.9666666666666666</DURATION>
			<DURATION>2.0</DURATION>
			<DURATION>2.0166666666666666</DURATION>
			<DURATION>2.033333333333333</DURATION>
			<DURATION>2.0833333333333335</DURATION>
			<DURATION>2.1166666666666667</DURATION>
			<DURATION>2.15</DURATION>
			<DURATION>2.1666666666666665</DURATION>
			<DURATION>2.1666666666666665</DURATION>
			<DURATION>2.1666666666666665</DURATION>
			<DURATION>2.3</DURATION>
			<DURATION>2.3333333333333335</DURATION>
			<DURATION>2.466666666666667</DURATION>
			<DURATION>2.4833333333333334</DURATION>
			<DURATION>2.6333333333333333</DURATION>
			<DURATION>2.6333333333333333</DURATION>
			<DURATION>2.7</DURATION>
			<DURATION>3.0</DURATION>
			<DURATION>3.066666666666667</DURATION>
			<DURATION>3.2333333333333334</DURATION>
			<DURATION>3.3</DURATION>
			<DURATION>3.4833333333333334</DURATION>
			<DURATION>3.5166666666666666</DURATION>
			<DURATION>4.0</DURATION>
			<DURATION>4.1</DURATION>
			<DURATION>4.466666666666667</DURATION>
			<DURATION>4.65</DURATION>
			<DURATION>5.65</DURATION>
			<DURATION>5.716666666666667</DURATION>
			<DURATION>6.15</DURATION>
			<DURATION>7.666666666666667</DURATION>
			<DURATION>14.25</DURATION>
		</HISTORICAL-DURATIONS>
	</CONSTRAINT>
	<CONSTRAINT>
		<START>bbfa8a79-4e79-4cc8-91f5-200c64f6bd2e</START>
		<END>fb666e79-be3e-4651-930a-974dd74dc134</END>
		<ID>d59e0680-d986-485a-b80d-b2c7d1ec5a4a</ID>
		<NAME>Headway 8.0</NAME>
		<LOWERBOUND>7.0</LOWERBOUND>
		<UPPERBOUND>9.0</UPPERBOUND>
		<LBRELAXABLE>T</LBRELAXABLE>
		<UBRELAXABLE>T</UBRELAXABLE>
		<LB-RELAX-COST-RATIO>100.0</LB-RELAX-COST-RATIO>
		<UB-RELAX-COST-RATIO>100.0</UB-RELAX-COST-RATIO>
		<COST>0.0</COST>
		<TYPE>Controllable;Constraint</TYPE>
		<MEAN>0.0</MEAN>
	</CONSTRAINT>
	<CONSTRAINT>
		<START>5e9aff90-160f-4ed6-bd3f-4da60c427aff</START>
		<END>bba1bf35-c504-413d-bfbe-8ecb04205c98</END>
		<ID>08732428-989c-4a4b-ad66-ed44ff04302b</ID>
		<NAME>From 70075 to 70077 (Downtown Crossing - to Ashmont/Braintree)</NAME>
		<LOWERBOUND>0.26666666666666666</LOWERBOUND>
		<UPPERBOUND>0.5166666666666667</UPPERBOUND>
		<LB-RELAX-COST-RATIO>0.0</LB-RELAX-COST-RATIO>
		<UB-RELAX-COST-RATIO>0.0</UB-RELAX-COST-RATIO>
		<COST>0.0</COST>
		<TYPE>Uncontrollable;Activity</TYPE>
		<MEAN>0.0</MEAN>
		<DISTRIBUTION>Normal</DISTRIBUTION>
		<VARIANCE>0.0</VARIANCE>
		<HISTORICAL-DURATIONS>
			<DURATION>0.26666666666666666</DURATION>
			<DURATION>0.26666666666666666</DURATION>
			<DURATION>0.26666666666666666</DURATION>
			<DURATION>0.26666666666666666</DURATION>
			<DURATION>0.26666666666666666</DURATION>
			<DURATION>0.26666666666666666</DURATION>
			<DURATION>0.26666666666666666</DURATION>
			<DURATION>0.26666666666666666</DURATION>
			<DURATION>0.2833333333333333</DURATION>
			<DURATION>0.2833333333333333</DURATION>
			<DURATION>0.2833333333333333</DURATION>
			<DURATION>0.2833333333333333</DURATION>
			<DURATION>0.2833333333333333</DURATION>
			<DURATION>0.2833333333333333</DURATION>
			<DURATION>0.2833333333333333</DURATION>
			<DURATION>0.2833333333333333</DURATION>
			<DURATION>0.2833333333333333</DURATION>
			<DURATION>0.2833333333333333</DURATION>
			<DURATION>0.2833333333333333</DURATION>
			<DURATION>0.2833333333333333</DURATION>
			<DURATION>0.2833333333333333</DURATION>
			<DURATION>0.2833333333333333</DURATION>
			<DURATION>0.2833333333333333</DURATION>
			<DURATION>0.2833333333333333</DURATION>
			<DURATION>0.2833333333333333</DURATION>
			<DURATION>0.2833333333333333</DURATION>
			<DURATION>0.2833333333333333</DURATION>
			<DURATION>0.2833333333333333</DURATION>
			<DURATION>0.2833333333333333</DURATION>
			<DURATION>0.2833333333333333</DURATION>
			<DURATION>0.2833333333333333</DURATION>
			<DURATION>0.2833333333333333</DURATION>
			<DURATION>0.2833333333333333</DURATION>
			<DURATION>0.2833333333333333</DURATION>
			<DURATION>0.2833333333333333</DURATION>
			<DURATION>0.2833333333333333</DURATION>
			<DURATION>0.2833333333333333</DURATION>
			<DURATION>0.2833333333333333</DURATION>
			<DURATION>0.2833333333333333</DURATION>
			<DURATION>0.2833333333333333</DURATION>
			<DURATION>0.2833333333333333</DURATION>
			<DURATION>0.2833333333333333</DURATION>
			<DURATION>0.2833333333333333</DURATION>
			<DURATION>0.2833333333333333</DURATION>
			<DURATION>0.2833333333333333</DURATION>
			<DURATION>0.2833333333333333</DURATION>
			<DURATION>0.2833333333333333</DURATION>
			<DURATION>0.2833333333333333</DURATION>
			<DURATION>0.2833333333333333</DURATION>
			<DURATION>0.2833333333333333</DURATION>
			<DURATION>0.2833333333333333</DURATION>
			<DURATION>0.2833333333333333</DURATION>
			<DURATION>0.2833333333333333</DURATION>
			<DURATION>0.2833333333333333</DURATION>
			<DURATION>0.2833333333333333</DURATION>
			<DURATION>0.2833333333333333</DURATION>
			<DURATION>0.2833333333333333</DURATION>
			<DURATION>0.2833333333333333</DURATION>
			<DURATION>0.2833333333333333</DURATION>
			<DURATION>0.2833333333333333</DURATION>
			<DURATION>0.2833333333333333</DURATION>
			<DURATION>0.2833333333333333</DURATION>
			<DURATION>0.2833333333333333</DURATION>
			<DURATION>0.2833333333333333</DURATION>
			<DURATION>0.2833333333333333</DURATION>
			<DURATION>0.2833333333333333</DURATION>
			<DURATION>0.2833333333333333</DURATION>
			<DURATION>0.2833333333333333</DURATION>
			<DURATION>0.2833333333333333</DURATION>
			<DURATION>0.2833333333333333</DURATION>
			<DURATION>0.2833333333333333</DURATION>
			<DURATION>0.2833333333333333</DURATION>
			<DURATION>0.2833333333333333</DURATION>
			<DURATION>0.2833333333333333</DURATION>
			<DURATION>0.2833333333333333</DURATION>
			<DURATION>0.2833333333333333</DURATION>
			<DURATION>0.2833333333333333</DURATION>
			<DURATION>0.2833333333333333</DURATION>
			<DURATION>0.2833333333333333</DURATION>
			<DURATION>0.2833333333333333</DURATION>
			<DURATION>0.2833333333333333</DURATION>
			<DURATION>0.2833333333333333</DURATION>
			<DURATION>0.2833333333333333</DURATION>
			<DURATION>0.2833333333333333</DURATION>
			<DURATION>0.2833333333333333</DURATION>
			<DURATION>0.2833333333333333</DURATION>
			<DURATION>0.2833333333333333</DURATION>
			<DURATION>0.2833333333333333</DURATION>
			<DURATION>0.2833333333333333</DURATION>
			<DURATION>0.2833333333333333</DURATION>
			<DURATION>0.2833333333333333</DURATION>
			<DURATION>0.2833333333333333</DURATION>
			<DURATION>0.2833333333333333</DURATION>
			<DURATION>0.2833333333333333</DURATION>
			<DURATION>0.2833333333333333</DURATION>
			<DURATION>0.2833333333333333</DURATION>
			<DURATION>0.2833333333333333</DURATION>
			<DURATION>0.2833333333333333</DURATION>
			<DURATION>0.2833333333333333</DURATION>
			<DURATION>0.2833333333333333</DURATION>
			<DURATION>0.2833333333333333</DURATION>
			<DURATION>0.2833333333333333</DURATION>
			<DURATION>0.2833333333333333</DURATION>
			<DURATION>0.2833333333333333</DURATION>
			<DURATION>0.2833333333333333</DURATION>
			<DURATION>0.2833333333333333</DURATION>
			<DURATION>0.2833333333333333</DURATION>
			<DURATION>0.2833333333333333</DURATION>
			<DURATION>0.2833333333333333</DURATION>
			<DURATION>0.2833333333333333</DURATION>
			<DURATION>0.2833333333333333</DURATION>
			<DURATION>0.2833333333333333</DURATION>
			<DURATION>0.2833333333333333</DURATION>
			<DURATION>0.2833333333333333</DURATION>
			<DURATION>0.2833333333333333</DURATION>
			<DURATION>0.2833333333333333</DURATION>
			<DURATION>0.2833333333333333</DURATION>
			<DURATION>0.2833333333333333</DURATION>
			<DURATION>0.2833333333333333</DURATION>
			<DURATION>0.2833333333333333</DURATION>
			<DURATION>0.2833333333333333</DURATION>
			<DURATION>0.2833333333333333</DURATION>
			<DURATION>0.2833333333333333</DURATION>
			<DURATION>0.2833333333333333</DURATION>
			<DURATION>0.2833333333333333</DURATION>
			<DURATION>0.2833333333333333</DURATION>
			<DURATION>0.2833333333333333</DURATION>
			<DURATION>0.2833333333333333</DURATION>
			<DURATION>0.2833333333333333</DURATION>
			<DURATION>0.2833333333333333</DURATION>
			<DURATION>0.2833333333333333</DURATION>
			<DURATION>0.2833333333333333</DURATION>
			<DURATION>0.2833333333333333</DURATION>
			<DURATION>0.2833333333333333</DURATION>
			<DURATION>0.2833333333333333</DURATION>
			<DURATION>0.2833333333333333</DURATION>
			<DURATION>0.2833333333333333</DURATION>
			<DURATION>0.2833333333333333</DURATION>
			<DURATION>0.2833333333333333</DURATION>
			<DURATION>0.2833333333333333</DURATION>
			<DURATION>0.2833333333333333</DURATION>
			<DURATION>0.2833333333333333</DURATION>
			<DURATION>0.2833333333333333</DURATION>
			<DURATION>0.2833333333333333</DURATION>
			<DURATION>0.2833333333333333</DURATION>
			<DURATION>0.2833333333333333</DURATION>
			<DURATION>0.2833333333333333</DURATION>
			<DURATION>0.2833333333333333</DURATION>
			<DURATION>0.2833333333333333</DURATION>
			<DURATION>0.2833333333333333</DURATION>
			<DURATION>0.2833333333333333</DURATION>
			<DURATION>0.2833333333333333</DURATION>
			<DURATION>0.2833333333333333</DURATION>
			<DURATION>0.2833333333333333</DURATION>
			<DURATION>0.2833333333333333</DURATION>
			<DURATION>0.2833333333333333</DURATION>
			<DURATION>0.2833333333333333</DURATION>
			<DURATION>0.2833333333333333</DURATION>
			<DURATION>0.2833333333333333</DURATION>
			<DURATION>0.2833333333333333</DURATION>
			<DURATION>0.2833333333333333</DURATION>
			<DURATION>0.2833333333333333</DURATION>
			<DURATION>0.2833333333333333</DURATION>
			<DURATION>0.2833333333333333</DURATION>
			<DURATION>0.2833333333333333</DURATION>
			<DURATION>0.2833333333333333</DURATION>
			<DURATION>0.2833333333333333</DURATION>
			<DURATION>0.2833333333333333</DURATION>
			<DURATION>0.2833333333333333</DURATION>
			<DURATION>0.2833333333333333</DURATION>
			<DURATION>0.2833333333333333</DURATION>
			<DURATION>0.2833333333333333</DURATION>
			<DURATION>0.2833333333333333</DURATION>
			<DURATION>0.2833333333333333</DURATION>
			<DURATION>0.2833333333333333</DURATION>
			<DURATION>0.2833333333333333</DURATION>
			<DURATION>0.2833333333333333</DURATION>
			<DURATION>0.2833333333333333</DURATION>
			<DURATION>0.2833333333333333</DURATION>
			<DURATION>0.2833333333333333</DURATION>
			<DURATION>0.2833333333333333</DURATION>
			<DURATION>0.2833333333333333</DURATION>
			<DURATION>0.2833333333333333</DURATION>
			<DURATION>0.2833333333333333</DURATION>
			<DURATION>0.2833333333333333</DURATION>
			<DURATION>0.2833333333333333</DURATION>
			<DURATION>0.2833333333333333</DURATION>
			<DURATION>0.2833333333333333</DURATION>
			<DURATION>0.2833333333333333</DURATION>
			<DURATION>0.2833333333333333</DURATION>
			<DURATION>0.2833333333333333</DURATION>
			<DURATION>0.2833333333333333</DURATION>
			<DURATION>0.2833333333333333</DURATION>
			<DURATION>0.2833333333333333</DURATION>
			<DURATION>0.2833333333333333</DURATION>
			<DURATION>0.2833333333333333</DURATION>
			<DURATION>0.2833333333333333</DURATION>
			<DURATION>0.2833333333333333</DURATION>
			<DURATION>0.2833333333333333</DURATION>
			<DURATION>0.2833333333333333</DURATION>
			<DURATION>0.2833333333333333</DURATION>
			<DURATION>0.2833333333333333</DURATION>
			<DURATION>0.2833333333333333</DURATION>
			<DURATION>0.2833333333333333</DURATION>
			<DURATION>0.2833333333333333</DURATION>
			<DURATION>0.2833333333333333</DURATION>
			<DURATION>0.2833333333333333</DURATION>
			<DURATION>0.2833333333333333</DURATION>
			<DURATION>0.3</DURATION>
			<DURATION>0.3</DURATION>
			<DURATION>0.3</DURATION>
			<DURATION>0.3</DURATION>
			<DURATION>0.3</DURATION>
			<DURATION>0.3</DURATION>
			<DURATION>0.3</DURATION>
			<DURATION>0.3</DURATION>
			<DURATION>0.3</DURATION>
			<DURATION>0.3</DURATION>
			<DURATION>0.3</DURATION>
			<DURATION>0.3</DURATION>
			<DURATION>0.3</DURATION>
			<DURATION>0.3</DURATION>
			<DURATION>0.3</DURATION>
			<DURATION>0.3</DURATION>
			<DURATION>0.3</DURATION>
			<DURATION>0.3</DURATION>
			<DURATION>0.3</DURATION>
			<DURATION>0.3</DURATION>
			<DURATION>0.3</DURATION>
			<DURATION>0.3</DURATION>
			<DURATION>0.3</DURATION>
			<DURATION>0.3</DURATION>
			<DURATION>0.3</DURATION>
			<DURATION>0.3</DURATION>
			<DURATION>0.3</DURATION>
			<DURATION>0.3</DURATION>
			<DURATION>0.3</DURATION>
			<DURATION>0.3</DURATION>
			<DURATION>0.3</DURATION>
			<DURATION>0.3</DURATION>
			<DURATION>0.3</DURATION>
			<DURATION>0.3</DURATION>
			<DURATION>0.3</DURATION>
			<DURATION>0.3</DURATION>
			<DURATION>0.3</DURATION>
			<DURATION>0.3</DURATION>
			<DURATION>0.3</DURATION>
			<DURATION>0.3</DURATION>
			<DURATION>0.3</DURATION>
			<DURATION>0.3</DURATION>
			<DURATION>0.3</DURATION>
			<DURATION>0.3</DURATION>
			<DURATION>0.3</DURATION>
			<DURATION>0.3</DURATION>
			<DURATION>0.3</DURATION>
			<DURATION>0.3</DURATION>
			<DURATION>0.3</DURATION>
			<DURATION>0.3</DURATION>
			<DURATION>0.3</DURATION>
			<DURATION>0.3</DURATION>
			<DURATION>0.3</DURATION>
			<DURATION>0.3</DURATION>
			<DURATION>0.3</DURATION>
			<DURATION>0.3</DURATION>
			<DURATION>0.3</DURATION>
			<DURATION>0.3</DURATION>
			<DURATION>0.3</DURATION>
			<DURATION>0.3</DURATION>
			<DURATION>0.3</DURATION>
			<DURATION>0.3</DURATION>
			<DURATION>0.3</DURATION>
			<DURATION>0.3</DURATION>
			<DURATION>0.3</DURATION>
			<DURATION>0.3</DURATION>
			<DURATION>0.3</DURATION>
			<DURATION>0.3</DURATION>
			<DURATION>0.3</DURATION>
			<DURATION>0.3</DURATION>
			<DURATION>0.3</DURATION>
			<DURATION>0.3</DURATION>
			<DURATION>0.3</DURATION>
			<DURATION>0.3</DURATION>
			<DURATION>0.3</DURATION>
			<DURATION>0.3</DURATION>
			<DURATION>0.3</DURATION>
			<DURATION>0.3</DURATION>
			<DURATION>0.3</DURATION>
			<DURATION>0.3</DURATION>
			<DURATION>0.3</DURATION>
			<DURATION>0.3</DURATION>
			<DURATION>0.3</DURATION>
			<DURATION>0.3</DURATION>
			<DURATION>0.3</DURATION>
			<DURATION>0.3</DURATION>
			<DURATION>0.3</DURATION>
			<DURATION>0.3</DURATION>
			<DURATION>0.3</DURATION>
			<DURATION>0.3</DURATION>
			<DURATION>0.3</DURATION>
			<DURATION>0.3</DURATION>
			<DURATION>0.3</DURATION>
			<DURATION>0.3</DURATION>
			<DURATION>0.3</DURATION>
			<DURATION>0.3</DURATION>
			<DURATION>0.3</DURATION>
			<DURATION>0.3</DURATION>
			<DURATION>0.3</DURATION>
			<DURATION>0.3</DURATION>
			<DURATION>0.3</DURATION>
			<DURATION>0.3</DURATION>
			<DURATION>0.3</DURATION>
			<DURATION>0.3</DURATION>
			<DURATION>0.3</DURATION>
			<DURATION>0.3</DURATION>
			<DURATION>0.3</DURATION>
			<DURATION>0.3</DURATION>
			<DURATION>0.3</DURATION>
			<DURATION>0.3</DURATION>
			<DURATION>0.3</DURATION>
			<DURATION>0.3</DURATION>
			<DURATION>0.3</DURATION>
			<DURATION>0.3</DURATION>
			<DURATION>0.3</DURATION>
			<DURATION>0.3</DURATION>
			<DURATION>0.3</DURATION>
			<DURATION>0.3</DURATION>
			<DURATION>0.3</DURATION>
			<DURATION>0.3</DURATION>
			<DURATION>0.3</DURATION>
			<DURATION>0.3</DURATION>
			<DURATION>0.3</DURATION>
			<DURATION>0.3</DURATION>
			<DURATION>0.3</DURATION>
			<DURATION>0.3</DURATION>
			<DURATION>0.3</DURATION>
			<DURATION>0.3</DURATION>
			<DURATION>0.3</DURATION>
			<DURATION>0.3</DURATION>
			<DURATION>0.3</DURATION>
			<DURATION>0.3</DURATION>
			<DURATION>0.3</DURATION>
			<DURATION>0.3</DURATION>
			<DURATION>0.3</DURATION>
			<DURATION>0.3</DURATION>
			<DURATION>0.3</DURATION>
			<DURATION>0.3</DURATION>
			<DURATION>0.3</DURATION>
			<DURATION>0.3</DURATION>
			<DURATION>0.3</DURATION>
			<DURATION>0.3</DURATION>
			<DURATION>0.3</DURATION>
			<DURATION>0.3</DURATION>
			<DURATION>0.3</DURATION>
			<DURATION>0.3</DURATION>
			<DURATION>0.3</DURATION>
			<DURATION>0.3</DURATION>
			<DURATION>0.3</DURATION>
			<DURATION>0.3</DURATION>
			<DURATION>0.3</DURATION>
			<DURATION>0.3</DURATION>
			<DURATION>0.3</DURATION>
			<DURATION>0.3</DURATION>
			<DURATION>0.3</DURATION>
			<DURATION>0.3</DURATION>
			<DURATION>0.3</DURATION>
			<DURATION>0.3</DURATION>
			<DURATION>0.3</DURATION>
			<DURATION>0.3</DURATION>
			<DURATION>0.3</DURATION>
			<DURATION>0.3</DURATION>
			<DURATION>0.3</DURATION>
			<DURATION>0.3</DURATION>
			<DURATION>0.3</DURATION>
			<DURATION>0.3</DURATION>
			<DURATION>0.3</DURATION>
			<DURATION>0.3</DURATION>
			<DURATION>0.3</DURATION>
			<DURATION>0.3</DURATION>
			<DURATION>0.3</DURATION>
			<DURATION>0.3</DURATION>
			<DURATION>0.3</DURATION>
			<DURATION>0.3</DURATION>
			<DURATION>0.3</DURATION>
			<DURATION>0.3</DURATION>
			<DURATION>0.3</DURATION>
			<DURATION>0.3</DURATION>
			<DURATION>0.3</DURATION>
			<DURATION>0.3</DURATION>
			<DURATION>0.3</DURATION>
			<DURATION>0.3</DURATION>
			<DURATION>0.3</DURATION>
			<DURATION>0.3</DURATION>
			<DURATION>0.3</DURATION>
			<DURATION>0.3</DURATION>
			<DURATION>0.3</DURATION>
			<DURATION>0.3</DURATION>
			<DURATION>0.3</DURATION>
			<DURATION>0.3</DURATION>
			<DURATION>0.3</DURATION>
			<DURATION>0.3</DURATION>
			<DURATION>0.3</DURATION>
			<DURATION>0.3</DURATION>
			<DURATION>0.3</DURATION>
			<DURATION>0.3</DURATION>
			<DURATION>0.3</DURATION>
			<DURATION>0.3</DURATION>
			<DURATION>0.3</DURATION>
			<DURATION>0.3</DURATION>
			<DURATION>0.3</DURATION>
			<DURATION>0.3</DURATION>
			<DURATION>0.3</DURATION>
			<DURATION>0.3</DURATION>
			<DURATION>0.3</DURATION>
			<DURATION>0.3</DURATION>
			<DURATION>0.3</DURATION>
			<DURATION>0.3</DURATION>
			<DURATION>0.3</DURATION>
			<DURATION>0.3</DURATION>
			<DURATION>0.3</DURATION>
			<DURATION>0.3</DURATION>
			<DURATION>0.3</DURATION>
			<DURATION>0.3</DURATION>
			<DURATION>0.3</DURATION>
			<DURATION>0.3</DURATION>
			<DURATION>0.3</DURATION>
			<DURATION>0.3</DURATION>
			<DURATION>0.3</DURATION>
			<DURATION>0.3</DURATION>
			<DURATION>0.3</DURATION>
			<DURATION>0.3</DURATION>
			<DURATION>0.3</DURATION>
			<DURATION>0.3</DURATION>
			<DURATION>0.3</DURATION>
			<DURATION>0.3</DURATION>
			<DURATION>0.3</DURATION>
			<DURATION>0.3</DURATION>
			<DURATION>0.3</DURATION>
			<DURATION>0.3</DURATION>
			<DURATION>0.3</DURATION>
			<DURATION>0.3</DURATION>
			<DURATION>0.3</DURATION>
			<DURATION>0.3</DURATION>
			<DURATION>0.3</DURATION>
			<DURATION>0.3</DURATION>
			<DURATION>0.31666666666666665</DURATION>
			<DURATION>0.31666666666666665</DURATION>
			<DURATION>0.31666666666666665</DURATION>
			<DURATION>0.31666666666666665</DURATION>
			<DURATION>0.31666666666666665</DURATION>
			<DURATION>0.31666666666666665</DURATION>
			<DURATION>0.31666666666666665</DURATION>
			<DURATION>0.31666666666666665</DURATION>
			<DURATION>0.31666666666666665</DURATION>
			<DURATION>0.31666666666666665</DURATION>
			<DURATION>0.31666666666666665</DURATION>
			<DURATION>0.31666666666666665</DURATION>
			<DURATION>0.31666666666666665</DURATION>
			<DURATION>0.31666666666666665</DURATION>
			<DURATION>0.31666666666666665</DURATION>
			<DURATION>0.31666666666666665</DURATION>
			<DURATION>0.31666666666666665</DURATION>
			<DURATION>0.31666666666666665</DURATION>
			<DURATION>0.31666666666666665</DURATION>
			<DURATION>0.31666666666666665</DURATION>
			<DURATION>0.31666666666666665</DURATION>
			<DURATION>0.31666666666666665</DURATION>
			<DURATION>0.31666666666666665</DURATION>
			<DURATION>0.31666666666666665</DURATION>
			<DURATION>0.31666666666666665</DURATION>
			<DURATION>0.31666666666666665</DURATION>
			<DURATION>0.31666666666666665</DURATION>
			<DURATION>0.31666666666666665</DURATION>
			<DURATION>0.31666666666666665</DURATION>
			<DURATION>0.31666666666666665</DURATION>
			<DURATION>0.31666666666666665</DURATION>
			<DURATION>0.31666666666666665</DURATION>
			<DURATION>0.31666666666666665</DURATION>
			<DURATION>0.31666666666666665</DURATION>
			<DURATION>0.31666666666666665</DURATION>
			<DURATION>0.31666666666666665</DURATION>
			<DURATION>0.31666666666666665</DURATION>
			<DURATION>0.31666666666666665</DURATION>
			<DURATION>0.31666666666666665</DURATION>
			<DURATION>0.31666666666666665</DURATION>
			<DURATION>0.31666666666666665</DURATION>
			<DURATION>0.31666666666666665</DURATION>
			<DURATION>0.31666666666666665</DURATION>
			<DURATION>0.31666666666666665</DURATION>
			<DURATION>0.31666666666666665</DURATION>
			<DURATION>0.31666666666666665</DURATION>
			<DURATION>0.31666666666666665</DURATION>
			<DURATION>0.31666666666666665</DURATION>
			<DURATION>0.31666666666666665</DURATION>
			<DURATION>0.31666666666666665</DURATION>
			<DURATION>0.31666666666666665</DURATION>
			<DURATION>0.31666666666666665</DURATION>
			<DURATION>0.31666666666666665</DURATION>
			<DURATION>0.31666666666666665</DURATION>
			<DURATION>0.31666666666666665</DURATION>
			<DURATION>0.31666666666666665</DURATION>
			<DURATION>0.31666666666666665</DURATION>
			<DURATION>0.31666666666666665</DURATION>
			<DURATION>0.31666666666666665</DURATION>
			<DURATION>0.3333333333333333</DURATION>
			<DURATION>0.3333333333333333</DURATION>
			<DURATION>0.3333333333333333</DURATION>
			<DURATION>0.3333333333333333</DURATION>
			<DURATION>0.3333333333333333</DURATION>
			<DURATION>0.3333333333333333</DURATION>
			<DURATION>0.3333333333333333</DURATION>
			<DURATION>0.3333333333333333</DURATION>
			<DURATION>0.3333333333333333</DURATION>
			<DURATION>0.3333333333333333</DURATION>
			<DURATION>0.3333333333333333</DURATION>
			<DURATION>0.3333333333333333</DURATION>
			<DURATION>0.3333333333333333</DURATION>
			<DURATION>0.35</DURATION>
			<DURATION>0.35</DURATION>
			<DURATION>0.35</DURATION>
			<DURATION>0.35</DURATION>
			<DURATION>0.35</DURATION>
			<DURATION>0.35</DURATION>
			<DURATION>0.35</DURATION>
			<DURATION>0.36666666666666664</DURATION>
			<DURATION>0.36666666666666664</DURATION>
			<DURATION>0.36666666666666664</DURATION>
			<DURATION>0.36666666666666664</DURATION>
			<DURATION>0.36666666666666664</DURATION>
			<DURATION>0.38333333333333336</DURATION>
			<DURATION>0.4</DURATION>
			<DURATION>0.4</DURATION>
			<DURATION>0.4166666666666667</DURATION>
			<DURATION>0.43333333333333335</DURATION>
			<DURATION>0.4666666666666667</DURATION>
			<DURATION>0.48333333333333334</DURATION>
			<DURATION>0.5166666666666667</DURATION>
			<DURATION>0.5166666666666667</DURATION>
			<DURATION>0.55</DURATION>
			<DURATION>0.6</DURATION>
			<DURATION>0.6166666666666667</DURATION>
			<DURATION>0.6333333333333333</DURATION>
			<DURATION>0.6333333333333333</DURATION>
			<DURATION>0.65</DURATION>
			<DURATION>0.6666666666666666</DURATION>
			<DURATION>0.6833333333333333</DURATION>
			<DURATION>0.6833333333333333</DURATION>
		</HISTORICAL-DURATIONS>
	</CONSTRAINT>
	<CONSTRAINT>
		<START>a2ca5306-2fb7-4968-927c-11d416029222</START>
		<END>c62e67a4-ac73-489b-be77-4b74b6b05be7</END>
		<ID>096d375a-0114-46d8-8589-432fde08a306</ID>
		<NAME>From 70077 to 70079 (South Station - Outbound)</NAME>
		<LOWERBOUND>0.16666666666666666</LOWERBOUND>
		<UPPERBOUND>0.43333333333333335</UPPERBOUND>
		<LB-RELAX-COST-RATIO>0.0</LB-RELAX-COST-RATIO>
		<UB-RELAX-COST-RATIO>0.0</UB-RELAX-COST-RATIO>
		<COST>0.0</COST>
		<TYPE>Uncontrollable;Activity</TYPE>
		<MEAN>0.0</MEAN>
		<DISTRIBUTION>Normal</DISTRIBUTION>
		<VARIANCE>0.0</VARIANCE>
		<HISTORICAL-DURATIONS>
			<DURATION>0.16666666666666666</DURATION>
			<DURATION>0.18333333333333332</DURATION>
			<DURATION>0.18333333333333332</DURATION>
			<DURATION>0.18333333333333332</DURATION>
			<DURATION>0.18333333333333332</DURATION>
			<DURATION>0.18333333333333332</DURATION>
			<DURATION>0.18333333333333332</DURATION>
			<DURATION>0.18333333333333332</DURATION>
			<DURATION>0.18333333333333332</DURATION>
			<DURATION>0.18333333333333332</DURATION>
			<DURATION>0.18333333333333332</DURATION>
			<DURATION>0.18333333333333332</DURATION>
			<DURATION>0.18333333333333332</DURATION>
			<DURATION>0.18333333333333332</DURATION>
			<DURATION>0.18333333333333332</DURATION>
			<DURATION>0.18333333333333332</DURATION>
			<DURATION>0.18333333333333332</DURATION>
			<DURATION>0.18333333333333332</DURATION>
			<DURATION>0.18333333333333332</DURATION>
			<DURATION>0.18333333333333332</DURATION>
			<DURATION>0.18333333333333332</DURATION>
			<DURATION>0.18333333333333332</DURATION>
			<DURATION>0.18333333333333332</DURATION>
			<DURATION>0.18333333333333332</DURATION>
			<DURATION>0.18333333333333332</DURATION>
			<DURATION>0.18333333333333332</DURATION>
			<DURATION>0.18333333333333332</DURATION>
			<DURATION>0.18333333333333332</DURATION>
			<DURATION>0.18333333333333332</DURATION>
			<DURATION>0.18333333333333332</DURATION>
			<DURATION>0.18333333333333332</DURATION>
			<DURATION>0.18333333333333332</DURATION>
			<DURATION>0.18333333333333332</DURATION>
			<DURATION>0.18333333333333332</DURATION>
			<DURATION>0.2</DURATION>
			<DURATION>0.2</DURATION>
			<DURATION>0.2</DURATION>
			<DURATION>0.2</DURATION>
			<DURATION>0.2</DURATION>
			<DURATION>0.2</DURATION>
			<DURATION>0.2</DURATION>
			<DURATION>0.2</DURATION>
			<DURATION>0.2</DURATION>
			<DURATION>0.2</DURATION>
			<DURATION>0.2</DURATION>
			<DURATION>0.2</DURATION>
			<DURATION>0.2</DURATION>
			<DURATION>0.2</DURATION>
			<DURATION>0.2</DURATION>
			<DURATION>0.2</DURATION>
			<DURATION>0.2</DURATION>
			<DURATION>0.2</DURATION>
			<DURATION>0.2</DURATION>
			<DURATION>0.2</DURATION>
			<DURATION>0.2</DURATION>
			<DURATION>0.2</DURATION>
			<DURATION>0.2</DURATION>
			<DURATION>0.2</DURATION>
			<DURATION>0.2</DURATION>
			<DURATION>0.2</DURATION>
			<DURATION>0.2</DURATION>
			<DURATION>0.2</DURATION>
			<DURATION>0.2</DURATION>
			<DURATION>0.2</DURATION>
			<DURATION>0.2</DURATION>
			<DURATION>0.2</DURATION>
			<DURATION>0.2</DURATION>
			<DURATION>0.2</DURATION>
			<DURATION>0.2</DURATION>
			<DURATION>0.2</DURATION>
			<DURATION>0.2</DURATION>
			<DURATION>0.2</DURATION>
			<DURATION>0.2</DURATION>
			<DURATION>0.2</DURATION>
			<DURATION>0.2</DURATION>
			<DURATION>0.2</DURATION>
			<DURATION>0.2</DURATION>
			<DURATION>0.2</DURATION>
			<DURATION>0.2</DURATION>
			<DURATION>0.2</DURATION>
			<DURATION>0.2</DURATION>
			<DURATION>0.2</DURATION>
			<DURATION>0.2</DURATION>
			<DURATION>0.2</DURATION>
			<DURATION>0.2</DURATION>
			<DURATION>0.2</DURATION>
			<DURATION>0.2</DURATION>
			<DURATION>0.2</DURATION>
			<DURATION>0.2</DURATION>
			<DURATION>0.2</DURATION>
			<DURATION>0.2</DURATION>
			<DURATION>0.2</DURATION>
			<DURATION>0.2</DURATION>
			<DURATION>0.2</DURATION>
			<DURATION>0.2</DURATION>
			<DURATION>0.2</DURATION>
			<DURATION>0.2</DURATION>
			<DURATION>0.2</DURATION>
			<DURATION>0.2</DURATION>
			<DURATION>0.2</DURATION>
			<DURATION>0.2</DURATION>
			<DURATION>0.2</DURATION>
			<DURATION>0.2</DURATION>
			<DURATION>0.2</DURATION>
			<DURATION>0.2</DURATION>
			<DURATION>0.2</DURATION>
			<DURATION>0.2</DURATION>
			<DURATION>0.21666666666666667</DURATION>
			<DURATION>0.21666666666666667</DURATION>
			<DURATION>0.21666666666666667</DURATION>
			<DURATION>0.21666666666666667</DURATION>
			<DURATION>0.21666666666666667</DURATION>
			<DURATION>0.21666666666666667</DURATION>
			<DURATION>0.21666666666666667</DURATION>
			<DURATION>0.21666666666666667</DURATION>
			<DURATION>0.21666666666666667</DURATION>
			<DURATION>0.21666666666666667</DURATION>
			<DURATION>0.21666666666666667</DURATION>
			<DURATION>0.21666666666666667</DURATION>
			<DURATION>0.21666666666666667</DURATION>
			<DURATION>0.21666666666666667</DURATION>
			<DURATION>0.21666666666666667</DURATION>
			<DURATION>0.21666666666666667</DURATION>
			<DURATION>0.21666666666666667</DURATION>
			<DURATION>0.21666666666666667</DURATION>
			<DURATION>0.21666666666666667</DURATION>
			<DURATION>0.21666666666666667</DURATION>
			<DURATION>0.21666666666666667</DURATION>
			<DURATION>0.21666666666666667</DURATION>
			<DURATION>0.21666666666666667</DURATION>
			<DURATION>0.21666666666666667</DURATION>
			<DURATION>0.21666666666666667</DURATION>
			<DURATION>0.21666666666666667</DURATION>
			<DURATION>0.21666666666666667</DURATION>
			<DURATION>0.21666666666666667</DURATION>
			<DURATION>0.21666666666666667</DURATION>
			<DURATION>0.21666666666666667</DURATION>
			<DURATION>0.21666666666666667</DURATION>
			<DURATION>0.21666666666666667</DURATION>
			<DURATION>0.21666666666666667</DURATION>
			<DURATION>0.21666666666666667</DURATION>
			<DURATION>0.21666666666666667</DURATION>
			<DURATION>0.21666666666666667</DURATION>
			<DURATION>0.21666666666666667</DURATION>
			<DURATION>0.21666666666666667</DURATION>
			<DURATION>0.21666666666666667</DURATION>
			<DURATION>0.21666666666666667</DURATION>
			<DURATION>0.21666666666666667</DURATION>
			<DURATION>0.21666666666666667</DURATION>
			<DURATION>0.21666666666666667</DURATION>
			<DURATION>0.21666666666666667</DURATION>
			<DURATION>0.21666666666666667</DURATION>
			<DURATION>0.21666666666666667</DURATION>
			<DURATION>0.21666666666666667</DURATION>
			<DURATION>0.21666666666666667</DURATION>
			<DURATION>0.21666666666666667</DURATION>
			<DURATION>0.23333333333333334</DURATION>
			<DURATION>0.23333333333333334</DURATION>
			<DURATION>0.36666666666666664</DURATION>
			<DURATION>0.38333333333333336</DURATION>
			<DURATION>0.38333333333333336</DURATION>
			<DURATION>0.38333333333333336</DURATION>
			<DURATION>0.38333333333333336</DURATION>
			<DURATION>0.38333333333333336</DURATION>
			<DURATION>0.38333333333333336</DURATION>
			<DURATION>0.38333333333333336</DURATION>
			<DURATION>0.38333333333333336</DURATION>
			<DURATION>0.38333333333333336</DURATION>
			<DURATION>0.38333333333333336</DURATION>
			<DURATION>0.38333333333333336</DURATION>
			<DURATION>0.38333333333333336</DURATION>
			<DURATION>0.38333333333333336</DURATION>
			<DURATION>0.38333333333333336</DURATION>
			<DURATION>0.38333333333333336</DURATION>
			<DURATION>0.38333333333333336</DURATION>
			<DURATION>0.38333333333333336</DURATION>
			<DURATION>0.38333333333333336</DURATION>
			<DURATION>0.38333333333333336</DURATION>
			<DURATION>0.38333333333333336</DURATION>
			<DURATION>0.38333333333333336</DURATION>
			<DURATION>0.38333333333333336</DURATION>
			<DURATION>0.38333333333333336</DURATION>
			<DURATION>0.38333333333333336</DURATION>
			<DURATION>0.38333333333333336</DURATION>
			<DURATION>0.38333333333333336</DURATION>
			<DURATION>0.38333333333333336</DURATION>
			<DURATION>0.38333333333333336</DURATION>
			<DURATION>0.38333333333333336</DURATION>
			<DURATION>0.38333333333333336</DURATION>
			<DURATION>0.38333333333333336</DURATION>
			<DURATION>0.38333333333333336</DURATION>
			<DURATION>0.4</DURATION>
			<DURATION>0.4</DURATION>
			<DURATION>0.4</DURATION>
			<DURATION>0.4</DURATION>
			<DURATION>0.4</DURATION>
			<DURATION>0.4</DURATION>
			<DURATION>0.4</DURATION>
			<DURATION>0.4</DURATION>
			<DURATION>0.4</DURATION>
			<DURATION>0.4</DURATION>
			<DURATION>0.4</DURATION>
			<DURATION>0.4</DURATION>
			<DURATION>0.4</DURATION>
			<DURATION>0.4</DURATION>
			<DURATION>0.4</DURATION>
			<DURATION>0.4</DURATION>
			<DURATION>0.4</DURATION>
			<DURATION>0.4</DURATION>
			<DURATION>0.4</DURATION>
			<DURATION>0.4</DURATION>
			<DURATION>0.4</DURATION>
			<DURATION>0.4</DURATION>
			<DURATION>0.4</DURATION>
			<DURATION>0.4</DURATION>
			<DURATION>0.4</DURATION>
			<DURATION>0.4</DURATION>
			<DURATION>0.4</DURATION>
			<DURATION>0.4</DURATION>
			<DURATION>0.4</DURATION>
			<DURATION>0.4</DURATION>
			<DURATION>0.4</DURATION>
			<DURATION>0.4</DURATION>
			<DURATION>0.4</DURATION>
			<DURATION>0.4</DURATION>
			<DURATION>0.4</DURATION>
			<DURATION>0.4</DURATION>
			<DURATION>0.4</DURATION>
			<DURATION>0.4</DURATION>
			<DURATION>0.4</DURATION>
			<DURATION>0.4</DURATION>
			<DURATION>0.4</DURATION>
			<DURATION>0.4</DURATION>
			<DURATION>0.4</DURATION>
			<DURATION>0.4</DURATION>
			<DURATION>0.4</DURATION>
			<DURATION>0.4</DURATION>
			<DURATION>0.4</DURATION>
			<DURATION>0.4</DURATION>
			<DURATION>0.4</DURATION>
			<DURATION>0.4</DURATION>
			<DURATION>0.4</DURATION>
			<DURATION>0.4</DURATION>
			<DURATION>0.4</DURATION>
			<DURATION>0.4</DURATION>
			<DURATION>0.4</DURATION>
			<DURATION>0.4</DURATION>
			<DURATION>0.4</DURATION>
			<DURATION>0.4</DURATION>
			<DURATION>0.4</DURATION>
			<DURATION>0.4</DURATION>
			<DURATION>0.4</DURATION>
			<DURATION>0.4</DURATION>
			<DURATION>0.4</DURATION>
			<DURATION>0.4</DURATION>
			<DURATION>0.4</DURATION>
			<DURATION>0.4</DURATION>
			<DURATION>0.4</DURATION>
			<DURATION>0.4</DURATION>
			<DURATION>0.4</DURATION>
			<DURATION>0.4</DURATION>
			<DURATION>0.4</DURATION>
			<DURATION>0.4</DURATION>
			<DURATION>0.4</DURATION>
			<DURATION>0.4</DURATION>
			<DURATION>0.4</DURATION>
			<DURATION>0.4</DURATION>
			<DURATION>0.4</DURATION>
			<DURATION>0.4</DURATION>
			<DURATION>0.4</DURATION>
			<DURATION>0.4</DURATION>
			<DURATION>0.4</DURATION>
			<DURATION>0.4</DURATION>
			<DURATION>0.4</DURATION>
			<DURATION>0.4</DURATION>
			<DURATION>0.4</DURATION>
			<DURATION>0.4</DURATION>
			<DURATION>0.4</DURATION>
			<DURATION>0.4</DURATION>
			<DURATION>0.4</DURATION>
			<DURATION>0.4</DURATION>
			<DURATION>0.4</DURATION>
			<DURATION>0.4</DURATION>
			<DURATION>0.4</DURATION>
			<DURATION>0.4</DURATION>
			<DURATION>0.4</DURATION>
			<DURATION>0.4</DURATION>
			<DURATION>0.4</DURATION>
			<DURATION>0.4</DURATION>
			<DURATION>0.4</DURATION>
			<DURATION>0.4</DURATION>
			<DURATION>0.4</DURATION>
			<DURATION>0.4</DURATION>
			<DURATION>0.4</DURATION>
			<DURATION>0.4</DURATION>
			<DURATION>0.4</DURATION>
			<DURATION>0.4</DURATION>
			<DURATION>0.4</DURATION>
			<DURATION>0.4</DURATION>
			<DURATION>0.4</DURATION>
			<DURATION>0.4</DURATION>
			<DURATION>0.4</DURATION>
			<DURATION>0.4</DURATION>
			<DURATION>0.4</DURATION>
			<DURATION>0.4</DURATION>
			<DURATION>0.4</DURATION>
			<DURATION>0.4</DURATION>
			<DURATION>0.4</DURATION>
			<DURATION>0.4</DURATION>
			<DURATION>0.4</DURATION>
			<DURATION>0.4</DURATION>
			<DURATION>0.4</DURATION>
			<DURATION>0.4</DURATION>
			<DURATION>0.4166666666666667</DURATION>
			<DURATION>0.4166666666666667</DURATION>
			<DURATION>0.4166666666666667</DURATION>
			<DURATION>0.4166666666666667</DURATION>
			<DURATION>0.4166666666666667</DURATION>
			<DURATION>0.4166666666666667</DURATION>
			<DURATION>0.4166666666666667</DURATION>
			<DURATION>0.4166666666666667</DURATION>
			<DURATION>0.4166666666666667</DURATION>
			<DURATION>0.4166666666666667</DURATION>
			<DURATION>0.4166666666666667</DURATION>
			<DURATION>0.4166666666666667</DURATION>
			<DURATION>0.4166666666666667</DURATION>
			<DURATION>0.4166666666666667</DURATION>
			<DURATION>0.4166666666666667</DURATION>
			<DURATION>0.4166666666666667</DURATION>
			<DURATION>0.4166666666666667</DURATION>
			<DURATION>0.4166666666666667</DURATION>
			<DURATION>0.4166666666666667</DURATION>
			<DURATION>0.4166666666666667</DURATION>
			<DURATION>0.4166666666666667</DURATION>
			<DURATION>0.4166666666666667</DURATION>
			<DURATION>0.4166666666666667</DURATION>
			<DURATION>0.4166666666666667</DURATION>
			<DURATION>0.4166666666666667</DURATION>
			<DURATION>0.4166666666666667</DURATION>
			<DURATION>0.4166666666666667</DURATION>
			<DURATION>0.4166666666666667</DURATION>
			<DURATION>0.4166666666666667</DURATION>
			<DURATION>0.4166666666666667</DURATION>
			<DURATION>0.4166666666666667</DURATION>
			<DURATION>0.4166666666666667</DURATION>
			<DURATION>0.4166666666666667</DURATION>
			<DURATION>0.4166666666666667</DURATION>
			<DURATION>0.4166666666666667</DURATION>
			<DURATION>0.4166666666666667</DURATION>
			<DURATION>0.4166666666666667</DURATION>
			<DURATION>0.4166666666666667</DURATION>
			<DURATION>0.4166666666666667</DURATION>
			<DURATION>0.4166666666666667</DURATION>
			<DURATION>0.4166666666666667</DURATION>
			<DURATION>0.4166666666666667</DURATION>
			<DURATION>0.4166666666666667</DURATION>
			<DURATION>0.4166666666666667</DURATION>
			<DURATION>0.4166666666666667</DURATION>
			<DURATION>0.4166666666666667</DURATION>
			<DURATION>0.4166666666666667</DURATION>
			<DURATION>0.4166666666666667</DURATION>
			<DURATION>0.4166666666666667</DURATION>
			<DURATION>0.4166666666666667</DURATION>
			<DURATION>0.4166666666666667</DURATION>
			<DURATION>0.4166666666666667</DURATION>
			<DURATION>0.4166666666666667</DURATION>
			<DURATION>0.4166666666666667</DURATION>
			<DURATION>0.4166666666666667</DURATION>
			<DURATION>0.4166666666666667</DURATION>
			<DURATION>0.4166666666666667</DURATION>
			<DURATION>0.4166666666666667</DURATION>
			<DURATION>0.4166666666666667</DURATION>
			<DURATION>0.4166666666666667</DURATION>
			<DURATION>0.4166666666666667</DURATION>
			<DURATION>0.4166666666666667</DURATION>
			<DURATION>0.4166666666666667</DURATION>
			<DURATION>0.4166666666666667</DURATION>
			<DURATION>0.4166666666666667</DURATION>
			<DURATION>0.4166666666666667</DURATION>
			<DURATION>0.4166666666666667</DURATION>
			<DURATION>0.4166666666666667</DURATION>
			<DURATION>0.4166666666666667</DURATION>
			<DURATION>0.4166666666666667</DURATION>
			<DURATION>0.4166666666666667</DURATION>
			<DURATION>0.4166666666666667</DURATION>
			<DURATION>0.4166666666666667</DURATION>
			<DURATION>0.4166666666666667</DURATION>
			<DURATION>0.4166666666666667</DURATION>
			<DURATION>0.4166666666666667</DURATION>
			<DURATION>0.4166666666666667</DURATION>
			<DURATION>0.4166666666666667</DURATION>
			<DURATION>0.4166666666666667</DURATION>
			<DURATION>0.4166666666666667</DURATION>
			<DURATION>0.4166666666666667</DURATION>
			<DURATION>0.4166666666666667</DURATION>
			<DURATION>0.4166666666666667</DURATION>
			<DURATION>0.4166666666666667</DURATION>
			<DURATION>0.4166666666666667</DURATION>
			<DURATION>0.4166666666666667</DURATION>
			<DURATION>0.4166666666666667</DURATION>
			<DURATION>0.4166666666666667</DURATION>
			<DURATION>0.4166666666666667</DURATION>
			<DURATION>0.4166666666666667</DURATION>
			<DURATION>0.4166666666666667</DURATION>
			<DURATION>0.4166666666666667</DURATION>
			<DURATION>0.4166666666666667</DURATION>
			<DURATION>0.4166666666666667</DURATION>
			<DURATION>0.4166666666666667</DURATION>
			<DURATION>0.4166666666666667</DURATION>
			<DURATION>0.4166666666666667</DURATION>
			<DURATION>0.4166666666666667</DURATION>
			<DURATION>0.4166666666666667</DURATION>
			<DURATION>0.4166666666666667</DURATION>
			<DURATION>0.4166666666666667</DURATION>
			<DURATION>0.4166666666666667</DURATION>
			<DURATION>0.4166666666666667</DURATION>
			<DURATION>0.4166666666666667</DURATION>
			<DURATION>0.4166666666666667</DURATION>
			<DURATION>0.4166666666666667</DURATION>
			<DURATION>0.4166666666666667</DURATION>
			<DURATION>0.4166666666666667</DURATION>
			<DURATION>0.4166666666666667</DURATION>
			<DURATION>0.4166666666666667</DURATION>
			<DURATION>0.4166666666666667</DURATION>
			<DURATION>0.4166666666666667</DURATION>
			<DURATION>0.4166666666666667</DURATION>
			<DURATION>0.4166666666666667</DURATION>
			<DURATION>0.4166666666666667</DURATION>
			<DURATION>0.4166666666666667</DURATION>
			<DURATION>0.4166666666666667</DURATION>
			<DURATION>0.4166666666666667</DURATION>
			<DURATION>0.4166666666666667</DURATION>
			<DURATION>0.4166666666666667</DURATION>
			<DURATION>0.4166666666666667</DURATION>
			<DURATION>0.4166666666666667</DURATION>
			<DURATION>0.4166666666666667</DURATION>
			<DURATION>0.4166666666666667</DURATION>
			<DURATION>0.4166666666666667</DURATION>
			<DURATION>0.43333333333333335</DURATION>
			<DURATION>0.43333333333333335</DURATION>
			<DURATION>0.43333333333333335</DURATION>
			<DURATION>0.43333333333333335</DURATION>
			<DURATION>0.43333333333333335</DURATION>
			<DURATION>0.43333333333333335</DURATION>
			<DURATION>0.43333333333333335</DURATION>
			<DURATION>0.43333333333333335</DURATION>
			<DURATION>0.43333333333333335</DURATION>
			<DURATION>0.43333333333333335</DURATION>
			<DURATION>0.43333333333333335</DURATION>
			<DURATION>0.43333333333333335</DURATION>
			<DURATION>0.43333333333333335</DURATION>
			<DURATION>0.43333333333333335</DURATION>
			<DURATION>0.43333333333333335</DURATION>
			<DURATION>0.43333333333333335</DURATION>
			<DURATION>0.43333333333333335</DURATION>
			<DURATION>0.43333333333333335</DURATION>
			<DURATION>0.43333333333333335</DURATION>
			<DURATION>0.43333333333333335</DURATION>
			<DURATION>0.43333333333333335</DURATION>
			<DURATION>0.43333333333333335</DURATION>
			<DURATION>0.43333333333333335</DURATION>
			<DURATION>0.43333333333333335</DURATION>
			<DURATION>0.43333333333333335</DURATION>
			<DURATION>0.43333333333333335</DURATION>
			<DURATION>0.43333333333333335</DURATION>
			<DURATION>0.43333333333333335</DURATION>
			<DURATION>0.43333333333333335</DURATION>
			<DURATION>0.43333333333333335</DURATION>
			<DURATION>0.43333333333333335</DURATION>
			<DURATION>0.43333333333333335</DURATION>
			<DURATION>0.43333333333333335</DURATION>
			<DURATION>0.43333333333333335</DURATION>
			<DURATION>0.45</DURATION>
			<DURATION>0.45</DURATION>
			<DURATION>0.45</DURATION>
			<DURATION>0.45</DURATION>
			<DURATION>0.4666666666666667</DURATION>
			<DURATION>0.48333333333333334</DURATION>
			<DURATION>0.48333333333333334</DURATION>
			<DURATION>0.5166666666666667</DURATION>
			<DURATION>0.5333333333333333</DURATION>
		</HISTORICAL-DURATIONS>
	</CONSTRAINT>
	<CONSTRAINT>
		<START>177d7134-3ee1-4ab1-b9a0-035be8c96e0f</START>
		<END>eece7934-e608-43bf-8ae3-92ef57e164d2</END>
		<ID>395f2397-b41e-4df7-806f-2a963a4a2cca</ID>
		<NAME>Headway 8.0</NAME>
		<LOWERBOUND>7.0</LOWERBOUND>
		<UPPERBOUND>9.0</UPPERBOUND>
		<LBRELAXABLE>T</LBRELAXABLE>
		<UBRELAXABLE>T</UBRELAXABLE>
		<LB-RELAX-COST-RATIO>100.0</LB-RELAX-COST-RATIO>
		<UB-RELAX-COST-RATIO>100.0</UB-RELAX-COST-RATIO>
		<COST>0.0</COST>
		<TYPE>Controllable;Constraint</TYPE>
		<MEAN>0.0</MEAN>
	</CONSTRAINT>
	<CONSTRAINT>
		<START>4d4ddad4-26a8-4711-b565-cc9497399adb</START>
		<END>d555a76a-953e-42b3-b223-e6cc13abf13f</END>
		<ID>1b25383f-6d83-4462-bf78-3cc519d59dff</ID>
		<NAME>30453702 Wait for departure at 70079</NAME>
		<LOWERBOUND>0.0</LOWERBOUND>
		<UPPERBOUND>0.1</UPPERBOUND>
		<UBRELAXABLE>T</UBRELAXABLE>
		<LB-RELAX-COST-RATIO>0.0</LB-RELAX-COST-RATIO>
		<UB-RELAX-COST-RATIO>0.1</UB-RELAX-COST-RATIO>
		<COST>0.0</COST>
		<TYPE>Controllable;Constraint</TYPE>
		<MEAN>0.0</MEAN>
	</CONSTRAINT>
	<CONSTRAINT>
		<START>0ebf7c86-7c94-43c2-ac2b-d4b7a841528a</START>
		<END>e21f6e21-3d01-4d50-aba1-8a0b26dd74ff</END>
		<ID>2afa8c20-c949-498d-8cf1-a7e269f099e5</ID>
		<NAME>From 70061 to 70063 (Davis - Inbound)</NAME>
		<LOWERBOUND>3.0</LOWERBOUND>
		<UPPERBOUND>4.0</UPPERBOUND>
		<LB-RELAX-COST-RATIO>0.0</LB-RELAX-COST-RATIO>
		<UB-RELAX-COST-RATIO>0.0</UB-RELAX-COST-RATIO>
		<COST>0.0</COST>
		<TYPE>Uncontrollable;Activity</TYPE>
		<MEAN>0.0</MEAN>
		<DISTRIBUTION>Normal</DISTRIBUTION>
		<VARIANCE>0.0</VARIANCE>
	</CONSTRAINT>
	<CONSTRAINT>
		<START>36dc613c-124b-40f1-b64d-7e31e38b106c</START>
		<END>eece7934-e608-43bf-8ae3-92ef57e164d2</END>
		<ID>a3681dc7-c8ea-439f-b1bd-9186e50a6714</ID>
		<NAME>From 70063 to 70065 (Porter - Inbound)</NAME>
		<LOWERBOUND>0.75</LOWERBOUND>
		<UPPERBOUND>1.3333333333333333</UPPERBOUND>
		<LB-RELAX-COST-RATIO>0.0</LB-RELAX-COST-RATIO>
		<UB-RELAX-COST-RATIO>0.0</UB-RELAX-COST-RATIO>
		<COST>0.0</COST>
		<TYPE>Uncontrollable;Activity</TYPE>
		<MEAN>0.0</MEAN>
		<DISTRIBUTION>Normal</DISTRIBUTION>
		<VARIANCE>0.0</VARIANCE>
		<HISTORICAL-DURATIONS>
			<DURATION>0.75</DURATION>
			<DURATION>0.7666666666666667</DURATION>
			<DURATION>0.7833333333333333</DURATION>
			<DURATION>0.8833333333333333</DURATION>
			<DURATION>0.8833333333333333</DURATION>
			<DURATION>0.8833333333333333</DURATION>
			<DURATION>0.8833333333333333</DURATION>
			<DURATION>0.8833333333333333</DURATION>
			<DURATION>0.8833333333333333</DURATION>
			<DURATION>0.8833333333333333</DURATION>
			<DURATION>0.8833333333333333</DURATION>
			<DURATION>0.8833333333333333</DURATION>
			<DURATION>0.8833333333333333</DURATION>
			<DURATION>0.9</DURATION>
			<DURATION>0.9</DURATION>
			<DURATION>0.9</DURATION>
			<DURATION>0.9</DURATION>
			<DURATION>0.9</DURATION>
			<DURATION>0.9</DURATION>
			<DURATION>0.9</DURATION>
			<DURATION>0.9</DURATION>
			<DURATION>0.9</DURATION>
			<DURATION>0.9</DURATION>
			<DURATION>0.9</DURATION>
			<DURATION>0.9</DURATION>
			<DURATION>0.9</DURATION>
			<DURATION>0.9</DURATION>
			<DURATION>0.9</DURATION>
			<DURATION>0.9</DURATION>
			<DURATION>0.9</DURATION>
			<DURATION>0.9</DURATION>
			<DURATION>0.9</DURATION>
			<DURATION>0.9</DURATION>
			<DURATION>0.9166666666666666</DURATION>
			<DURATION>0.9166666666666666</DURATION>
			<DURATION>0.9166666666666666</DURATION>
			<DURATION>0.9166666666666666</DURATION>
			<DURATION>0.9166666666666666</DURATION>
			<DURATION>0.9166666666666666</DURATION>
			<DURATION>0.9166666666666666</DURATION>
			<DURATION>0.9166666666666666</DURATION>
			<DURATION>0.9166666666666666</DURATION>
			<DURATION>0.9166666666666666</DURATION>
			<DURATION>0.9166666666666666</DURATION>
			<DURATION>0.9166666666666666</DURATION>
			<DURATION>0.9166666666666666</DURATION>
			<DURATION>0.9166666666666666</DURATION>
			<DURATION>0.9166666666666666</DURATION>
			<DURATION>0.9166666666666666</DURATION>
			<DURATION>0.9166666666666666</DURATION>
			<DURATION>0.9166666666666666</DURATION>
			<DURATION>0.9333333333333333</DURATION>
			<DURATION>0.9333333333333333</DURATION>
			<DURATION>0.9333333333333333</DURATION>
			<DURATION>0.9333333333333333</DURATION>
			<DURATION>0.9333333333333333</DURATION>
			<DURATION>0.9333333333333333</DURATION>
			<DURATION>0.9333333333333333</DURATION>
			<DURATION>0.9333333333333333</DURATION>
			<DURATION>0.9333333333333333</DURATION>
			<DURATION>0.9333333333333333</DURATION>
			<DURATION>0.9333333333333333</DURATION>
			<DURATION>0.9333333333333333</DURATION>
			<DURATION>0.9333333333333333</DURATION>
			<DURATION>0.95</DURATION>
			<DURATION>0.95</DURATION>
			<DURATION>0.95</DURATION>
			<DURATION>0.95</DURATION>
			<DURATION>0.95</DURATION>
			<DURATION>0.95</DURATION>
			<DURATION>0.95</DURATION>
			<DURATION>0.95</DURATION>
			<DURATION>0.95</DURATION>
			<DURATION>0.95</DURATION>
			<DURATION>0.95</DURATION>
			<DURATION>0.95</DURATION>
			<DURATION>0.95</DURATION>
			<DURATION>0.95</DURATION>
			<DURATION>0.95</DURATION>
			<DURATION>0.95</DURATION>
			<DURATION>0.95</DURATION>
			<DURATION>0.95</DURATION>
			<DURATION>0.95</DURATION>
			<DURATION>0.95</DURATION>
			<DURATION>0.95</DURATION>
			<DURATION>0.95</DURATION>
			<DURATION>0.95</DURATION>
			<DURATION>0.95</DURATION>
			<DURATION>0.95</DURATION>
			<DURATION>0.9666666666666667</DURATION>
			<DURATION>0.9666666666666667</DURATION>
			<DURATION>0.9666666666666667</DURATION>
			<DURATION>0.9666666666666667</DURATION>
			<DURATION>0.9666666666666667</DURATION>
			<DURATION>0.9666666666666667</DURATION>
			<DURATION>0.9666666666666667</DURATION>
			<DURATION>0.9666666666666667</DURATION>
			<DURATION>0.9666666666666667</DURATION>
			<DURATION>0.9666666666666667</DURATION>
			<DURATION>0.9666666666666667</DURATION>
			<DURATION>0.9666666666666667</DURATION>
			<DURATION>0.9666666666666667</DURATION>
			<DURATION>0.9666666666666667</DURATION>
			<DURATION>0.9666666666666667</DURATION>
			<DURATION>0.9666666666666667</DURATION>
			<DURATION>0.9666666666666667</DURATION>
			<DURATION>0.9666666666666667</DURATION>
			<DURATION>0.9666666666666667</DURATION>
			<DURATION>0.9666666666666667</DURATION>
			<DURATION>0.9666666666666667</DURATION>
			<DURATION>0.9666666666666667</DURATION>
			<DURATION>0.9833333333333333</DURATION>
			<DURATION>0.9833333333333333</DURATION>
			<DURATION>0.9833333333333333</DURATION>
			<DURATION>0.9833333333333333</DURATION>
			<DURATION>0.9833333333333333</DURATION>
			<DURATION>0.9833333333333333</DURATION>
			<DURATION>0.9833333333333333</DURATION>
			<DURATION>1.0</DURATION>
			<DURATION>1.0</DURATION>
			<DURATION>1.0</DURATION>
			<DURATION>1.0</DURATION>
			<DURATION>1.0</DURATION>
			<DURATION>1.0</DURATION>
			<DURATION>1.0166666666666666</DURATION>
			<DURATION>1.0166666666666666</DURATION>
			<DURATION>1.0333333333333334</DURATION>
			<DURATION>1.0333333333333334</DURATION>
			<DURATION>1.0333333333333334</DURATION>
			<DURATION>1.0333333333333334</DURATION>
			<DURATION>1.05</DURATION>
			<DURATION>1.05</DURATION>
			<DURATION>1.0666666666666667</DURATION>
			<DURATION>1.1</DURATION>
			<DURATION>1.1</DURATION>
			<DURATION>1.1</DURATION>
			<DURATION>1.1</DURATION>
			<DURATION>1.1166666666666667</DURATION>
			<DURATION>1.1166666666666667</DURATION>
			<DURATION>1.1166666666666667</DURATION>
			<DURATION>1.1166666666666667</DURATION>
			<DURATION>1.1166666666666667</DURATION>
			<DURATION>1.1166666666666667</DURATION>
