<CCTP>
	<NAME>Transit Test Route Red</NAME>
	<START>9dd45617-bb0a-4a44-a63f-66b0fea332fa</START>
	<END>44358bb7-4431-4c77-a11b-81af7c608d04</END>
	<RISK-BOUND>1.0</RISK-BOUND>
	<RISK-BOUND-RELAX-COST>0.0</RISK-BOUND-RELAX-COST>
	<EVENT-UNIT>millisecond</EVENT-UNIT>
	<DURATION-UNIT>minute</DURATION-UNIT>
	<CONSTRAINT>
		<START>13d1f4b3-1fb8-48d7-91e3-6171883e2d2b</START>
		<END>0dff17cf-bea2-400f-a2d0-88718c790527</END>
		<ID>a655b490-0a5f-4acd-b763-aa70f932237b</ID>
		<NAME>From 70081 to 70083 (Andrew - Outbound)</NAME>
		<LOWERBOUND>1.55</LOWERBOUND>
		<UPPERBOUND>2.35</UPPERBOUND>
		<LB-RELAX-COST-RATIO>0.0</LB-RELAX-COST-RATIO>
		<UB-RELAX-COST-RATIO>0.0</UB-RELAX-COST-RATIO>
		<COST>0.0</COST>
		<TYPE>Uncontrollable;Activity</TYPE>
		<MEAN>0.0</MEAN>
		<DISTRIBUTION>Normal</DISTRIBUTION>
		<VARIANCE>0.0</VARIANCE>
		<HISTORICAL-DURATIONS>
			<DURATION>1.55</DURATION>
			<DURATION>1.5666666666666667</DURATION>
			<DURATION>1.5666666666666667</DURATION>
			<DURATION>1.5833333333333333</DURATION>
			<DURATION>1.5833333333333333</DURATION>
			<DURATION>1.5833333333333333</DURATION>
			<DURATION>1.5833333333333333</DURATION>
			<DURATION>1.5833333333333333</DURATION>
			<DURATION>1.6</DURATION>
			<DURATION>1.6166666666666667</DURATION>
			<DURATION>1.6166666666666667</DURATION>
			<DURATION>1.6333333333333333</DURATION>
			<DURATION>1.65</DURATION>
			<DURATION>1.65</DURATION>
			<DURATION>1.65</DURATION>
			<DURATION>1.65</DURATION>
			<DURATION>1.65</DURATION>
			<DURATION>1.65</DURATION>
			<DURATION>1.65</DURATION>
			<DURATION>1.65</DURATION>
			<DURATION>1.65</DURATION>
			<DURATION>1.65</DURATION>
			<DURATION>1.6666666666666667</DURATION>
			<DURATION>1.6666666666666667</DURATION>
			<DURATION>1.6666666666666667</DURATION>
			<DURATION>1.6666666666666667</DURATION>
			<DURATION>1.6666666666666667</DURATION>
			<DURATION>1.6666666666666667</DURATION>
			<DURATION>1.6666666666666667</DURATION>
			<DURATION>1.6666666666666667</DURATION>
			<DURATION>1.6666666666666667</DURATION>
			<DURATION>1.6666666666666667</DURATION>
			<DURATION>1.6666666666666667</DURATION>
			<DURATION>1.6666666666666667</DURATION>
			<DURATION>1.6666666666666667</DURATION>
			<DURATION>1.6833333333333333</DURATION>
			<DURATION>1.6833333333333333</DURATION>
			<DURATION>1.6833333333333333</DURATION>
			<DURATION>1.6833333333333333</DURATION>
			<DURATION>1.6833333333333333</DURATION>
			<DURATION>1.6833333333333333</DURATION>
			<DURATION>1.6833333333333333</DURATION>
			<DURATION>1.6833333333333333</DURATION>
			<DURATION>1.6833333333333333</DURATION>
			<DURATION>1.6833333333333333</DURATION>
			<DURATION>1.6833333333333333</DURATION>
			<DURATION>1.6833333333333333</DURATION>
			<DURATION>1.6833333333333333</DURATION>
			<DURATION>1.6833333333333333</DURATION>
			<DURATION>1.6833333333333333</DURATION>
			<DURATION>1.6833333333333333</DURATION>
			<DURATION>1.7</DURATION>
			<DURATION>1.7</DURATION>
			<DURATION>1.7</DURATION>
			<DURATION>1.7</DURATION>
			<DURATION>1.7</DURATION>
			<DURATION>1.7</DURATION>
			<DURATION>1.7</DURATION>
			<DURATION>1.7</DURATION>
			<DURATION>1.7</DURATION>
			<DURATION>1.7</DURATION>
			<DURATION>1.7</DURATION>
			<DURATION>1.7</DURATION>
			<DURATION>1.7</DURATION>
			<DURATION>1.7</DURATION>
			<DURATION>1.7</DURATION>
			<DURATION>1.7</DURATION>
			<DURATION>1.7</DURATION>
			<DURATION>1.7</DURATION>
			<DURATION>1.7</DURATION>
			<DURATION>1.7</DURATION>
			<DURATION>1.7</DURATION>
			<DURATION>1.7</DURATION>
			<DURATION>1.7</DURATION>
			<DURATION>1.7166666666666666</DURATION>
			<DURATION>1.7166666666666666</DURATION>
			<DURATION>1.7166666666666666</DURATION>
			<DURATION>1.7166666666666666</DURATION>
			<DURATION>1.7166666666666666</DURATION>
			<DURATION>1.7166666666666666</DURATION>
			<DURATION>1.7166666666666666</DURATION>
			<DURATION>1.7166666666666666</DURATION>
			<DURATION>1.7166666666666666</DURATION>
			<DURATION>1.7166666666666666</DURATION>
			<DURATION>1.7166666666666666</DURATION>
			<DURATION>1.7166666666666666</DURATION>
			<DURATION>1.7166666666666666</DURATION>
			<DURATION>1.7166666666666666</DURATION>
			<DURATION>1.7166666666666666</DURATION>
			<DURATION>1.7166666666666666</DURATION>
			<DURATION>1.7166666666666666</DURATION>
			<DURATION>1.7166666666666666</DURATION>
			<DURATION>1.7166666666666666</DURATION>
			<DURATION>1.7166666666666666</DURATION>
			<DURATION>1.7166666666666666</DURATION>
			<DURATION>1.7166666666666666</DURATION>
			<DURATION>1.7166666666666666</DURATION>
			<DURATION>1.7166666666666666</DURATION>
			<DURATION>1.7166666666666666</DURATION>
			<DURATION>1.7166666666666666</DURATION>
			<DURATION>1.7166666666666666</DURATION>
			<DURATION>1.7166666666666666</DURATION>
			<DURATION>1.7333333333333334</DURATION>
			<DURATION>1.7333333333333334</DURATION>
			<DURATION>1.7333333333333334</DURATION>
			<DURATION>1.7333333333333334</DURATION>
			<DURATION>1.7333333333333334</DURATION>
			<DURATION>1.7333333333333334</DURATION>
			<DURATION>1.7333333333333334</DURATION>
			<DURATION>1.7333333333333334</DURATION>
			<DURATION>1.7333333333333334</DURATION>
			<DURATION>1.7333333333333334</DURATION>
			<DURATION>1.7333333333333334</DURATION>
			<DURATION>1.7333333333333334</DURATION>
			<DURATION>1.7333333333333334</DURATION>
			<DURATION>1.7333333333333334</DURATION>
			<DURATION>1.7333333333333334</DURATION>
			<DURATION>1.7333333333333334</DURATION>
			<DURATION>1.7333333333333334</DURATION>
			<DURATION>1.7333333333333334</DURATION>
			<DURATION>1.7333333333333334</DURATION>
			<DURATION>1.7333333333333334</DURATION>
			<DURATION>1.7333333333333334</DURATION>
			<DURATION>1.7333333333333334</DURATION>
			<DURATION>1.7333333333333334</DURATION>
			<DURATION>1.7333333333333334</DURATION>
			<DURATION>1.7333333333333334</DURATION>
			<DURATION>1.7333333333333334</DURATION>
			<DURATION>1.75</DURATION>
			<DURATION>1.75</DURATION>
			<DURATION>1.75</DURATION>
			<DURATION>1.75</DURATION>
			<DURATION>1.75</DURATION>
			<DURATION>1.75</DURATION>
			<DURATION>1.75</DURATION>
			<DURATION>1.75</DURATION>
			<DURATION>1.75</DURATION>
			<DURATION>1.75</DURATION>
			<DURATION>1.75</DURATION>
			<DURATION>1.75</DURATION>
			<DURATION>1.75</DURATION>
			<DURATION>1.75</DURATION>
			<DURATION>1.75</DURATION>
			<DURATION>1.75</DURATION>
			<DURATION>1.75</DURATION>
			<DURATION>1.75</DURATION>
			<DURATION>1.75</DURATION>
			<DURATION>1.75</DURATION>
			<DURATION>1.75</DURATION>
			<DURATION>1.75</DURATION>
			<DURATION>1.75</DURATION>
			<DURATION>1.75</DURATION>
			<DURATION>1.75</DURATION>
			<DURATION>1.75</DURATION>
			<DURATION>1.75</DURATION>
			<DURATION>1.75</DURATION>
			<DURATION>1.75</DURATION>
			<DURATION>1.75</DURATION>
			<DURATION>1.75</DURATION>
			<DURATION>1.75</DURATION>
			<DURATION>1.75</DURATION>
			<DURATION>1.75</DURATION>
			<DURATION>1.75</DURATION>
			<DURATION>1.7666666666666666</DURATION>
			<DURATION>1.7666666666666666</DURATION>
			<DURATION>1.7666666666666666</DURATION>
			<DURATION>1.7666666666666666</DURATION>
			<DURATION>1.7666666666666666</DURATION>
			<DURATION>1.7666666666666666</DURATION>
			<DURATION>1.7666666666666666</DURATION>
			<DURATION>1.7666666666666666</DURATION>
			<DURATION>1.7666666666666666</DURATION>
			<DURATION>1.7666666666666666</DURATION>
			<DURATION>1.7666666666666666</DURATION>
			<DURATION>1.7666666666666666</DURATION>
			<DURATION>1.7666666666666666</DURATION>
			<DURATION>1.7666666666666666</DURATION>
			<DURATION>1.7666666666666666</DURATION>
			<DURATION>1.7666666666666666</DURATION>
			<DURATION>1.7666666666666666</DURATION>
			<DURATION>1.7666666666666666</DURATION>
			<DURATION>1.7666666666666666</DURATION>
			<DURATION>1.7666666666666666</DURATION>
			<DURATION>1.7666666666666666</DURATION>
			<DURATION>1.7666666666666666</DURATION>
			<DURATION>1.7666666666666666</DURATION>
			<DURATION>1.7666666666666666</DURATION>
			<DURATION>1.7666666666666666</DURATION>
			<DURATION>1.7666666666666666</DURATION>
			<DURATION>1.7666666666666666</DURATION>
			<DURATION>1.7666666666666666</DURATION>
			<DURATION>1.7666666666666666</DURATION>
			<DURATION>1.7666666666666666</DURATION>
			<DURATION>1.7666666666666666</DURATION>
			<DURATION>1.7666666666666666</DURATION>
			<DURATION>1.7666666666666666</DURATION>
			<DURATION>1.7666666666666666</DURATION>
			<DURATION>1.7666666666666666</DURATION>
			<DURATION>1.7833333333333334</DURATION>
			<DURATION>1.7833333333333334</DURATION>
			<DURATION>1.7833333333333334</DURATION>
			<DURATION>1.7833333333333334</DURATION>
			<DURATION>1.7833333333333334</DURATION>
			<DURATION>1.7833333333333334</DURATION>
			<DURATION>1.7833333333333334</DURATION>
			<DURATION>1.7833333333333334</DURATION>
			<DURATION>1.7833333333333334</DURATION>
			<DURATION>1.7833333333333334</DURATION>
			<DURATION>1.7833333333333334</DURATION>
			<DURATION>1.7833333333333334</DURATION>
			<DURATION>1.7833333333333334</DURATION>
			<DURATION>1.7833333333333334</DURATION>
			<DURATION>1.7833333333333334</DURATION>
			<DURATION>1.7833333333333334</DURATION>
			<DURATION>1.7833333333333334</DURATION>
			<DURATION>1.7833333333333334</DURATION>
			<DURATION>1.7833333333333334</DURATION>
			<DURATION>1.7833333333333334</DURATION>
			<DURATION>1.7833333333333334</DURATION>
			<DURATION>1.7833333333333334</DURATION>
			<DURATION>1.7833333333333334</DURATION>
			<DURATION>1.7833333333333334</DURATION>
			<DURATION>1.8</DURATION>
			<DURATION>1.8</DURATION>
			<DURATION>1.8</DURATION>
			<DURATION>1.8</DURATION>
			<DURATION>1.8</DURATION>
			<DURATION>1.8</DURATION>
			<DURATION>1.8</DURATION>
			<DURATION>1.8</DURATION>
			<DURATION>1.8</DURATION>
			<DURATION>1.8</DURATION>
			<DURATION>1.8</DURATION>
			<DURATION>1.8</DURATION>
			<DURATION>1.8</DURATION>
			<DURATION>1.8</DURATION>
			<DURATION>1.8</DURATION>
			<DURATION>1.8</DURATION>
			<DURATION>1.8</DURATION>
			<DURATION>1.8</DURATION>
			<DURATION>1.8</DURATION>
			<DURATION>1.8</DURATION>
			<DURATION>1.8</DURATION>
			<DURATION>1.8</DURATION>
			<DURATION>1.8</DURATION>
			<DURATION>1.8</DURATION>
			<DURATION>1.8</DURATION>
			<DURATION>1.8</DURATION>
			<DURATION>1.8</DURATION>
			<DURATION>1.8</DURATION>
			<DURATION>1.8</DURATION>
			<DURATION>1.8166666666666667</DURATION>
			<DURATION>1.8166666666666667</DURATION>
			<DURATION>1.8166666666666667</DURATION>
			<DURATION>1.8166666666666667</DURATION>
			<DURATION>1.8166666666666667</DURATION>
			<DURATION>1.8166666666666667</DURATION>
			<DURATION>1.8166666666666667</DURATION>
			<DURATION>1.8166666666666667</DURATION>
			<DURATION>1.8166666666666667</DURATION>
			<DURATION>1.8166666666666667</DURATION>
			<DURATION>1.8166666666666667</DURATION>
			<DURATION>1.8166666666666667</DURATION>
			<DURATION>1.8166666666666667</DURATION>
			<DURATION>1.8166666666666667</DURATION>
			<DURATION>1.8166666666666667</DURATION>
			<DURATION>1.8166666666666667</DURATION>
			<DURATION>1.8166666666666667</DURATION>
			<DURATION>1.8166666666666667</DURATION>
			<DURATION>1.8166666666666667</DURATION>
			<DURATION>1.8166666666666667</DURATION>
			<DURATION>1.8166666666666667</DURATION>
			<DURATION>1.8166666666666667</DURATION>
			<DURATION>1.8166666666666667</DURATION>
			<DURATION>1.8333333333333333</DURATION>
			<DURATION>1.8333333333333333</DURATION>
			<DURATION>1.8333333333333333</DURATION>
			<DURATION>1.8333333333333333</DURATION>
			<DURATION>1.8333333333333333</DURATION>
			<DURATION>1.8333333333333333</DURATION>
			<DURATION>1.8333333333333333</DURATION>
			<DURATION>1.8333333333333333</DURATION>
			<DURATION>1.8333333333333333</DURATION>
			<DURATION>1.8333333333333333</DURATION>
			<DURATION>1.8333333333333333</DURATION>
			<DURATION>1.8333333333333333</DURATION>
			<DURATION>1.8333333333333333</DURATION>
			<DURATION>1.8333333333333333</DURATION>
			<DURATION>1.8333333333333333</DURATION>
			<DURATION>1.8333333333333333</DURATION>
			<DURATION>1.8333333333333333</DURATION>
			<DURATION>1.8333333333333333</DURATION>
			<DURATION>1.8333333333333333</DURATION>
			<DURATION>1.8333333333333333</DURATION>
			<DURATION>1.8333333333333333</DURATION>
			<DURATION>1.8333333333333333</DURATION>
			<DURATION>1.8333333333333333</DURATION>
			<DURATION>1.8333333333333333</DURATION>
			<DURATION>1.85</DURATION>
			<DURATION>1.85</DURATION>
			<DURATION>1.85</DURATION>
			<DURATION>1.85</DURATION>
			<DURATION>1.85</DURATION>
			<DURATION>1.85</DURATION>
			<DURATION>1.85</DURATION>
			<DURATION>1.85</DURATION>
			<DURATION>1.85</DURATION>
			<DURATION>1.85</DURATION>
			<DURATION>1.85</DURATION>
			<DURATION>1.85</DURATION>
			<DURATION>1.85</DURATION>
			<DURATION>1.85</DURATION>
			<DURATION>1.85</DURATION>
			<DURATION>1.85</DURATION>
			<DURATION>1.8666666666666667</DURATION>
			<DURATION>1.8666666666666667</DURATION>
			<DURATION>1.8666666666666667</DURATION>
			<DURATION>1.8666666666666667</DURATION>
			<DURATION>1.8666666666666667</DURATION>
			<DURATION>1.8666666666666667</DURATION>
			<DURATION>1.8666666666666667</DURATION>
			<DURATION>1.8666666666666667</DURATION>
			<DURATION>1.8666666666666667</DURATION>
			<DURATION>1.8666666666666667</DURATION>
			<DURATION>1.8833333333333333</DURATION>
			<DURATION>1.8833333333333333</DURATION>
			<DURATION>1.8833333333333333</DURATION>
			<DURATION>1.8833333333333333</DURATION>
			<DURATION>1.8833333333333333</DURATION>
			<DURATION>1.8833333333333333</DURATION>
			<DURATION>1.8833333333333333</DURATION>
			<DURATION>1.8833333333333333</DURATION>
			<DURATION>1.8833333333333333</DURATION>
			<DURATION>1.8833333333333333</DURATION>
			<DURATION>1.9</DURATION>
			<DURATION>1.9</DURATION>
			<DURATION>1.9</DURATION>
			<DURATION>1.9</DURATION>
			<DURATION>1.9</DURATION>
			<DURATION>1.9</DURATION>
			<DURATION>1.9</DURATION>
			<DURATION>1.9</DURATION>
			<DURATION>1.9</DURATION>
			<DURATION>1.9166666666666667</DURATION>
			<DURATION>1.9166666666666667</DURATION>
			<DURATION>1.9166666666666667</DURATION>
			<DURATION>1.9166666666666667</DURATION>
			<DURATION>1.9166666666666667</DURATION>
			<DURATION>1.9166666666666667</DURATION>
			<DURATION>1.9166666666666667</DURATION>
			<DURATION>1.9166666666666667</DURATION>
			<DURATION>1.9166666666666667</DURATION>
			<DURATION>1.9166666666666667</DURATION>
			<DURATION>1.9166666666666667</DURATION>
			<DURATION>1.9166666666666667</DURATION>
			<DURATION>1.9166666666666667</DURATION>
			<DURATION>1.9333333333333333</DURATION>
			<DURATION>1.9333333333333333</DURATION>
			<DURATION>1.9333333333333333</DURATION>
			<DURATION>1.9333333333333333</DURATION>
			<DURATION>1.9333333333333333</DURATION>
			<DURATION>1.95</DURATION>
			<DURATION>1.95</DURATION>
			<DURATION>1.95</DURATION>
			<DURATION>1.95</DURATION>
			<DURATION>1.95</DURATION>
			<DURATION>1.95</DURATION>
			<DURATION>1.95</DURATION>
			<DURATION>1.9666666666666666</DURATION>
			<DURATION>1.9666666666666666</DURATION>
			<DURATION>1.9666666666666666</DURATION>
			<DURATION>1.9666666666666666</DURATION>
			<DURATION>1.9666666666666666</DURATION>
			<DURATION>1.9666666666666666</DURATION>
			<DURATION>1.9666666666666666</DURATION>
			<DURATION>1.9666666666666666</DURATION>
			<DURATION>1.9833333333333334</DURATION>
			<DURATION>1.9833333333333334</DURATION>
			<DURATION>1.9833333333333334</DURATION>
			<DURATION>1.9833333333333334</DURATION>
			<DURATION>2.0</DURATION>
			<DURATION>2.0</DURATION>
			<DURATION>2.0</DURATION>
			<DURATION>2.0</DURATION>
			<DURATION>2.033333333333333</DURATION>
			<DURATION>2.05</DURATION>
			<DURATION>2.05</DURATION>
			<DURATION>2.05</DURATION>
			<DURATION>2.05</DURATION>
			<DURATION>2.066666666666667</DURATION>
			<DURATION>2.066666666666667</DURATION>
			<DURATION>2.066666666666667</DURATION>
			<DURATION>2.0833333333333335</DURATION>
			<DURATION>2.1</DURATION>
			<DURATION>2.1</DURATION>
			<DURATION>2.1</DURATION>
			<DURATION>2.1166666666666667</DURATION>
			<DURATION>2.1166666666666667</DURATION>
			<DURATION>2.1166666666666667</DURATION>
			<DURATION>2.1166666666666667</DURATION>
			<DURATION>2.1166666666666667</DURATION>
			<DURATION>2.1333333333333333</DURATION>
			<DURATION>2.1333333333333333</DURATION>
			<DURATION>2.1333333333333333</DURATION>
			<DURATION>2.15</DURATION>
			<DURATION>2.1666666666666665</DURATION>
			<DURATION>2.183333333333333</DURATION>
			<DURATION>2.2</DURATION>
			<DURATION>2.216666666666667</DURATION>
			<DURATION>2.283333333333333</DURATION>
			<DURATION>2.316666666666667</DURATION>
			<DURATION>2.35</DURATION>
			<DURATION>2.3666666666666667</DURATION>
			<DURATION>2.4</DURATION>
			<DURATION>2.433333333333333</DURATION>
			<DURATION>2.433333333333333</DURATION>
			<DURATION>4.083333333333333</DURATION>
			<DURATION>4.183333333333334</DURATION>
			<DURATION>4.533333333333333</DURATION>
			<DURATION>5.516666666666667</DURATION>
		</HISTORICAL-DURATIONS>
	</CONSTRAINT>
	<CONSTRAINT>
		<START>2feeb4d8-558e-43fc-9d8b-526e923d9c2d</START>
		<END>18d22b9b-374b-47b4-bd54-ddd1381f501f</END>
		<ID>c49fa001-0c70-4109-bb3e-75818f35387a</ID>
		<NAME>30453702 Wait for departure at 70067</NAME>
		<LOWERBOUND>0.0</LOWERBOUND>
		<UPPERBOUND>0.1</UPPERBOUND>
		<UBRELAXABLE>T</UBRELAXABLE>
		<LB-RELAX-COST-RATIO>0.0</LB-RELAX-COST-RATIO>
		<UB-RELAX-COST-RATIO>0.1</UB-RELAX-COST-RATIO>
		<COST>0.0</COST>
		<TYPE>Controllable;Constraint</TYPE>
		<MEAN>0.0</MEAN>
	</CONSTRAINT>
	<CONSTRAINT>
		<START>737987f4-e51d-4407-bf84-f34fba1baca0</START>
		<END>49985d25-4e6d-4541-912b-d43ddfb4c28a</END>
		<ID>aad0ab80-b7d4-44f9-bb17-a5ec27e481a7</ID>
		<NAME>30453832 Wait for departure at 70073</NAME>
		<LOWERBOUND>0.0</LOWERBOUND>
		<UPPERBOUND>0.1</UPPERBOUND>
		<UBRELAXABLE>T</UBRELAXABLE>
		<LB-RELAX-COST-RATIO>0.0</LB-RELAX-COST-RATIO>
		<UB-RELAX-COST-RATIO>0.1</UB-RELAX-COST-RATIO>
		<COST>0.0</COST>
		<TYPE>Controllable;Constraint</TYPE>
		<MEAN>0.0</MEAN>
	</CONSTRAINT>
	<CONSTRAINT>
		<START>9dd45617-bb0a-4a44-a63f-66b0fea332fa</START>
		<END>63704a11-dbb3-45d0-9f87-aa331842c72d</END>
		<ID>2ac3457d-378a-404d-8a00-5cf4c4a18c1f</ID>
		<NAME>Trip 30453702 Arrive at stop 70061 on 05:16</NAME>
		<LOWERBOUND>315.9</LOWERBOUND>
		<UPPERBOUND>316.1</UPPERBOUND>
		<LBRELAXABLE>T</LBRELAXABLE>
		<UBRELAXABLE>T</UBRELAXABLE>
		<LB-RELAX-COST-RATIO>10.0</LB-RELAX-COST-RATIO>
		<UB-RELAX-COST-RATIO>10.0</UB-RELAX-COST-RATIO>
		<COST>0.0</COST>
		<TYPE>Controllable;Constraint</TYPE>
		<MEAN>0.0</MEAN>
	</CONSTRAINT>
	<CONSTRAINT>
		<START>128b98bd-ab1a-4b2f-964b-88c5c1fcc4b8</START>
		<END>737987f4-e51d-4407-bf84-f34fba1baca0</END>
		<ID>265e1336-ac3b-4b01-b529-6b1b22f25126</ID>
		<NAME>Dwell at 70073 (Charles/MGH - Inbound)</NAME>
		<LOWERBOUND>0.45</LOWERBOUND>
		<UPPERBOUND>1.6333333333333333</UPPERBOUND>
		<LB-RELAX-COST-RATIO>0.0</LB-RELAX-COST-RATIO>
		<UB-RELAX-COST-RATIO>0.0</UB-RELAX-COST-RATIO>
		<COST>0.0</COST>
		<TYPE>Uncontrollable;Activity</TYPE>
		<MEAN>0.0</MEAN>
		<DISTRIBUTION>Normal</DISTRIBUTION>
		<VARIANCE>0.0</VARIANCE>
		<HISTORICAL-DURATIONS>
			<DURATION>0.45</DURATION>
			<DURATION>0.5833333333333334</DURATION>
			<DURATION>0.6</DURATION>
			<DURATION>0.6</DURATION>
			<DURATION>0.6166666666666667</DURATION>
			<DURATION>0.6166666666666667</DURATION>
			<DURATION>0.6333333333333333</DURATION>
			<DURATION>0.6333333333333333</DURATION>
			<DURATION>0.65</DURATION>
			<DURATION>0.65</DURATION>
			<DURATION>0.65</DURATION>
			<DURATION>0.65</DURATION>
			<DURATION>0.6666666666666666</DURATION>
			<DURATION>0.6666666666666666</DURATION>
			<DURATION>0.6666666666666666</DURATION>
			<DURATION>0.6666666666666666</DURATION>
			<DURATION>0.6666666666666666</DURATION>
			<DURATION>0.6666666666666666</DURATION>
			<DURATION>0.6666666666666666</DURATION>
			<DURATION>0.6833333333333333</DURATION>
			<DURATION>0.6833333333333333</DURATION>
			<DURATION>0.6833333333333333</DURATION>
			<DURATION>0.6833333333333333</DURATION>
			<DURATION>0.6833333333333333</DURATION>
			<DURATION>0.6833333333333333</DURATION>
			<DURATION>0.6833333333333333</DURATION>
			<DURATION>0.6833333333333333</DURATION>
			<DURATION>0.6833333333333333</DURATION>
			<DURATION>0.6833333333333333</DURATION>
			<DURATION>0.6833333333333333</DURATION>
			<DURATION>0.7</DURATION>
			<DURATION>0.7</DURATION>
			<DURATION>0.7</DURATION>
			<DURATION>0.7</DURATION>
			<DURATION>0.7</DURATION>
			<DURATION>0.7</DURATION>
			<DURATION>0.7</DURATION>
			<DURATION>0.7</DURATION>
			<DURATION>0.7</DURATION>
			<DURATION>0.7</DURATION>
			<DURATION>0.7</DURATION>
			<DURATION>0.7</DURATION>
			<DURATION>0.7166666666666667</DURATION>
			<DURATION>0.7166666666666667</DURATION>
			<DURATION>0.7166666666666667</DURATION>
			<DURATION>0.7166666666666667</DURATION>
			<DURATION>0.7166666666666667</DURATION>
			<DURATION>0.7166666666666667</DURATION>
			<DURATION>0.7166666666666667</DURATION>
			<DURATION>0.7166666666666667</DURATION>
			<DURATION>0.7166666666666667</DURATION>
			<DURATION>0.7166666666666667</DURATION>
			<DURATION>0.7166666666666667</DURATION>
			<DURATION>0.7166666666666667</DURATION>
			<DURATION>0.7166666666666667</DURATION>
			<DURATION>0.7166666666666667</DURATION>
			<DURATION>0.7166666666666667</DURATION>
			<DURATION>0.7166666666666667</DURATION>
			<DURATION>0.7166666666666667</DURATION>
			<DURATION>0.7166666666666667</DURATION>
			<DURATION>0.7166666666666667</DURATION>
			<DURATION>0.7166666666666667</DURATION>
			<DURATION>0.7333333333333333</DURATION>
			<DURATION>0.7333333333333333</DURATION>
			<DURATION>0.7333333333333333</DURATION>
			<DURATION>0.7333333333333333</DURATION>
			<DURATION>0.7333333333333333</DURATION>
			<DURATION>0.7333333333333333</DURATION>
			<DURATION>0.7333333333333333</DURATION>
			<DURATION>0.7333333333333333</DURATION>
			<DURATION>0.7333333333333333</DURATION>
			<DURATION>0.7333333333333333</DURATION>
			<DURATION>0.7333333333333333</DURATION>
			<DURATION>0.7333333333333333</DURATION>
			<DURATION>0.7333333333333333</DURATION>
			<DURATION>0.7333333333333333</DURATION>
			<DURATION>0.7333333333333333</DURATION>
			<DURATION>0.7333333333333333</DURATION>
			<DURATION>0.7333333333333333</DURATION>
			<DURATION>0.7333333333333333</DURATION>
			<DURATION>0.75</DURATION>
			<DURATION>0.75</DURATION>
			<DURATION>0.75</DURATION>
			<DURATION>0.75</DURATION>
			<DURATION>0.75</DURATION>
			<DURATION>0.75</DURATION>
			<DURATION>0.75</DURATION>
			<DURATION>0.75</DURATION>
			<DURATION>0.75</DURATION>
			<DURATION>0.75</DURATION>
			<DURATION>0.75</DURATION>
			<DURATION>0.75</DURATION>
			<DURATION>0.75</DURATION>
			<DURATION>0.75</DURATION>
			<DURATION>0.75</DURATION>
			<DURATION>0.75</DURATION>
			<DURATION>0.75</DURATION>
			<DURATION>0.75</DURATION>
			<DURATION>0.75</DURATION>
			<DURATION>0.75</DURATION>
			<DURATION>0.75</DURATION>
			<DURATION>0.75</DURATION>
			<DURATION>0.75</DURATION>
			<DURATION>0.75</DURATION>
			<DURATION>0.75</DURATION>
			<DURATION>0.75</DURATION>
			<DURATION>0.75</DURATION>
			<DURATION>0.75</DURATION>
			<DURATION>0.75</DURATION>
			<DURATION>0.75</DURATION>
			<DURATION>0.75</DURATION>
			<DURATION>0.75</DURATION>
			<DURATION>0.75</DURATION>
			<DURATION>0.7666666666666667</DURATION>
			<DURATION>0.7666666666666667</DURATION>
			<DURATION>0.7666666666666667</DURATION>
			<DURATION>0.7666666666666667</DURATION>
			<DURATION>0.7666666666666667</DURATION>
			<DURATION>0.7666666666666667</DURATION>
			<DURATION>0.7666666666666667</DURATION>
			<DURATION>0.7666666666666667</DURATION>
			<DURATION>0.7666666666666667</DURATION>
			<DURATION>0.7666666666666667</DURATION>
			<DURATION>0.7666666666666667</DURATION>
			<DURATION>0.7666666666666667</DURATION>
			<DURATION>0.7666666666666667</DURATION>
			<DURATION>0.7666666666666667</DURATION>
			<DURATION>0.7666666666666667</DURATION>
			<DURATION>0.7666666666666667</DURATION>
			<DURATION>0.7666666666666667</DURATION>
			<DURATION>0.7666666666666667</DURATION>
			<DURATION>0.7666666666666667</DURATION>
			<DURATION>0.7666666666666667</DURATION>
			<DURATION>0.7666666666666667</DURATION>
			<DURATION>0.7666666666666667</DURATION>
			<DURATION>0.7666666666666667</DURATION>
			<DURATION>0.7666666666666667</DURATION>
			<DURATION>0.7666666666666667</DURATION>
			<DURATION>0.7666666666666667</DURATION>
			<DURATION>0.7666666666666667</DURATION>
			<DURATION>0.7666666666666667</DURATION>
			<DURATION>0.7666666666666667</DURATION>
			<DURATION>0.7666666666666667</DURATION>
			<DURATION>0.7666666666666667</DURATION>
			<DURATION>0.7833333333333333</DURATION>
			<DURATION>0.7833333333333333</DURATION>
			<DURATION>0.7833333333333333</DURATION>
			<DURATION>0.7833333333333333</DURATION>
			<DURATION>0.7833333333333333</DURATION>
			<DURATION>0.7833333333333333</DURATION>
			<DURATION>0.7833333333333333</DURATION>
			<DURATION>0.7833333333333333</DURATION>
			<DURATION>0.7833333333333333</DURATION>
			<DURATION>0.7833333333333333</DURATION>
			<DURATION>0.7833333333333333</DURATION>
			<DURATION>0.7833333333333333</DURATION>
			<DURATION>0.7833333333333333</DURATION>
			<DURATION>0.7833333333333333</DURATION>
			<DURATION>0.7833333333333333</DURATION>
			<DURATION>0.7833333333333333</DURATION>
			<DURATION>0.7833333333333333</DURATION>
			<DURATION>0.7833333333333333</DURATION>
			<DURATION>0.7833333333333333</DURATION>
			<DURATION>0.7833333333333333</DURATION>
			<DURATION>0.7833333333333333</DURATION>
			<DURATION>0.7833333333333333</DURATION>
			<DURATION>0.7833333333333333</DURATION>
			<DURATION>0.7833333333333333</DURATION>
			<DURATION>0.7833333333333333</DURATION>
			<DURATION>0.7833333333333333</DURATION>
			<DURATION>0.7833333333333333</DURATION>
			<DURATION>0.7833333333333333</DURATION>
			<DURATION>0.7833333333333333</DURATION>
			<DURATION>0.7833333333333333</DURATION>
			<DURATION>0.7833333333333333</DURATION>
			<DURATION>0.7833333333333333</DURATION>
			<DURATION>0.7833333333333333</DURATION>
			<DURATION>0.7833333333333333</DURATION>
			<DURATION>0.8</DURATION>
			<DURATION>0.8</DURATION>
			<DURATION>0.8</DURATION>
			<DURATION>0.8</DURATION>
			<DURATION>0.8</DURATION>
			<DURATION>0.8</DURATION>
			<DURATION>0.8</DURATION>
			<DURATION>0.8</DURATION>
			<DURATION>0.8</DURATION>
			<DURATION>0.8</DURATION>
			<DURATION>0.8</DURATION>
			<DURATION>0.8</DURATION>
			<DURATION>0.8</DURATION>
			<DURATION>0.8</DURATION>
			<DURATION>0.8</DURATION>
			<DURATION>0.8</DURATION>
			<DURATION>0.8</DURATION>
			<DURATION>0.8</DURATION>
			<DURATION>0.8</DURATION>
			<DURATION>0.8</DURATION>
			<DURATION>0.8</DURATION>
			<DURATION>0.8</DURATION>
			<DURATION>0.8</DURATION>
			<DURATION>0.8</DURATION>
			<DURATION>0.8</DURATION>
			<DURATION>0.8</DURATION>
			<DURATION>0.8</DURATION>
			<DURATION>0.8</DURATION>
			<DURATION>0.8</DURATION>
			<DURATION>0.8</DURATION>
			<DURATION>0.8</DURATION>
			<DURATION>0.8</DURATION>
			<DURATION>0.8</DURATION>
			<DURATION>0.8</DURATION>
			<DURATION>0.8</DURATION>
			<DURATION>0.8</DURATION>
			<DURATION>0.8</DURATION>
			<DURATION>0.8166666666666667</DURATION>
			<DURATION>0.8166666666666667</DURATION>
			<DURATION>0.8166666666666667</DURATION>
			<DURATION>0.8166666666666667</DURATION>
			<DURATION>0.8166666666666667</DURATION>
			<DURATION>0.8166666666666667</DURATION>
			<DURATION>0.8166666666666667</DURATION>
			<DURATION>0.8166666666666667</DURATION>
			<DURATION>0.8166666666666667</DURATION>
			<DURATION>0.8166666666666667</DURATION>
			<DURATION>0.8166666666666667</DURATION>
			<DURATION>0.8166666666666667</DURATION>
			<DURATION>0.8166666666666667</DURATION>
			<DURATION>0.8166666666666667</DURATION>
			<DURATION>0.8166666666666667</DURATION>
			<DURATION>0.8166666666666667</DURATION>
			<DURATION>0.8166666666666667</DURATION>
			<DURATION>0.8166666666666667</DURATION>
			<DURATION>0.8166666666666667</DURATION>
			<DURATION>0.8166666666666667</DURATION>
			<DURATION>0.8166666666666667</DURATION>
			<DURATION>0.8166666666666667</DURATION>
			<DURATION>0.8166666666666667</DURATION>
			<DURATION>0.8166666666666667</DURATION>
			<DURATION>0.8166666666666667</DURATION>
			<DURATION>0.8166666666666667</DURATION>
			<DURATION>0.8166666666666667</DURATION>
			<DURATION>0.8166666666666667</DURATION>
			<DURATION>0.8333333333333334</DURATION>
			<DURATION>0.8333333333333334</DURATION>
			<DURATION>0.8333333333333334</DURATION>
			<DURATION>0.8333333333333334</DURATION>
			<DURATION>0.8333333333333334</DURATION>
			<DURATION>0.8333333333333334</DURATION>
			<DURATION>0.8333333333333334</DURATION>
			<DURATION>0.8333333333333334</DURATION>
			<DURATION>0.8333333333333334</DURATION>
			<DURATION>0.8333333333333334</DURATION>
			<DURATION>0.8333333333333334</DURATION>
			<DURATION>0.8333333333333334</DURATION>
			<DURATION>0.8333333333333334</DURATION>
			<DURATION>0.8333333333333334</DURATION>
			<DURATION>0.8333333333333334</DURATION>
			<DURATION>0.8333333333333334</DURATION>
			<DURATION>0.8333333333333334</DURATION>
			<DURATION>0.8333333333333334</DURATION>
			<DURATION>0.8333333333333334</DURATION>
			<DURATION>0.8333333333333334</DURATION>
			<DURATION>0.8333333333333334</DURATION>
			<DURATION>0.8333333333333334</DURATION>
			<DURATION>0.8333333333333334</DURATION>
			<DURATION>0.8333333333333334</DURATION>
			<DURATION>0.8333333333333334</DURATION>
			<DURATION>0.8333333333333334</DURATION>
			<DURATION>0.8333333333333334</DURATION>
			<DURATION>0.8333333333333334</DURATION>
			<DURATION>0.8333333333333334</DURATION>
			<DURATION>0.8333333333333334</DURATION>
			<DURATION>0.8333333333333334</DURATION>
			<DURATION>0.8333333333333334</DURATION>
			<DURATION>0.8333333333333334</DURATION>
			<DURATION>0.8333333333333334</DURATION>
			<DURATION>0.8333333333333334</DURATION>
			<DURATION>0.8333333333333334</DURATION>
			<DURATION>0.8333333333333334</DURATION>
			<DURATION>0.8333333333333334</DURATION>
			<DURATION>0.85</DURATION>
			<DURATION>0.85</DURATION>
			<DURATION>0.85</DURATION>
			<DURATION>0.85</DURATION>
			<DURATION>0.85</DURATION>
			<DURATION>0.85</DURATION>
			<DURATION>0.85</DURATION>
			<DURATION>0.85</DURATION>
			<DURATION>0.85</DURATION>
			<DURATION>0.85</DURATION>
			<DURATION>0.85</DURATION>
			<DURATION>0.85</DURATION>
			<DURATION>0.85</DURATION>
			<DURATION>0.85</DURATION>
			<DURATION>0.85</DURATION>
			<DURATION>0.85</DURATION>
			<DURATION>0.85</DURATION>
			<DURATION>0.85</DURATION>
			<DURATION>0.85</DURATION>
			<DURATION>0.85</DURATION>
			<DURATION>0.85</DURATION>
			<DURATION>0.85</DURATION>
			<DURATION>0.85</DURATION>
			<DURATION>0.85</DURATION>
			<DURATION>0.85</DURATION>
			<DURATION>0.85</DURATION>
			<DURATION>0.85</DURATION>
			<DURATION>0.85</DURATION>
			<DURATION>0.85</DURATION>
			<DURATION>0.85</DURATION>
			<DURATION>0.85</DURATION>
			<DURATION>0.85</DURATION>
			<DURATION>0.85</DURATION>
			<DURATION>0.85</DURATION>
			<DURATION>0.8666666666666667</DURATION>
			<DURATION>0.8666666666666667</DURATION>
			<DURATION>0.8666666666666667</DURATION>
			<DURATION>0.8666666666666667</DURATION>
			<DURATION>0.8666666666666667</DURATION>
			<DURATION>0.8666666666666667</DURATION>
			<DURATION>0.8666666666666667</DURATION>
			<DURATION>0.8666666666666667</DURATION>
			<DURATION>0.8666666666666667</DURATION>
			<DURATION>0.8666666666666667</DURATION>
			<DURATION>0.8666666666666667</DURATION>
			<DURATION>0.8666666666666667</DURATION>
			<DURATION>0.8666666666666667</DURATION>
			<DURATION>0.8666666666666667</DURATION>
			<DURATION>0.8666666666666667</DURATION>
			<DURATION>0.8666666666666667</DURATION>
			<DURATION>0.8666666666666667</DURATION>
			<DURATION>0.8666666666666667</DURATION>
			<DURATION>0.8666666666666667</DURATION>
			<DURATION>0.8666666666666667</DURATION>
			<DURATION>0.8666666666666667</DURATION>
			<DURATION>0.8666666666666667</DURATION>
			<DURATION>0.8666666666666667</DURATION>
			<DURATION>0.8666666666666667</DURATION>
			<DURATION>0.8666666666666667</DURATION>
			<DURATION>0.8666666666666667</DURATION>
			<DURATION>0.8666666666666667</DURATION>
			<DURATION>0.8833333333333333</DURATION>
			<DURATION>0.8833333333333333</DURATION>
			<DURATION>0.8833333333333333</DURATION>
			<DURATION>0.8833333333333333</DURATION>
			<DURATION>0.8833333333333333</DURATION>
			<DURATION>0.8833333333333333</DURATION>
			<DURATION>0.8833333333333333</DURATION>
			<DURATION>0.8833333333333333</DURATION>
			<DURATION>0.8833333333333333</DURATION>
			<DURATION>0.8833333333333333</DURATION>
			<DURATION>0.8833333333333333</DURATION>
			<DURATION>0.8833333333333333</DURATION>
			<DURATION>0.8833333333333333</DURATION>
			<DURATION>0.8833333333333333</DURATION>
			<DURATION>0.8833333333333333</DURATION>
			<DURATION>0.8833333333333333</DURATION>
			<DURATION>0.8833333333333333</DURATION>
			<DURATION>0.8833333333333333</DURATION>
			<DURATION>0.8833333333333333</DURATION>
			<DURATION>0.8833333333333333</DURATION>
			<DURATION>0.8833333333333333</DURATION>
			<DURATION>0.8833333333333333</DURATION>
			<DURATION>0.8833333333333333</DURATION>
			<DURATION>0.8833333333333333</DURATION>
			<DURATION>0.8833333333333333</DURATION>
			<DURATION>0.8833333333333333</DURATION>
			<DURATION>0.8833333333333333</DURATION>
			<DURATION>0.8833333333333333</DURATION>
			<DURATION>0.9</DURATION>
			<DURATION>0.9</DURATION>
			<DURATION>0.9</DURATION>
			<DURATION>0.9</DURATION>
			<DURATION>0.9</DURATION>
			<DURATION>0.9</DURATION>
			<DURATION>0.9</DURATION>
			<DURATION>0.9</DURATION>
			<DURATION>0.9</DURATION>
			<DURATION>0.9</DURATION>
			<DURATION>0.9</DURATION>
			<DURATION>0.9</DURATION>
			<DURATION>0.9</DURATION>
			<DURATION>0.9</DURATION>
			<DURATION>0.9</DURATION>
			<DURATION>0.9</DURATION>
			<DURATION>0.9</DURATION>
			<DURATION>0.9</DURATION>
			<DURATION>0.9</DURATION>
			<DURATION>0.9</DURATION>
			<DURATION>0.9</DURATION>
			<DURATION>0.9</DURATION>
			<DURATION>0.9</DURATION>
			<DURATION>0.9</DURATION>
			<DURATION>0.9</DURATION>
			<DURATION>0.9</DURATION>
			<DURATION>0.9</DURATION>
			<DURATION>0.9</DURATION>
			<DURATION>0.9</DURATION>
			<DURATION>0.9</DURATION>
			<DURATION>0.9</DURATION>
			<DURATION>0.9</DURATION>
			<DURATION>0.9</DURATION>
			<DURATION>0.9</DURATION>
			<DURATION>0.9166666666666666</DURATION>
			<DURATION>0.9166666666666666</DURATION>
			<DURATION>0.9166666666666666</DURATION>
			<DURATION>0.9166666666666666</DURATION>
			<DURATION>0.9166666666666666</DURATION>
			<DURATION>0.9166666666666666</DURATION>
			<DURATION>0.9166666666666666</DURATION>
			<DURATION>0.9166666666666666</DURATION>
			<DURATION>0.9166666666666666</DURATION>
			<DURATION>0.9166666666666666</DURATION>
			<DURATION>0.9166666666666666</DURATION>
			<DURATION>0.9166666666666666</DURATION>
			<DURATION>0.9166666666666666</DURATION>
			<DURATION>0.9166666666666666</DURATION>
			<DURATION>0.9166666666666666</DURATION>
			<DURATION>0.9166666666666666</DURATION>
			<DURATION>0.9333333333333333</DURATION>
			<DURATION>0.9333333333333333</DURATION>
			<DURATION>0.9333333333333333</DURATION>
			<DURATION>0.9333333333333333</DURATION>
			<DURATION>0.9333333333333333</DURATION>
			<DURATION>0.9333333333333333</DURATION>
			<DURATION>0.9333333333333333</DURATION>
			<DURATION>0.9333333333333333</DURATION>
			<DURATION>0.9333333333333333</DURATION>
			<DURATION>0.9333333333333333</DURATION>
			<DURATION>0.9333333333333333</DURATION>
			<DURATION>0.9333333333333333</DURATION>
			<DURATION>0.9333333333333333</DURATION>
			<DURATION>0.9333333333333333</DURATION>
			<DURATION>0.9333333333333333</DURATION>
			<DURATION>0.9333333333333333</DURATION>
			<DURATION>0.9333333333333333</DURATION>
			<DURATION>0.9333333333333333</DURATION>
			<DURATION>0.9333333333333333</DURATION>
			<DURATION>0.95</DURATION>
			<DURATION>0.95</DURATION>
			<DURATION>0.95</DURATION>
			<DURATION>0.95</DURATION>
			<DURATION>0.95</DURATION>
			<DURATION>0.95</DURATION>
			<DURATION>0.95</DURATION>
			<DURATION>0.95</DURATION>
			<DURATION>0.95</DURATION>
			<DURATION>0.95</DURATION>
			<DURATION>0.95</DURATION>
			<DURATION>0.95</DURATION>
			<DURATION>0.95</DURATION>
			<DURATION>0.95</DURATION>
			<DURATION>0.95</DURATION>
			<DURATION>0.95</DURATION>
			<DURATION>0.95</DURATION>
			<DURATION>0.95</DURATION>
			<DURATION>0.95</DURATION>
			<DURATION>0.95</DURATION>
			<DURATION>0.95</DURATION>
			<DURATION>0.95</DURATION>
			<DURATION>0.95</DURATION>
			<DURATION>0.95</DURATION>
			<DURATION>0.95</DURATION>
			<DURATION>0.95</DURATION>
			<DURATION>0.95</DURATION>
			<DURATION>0.95</DURATION>
			<DURATION>0.95</DURATION>
			<DURATION>0.95</DURATION>
			<DURATION>0.95</DURATION>
			<DURATION>0.95</DURATION>
			<DURATION>0.9666666666666667</DURATION>
			<DURATION>0.9666666666666667</DURATION>
			<DURATION>0.9666666666666667</DURATION>
			<DURATION>0.9666666666666667</DURATION>
			<DURATION>0.9666666666666667</DURATION>
			<DURATION>0.9666666666666667</DURATION>
			<DURATION>0.9666666666666667</DURATION>
			<DURATION>0.9666666666666667</DURATION>
			<DURATION>0.9666666666666667</DURATION>
			<DURATION>0.9666666666666667</DURATION>
			<DURATION>0.9666666666666667</DURATION>
			<DURATION>0.9833333333333333</DURATION>
			<DURATION>0.9833333333333333</DURATION>
			<DURATION>0.9833333333333333</DURATION>
			<DURATION>0.9833333333333333</DURATION>
			<DURATION>0.9833333333333333</DURATION>
			<DURATION>0.9833333333333333</DURATION>
			<DURATION>0.9833333333333333</DURATION>
			<DURATION>0.9833333333333333</DURATION>
			<DURATION>1.0</DURATION>
			<DURATION>1.0</DURATION>
			<DURATION>1.0</DURATION>
			<DURATION>1.0</DURATION>
			<DURATION>1.0</DURATION>
			<DURATION>1.0</DURATION>
			<DURATION>1.0</DURATION>
			<DURATION>1.0</DURATION>
			<DURATION>1.0</DURATION>
			<DURATION>1.0</DURATION>
			<DURATION>1.0</DURATION>
			<DURATION>1.0</DURATION>
			<DURATION>1.0</DURATION>
			<DURATION>1.0</DURATION>
			<DURATION>1.0</DURATION>
			<DURATION>1.0</DURATION>
			<DURATION>1.0</DURATION>
			<DURATION>1.0</DURATION>
			<DURATION>1.0166666666666666</DURATION>
			<DURATION>1.0166666666666666</DURATION>
			<DURATION>1.0166666666666666</DURATION>
			<DURATION>1.0166666666666666</DURATION>
			<DURATION>1.0166666666666666</DURATION>
			<DURATION>1.0166666666666666</DURATION>
			<DURATION>1.0166666666666666</DURATION>
			<DURATION>1.0166666666666666</DURATION>
			<DURATION>1.0166666666666666</DURATION>
			<DURATION>1.0166666666666666</DURATION>
			<DURATION>1.0166666666666666</DURATION>
			<DURATION>1.0166666666666666</DURATION>
			<DURATION>1.0333333333333334</DURATION>
			<DURATION>1.0333333333333334</DURATION>
			<DURATION>1.0333333333333334</DURATION>
			<DURATION>1.0333333333333334</DURATION>
			<DURATION>1.0333333333333334</DURATION>
			<DURATION>1.0333333333333334</DURATION>
			<DURATION>1.0333333333333334</DURATION>
			<DURATION>1.0333333333333334</DURATION>
			<DURATION>1.0333333333333334</DURATION>
			<DURATION>1.05</DURATION>
			<DURATION>1.05</DURATION>
			<DURATION>1.05</DURATION>
			<DURATION>1.05</DURATION>
			<DURATION>1.0666666666666667</DURATION>
			<DURATION>1.0666666666666667</DURATION>
			<DURATION>1.0666666666666667</DURATION>
			<DURATION>1.0666666666666667</DURATION>
			<DURATION>1.0666666666666667</DURATION>
			<DURATION>1.0666666666666667</DURATION>
			<DURATION>1.0666666666666667</DURATION>
			<DURATION>1.0833333333333333</DURATION>
			<DURATION>1.0833333333333333</DURATION>
			<DURATION>1.0833333333333333</DURATION>
			<DURATION>1.0833333333333333</DURATION>
			<DURATION>1.1</DURATION>
			<DURATION>1.1</DURATION>
			<DURATION>1.1</DURATION>
			<DURATION>1.1</DURATION>
			<DURATION>1.1</DURATION>
			<DURATION>1.1</DURATION>
			<DURATION>1.1166666666666667</DURATION>
			<DURATION>1.1166666666666667</DURATION>
			<DURATION>1.1333333333333333</DURATION>
			<DURATION>1.15</DURATION>
			<DURATION>1.15</DURATION>
			<DURATION>1.15</DURATION>
			<DURATION>1.1666666666666667</DURATION>
			<DURATION>1.1666666666666667</DURATION>
			<DURATION>1.1666666666666667</DURATION>
			<DURATION>1.1666666666666667</DURATION>
			<DURATION>1.1833333333333333</DURATION>
			<DURATION>1.1833333333333333</DURATION>
			<DURATION>1.2</DURATION>
			<DURATION>1.2166666666666666</DURATION>
			<DURATION>1.2166666666666666</DURATION>
			<DURATION>1.2166666666666666</DURATION>
			<DURATION>1.2333333333333334</DURATION>
			<DURATION>1.2333333333333334</DURATION>
			<DURATION>1.2333333333333334</DURATION>
			<DURATION>1.25</DURATION>
			<DURATION>1.25</DURATION>
			<DURATION>1.2833333333333334</DURATION>
			<DURATION>1.2833333333333334</DURATION>
			<DURATION>1.2833333333333334</DURATION>
			<DURATION>1.3</DURATION>
			<DURATION>1.3</DURATION>
			<DURATION>1.3</DURATION>
			<DURATION>1.3</DURATION>
			<DURATION>1.3</DURATION>
			<DURATION>1.3166666666666667</DURATION>
			<DURATION>1.3166666666666667</DURATION>
			<DURATION>1.35</DURATION>
			<DURATION>1.3666666666666667</DURATION>
			<DURATION>1.4</DURATION>
			<DURATION>1.4833333333333334</DURATION>
			<DURATION>1.5333333333333334</DURATION>
			<DURATION>1.6</DURATION>
			<DURATION>1.6</DURATION>
			<DURATION>1.6333333333333333</DURATION>
			<DURATION>1.6333333333333333</DURATION>
			<DURATION>1.7166666666666666</DURATION>
			<DURATION>1.8833333333333333</DURATION>
			<DURATION>2.1333333333333333</DURATION>
			<DURATION>2.2</DURATION>
			<DURATION>2.3</DURATION>
			<DURATION>2.4166666666666665</DURATION>
			<DURATION>2.816666666666667</DURATION>
			<DURATION>2.966666666666667</DURATION>
			<DURATION>3.9833333333333334</DURATION>
			<DURATION>4.366666666666666</DURATION>
			<DURATION>5.333333333333333</DURATION>
		</HISTORICAL-DURATIONS>
	</CONSTRAINT>
	<CONSTRAINT>
		<START>cfa965a5-980f-4ef7-9129-03c680a62a59</START>
		<END>7d899225-3c70-435e-bd4c-10152b35724a</END>
		<ID>7a203dca-fcef-4ff7-8f10-33b053fce2b8</ID>
		<NAME>From 70067 to 70069 (Central - Inbound)</NAME>
		<LOWERBOUND>1.0166666666666666</LOWERBOUND>
		<UPPERBOUND>2.683333333333333</UPPERBOUND>
		<LB-RELAX-COST-RATIO>0.0</LB-RELAX-COST-RATIO>
		<UB-RELAX-COST-RATIO>0.0</UB-RELAX-COST-RATIO>
		<COST>0.0</COST>
		<TYPE>Uncontrollable;Activity</TYPE>
		<MEAN>0.0</MEAN>
		<DISTRIBUTION>Normal</DISTRIBUTION>
		<VARIANCE>0.0</VARIANCE>
		<HISTORICAL-DURATIONS>
			<DURATION>1.0166666666666666</DURATION>
			<DURATION>1.0333333333333334</DURATION>
			<DURATION>2.05</DURATION>
			<DURATION>2.0833333333333335</DURATION>
			<DURATION>2.1</DURATION>
			<DURATION>2.1</DURATION>
			<DURATION>2.1166666666666667</DURATION>
			<DURATION>2.1166666666666667</DURATION>
			<DURATION>2.1166666666666667</DURATION>
			<DURATION>2.1166666666666667</DURATION>
			<DURATION>2.1166666666666667</DURATION>
			<DURATION>2.1166666666666667</DURATION>
			<DURATION>2.15</DURATION>
			<DURATION>2.1666666666666665</DURATION>
			<DURATION>2.1666666666666665</DURATION>
			<DURATION>2.183333333333333</DURATION>
			<DURATION>2.183333333333333</DURATION>
			<DURATION>2.183333333333333</DURATION>
			<DURATION>2.183333333333333</DURATION>
			<DURATION>2.2</DURATION>
			<DURATION>2.2</DURATION>
			<DURATION>2.2</DURATION>
			<DURATION>2.2</DURATION>
			<DURATION>2.2</DURATION>
			<DURATION>2.2</DURATION>
			<DURATION>2.2</DURATION>
			<DURATION>2.2</DURATION>
			<DURATION>2.2</DURATION>
			<DURATION>2.2</DURATION>
			<DURATION>2.2</DURATION>
			<DURATION>2.2</DURATION>
			<DURATION>2.2</DURATION>
			<DURATION>2.216666666666667</DURATION>
			<DURATION>2.216666666666667</DURATION>
			<DURATION>2.216666666666667</DURATION>
			<DURATION>2.216666666666667</DURATION>
			<DURATION>2.216666666666667</DURATION>
			<DURATION>2.216666666666667</DURATION>
			<DURATION>2.216666666666667</DURATION>
			<DURATION>2.216666666666667</DURATION>
			<DURATION>2.216666666666667</DURATION>
			<DURATION>2.216666666666667</DURATION>
			<DURATION>2.216666666666667</DURATION>
			<DURATION>2.216666666666667</DURATION>
			<DURATION>2.216666666666667</DURATION>
			<DURATION>2.216666666666667</DURATION>
			<DURATION>2.216666666666667</DURATION>
			<DURATION>2.216666666666667</DURATION>
			<DURATION>2.216666666666667</DURATION>
			<DURATION>2.216666666666667</DURATION>
			<DURATION>2.216666666666667</DURATION>
			<DURATION>2.216666666666667</DURATION>
			<DURATION>2.2333333333333334</DURATION>
			<DURATION>2.2333333333333334</DURATION>
			<DURATION>2.2333333333333334</DURATION>
			<DURATION>2.2333333333333334</DURATION>
			<DURATION>2.2333333333333334</DURATION>
			<DURATION>2.2333333333333334</DURATION>
			<DURATION>2.2333333333333334</DURATION>
			<DURATION>2.2333333333333334</DURATION>
			<DURATION>2.2333333333333334</DURATION>
			<DURATION>2.2333333333333334</DURATION>
			<DURATION>2.2333333333333334</DURATION>
			<DURATION>2.2333333333333334</DURATION>
			<DURATION>2.2333333333333334</DURATION>
			<DURATION>2.2333333333333334</DURATION>
			<DURATION>2.2333333333333334</DURATION>
			<DURATION>2.25</DURATION>
			<DURATION>2.25</DURATION>
			<DURATION>2.25</DURATION>
			<DURATION>2.25</DURATION>
			<DURATION>2.25</DURATION>
			<DURATION>2.25</DURATION>
			<DURATION>2.25</DURATION>
			<DURATION>2.25</DURATION>
			<DURATION>2.25</DURATION>
			<DURATION>2.25</DURATION>
			<DURATION>2.25</DURATION>
			<DURATION>2.25</DURATION>
			<DURATION>2.25</DURATION>
			<DURATION>2.25</DURATION>
			<DURATION>2.25</DURATION>
			<DURATION>2.25</DURATION>
			<DURATION>2.2666666666666666</DURATION>
			<DURATION>2.2666666666666666</DURATION>
			<DURATION>2.2666666666666666</DURATION>
			<DURATION>2.2666666666666666</DURATION>
			<DURATION>2.2666666666666666</DURATION>
			<DURATION>2.2666666666666666</DURATION>
			<DURATION>2.2666666666666666</DURATION>
			<DURATION>2.2666666666666666</DURATION>
			<DURATION>2.283333333333333</DURATION>
			<DURATION>2.283333333333333</DURATION>
			<DURATION>2.283333333333333</DURATION>
			<DURATION>2.283333333333333</DURATION>
			<DURATION>2.283333333333333</DURATION>
			<DURATION>2.283333333333333</DURATION>
			<DURATION>2.283333333333333</DURATION>
			<DURATION>2.3</DURATION>
			<DURATION>2.3</DURATION>
			<DURATION>2.3</DURATION>
			<DURATION>2.3</DURATION>
			<DURATION>2.3</DURATION>
			<DURATION>2.316666666666667</DURATION>
			<DURATION>2.316666666666667</DURATION>
			<DURATION>2.316666666666667</DURATION>
			<DURATION>2.316666666666667</DURATION>
			<DURATION>2.316666666666667</DURATION>
			<DURATION>2.316666666666667</DURATION>
			<DURATION>2.316666666666667</DURATION>
			<DURATION>2.316666666666667</DURATION>
			<DURATION>2.316666666666667</DURATION>
			<DURATION>2.3333333333333335</DURATION>
			<DURATION>2.3333333333333335</DURATION>
			<DURATION>2.3333333333333335</DURATION>
			<DURATION>2.3333333333333335</DURATION>
			<DURATION>2.3333333333333335</DURATION>
			<DURATION>2.3333333333333335</DURATION>
			<DURATION>2.3333333333333335</DURATION>
			<DURATION>2.3333333333333335</DURATION>
			<DURATION>2.35</DURATION>
			<DURATION>2.35</DURATION>
			<DURATION>2.35</DURATION>
			<DURATION>2.35</DURATION>
			<DURATION>2.35</DURATION>
			<DURATION>2.35</DURATION>
			<DURATION>2.35</DURATION>
			<DURATION>2.35</DURATION>
			<DURATION>2.35</DURATION>
			<DURATION>2.35</DURATION>
			<DURATION>2.35</DURATION>
			<DURATION>2.3666666666666667</DURATION>
			<DURATION>2.3666666666666667</DURATION>
			<DURATION>2.3666666666666667</DURATION>
			<DURATION>2.3666666666666667</DURATION>
			<DURATION>2.3666666666666667</DURATION>
			<DURATION>2.3666666666666667</DURATION>
			<DURATION>2.3666666666666667</DURATION>
			<DURATION>2.3666666666666667</DURATION>
			<DURATION>2.3666666666666667</DURATION>
			<DURATION>2.3666666666666667</DURATION>
			<DURATION>2.3666666666666667</DURATION>
			<DURATION>2.3833333333333333</DURATION>
			<DURATION>2.3833333333333333</DURATION>
			<DURATION>2.3833333333333333</DURATION>
			<DURATION>2.3833333333333333</DURATION>
			<DURATION>2.3833333333333333</DURATION>
			<DURATION>2.3833333333333333</DURATION>
			<DURATION>2.3833333333333333</DURATION>
			<DURATION>2.3833333333333333</DURATION>
			<DURATION>2.3833333333333333</DURATION>
			<DURATION>2.3833333333333333</DURATION>
			<DURATION>2.3833333333333333</DURATION>
			<DURATION>2.3833333333333333</DURATION>
			<DURATION>2.3833333333333333</DURATION>
			<DURATION>2.4</DURATION>
			<DURATION>2.4</DURATION>
			<DURATION>2.4</DURATION>
			<DURATION>2.4</DURATION>
			<DURATION>2.4</DURATION>
			<DURATION>2.4</DURATION>
			<DURATION>2.4</DURATION>
			<DURATION>2.4</DURATION>
			<DURATION>2.4</DURATION>
			<DURATION>2.4</DURATION>
			<DURATION>2.4</DURATION>
			<DURATION>2.4</DURATION>
			<DURATION>2.4</DURATION>
			<DURATION>2.4</DURATION>
			<DURATION>2.4</DURATION>
			<DURATION>2.4</DURATION>
			<DURATION>2.4</DURATION>
			<DURATION>2.4</DURATION>
			<DURATION>2.4</DURATION>
			<DURATION>2.4</DURATION>
			<DURATION>2.4</DURATION>
			<DURATION>2.4</DURATION>
			<DURATION>2.4</DURATION>
			<DURATION>2.4166666666666665</DURATION>
			<DURATION>2.4166666666666665</DURATION>
			<DURATION>2.4166666666666665</DURATION>
			<DURATION>2.4166666666666665</DURATION>
			<DURATION>2.4166666666666665</DURATION>
			<DURATION>2.4166666666666665</DURATION>
			<DURATION>2.4166666666666665</DURATION>
			<DURATION>2.4166666666666665</DURATION>
			<DURATION>2.4166666666666665</DURATION>
			<DURATION>2.4166666666666665</DURATION>
			<DURATION>2.4166666666666665</DURATION>
			<DURATION>2.4166666666666665</DURATION>
			<DURATION>2.4166666666666665</DURATION>
			<DURATION>2.4166666666666665</DURATION>
			<DURATION>2.4166666666666665</DURATION>
			<DURATION>2.4166666666666665</DURATION>
			<DURATION>2.433333333333333</DURATION>
			<DURATION>2.433333333333333</DURATION>
			<DURATION>2.433333333333333</DURATION>
			<DURATION>2.433333333333333</DURATION>
			<DURATION>2.433333333333333</DURATION>
			<DURATION>2.433333333333333</DURATION>
			<DURATION>2.433333333333333</DURATION>
			<DURATION>2.433333333333333</DURATION>
			<DURATION>2.433333333333333</DURATION>
			<DURATION>2.433333333333333</DURATION>
			<DURATION>2.433333333333333</DURATION>
			<DURATION>2.433333333333333</DURATION>
			<DURATION>2.433333333333333</DURATION>
			<DURATION>2.433333333333333</DURATION>
			<DURATION>2.433333333333333</DURATION>
			<DURATION>2.433333333333333</DURATION>
			<DURATION>2.433333333333333</DURATION>
			<DURATION>2.433333333333333</DURATION>
			<DURATION>2.433333333333333</DURATION>
			<DURATION>2.433333333333333</DURATION>
			<DURATION>2.433333333333333</DURATION>
			<DURATION>2.433333333333333</DURATION>
			<DURATION>2.433333333333333</DURATION>
			<DURATION>2.433333333333333</DURATION>
			<DURATION>2.433333333333333</DURATION>
			<DURATION>2.433333333333333</DURATION>
			<DURATION>2.433333333333333</DURATION>
			<DURATION>2.433333333333333</DURATION>
			<DURATION>2.433333333333333</DURATION>
			<DURATION>2.433333333333333</DURATION>
			<DURATION>2.433333333333333</DURATION>
			<DURATION>2.433333333333333</DURATION>
			<DURATION>2.433333333333333</DURATION>
			<DURATION>2.433333333333333</DURATION>
			<DURATION>2.45</DURATION>
			<DURATION>2.45</DURATION>
			<DURATION>2.45</DURATION>
			<DURATION>2.45</DURATION>
			<DURATION>2.45</DURATION>
			<DURATION>2.45</DURATION>
			<DURATION>2.45</DURATION>
			<DURATION>2.45</DURATION>
			<DURATION>2.45</DURATION>
			<DURATION>2.45</DURATION>
			<DURATION>2.45</DURATION>
			<DURATION>2.45</DURATION>
			<DURATION>2.45</DURATION>
			<DURATION>2.45</DURATION>
			<DURATION>2.45</DURATION>
			<DURATION>2.45</DURATION>
			<DURATION>2.45</DURATION>
			<DURATION>2.45</DURATION>
			<DURATION>2.45</DURATION>
			<DURATION>2.45</DURATION>
			<DURATION>2.45</DURATION>
			<DURATION>2.45</DURATION>
			<DURATION>2.45</DURATION>
			<DURATION>2.45</DURATION>
			<DURATION>2.45</DURATION>
			<DURATION>2.45</DURATION>
			<DURATION>2.45</DURATION>
			<DURATION>2.45</DURATION>
			<DURATION>2.45</DURATION>
			<DURATION>2.45</DURATION>
			<DURATION>2.45</DURATION>
			<DURATION>2.45</DURATION>
			<DURATION>2.45</DURATION>
			<DURATION>2.45</DURATION>
			<DURATION>2.45</DURATION>
			<DURATION>2.45</DURATION>
			<DURATION>2.45</DURATION>
			<DURATION>2.45</DURATION>
			<DURATION>2.45</DURATION>
			<DURATION>2.45</DURATION>
			<DURATION>2.45</DURATION>
			<DURATION>2.45</DURATION>
			<DURATION>2.45</DURATION>
			<DURATION>2.45</DURATION>
			<DURATION>2.45</DURATION>
			<DURATION>2.45</DURATION>
			<DURATION>2.45</DURATION>
			<DURATION>2.45</DURATION>
			<DURATION>2.466666666666667</DURATION>
			<DURATION>2.466666666666667</DURATION>
			<DURATION>2.466666666666667</DURATION>
			<DURATION>2.466666666666667</DURATION>
			<DURATION>2.466666666666667</DURATION>
			<DURATION>2.466666666666667</DURATION>
			<DURATION>2.466666666666667</DURATION>
			<DURATION>2.466666666666667</DURATION>
			<DURATION>2.466666666666667</DURATION>
			<DURATION>2.466666666666667</DURATION>
			<DURATION>2.466666666666667</DURATION>
			<DURATION>2.466666666666667</DURATION>
			<DURATION>2.466666666666667</DURATION>
			<DURATION>2.466666666666667</DURATION>
			<DURATION>2.466666666666667</DURATION>
			<DURATION>2.466666666666667</DURATION>
			<DURATION>2.466666666666667</DURATION>
			<DURATION>2.466666666666667</DURATION>
			<DURATION>2.466666666666667</DURATION>
			<DURATION>2.466666666666667</DURATION>
			<DURATION>2.466666666666667</DURATION>
			<DURATION>2.466666666666667</DURATION>
			<DURATION>2.466666666666667</DURATION>
			<DURATION>2.466666666666667</DURATION>
			<DURATION>2.466666666666667</DURATION>
			<DURATION>2.466666666666667</DURATION>
			<DURATION>2.466666666666667</DURATION>
			<DURATION>2.466666666666667</DURATION>
			<DURATION>2.466666666666667</DURATION>
			<DURATION>2.466666666666667</DURATION>
			<DURATION>2.466666666666667</DURATION>
			<DURATION>2.466666666666667</DURATION>
			<DURATION>2.466666666666667</DURATION>
			<DURATION>2.466666666666667</DURATION>
			<DURATION>2.466666666666667</DURATION>
			<DURATION>2.466666666666667</DURATION>
			<DURATION>2.466666666666667</DURATION>
			<DURATION>2.466666666666667</DURATION>
			<DURATION>2.466666666666667</DURATION>
			<DURATION>2.466666666666667</DURATION>
			<DURATION>2.466666666666667</DURATION>
			<DURATION>2.466666666666667</DURATION>
			<DURATION>2.466666666666667</DURATION>
			<DURATION>2.466666666666667</DURATION>
			<DURATION>2.466666666666667</DURATION>
			<DURATION>2.466666666666667</DURATION>
			<DURATION>2.466666666666667</DURATION>
			<DURATION>2.466666666666667</DURATION>
			<DURATION>2.466666666666667</DURATION>
			<DURATION>2.4833333333333334</DURATION>
			<DURATION>2.4833333333333334</DURATION>
			<DURATION>2.4833333333333334</DURATION>
			<DURATION>2.4833333333333334</DURATION>
			<DURATION>2.4833333333333334</DURATION>
			<DURATION>2.4833333333333334</DURATION>
			<DURATION>2.4833333333333334</DURATION>
			<DURATION>2.4833333333333334</DURATION>
			<DURATION>2.4833333333333334</DURATION>
			<DURATION>2.4833333333333334</DURATION>
			<DURATION>2.4833333333333334</DURATION>
			<DURATION>2.4833333333333334</DURATION>
			<DURATION>2.4833333333333334</DURATION>
			<DURATION>2.4833333333333334</DURATION>
			<DURATION>2.4833333333333334</DURATION>
			<DURATION>2.4833333333333334</DURATION>
			<DURATION>2.4833333333333334</DURATION>
			<DURATION>2.4833333333333334</DURATION>
			<DURATION>2.4833333333333334</DURATION>
			<DURATION>2.4833333333333334</DURATION>
			<DURATION>2.4833333333333334</DURATION>
			<DURATION>2.4833333333333334</DURATION>
			<DURATION>2.4833333333333334</DURATION>
			<DURATION>2.4833333333333334</DURATION>
			<DURATION>2.4833333333333334</DURATION>
			<DURATION>2.4833333333333334</DURATION>
			<DURATION>2.4833333333333334</DURATION>
			<DURATION>2.4833333333333334</DURATION>
			<DURATION>2.4833333333333334</DURATION>
			<DURATION>2.4833333333333334</DURATION>
			<DURATION>2.4833333333333334</DURATION>
			<DURATION>2.4833333333333334</DURATION>
			<DURATION>2.4833333333333334</DURATION>
			<DURATION>2.4833333333333334</DURATION>
			<DURATION>2.4833333333333334</DURATION>
			<DURATION>2.4833333333333334</DURATION>
			<DURATION>2.4833333333333334</DURATION>
			<DURATION>2.4833333333333334</DURATION>
			<DURATION>2.4833333333333334</DURATION>
			<DURATION>2.4833333333333334</DURATION>
			<DURATION>2.4833333333333334</DURATION>
			<DURATION>2.4833333333333334</DURATION>
			<DURATION>2.4833333333333334</DURATION>
			<DURATION>2.4833333333333334</DURATION>
			<DURATION>2.4833333333333334</DURATION>
			<DURATION>2.4833333333333334</DURATION>
			<DURATION>2.4833333333333334</DURATION>
			<DURATION>2.4833333333333334</DURATION>
			<DURATION>2.5</DURATION>
			<DURATION>2.5</DURATION>
			<DURATION>2.5</DURATION>
			<DURATION>2.5</DURATION>
			<DURATION>2.5</DURATION>
			<DURATION>2.5</DURATION>
			<DURATION>2.5</DURATION>
			<DURATION>2.5</DURATION>
			<DURATION>2.5</DURATION>
			<DURATION>2.5</DURATION>
			<DURATION>2.5</DURATION>
			<DURATION>2.5</DURATION>
			<DURATION>2.5</DURATION>
			<DURATION>2.5</DURATION>
			<DURATION>2.5</DURATION>
			<DURATION>2.5</DURATION>
			<DURATION>2.5</DURATION>
			<DURATION>2.5</DURATION>
			<DURATION>2.5</DURATION>
			<DURATION>2.5</DURATION>
			<DURATION>2.5</DURATION>
			<DURATION>2.5</DURATION>
			<DURATION>2.5</DURATION>
			<DURATION>2.5</DURATION>
			<DURATION>2.5</DURATION>
			<DURATION>2.5</DURATION>
			<DURATION>2.5</DURATION>
			<DURATION>2.5</DURATION>
			<DURATION>2.5</DURATION>
			<DURATION>2.5</DURATION>
			<DURATION>2.5</DURATION>
			<DURATION>2.5</DURATION>
			<DURATION>2.5</DURATION>
			<DURATION>2.5</DURATION>
			<DURATION>2.5</DURATION>
			<DURATION>2.5</DURATION>
			<DURATION>2.5</DURATION>
			<DURATION>2.5</DURATION>
			<DURATION>2.5</DURATION>
			<DURATION>2.5</DURATION>
			<DURATION>2.5166666666666666</DURATION>
			<DURATION>2.5166666666666666</DURATION>
			<DURATION>2.5166666666666666</DURATION>
			<DURATION>2.5166666666666666</DURATION>
			<DURATION>2.5166666666666666</DURATION>
			<DURATION>2.5166666666666666</DURATION>
			<DURATION>2.5166666666666666</DURATION>
			<DURATION>2.5166666666666666</DURATION>
			<DURATION>2.5166666666666666</DURATION>
			<DURATION>2.5166666666666666</DURATION>
			<DURATION>2.5166666666666666</DURATION>
			<DURATION>2.5166666666666666</DURATION>
			<DURATION>2.5166666666666666</DURATION>
			<DURATION>2.5166666666666666</DURATION>
			<DURATION>2.5166666666666666</DURATION>
			<DURATION>2.5166666666666666</DURATION>
			<DURATION>2.5166666666666666</DURATION>
			<DURATION>2.5166666666666666</DURATION>
			<DURATION>2.5166666666666666</DURATION>
			<DURATION>2.5166666666666666</DURATION>
			<DURATION>2.5166666666666666</DURATION>
			<DURATION>2.5166666666666666</DURATION>
			<DURATION>2.533333333333333</DURATION>
			<DURATION>2.533333333333333</DURATION>
			<DURATION>2.533333333333333</DURATION>
			<DURATION>2.533333333333333</DURATION>
			<DURATION>2.533333333333333</DURATION>
			<DURATION>2.533333333333333</DURATION>
			<DURATION>2.533333333333333</DURATION>
			<DURATION>2.533333333333333</DURATION>
			<DURATION>2.533333333333333</DURATION>
			<DURATION>2.533333333333333</DURATION>
			<DURATION>2.533333333333333</DURATION>
			<DURATION>2.533333333333333</DURATION>
			<DURATION>2.533333333333333</DURATION>
			<DURATION>2.533333333333333</DURATION>
			<DURATION>2.533333333333333</DURATION>
			<DURATION>2.533333333333333</DURATION>
			<DURATION>2.533333333333333</DURATION>
			<DURATION>2.533333333333333</DURATION>
			<DURATION>2.533333333333333</DURATION>
			<DURATION>2.533333333333333</DURATION>
			<DURATION>2.533333333333333</DURATION>
			<DURATION>2.55</DURATION>
			<DURATION>2.55</DURATION>
			<DURATION>2.55</DURATION>
			<DURATION>2.55</DURATION>
			<DURATION>2.55</DURATION>
			<DURATION>2.55</DURATION>
			<DURATION>2.55</DURATION>
			<DURATION>2.55</DURATION>
			<DURATION>2.55</DURATION>
			<DURATION>2.55</DURATION>
			<DURATION>2.55</DURATION>
			<DURATION>2.55</DURATION>
			<DURATION>2.55</DURATION>
			<DURATION>2.55</DURATION>
			<DURATION>2.55</DURATION>
			<DURATION>2.55</DURATION>
			<DURATION>2.55</DURATION>
			<DURATION>2.55</DURATION>
			<DURATION>2.55</DURATION>
			<DURATION>2.55</DURATION>
			<DURATION>2.55</DURATION>
			<DURATION>2.55</DURATION>
			<DURATION>2.55</DURATION>
			<DURATION>2.566666666666667</DURATION>
			<DURATION>2.566666666666667</DURATION>
			<DURATION>2.566666666666667</DURATION>
			<DURATION>2.566666666666667</DURATION>
			<DURATION>2.566666666666667</DURATION>
			<DURATION>2.566666666666667</DURATION>
			<DURATION>2.566666666666667</DURATION>
			<DURATION>2.566666666666667</DURATION>
			<DURATION>2.566666666666667</DURATION>
			<DURATION>2.566666666666667</DURATION>
			<DURATION>2.566666666666667</DURATION>
			<DURATION>2.566666666666667</DURATION>
			<DURATION>2.566666666666667</DURATION>
			<DURATION>2.566666666666667</DURATION>
			<DURATION>2.566666666666667</DURATION>
			<DURATION>2.566666666666667</DURATION>
			<DURATION>2.566666666666667</DURATION>
			<DURATION>2.566666666666667</DURATION>
			<DURATION>2.566666666666667</DURATION>
			<DURATION>2.566666666666667</DURATION>
			<DURATION>2.566666666666667</DURATION>
			<DURATION>2.5833333333333335</DURATION>
			<DURATION>2.5833333333333335</DURATION>
			<DURATION>2.5833333333333335</DURATION>
			<DURATION>2.5833333333333335</DURATION>
			<DURATION>2.5833333333333335</DURATION>
			<DURATION>2.5833333333333335</DURATION>
			<DURATION>2.5833333333333335</DURATION>
			<DURATION>2.5833333333333335</DURATION>
			<DURATION>2.5833333333333335</DURATION>
			<DURATION>2.5833333333333335</DURATION>
			<DURATION>2.6</DURATION>
			<DURATION>2.6</DURATION>
			<DURATION>2.6</DURATION>
			<DURATION>2.6</DURATION>
			<DURATION>2.6</DURATION>
			<DURATION>2.6</DURATION>
			<DURATION>2.6</DURATION>
			<DURATION>2.6</DURATION>
			<DURATION>2.6</DURATION>
			<DURATION>2.6</DURATION>
			<DURATION>2.6</DURATION>
			<DURATION>2.6</DURATION>
			<DURATION>2.6</DURATION>
			<DURATION>2.6166666666666667</DURATION>
			<DURATION>2.6166666666666667</DURATION>
			<DURATION>2.6166666666666667</DURATION>
			<DURATION>2.6166666666666667</DURATION>
			<DURATION>2.6166666666666667</DURATION>
			<DURATION>2.6166666666666667</DURATION>
			<DURATION>2.6166666666666667</DURATION>
			<DURATION>2.6166666666666667</DURATION>
			<DURATION>2.6333333333333333</DURATION>
			<DURATION>2.6333333333333333</DURATION>
			<DURATION>2.6333333333333333</DURATION>
			<DURATION>2.6333333333333333</DURATION>
			<DURATION>2.6333333333333333</DURATION>
			<DURATION>2.65</DURATION>
			<DURATION>2.65</DURATION>
			<DURATION>2.65</DURATION>
			<DURATION>2.65</DURATION>
			<DURATION>2.65</DURATION>
			<DURATION>2.6666666666666665</DURATION>
			<DURATION>2.6666666666666665</DURATION>
			<DURATION>2.6666666666666665</DURATION>
			<DURATION>2.6666666666666665</DURATION>
			<DURATION>2.6666666666666665</DURATION>
			<DURATION>2.683333333333333</DURATION>
			<DURATION>2.683333333333333</DURATION>
			<DURATION>2.7</DURATION>
			<DURATION>2.7</DURATION>
			<DURATION>2.716666666666667</DURATION>
			<DURATION>2.7666666666666666</DURATION>
			<DURATION>2.85</DURATION>
			<DURATION>3.0166666666666666</DURATION>
			<DURATION>3.1</DURATION>
			<DURATION>3.216666666666667</DURATION>
			<DURATION>3.5166666666666666</DURATION>
			<DURATION>3.8333333333333335</DURATION>
		</HISTORICAL-DURATIONS>
	</CONSTRAINT>
	<CONSTRAINT>
		<START>07d08eb5-5227-494d-944f-98025c7201d3</START>
		<END>100701f5-6c78-4c66-b56f-478ddcd4de91</END>
		<ID>e87419fc-b078-43b6-aab7-4a88cb4e6a1d</ID>
		<NAME>Dwell at 70079 (South Station - Outbound)</NAME>
		<LOWERBOUND>0.23333333333333334</LOWERBOUND>
		<UPPERBOUND>0.38333333333333336</UPPERBOUND>
		<LB-RELAX-COST-RATIO>0.0</LB-RELAX-COST-RATIO>
		<UB-RELAX-COST-RATIO>0.0</UB-RELAX-COST-RATIO>
		<COST>0.0</COST>
		<TYPE>Uncontrollable;Activity</TYPE>
		<MEAN>0.0</MEAN>
		<DISTRIBUTION>Normal</DISTRIBUTION>
		<VARIANCE>0.0</VARIANCE>
		<HISTORICAL-DURATIONS>
			<DURATION>0.23333333333333334</DURATION>
			<DURATION>0.23333333333333334</DURATION>
			<DURATION>0.23333333333333334</DURATION>
			<DURATION>0.23333333333333334</DURATION>
			<DURATION>0.23333333333333334</DURATION>
			<DURATION>0.23333333333333334</DURATION>
			<DURATION>0.23333333333333334</DURATION>
			<DURATION>0.23333333333333334</DURATION>
			<DURATION>0.23333333333333334</DURATION>
			<DURATION>0.23333333333333334</DURATION>
			<DURATION>0.25</DURATION>
			<DURATION>0.25</DURATION>
			<DURATION>0.25</DURATION>
			<DURATION>0.25</DURATION>
			<DURATION>0.25</DURATION>
			<DURATION>0.25</DURATION>
			<DURATION>0.25</DURATION>
			<DURATION>0.25</DURATION>
			<DURATION>0.25</DURATION>
			<DURATION>0.25</DURATION>
			<DURATION>0.25</DURATION>
			<DURATION>0.25</DURATION>
			<DURATION>0.25</DURATION>
			<DURATION>0.25</DURATION>
			<DURATION>0.25</DURATION>
			<DURATION>0.25</DURATION>
			<DURATION>0.25</DURATION>
			<DURATION>0.25</DURATION>
			<DURATION>0.25</DURATION>
			<DURATION>0.25</DURATION>
			<DURATION>0.25</DURATION>
			<DURATION>0.25</DURATION>
			<DURATION>0.25</DURATION>
			<DURATION>0.25</DURATION>
			<DURATION>0.25</DURATION>
			<DURATION>0.25</DURATION>
			<DURATION>0.25</DURATION>
			<DURATION>0.25</DURATION>
			<DURATION>0.25</DURATION>
			<DURATION>0.25</DURATION>
			<DURATION>0.25</DURATION>
			<DURATION>0.25</DURATION>
			<DURATION>0.25</DURATION>
			<DURATION>0.25</DURATION>
			<DURATION>0.25</DURATION>
			<DURATION>0.25</DURATION>
			<DURATION>0.25</DURATION>
			<DURATION>0.25</DURATION>
			<DURATION>0.25</DURATION>
			<DURATION>0.25</DURATION>
			<DURATION>0.25</DURATION>
			<DURATION>0.25</DURATION>
			<DURATION>0.25</DURATION>
			<DURATION>0.25</DURATION>
			<DURATION>0.25</DURATION>
			<DURATION>0.25</DURATION>
			<DURATION>0.25</DURATION>
			<DURATION>0.25</DURATION>
			<DURATION>0.25</DURATION>
			<DURATION>0.25</DURATION>
			<DURATION>0.25</DURATION>
			<DURATION>0.25</DURATION>
			<DURATION>0.25</DURATION>
			<DURATION>0.25</DURATION>
			<DURATION>0.25</DURATION>
			<DURATION>0.25</DURATION>
			<DURATION>0.25</DURATION>
			<DURATION>0.25</DURATION>
			<DURATION>0.25</DURATION>
			<DURATION>0.25</DURATION>
			<DURATION>0.25</DURATION>
			<DURATION>0.25</DURATION>
			<DURATION>0.25</DURATION>
			<DURATION>0.25</DURATION>
			<DURATION>0.25</DURATION>
			<DURATION>0.25</DURATION>
			<DURATION>0.25</DURATION>
			<DURATION>0.25</DURATION>
			<DURATION>0.25</DURATION>
			<DURATION>0.25</DURATION>
			<DURATION>0.25</DURATION>
			<DURATION>0.25</DURATION>
			<DURATION>0.25</DURATION>
			<DURATION>0.25</DURATION>
			<DURATION>0.25</DURATION>
			<DURATION>0.25</DURATION>
			<DURATION>0.25</DURATION>
			<DURATION>0.25</DURATION>
			<DURATION>0.25</DURATION>
			<DURATION>0.25</DURATION>
			<DURATION>0.25</DURATION>
			<DURATION>0.25</DURATION>
			<DURATION>0.25</DURATION>
			<DURATION>0.25</DURATION>
			<DURATION>0.25</DURATION>
			<DURATION>0.25</DURATION>
			<DURATION>0.26666666666666666</DURATION>
			<DURATION>0.26666666666666666</DURATION>
			<DURATION>0.26666666666666666</DURATION>
			<DURATION>0.26666666666666666</DURATION>
			<DURATION>0.26666666666666666</DURATION>
			<DURATION>0.26666666666666666</DURATION>
			<DURATION>0.26666666666666666</DURATION>
			<DURATION>0.26666666666666666</DURATION>
			<DURATION>0.26666666666666666</DURATION>
			<DURATION>0.26666666666666666</DURATION>
			<DURATION>0.26666666666666666</DURATION>
			<DURATION>0.26666666666666666</DURATION>
			<DURATION>0.26666666666666666</DURATION>
			<DURATION>0.26666666666666666</DURATION>
			<DURATION>0.26666666666666666</DURATION>
			<DURATION>0.26666666666666666</DURATION>
			<DURATION>0.26666666666666666</DURATION>
			<DURATION>0.26666666666666666</DURATION>
			<DURATION>0.26666666666666666</DURATION>
			<DURATION>0.26666666666666666</DURATION>
			<DURATION>0.26666666666666666</DURATION>
			<DURATION>0.26666666666666666</DURATION>
			<DURATION>0.26666666666666666</DURATION>
			<DURATION>0.26666666666666666</DURATION>
			<DURATION>0.26666666666666666</DURATION>
			<DURATION>0.26666666666666666</DURATION>
			<DURATION>0.26666666666666666</DURATION>
			<DURATION>0.26666666666666666</DURATION>
			<DURATION>0.26666666666666666</DURATION>
			<DURATION>0.26666666666666666</DURATION>
			<DURATION>0.26666666666666666</DURATION>
			<DURATION>0.26666666666666666</DURATION>
			<DURATION>0.26666666666666666</DURATION>
			<DURATION>0.26666666666666666</DURATION>
			<DURATION>0.26666666666666666</DURATION>
			<DURATION>0.26666666666666666</DURATION>
			<DURATION>0.26666666666666666</DURATION>
			<DURATION>0.26666666666666666</DURATION>
			<DURATION>0.26666666666666666</DURATION>
			<DURATION>0.26666666666666666</DURATION>
			<DURATION>0.26666666666666666</DURATION>
			<DURATION>0.26666666666666666</DURATION>
			<DURATION>0.26666666666666666</DURATION>
			<DURATION>0.26666666666666666</DURATION>
			<DURATION>0.26666666666666666</DURATION>
			<DURATION>0.26666666666666666</DURATION>
			<DURATION>0.26666666666666666</DURATION>
			<DURATION>0.26666666666666666</DURATION>
			<DURATION>0.26666666666666666</DURATION>
			<DURATION>0.26666666666666666</DURATION>
			<DURATION>0.26666666666666666</DURATION>
			<DURATION>0.26666666666666666</DURATION>
			<DURATION>0.26666666666666666</DURATION>
			<DURATION>0.26666666666666666</DURATION>
			<DURATION>0.26666666666666666</DURATION>
			<DURATION>0.26666666666666666</DURATION>
			<DURATION>0.26666666666666666</DURATION>
			<DURATION>0.26666666666666666</DURATION>
			<DURATION>0.26666666666666666</DURATION>
			<DURATION>0.26666666666666666</DURATION>
			<DURATION>0.26666666666666666</DURATION>
			<DURATION>0.26666666666666666</DURATION>
			<DURATION>0.26666666666666666</DURATION>
			<DURATION>0.26666666666666666</DURATION>
			<DURATION>0.26666666666666666</DURATION>
			<DURATION>0.26666666666666666</DURATION>
			<DURATION>0.26666666666666666</DURATION>
			<DURATION>0.26666666666666666</DURATION>
			<DURATION>0.26666666666666666</DURATION>
			<DURATION>0.26666666666666666</DURATION>
			<DURATION>0.26666666666666666</DURATION>
			<DURATION>0.26666666666666666</DURATION>
			<DURATION>0.26666666666666666</DURATION>
			<DURATION>0.26666666666666666</DURATION>
			<DURATION>0.26666666666666666</DURATION>
			<DURATION>0.26666666666666666</DURATION>
			<DURATION>0.26666666666666666</DURATION>
			<DURATION>0.26666666666666666</DURATION>
			<DURATION>0.26666666666666666</DURATION>
			<DURATION>0.26666666666666666</DURATION>
			<DURATION>0.26666666666666666</DURATION>
			<DURATION>0.26666666666666666</DURATION>
			<DURATION>0.26666666666666666</DURATION>
			<DURATION>0.26666666666666666</DURATION>
			<DURATION>0.26666666666666666</DURATION>
			<DURATION>0.26666666666666666</DURATION>
			<DURATION>0.26666666666666666</DURATION>
			<DURATION>0.26666666666666666</DURATION>
			<DURATION>0.26666666666666666</DURATION>
			<DURATION>0.26666666666666666</DURATION>
			<DURATION>0.26666666666666666</DURATION>
			<DURATION>0.26666666666666666</DURATION>
			<DURATION>0.26666666666666666</DURATION>
			<DURATION>0.26666666666666666</DURATION>
			<DURATION>0.26666666666666666</DURATION>
			<DURATION>0.26666666666666666</DURATION>
			<DURATION>0.26666666666666666</DURATION>
			<DURATION>0.26666666666666666</DURATION>
			<DURATION>0.26666666666666666</DURATION>
			<DURATION>0.26666666666666666</DURATION>
			<DURATION>0.26666666666666666</DURATION>
			<DURATION>0.26666666666666666</DURATION>
			<DURATION>0.26666666666666666</DURATION>
			<DURATION>0.26666666666666666</DURATION>
			<DURATION>0.26666666666666666</DURATION>
			<DURATION>0.26666666666666666</DURATION>
			<DURATION>0.26666666666666666</DURATION>
			<DURATION>0.26666666666666666</DURATION>
			<DURATION>0.26666666666666666</DURATION>
			<DURATION>0.26666666666666666</DURATION>
			<DURATION>0.26666666666666666</DURATION>
			<DURATION>0.26666666666666666</DURATION>
			<DURATION>0.26666666666666666</DURATION>
			<DURATION>0.26666666666666666</DURATION>
			<DURATION>0.26666666666666666</DURATION>
			<DURATION>0.26666666666666666</DURATION>
			<DURATION>0.26666666666666666</DURATION>
			<DURATION>0.26666666666666666</DURATION>
			<DURATION>0.26666666666666666</DURATION>
			<DURATION>0.26666666666666666</DURATION>
			<DURATION>0.26666666666666666</DURATION>
			<DURATION>0.26666666666666666</DURATION>
			<DURATION>0.26666666666666666</DURATION>
			<DURATION>0.26666666666666666</DURATION>
			<DURATION>0.26666666666666666</DURATION>
			<DURATION>0.26666666666666666</DURATION>
			<DURATION>0.26666666666666666</DURATION>
			<DURATION>0.26666666666666666</DURATION>
			<DURATION>0.26666666666666666</DURATION>
			<DURATION>0.26666666666666666</DURATION>
			<DURATION>0.26666666666666666</DURATION>
			<DURATION>0.26666666666666666</DURATION>
			<DURATION>0.26666666666666666</DURATION>
			<DURATION>0.26666666666666666</DURATION>
			<DURATION>0.26666666666666666</DURATION>
			<DURATION>0.26666666666666666</DURATION>
			<DURATION>0.26666666666666666</DURATION>
			<DURATION>0.26666666666666666</DURATION>
			<DURATION>0.26666666666666666</DURATION>
			<DURATION>0.26666666666666666</DURATION>
			<DURATION>0.26666666666666666</DURATION>
			<DURATION>0.26666666666666666</DURATION>
			<DURATION>0.26666666666666666</DURATION>
			<DURATION>0.26666666666666666</DURATION>
			<DURATION>0.26666666666666666</DURATION>
			<DURATION>0.26666666666666666</DURATION>
			<DURATION>0.26666666666666666</DURATION>
			<DURATION>0.26666666666666666</DURATION>
			<DURATION>0.26666666666666666</DURATION>
			<DURATION>0.26666666666666666</DURATION>
			<DURATION>0.26666666666666666</DURATION>
			<DURATION>0.26666666666666666</DURATION>
			<DURATION>0.26666666666666666</DURATION>
			<DURATION>0.26666666666666666</DURATION>
			<DURATION>0.26666666666666666</DURATION>
			<DURATION>0.26666666666666666</DURATION>
			<DURATION>0.26666666666666666</DURATION>
			<DURATION>0.26666666666666666</DURATION>
			<DURATION>0.26666666666666666</DURATION>
			<DURATION>0.26666666666666666</DURATION>
			<DURATION>0.26666666666666666</DURATION>
			<DURATION>0.26666666666666666</DURATION>
			<DURATION>0.26666666666666666</DURATION>
			<DURATION>0.26666666666666666</DURATION>
			<DURATION>0.26666666666666666</DURATION>
			<DURATION>0.26666666666666666</DURATION>
			<DURATION>0.26666666666666666</DURATION>
			<DURATION>0.2833333333333333</DURATION>
			<DURATION>0.2833333333333333</DURATION>
			<DURATION>0.2833333333333333</DURATION>
			<DURATION>0.2833333333333333</DURATION>
			<DURATION>0.2833333333333333</DURATION>
			<DURATION>0.2833333333333333</DURATION>
			<DURATION>0.2833333333333333</DURATION>
			<DURATION>0.2833333333333333</DURATION>
			<DURATION>0.2833333333333333</DURATION>
			<DURATION>0.2833333333333333</DURATION>
			<DURATION>0.2833333333333333</DURATION>
			<DURATION>0.2833333333333333</DURATION>
			<DURATION>0.2833333333333333</DURATION>
			<DURATION>0.2833333333333333</DURATION>
			<DURATION>0.2833333333333333</DURATION>
			<DURATION>0.2833333333333333</DURATION>
			<DURATION>0.2833333333333333</DURATION>
			<DURATION>0.2833333333333333</DURATION>
			<DURATION>0.2833333333333333</DURATION>
			<DURATION>0.2833333333333333</DURATION>
			<DURATION>0.2833333333333333</DURATION>
			<DURATION>0.2833333333333333</DURATION>
			<DURATION>0.2833333333333333</DURATION>
			<DURATION>0.2833333333333333</DURATION>
			<DURATION>0.2833333333333333</DURATION>
			<DURATION>0.2833333333333333</DURATION>
			<DURATION>0.2833333333333333</DURATION>
			<DURATION>0.2833333333333333</DURATION>
			<DURATION>0.2833333333333333</DURATION>
			<DURATION>0.2833333333333333</DURATION>
			<DURATION>0.2833333333333333</DURATION>
			<DURATION>0.2833333333333333</DURATION>
			<DURATION>0.2833333333333333</DURATION>
			<DURATION>0.2833333333333333</DURATION>
			<DURATION>0.2833333333333333</DURATION>
			<DURATION>0.2833333333333333</DURATION>
			<DURATION>0.2833333333333333</DURATION>
			<DURATION>0.2833333333333333</DURATION>
			<DURATION>0.2833333333333333</DURATION>
			<DURATION>0.2833333333333333</DURATION>
			<DURATION>0.2833333333333333</DURATION>
			<DURATION>0.2833333333333333</DURATION>
			<DURATION>0.2833333333333333</DURATION>
			<DURATION>0.2833333333333333</DURATION>
			<DURATION>0.2833333333333333</DURATION>
			<DURATION>0.2833333333333333</DURATION>
			<DURATION>0.2833333333333333</DURATION>
			<DURATION>0.2833333333333333</DURATION>
			<DURATION>0.2833333333333333</DURATION>
			<DURATION>0.2833333333333333</DURATION>
			<DURATION>0.2833333333333333</DURATION>
			<DURATION>0.2833333333333333</DURATION>
			<DURATION>0.2833333333333333</DURATION>
			<DURATION>0.2833333333333333</DURATION>
			<DURATION>0.2833333333333333</DURATION>
			<DURATION>0.2833333333333333</DURATION>
			<DURATION>0.2833333333333333</DURATION>
			<DURATION>0.2833333333333333</DURATION>
			<DURATION>0.2833333333333333</DURATION>
			<DURATION>0.2833333333333333</DURATION>
			<DURATION>0.2833333333333333</DURATION>
			<DURATION>0.2833333333333333</DURATION>
			<DURATION>0.2833333333333333</DURATION>
			<DURATION>0.2833333333333333</DURATION>
			<DURATION>0.2833333333333333</DURATION>
			<DURATION>0.2833333333333333</DURATION>
			<DURATION>0.2833333333333333</DURATION>
			<DURATION>0.2833333333333333</DURATION>
			<DURATION>0.2833333333333333</DURATION>
			<DURATION>0.2833333333333333</DURATION>
			<DURATION>0.2833333333333333</DURATION>
			<DURATION>0.2833333333333333</DURATION>
			<DURATION>0.2833333333333333</DURATION>
			<DURATION>0.2833333333333333</DURATION>
			<DURATION>0.2833333333333333</DURATION>
			<DURATION>0.2833333333333333</DURATION>
			<DURATION>0.2833333333333333</DURATION>
			<DURATION>0.2833333333333333</DURATION>
			<DURATION>0.2833333333333333</DURATION>
			<DURATION>0.2833333333333333</DURATION>
			<DURATION>0.2833333333333333</DURATION>
			<DURATION>0.2833333333333333</DURATION>
			<DURATION>0.2833333333333333</DURATION>
			<DURATION>0.2833333333333333</DURATION>
			<DURATION>0.2833333333333333</DURATION>
			<DURATION>0.2833333333333333</DURATION>
			<DURATION>0.2833333333333333</DURATION>
			<DURATION>0.2833333333333333</DURATION>
			<DURATION>0.2833333333333333</DURATION>
			<DURATION>0.2833333333333333</DURATION>
			<DURATION>0.2833333333333333</DURATION>
			<DURATION>0.2833333333333333</DURATION>
			<DURATION>0.2833333333333333</DURATION>
			<DURATION>0.2833333333333333</DURATION>
			<DURATION>0.2833333333333333</DURATION>
			<DURATION>0.2833333333333333</DURATION>
			<DURATION>0.2833333333333333</DURATION>
			<DURATION>0.2833333333333333</DURATION>
			<DURATION>0.2833333333333333</DURATION>
			<DURATION>0.2833333333333333</DURATION>
			<DURATION>0.2833333333333333</DURATION>
			<DURATION>0.2833333333333333</DURATION>
			<DURATION>0.2833333333333333</DURATION>
			<DURATION>0.2833333333333333</DURATION>
			<DURATION>0.2833333333333333</DURATION>
			<DURATION>0.2833333333333333</DURATION>
			<DURATION>0.2833333333333333</DURATION>
			<DURATION>0.2833333333333333</DURATION>
			<DURATION>0.2833333333333333</DURATION>
			<DURATION>0.2833333333333333</DURATION>
			<DURATION>0.2833333333333333</DURATION>
			<DURATION>0.2833333333333333</DURATION>
			<DURATION>0.2833333333333333</DURATION>
			<DURATION>0.2833333333333333</DURATION>
			<DURATION>0.2833333333333333</DURATION>
			<DURATION>0.2833333333333333</DURATION>
			<DURATION>0.2833333333333333</DURATION>
			<DURATION>0.2833333333333333</DURATION>
			<DURATION>0.2833333333333333</DURATION>
			<DURATION>0.2833333333333333</DURATION>
			<DURATION>0.2833333333333333</DURATION>
			<DURATION>0.2833333333333333</DURATION>
			<DURATION>0.2833333333333333</DURATION>
			<DURATION>0.2833333333333333</DURATION>
			<DURATION>0.2833333333333333</DURATION>
			<DURATION>0.2833333333333333</DURATION>
			<DURATION>0.2833333333333333</DURATION>
			<DURATION>0.2833333333333333</DURATION>
			<DURATION>0.2833333333333333</DURATION>
			<DURATION>0.2833333333333333</DURATION>
			<DURATION>0.3</DURATION>
			<DURATION>0.3</DURATION>
			<DURATION>0.3</DURATION>
			<DURATION>0.3</DURATION>
			<DURATION>0.3</DURATION>
			<DURATION>0.3</DURATION>
			<DURATION>0.3</DURATION>
			<DURATION>0.3</DURATION>
			<DURATION>0.3</DURATION>
			<DURATION>0.3</DURATION>
			<DURATION>0.3</DURATION>
			<DURATION>0.3</DURATION>
			<DURATION>0.3</DURATION>
			<DURATION>0.3</DURATION>
			<DURATION>0.3</DURATION>
			<DURATION>0.3</DURATION>
			<DURATION>0.3</DURATION>
			<DURATION>0.3</DURATION>
			<DURATION>0.3</DURATION>
			<DURATION>0.3</DURATION>
			<DURATION>0.3</DURATION>
			<DURATION>0.3</DURATION>
			<DURATION>0.3</DURATION>
			<DURATION>0.3</DURATION>
			<DURATION>0.3</DURATION>
			<DURATION>0.3</DURATION>
			<DURATION>0.3</DURATION>
			<DURATION>0.3</DURATION>
			<DURATION>0.3</DURATION>
			<DURATION>0.3</DURATION>
			<DURATION>0.3</DURATION>
			<DURATION>0.3</DURATION>
			<DURATION>0.3</DURATION>
			<DURATION>0.3</DURATION>
			<DURATION>0.3</DURATION>
			<DURATION>0.3</DURATION>
			<DURATION>0.3</DURATION>
			<DURATION>0.3</DURATION>
			<DURATION>0.3</DURATION>
			<DURATION>0.3</DURATION>
			<DURATION>0.3</DURATION>
			<DURATION>0.3</DURATION>
			<DURATION>0.3</DURATION>
			<DURATION>0.3</DURATION>
			<DURATION>0.3</DURATION>
			<DURATION>0.3</DURATION>
			<DURATION>0.3</DURATION>
			<DURATION>0.3</DURATION>
			<DURATION>0.3</DURATION>
			<DURATION>0.3</DURATION>
			<DURATION>0.3</DURATION>
			<DURATION>0.3</DURATION>
			<DURATION>0.3</DURATION>
			<DURATION>0.3</DURATION>
			<DURATION>0.3</DURATION>
			<DURATION>0.3</DURATION>
			<DURATION>0.3</DURATION>
			<DURATION>0.3</DURATION>
			<DURATION>0.3</DURATION>
			<DURATION>0.3</DURATION>
			<DURATION>0.3</DURATION>
			<DURATION>0.3</DURATION>
			<DURATION>0.3</DURATION>
			<DURATION>0.3</DURATION>
			<DURATION>0.3</DURATION>
			<DURATION>0.3</DURATION>
			<DURATION>0.3</DURATION>
			<DURATION>0.3</DURATION>
			<DURATION>0.3</DURATION>
			<DURATION>0.3</DURATION>
			<DURATION>0.3</DURATION>
			<DURATION>0.3</DURATION>
			<DURATION>0.3</DURATION>
			<DURATION>0.3</DURATION>
			<DURATION>0.31666666666666665</DURATION>
			<DURATION>0.31666666666666665</DURATION>
			<DURATION>0.31666666666666665</DURATION>
			<DURATION>0.31666666666666665</DURATION>
			<DURATION>0.31666666666666665</DURATION>
			<DURATION>0.31666666666666665</DURATION>
			<DURATION>0.31666666666666665</DURATION>
			<DURATION>0.31666666666666665</DURATION>
			<DURATION>0.31666666666666665</DURATION>
			<DURATION>0.31666666666666665</DURATION>
			<DURATION>0.31666666666666665</DURATION>
			<DURATION>0.31666666666666665</DURATION>
			<DURATION>0.31666666666666665</DURATION>
			<DURATION>0.31666666666666665</DURATION>
			<DURATION>0.31666666666666665</DURATION>
			<DURATION>0.31666666666666665</DURATION>
			<DURATION>0.31666666666666665</DURATION>
			<DURATION>0.31666666666666665</DURATION>
			<DURATION>0.31666666666666665</DURATION>
			<DURATION>0.31666666666666665</DURATION>
			<DURATION>0.31666666666666665</DURATION>
			<DURATION>0.31666666666666665</DURATION>
			<DURATION>0.31666666666666665</DURATION>
			<DURATION>0.31666666666666665</DURATION>
			<DURATION>0.31666666666666665</DURATION>
			<DURATION>0.31666666666666665</DURATION>
			<DURATION>0.31666666666666665</DURATION>
			<DURATION>0.31666666666666665</DURATION>
			<DURATION>0.31666666666666665</DURATION>
			<DURATION>0.31666666666666665</DURATION>
			<DURATION>0.31666666666666665</DURATION>
			<DURATION>0.31666666666666665</DURATION>
			<DURATION>0.31666666666666665</DURATION>
			<DURATION>0.31666666666666665</DURATION>
			<DURATION>0.31666666666666665</DURATION>
			<DURATION>0.31666666666666665</DURATION>
			<DURATION>0.31666666666666665</DURATION>
			<DURATION>0.31666666666666665</DURATION>
			<DURATION>0.31666666666666665</DURATION>
			<DURATION>0.31666666666666665</DURATION>
			<DURATION>0.31666666666666665</DURATION>
			<DURATION>0.31666666666666665</DURATION>
			<DURATION>0.31666666666666665</DURATION>
			<DURATION>0.31666666666666665</DURATION>
			<DURATION>0.3333333333333333</DURATION>
			<DURATION>0.3333333333333333</DURATION>
			<DURATION>0.3333333333333333</DURATION>
			<DURATION>0.3333333333333333</DURATION>
			<DURATION>0.3333333333333333</DURATION>
			<DURATION>0.3333333333333333</DURATION>
			<DURATION>0.3333333333333333</DURATION>
			<DURATION>0.3333333333333333</DURATION>
			<DURATION>0.3333333333333333</DURATION>
			<DURATION>0.3333333333333333</DURATION>
			<DURATION>0.3333333333333333</DURATION>
			<DURATION>0.3333333333333333</DURATION>
			<DURATION>0.3333333333333333</DURATION>
			<DURATION>0.3333333333333333</DURATION>
			<DURATION>0.3333333333333333</DURATION>
			<DURATION>0.3333333333333333</DURATION>
			<DURATION>0.3333333333333333</DURATION>
			<DURATION>0.3333333333333333</DURATION>
			<DURATION>0.3333333333333333</DURATION>
			<DURATION>0.3333333333333333</DURATION>
			<DURATION>0.3333333333333333</DURATION>
			<DURATION>0.3333333333333333</DURATION>
			<DURATION>0.3333333333333333</DURATION>
			<DURATION>0.3333333333333333</DURATION>
			<DURATION>0.3333333333333333</DURATION>
			<DURATION>0.3333333333333333</DURATION>
			<DURATION>0.3333333333333333</DURATION>
			<DURATION>0.3333333333333333</DURATION>
			<DURATION>0.3333333333333333</DURATION>
			<DURATION>0.3333333333333333</DURATION>
			<DURATION>0.3333333333333333</DURATION>
			<DURATION>0.35</DURATION>
			<DURATION>0.35</DURATION>
			<DURATION>0.35</DURATION>
			<DURATION>0.35</DURATION>
			<DURATION>0.35</DURATION>
			<DURATION>0.35</DURATION>
			<DURATION>0.35</DURATION>
			<DURATION>0.35</DURATION>
			<DURATION>0.35</DURATION>
			<DURATION>0.35</DURATION>
			<DURATION>0.35</DURATION>
			<DURATION>0.35</DURATION>
			<DURATION>0.35</DURATION>
			<DURATION>0.35</DURATION>
			<DURATION>0.35</DURATION>
			<DURATION>0.35</DURATION>
			<DURATION>0.35</DURATION>
			<DURATION>0.35</DURATION>
			<DURATION>0.35</DURATION>
			<DURATION>0.36666666666666664</DURATION>
			<DURATION>0.36666666666666664</DURATION>
			<DURATION>0.36666666666666664</DURATION>
			<DURATION>0.36666666666666664</DURATION>
			<DURATION>0.36666666666666664</DURATION>
			<DURATION>0.36666666666666664</DURATION>
			<DURATION>0.38333333333333336</DURATION>
			<DURATION>0.38333333333333336</DURATION>
			<DURATION>0.38333333333333336</DURATION>
			<DURATION>0.38333333333333336</DURATION>
			<DURATION>0.38333333333333336</DURATION>
			<DURATION>0.38333333333333336</DURATION>
			<DURATION>0.4</DURATION>
			<DURATION>0.4166666666666667</DURATION>
			<DURATION>0.43333333333333335</DURATION>
			<DURATION>0.45</DURATION>
			<DURATION>0.48333333333333334</DURATION>
			<DURATION>0.6</DURATION>
			<DURATION>0.8833333333333333</DURATION>
		</HISTORICAL-DURATIONS>
	</CONSTRAINT>
	<CONSTRAINT>
		<START>d1fcccc6-d649-4234-9068-1d0c8b2764a7</START>
		<END>ce3e9667-c4db-42e3-a0c2-ff4c7c52d2d0</END>
		<ID>f7d2c704-af4a-4fb6-98b3-e044b2209d4f</ID>
		<NAME>From 70071 to 70073 (Charles/MGH - Inbound)</NAME>
		<LOWERBOUND>0.9833333333333333</LOWERBOUND>
		<UPPERBOUND>2.3666666666666667</UPPERBOUND>
		<LB-RELAX-COST-RATIO>0.0</LB-RELAX-COST-RATIO>
		<UB-RELAX-COST-RATIO>0.0</UB-RELAX-COST-RATIO>
		<COST>0.0</COST>
		<TYPE>Uncontrollable;Activity</TYPE>
		<MEAN>0.0</MEAN>
		<DISTRIBUTION>Normal</DISTRIBUTION>
		<VARIANCE>0.0</VARIANCE>
		<HISTORICAL-DURATIONS>
			<DURATION>0.9833333333333333</DURATION>
			<DURATION>1.0333333333333334</DURATION>
			<DURATION>1.2333333333333334</DURATION>
			<DURATION>1.25</DURATION>
			<DURATION>1.2666666666666666</DURATION>
			<DURATION>1.2833333333333334</DURATION>
			<DURATION>1.4166666666666667</DURATION>
			<DURATION>1.4166666666666667</DURATION>
			<DURATION>1.4333333333333333</DURATION>
			<DURATION>1.4333333333333333</DURATION>
			<DURATION>1.4333333333333333</DURATION>
			<DURATION>1.4333333333333333</DURATION>
			<DURATION>1.4333333333333333</DURATION>
			<DURATION>1.4333333333333333</DURATION>
			<DURATION>1.4333333333333333</DURATION>
			<DURATION>1.4333333333333333</DURATION>
			<DURATION>1.4333333333333333</DURATION>
			<DURATION>1.4333333333333333</DURATION>
			<DURATION>1.45</DURATION>
			<DURATION>1.45</DURATION>
			<DURATION>1.45</DURATION>
			<DURATION>1.45</DURATION>
			<DURATION>1.45</DURATION>
			<DURATION>1.45</DURATION>
			<DURATION>1.45</DURATION>
			<DURATION>1.45</DURATION>
			<DURATION>1.45</DURATION>
			<DURATION>1.45</DURATION>
			<DURATION>1.45</DURATION>
			<DURATION>1.45</DURATION>
			<DURATION>1.45</DURATION>
			<DURATION>1.45</DURATION>
			<DURATION>1.45</DURATION>
			<DURATION>1.45</DURATION>
			<DURATION>1.45</DURATION>
			<DURATION>1.4666666666666666</DURATION>
			<DURATION>1.4666666666666666</DURATION>
			<DURATION>1.4666666666666666</DURATION>
			<DURATION>1.4666666666666666</DURATION>
			<DURATION>1.4666666666666666</DURATION>
			<DURATION>1.4666666666666666</DURATION>
			<DURATION>1.4666666666666666</DURATION>
			<DURATION>1.4666666666666666</DURATION>
			<DURATION>1.4666666666666666</DURATION>
			<DURATION>1.4666666666666666</DURATION>
			<DURATION>1.4666666666666666</DURATION>
			<DURATION>1.4666666666666666</DURATION>
			<DURATION>1.4666666666666666</DURATION>
			<DURATION>1.4666666666666666</DURATION>
			<DURATION>1.4666666666666666</DURATION>
			<DURATION>1.4666666666666666</DURATION>
			<DURATION>1.4666666666666666</DURATION>
			<DURATION>1.4666666666666666</DURATION>
			<DURATION>1.4666666666666666</DURATION>
			<DURATION>1.4666666666666666</DURATION>
			<DURATION>1.4666666666666666</DURATION>
			<DURATION>1.4666666666666666</DURATION>
			<DURATION>1.4666666666666666</DURATION>
			<DURATION>1.4666666666666666</DURATION>
			<DURATION>1.4666666666666666</DURATION>
			<DURATION>1.4666666666666666</DURATION>
			<DURATION>1.4666666666666666</DURATION>
			<DURATION>1.4666666666666666</DURATION>
			<DURATION>1.4666666666666666</DURATION>
			<DURATION>1.4666666666666666</DURATION>
			<DURATION>1.4833333333333334</DURATION>
			<DURATION>1.4833333333333334</DURATION>
			<DURATION>1.4833333333333334</DURATION>
			<DURATION>1.4833333333333334</DURATION>
			<DURATION>1.4833333333333334</DURATION>
			<DURATION>1.4833333333333334</DURATION>
			<DURATION>1.4833333333333334</DURATION>
			<DURATION>1.4833333333333334</DURATION>
			<DURATION>1.4833333333333334</DURATION>
			<DURATION>1.4833333333333334</DURATION>
			<DURATION>1.4833333333333334</DURATION>
			<DURATION>1.4833333333333334</DURATION>
			<DURATION>1.4833333333333334</DURATION>
			<DURATION>1.4833333333333334</DURATION>
			<DURATION>1.4833333333333334</DURATION>
			<DURATION>1.4833333333333334</DURATION>
			<DURATION>1.4833333333333334</DURATION>
			<DURATION>1.4833333333333334</DURATION>
			<DURATION>1.4833333333333334</DURATION>
			<DURATION>1.4833333333333334</DURATION>
			<DURATION>1.4833333333333334</DURATION>
			<DURATION>1.4833333333333334</DURATION>
			<DURATION>1.4833333333333334</DURATION>
			<DURATION>1.4833333333333334</DURATION>
			<DURATION>1.4833333333333334</DURATION>
			<DURATION>1.4833333333333334</DURATION>
			<DURATION>1.4833333333333334</DURATION>
			<DURATION>1.4833333333333334</DURATION>
			<DURATION>1.4833333333333334</DURATION>
			<DURATION>1.4833333333333334</DURATION>
			<DURATION>1.4833333333333334</DURATION>
			<DURATION>1.4833333333333334</DURATION>
			<DURATION>1.4833333333333334</DURATION>
			<DURATION>1.4833333333333334</DURATION>
			<DURATION>1.4833333333333334</DURATION>
			<DURATION>1.4833333333333334</DURATION>
			<DURATION>1.4833333333333334</DURATION>
			<DURATION>1.4833333333333334</DURATION>
			<DURATION>1.4833333333333334</DURATION>
			<DURATION>1.4833333333333334</DURATION>
			<DURATION>1.4833333333333334</DURATION>
			<DURATION>1.4833333333333334</DURATION>
			<DURATION>1.5</DURATION>
			<DURATION>1.5</DURATION>
			<DURATION>1.5</DURATION>
			<DURATION>1.5</DURATION>
			<DURATION>1.5</DURATION>
			<DURATION>1.5</DURATION>
			<DURATION>1.5</DURATION>
			<DURATION>1.5</DURATION>
			<DURATION>1.5</DURATION>
			<DURATION>1.5</DURATION>
			<DURATION>1.5</DURATION>
			<DURATION>1.5</DURATION>
			<DURATION>1.5</DURATION>
			<DURATION>1.5</DURATION>
			<DURATION>1.5</DURATION>
			<DURATION>1.5</DURATION>
			<DURATION>1.5</DURATION>
			<DURATION>1.5</DURATION>
			<DURATION>1.5</DURATION>
			<DURATION>1.5</DURATION>
			<DURATION>1.5</DURATION>
			<DURATION>1.5</DURATION>
			<DURATION>1.5</DURATION>
			<DURATION>1.5</DURATION>
			<DURATION>1.5</DURATION>
			<DURATION>1.5</DURATION>
			<DURATION>1.5</DURATION>
			<DURATION>1.5</DURATION>
			<DURATION>1.5</DURATION>
			<DURATION>1.5</DURATION>
			<DURATION>1.5</DURATION>
			<DURATION>1.5</DURATION>
			<DURATION>1.5</DURATION>
			<DURATION>1.5</DURATION>
			<DURATION>1.5</DURATION>
			<DURATION>1.5</DURATION>
			<DURATION>1.5</DURATION>
			<DURATION>1.5</DURATION>
			<DURATION>1.5</DURATION>
			<DURATION>1.5</DURATION>
			<DURATION>1.5</DURATION>
			<DURATION>1.5</DURATION>
			<DURATION>1.5</DURATION>
			<DURATION>1.5</DURATION>
			<DURATION>1.5166666666666666</DURATION>
			<DURATION>1.5166666666666666</DURATION>
			<DURATION>1.5166666666666666</DURATION>
			<DURATION>1.5166666666666666</DURATION>
			<DURATION>1.5166666666666666</DURATION>
			<DURATION>1.5166666666666666</DURATION>
			<DURATION>1.5166666666666666</DURATION>
			<DURATION>1.5166666666666666</DURATION>
			<DURATION>1.5166666666666666</DURATION>
			<DURATION>1.5166666666666666</DURATION>
			<DURATION>1.5166666666666666</DURATION>
			<DURATION>1.5166666666666666</DURATION>
			<DURATION>1.5166666666666666</DURATION>
			<DURATION>1.5166666666666666</DURATION>
			<DURATION>1.5166666666666666</DURATION>
			<DURATION>1.5166666666666666</DURATION>
			<DURATION>1.5166666666666666</DURATION>
			<DURATION>1.5166666666666666</DURATION>
			<DURATION>1.5166666666666666</DURATION>
			<DURATION>1.5166666666666666</DURATION>
			<DURATION>1.5166666666666666</DURATION>
			<DURATION>1.5166666666666666</DURATION>
			<DURATION>1.5166666666666666</DURATION>
			<DURATION>1.5166666666666666</DURATION>
			<DURATION>1.5166666666666666</DURATION>
			<DURATION>1.5166666666666666</DURATION>
			<DURATION>1.5166666666666666</DURATION>
			<DURATION>1.5166666666666666</DURATION>
			<DURATION>1.5166666666666666</DURATION>
			<DURATION>1.5166666666666666</DURATION>
			<DURATION>1.5166666666666666</DURATION>
			<DURATION>1.5166666666666666</DURATION>
			<DURATION>1.5166666666666666</DURATION>
			<DURATION>1.5166666666666666</DURATION>
			<DURATION>1.5166666666666666</DURATION>
			<DURATION>1.5166666666666666</DURATION>
			<DURATION>1.5166666666666666</DURATION>
			<DURATION>1.5166666666666666</DURATION>
			<DURATION>1.5166666666666666</DURATION>
			<DURATION>1.5166666666666666</DURATION>
			<DURATION>1.5166666666666666</DURATION>
			<DURATION>1.5166666666666666</DURATION>
			<DURATION>1.5166666666666666</DURATION>
			<DURATION>1.5166666666666666</DURATION>
			<DURATION>1.5166666666666666</DURATION>
			<DURATION>1.5166666666666666</DURATION>
			<DURATION>1.5166666666666666</DURATION>
			<DURATION>1.5166666666666666</DURATION>
			<DURATION>1.5166666666666666</DURATION>
			<DURATION>1.5166666666666666</DURATION>
			<DURATION>1.5166666666666666</DURATION>
			<DURATION>1.5166666666666666</DURATION>
			<DURATION>1.5166666666666666</DURATION>
			<DURATION>1.5166666666666666</DURATION>
			<DURATION>1.5166666666666666</DURATION>
			<DURATION>1.5166666666666666</DURATION>
			<DURATION>1.5166666666666666</DURATION>
			<DURATION>1.5166666666666666</DURATION>
			<DURATION>1.5166666666666666</DURATION>
			<DURATION>1.5166666666666666</DURATION>
			<DURATION>1.5166666666666666</DURATION>
			<DURATION>1.5166666666666666</DURATION>
			<DURATION>1.5166666666666666</DURATION>
			<DURATION>1.5166666666666666</DURATION>
			<DURATION>1.5166666666666666</DURATION>
			<DURATION>1.5166666666666666</DURATION>
			<DURATION>1.5166666666666666</DURATION>
			<DURATION>1.5166666666666666</DURATION>
			<DURATION>1.5166666666666666</DURATION>
			<DURATION>1.5166666666666666</DURATION>
			<DURATION>1.5166666666666666</DURATION>
			<DURATION>1.5166666666666666</DURATION>
			<DURATION>1.5166666666666666</DURATION>
			<DURATION>1.5166666666666666</DURATION>
			<DURATION>1.5166666666666666</DURATION>
			<DURATION>1.5166666666666666</DURATION>
			<DURATION>1.5166666666666666</DURATION>
			<DURATION>1.5166666666666666</DURATION>
			<DURATION>1.5166666666666666</DURATION>
			<DURATION>1.5166666666666666</DURATION>
			<DURATION>1.5166666666666666</DURATION>
			<DURATION>1.5333333333333334</DURATION>
			<DURATION>1.5333333333333334</DURATION>
			<DURATION>1.5333333333333334</DURATION>
			<DURATION>1.5333333333333334</DURATION>
			<DURATION>1.5333333333333334</DURATION>
			<DURATION>1.5333333333333334</DURATION>
			<DURATION>1.5333333333333334</DURATION>
			<DURATION>1.5333333333333334</DURATION>
			<DURATION>1.5333333333333334</DURATION>
			<DURATION>1.5333333333333334</DURATION>
			<DURATION>1.5333333333333334</DURATION>
			<DURATION>1.5333333333333334</DURATION>
			<DURATION>1.5333333333333334</DURATION>
			<DURATION>1.5333333333333334</DURATION>
			<DURATION>1.5333333333333334</DURATION>
			<DURATION>1.5333333333333334</DURATION>
			<DURATION>1.5333333333333334</DURATION>
			<DURATION>1.5333333333333334</DURATION>
			<DURATION>1.5333333333333334</DURATION>
			<DURATION>1.5333333333333334</DURATION>
			<DURATION>1.5333333333333334</DURATION>
			<DURATION>1.5333333333333334</DURATION>
			<DURATION>1.5333333333333334</DURATION>
			<DURATION>1.5333333333333334</DURATION>
			<DURATION>1.5333333333333334</DURATION>
			<DURATION>1.5333333333333334</DURATION>
			<DURATION>1.5333333333333334</DURATION>
			<DURATION>1.5333333333333334</DURATION>
			<DURATION>1.5333333333333334</DURATION>
			<DURATION>1.5333333333333334</DURATION>
			<DURATION>1.5333333333333334</DURATION>
			<DURATION>1.5333333333333334</DURATION>
			<DURATION>1.5333333333333334</DURATION>
			<DURATION>1.5333333333333334</DURATION>
			<DURATION>1.5333333333333334</DURATION>
			<DURATION>1.5333333333333334</DURATION>
			<DURATION>1.5333333333333334</DURATION>
			<DURATION>1.5333333333333334</DURATION>
			<DURATION>1.5333333333333334</DURATION>
			<DURATION>1.5333333333333334</DURATION>
			<DURATION>1.5333333333333334</DURATION>
			<DURATION>1.5333333333333334</DURATION>
			<DURATION>1.5333333333333334</DURATION>
			<DURATION>1.5333333333333334</DURATION>
			<DURATION>1.5333333333333334</DURATION>
			<DURATION>1.5333333333333334</DURATION>
			<DURATION>1.5333333333333334</DURATION>
			<DURATION>1.5333333333333334</DURATION>
			<DURATION>1.5333333333333334</DURATION>
			<DURATION>1.5333333333333334</DURATION>
			<DURATION>1.5333333333333334</DURATION>
			<DURATION>1.5333333333333334</DURATION>
			<DURATION>1.5333333333333334</DURATION>
			<DURATION>1.5333333333333334</DURATION>
			<DURATION>1.5333333333333334</DURATION>
			<DURATION>1.5333333333333334</DURATION>
			<DURATION>1.5333333333333334</DURATION>
			<DURATION>1.5333333333333334</DURATION>
			<DURATION>1.5333333333333334</DURATION>
			<DURATION>1.5333333333333334</DURATION>
			<DURATION>1.5333333333333334</DURATION>
			<DURATION>1.5333333333333334</DURATION>
			<DURATION>1.5333333333333334</DURATION>
			<DURATION>1.5333333333333334</DURATION>
			<DURATION>1.5333333333333334</DURATION>
			<DURATION>1.5333333333333334</DURATION>
			<DURATION>1.5333333333333334</DURATION>
			<DURATION>1.5333333333333334</DURATION>
			<DURATION>1.5333333333333334</DURATION>
			<DURATION>1.5333333333333334</DURATION>
			<DURATION>1.5333333333333334</DURATION>
			<DURATION>1.5333333333333334</DURATION>
			<DURATION>1.5333333333333334</DURATION>
			<DURATION>1.5333333333333334</DURATION>
			<DURATION>1.5333333333333334</DURATION>
			<DURATION>1.5333333333333334</DURATION>
			<DURATION>1.5333333333333334</DURATION>
			<DURATION>1.5333333333333334</DURATION>
			<DURATION>1.5333333333333334</DURATION>
			<DURATION>1.5333333333333334</DURATION>
			<DURATION>1.5333333333333334</DURATION>
			<DURATION>1.5333333333333334</DURATION>
			<DURATION>1.5333333333333334</DURATION>
			<DURATION>1.5333333333333334</DURATION>
			<DURATION>1.5333333333333334</DURATION>
			<DURATION>1.5333333333333334</DURATION>
			<DURATION>1.5333333333333334</DURATION>
			<DURATION>1.5333333333333334</DURATION>
			<DURATION>1.5333333333333334</DURATION>
			<DURATION>1.5333333333333334</DURATION>
			<DURATION>1.5333333333333334</DURATION>
			<DURATION>1.5333333333333334</DURATION>
			<DURATION>1.5333333333333334</DURATION>
			<DURATION>1.5333333333333334</DURATION>
			<DURATION>1.5333333333333334</DURATION>
			<DURATION>1.5333333333333334</DURATION>
			<DURATION>1.5333333333333334</DURATION>
			<DURATION>1.55</DURATION>
			<DURATION>1.55</DURATION>
			<DURATION>1.55</DURATION>
